-1.446303386924079115e+00 0.000000000000000000e+00 0.000000000000000000e+00 1.695308934824393728e-05 -4.871133458602119534e-04 2.328575152333022761e-03 4.723014097553502461e-02 3.610957400652988619e-02 3.035485328779541359e-02 1.186472637872442067e-02 -4.744167563355063642e-03 -1.444806985383953555e-03 1.576034450904578244e-03 1.744487061498177938e-03 4.551143485508070928e-03 -4.164542585885036910e-03 -1.177970516597659674e-02 1.847645573777325972e-03 1.701588573357138486e-04 -2.404853924403977907e-05 0.000000000000000000e+00 4.922504156361831433e-06 -1.619406923336565889e-04 7.219277009780894049e-04 6.263646403515365536e-03 -7.271243394776688920e-03 -1.573346113910118471e-01 3.655378542717045709e-04 1.933074636760197945e-02 -9.547735796773730577e-02 5.935831949187486689e-02 3.983870651646093108e-02 4.914652336095957745e-03 -6.193872983024789614e-04 -4.704345725523186722e-02 5.406364427337841116e-02 1.402764750938880201e-01 -7.384006575368067676e-03 3.561405642300626440e-04 -5.363325455297807869e-04 3.085786776153245274e-04 -5.329042648086313003e-05 1.922462638482731094e-03 -1.268208068598293548e-02 -4.005843643927176068e-02 1.188350304181595152e-01 -5.085504843543726256e-02 -1.182820858838543460e-01 1.057539232214777525e-01 -1.478705149380627748e-01 -4.581584233091851033e-01 -3.809412409107505448e-01 -4.939627591428042974e-01 -6.963071112553484987e-01 -4.701302802433058869e-01 -3.689043382467843135e-01 -2.802289755849823871e-01 -8.156948794132666547e-02 9.378099155881940152e-02 3.876883108643795067e-02 2.285178366757804370e-03 -1.069275673053742416e-04 5.296836063963354657e-03 -3.239671729290106994e-02 -1.699979755898874123e-01 -3.004949857703778093e-01 -1.100865522455048706e-01 -4.391215269162421914e-04 -8.954599690012021718e-02 -3.810767206442127186e-01 -7.786248480026785046e-01 4.304705084358910749e-01 -7.015761542603579648e-02 -3.297945343305448418e-01 3.088042288362533583e-01 -2.444704698817783961e-01 1.127323163152453012e-01 -3.494553544346544749e-01 -1.496675949492564106e-01 -2.335314009995656526e-01 -5.605088616020743181e-02 8.596926794716098445e-04 -8.913040124972175515e-03 2.707448239939550666e-02 1.399253601597397895e-02 -9.594526917844919955e-02 -1.802143345452172224e-02 1.742677311616810387e-01 -2.230217503101865062e-01 2.112858803087408199e-01 1.014855986229318829e-01 4.775340874022198645e-01 1.249939253938706085e-01 3.952843137895469816e-01 1.626617196916616825e-01 -4.706926080305012805e-01 3.646569468215312693e-01 4.813837337656675652e-01 -1.036032967668595595e-01 -3.673888727818466204e-01 -1.355022997162854403e-01 -2.016873891256691902e-03 8.664187335456202677e-02 1.601366220553205599e-01 2.483372502235876023e-01 2.611320525557948857e-02 5.057106694465357544e-02 1.022262858358986837e-02 -1.882784206689088746e-01 -5.175197473851757962e-02 1.411509896759392466e-03 -9.913571137662227639e-02 5.914978761618399083e-01 -2.635716591550730792e-01 7.339877489955886070e-01 -2.731574206967912199e-01 -2.080153245283927754e-02 -3.768896680791022358e-01 -2.640825938057840272e-01 -4.965504104758252657e-01 -2.396986730334195459e-01 1.827721668168798969e-02 -1.199952702548992001e-01 -2.854838053978204782e-01 -1.982795669942844785e-01 -3.671194600371553429e-01 1.342266413146458448e-01 -1.883852244291605582e-01 1.616815534806478882e-01 6.384732038263365994e-02 6.732159764656495127e-02 7.102091340717461843e-02 4.525220614147428821e-01 -7.497101485065515991e-02 2.337245243930124172e-01 -5.628850930592363411e-02 2.395629558494115630e-01 1.799088902387458444e-01 -2.270210145074469388e-01 -1.866280409364944881e-01 -3.740424052725400683e-01 -1.160311605346562268e-02 -3.677736156556987157e-01 -1.342848181581466627e-01 -6.396600699081743391e-02 9.204277826198439816e-02 8.319646042801817631e-02 7.407589906728834217e-02 8.151426137531586624e-02 -3.472302480330263785e-02 1.808290799102562629e-01 6.158383738292101395e-01 -2.817397408758969268e-01 1.037309634948006820e-01 -1.386926632885998323e-01 1.602727462845262851e-01 2.213019109191696754e-01 -1.443361612577712116e-01 -2.038438568800007150e-02 -4.757904716887927377e-01 -3.358612757045676966e-01 -4.729038686253140417e-02 -8.326408680038160925e-02 -2.191586743403973747e-01 -3.062270931116017336e-01 -3.366746827998022829e-01 7.346965282584666523e-02 -2.480369041136835651e-01 2.522437507440600246e-02 1.001735191336308589e-01 -2.395626100392008184e-01 -1.291474872610810787e-01 -1.200277472450799326e-01 2.119774312263778548e-01 -4.120531318525150200e-02 1.884639823081783461e-01 -1.133291041493948853e-01 4.565031175394475005e-01 -2.419201719080630308e-01 -4.764092657655353835e-01 -2.639806307204005664e-01 1.475895491497404219e-02 2.144625355014073975e-01 1.378591835206504079e-01 2.997674980514123955e-01 1.841857359709253850e-01 1.892302356621544113e-01 1.896361061174246521e-01 4.078185007230146486e-02 -9.048154682102557689e-02 -1.623615844116790552e-01 -1.211368871834317407e-01 -3.562701143000487347e-01 -4.573792232960899873e-01 -2.390877202805373469e-01 3.477909910318761066e-01 -2.013107743897323276e-01 4.450882974855598917e-01 -2.268024816893475792e-01 -2.326193499020267341e-01 -4.311028205835116811e-01 -7.213689061378335265e-02 1.070963872260023153e-01 -4.483196202617416998e-02 1.294743838047247575e-01 -4.091529912039477274e-02 1.321279704882228068e-01 2.422903795819554285e-01 3.555258110829032647e-01 -6.344469634703827632e-01 -2.337709380183464192e-01 -4.480835341799339622e-01 -2.763383205100791717e-01 -2.258921484079940423e-01 -6.005927011790448966e-02 -4.653054992084981051e-02 1.019261584505846557e-01 1.418406215093219111e-02 3.452721915504398942e-02 -4.979128699423143178e-01 -4.220456771328305878e-01 -1.208136777567000823e-02 -2.486724698417272783e-01 -3.293743198812248418e-01 1.889684522377199916e-01 -8.631915586937664864e-02 2.987950186034218358e-01 1.991498139918899679e-01 1.113061103119471762e-01 -2.800757933020809887e-01 -1.462338596186713580e-01 -2.643102519268080153e-01 -1.287716865125688726e-01 -5.281892025242578281e-01 3.130938674781075237e-02 -1.988506013374795045e-01 4.565782057220580947e-01 -2.445553959152144824e-02 8.756008807274744121e-02 -2.298228876823044109e-01 -3.383491586515867677e-01 9.321681680062596231e-02 -3.477916601727066848e-01 -2.757916899601284832e-01 1.503825685358445019e-01 -5.692883637804462688e-02 5.212691227213928080e-01 -2.374926480391754691e-01 3.805290275702546965e-01 -6.661900493214376051e-02 -3.133205435583004128e-01 -2.646597668712613594e-01 -4.218840998140692689e-01 6.082196108430073730e-03 -1.146548444584494231e-01 1.474421038045374277e-01 -4.767733797529493667e-01 -7.022794576680142786e-02 1.072185180932222065e-01 -2.454690028521721579e-01 -3.219990517140639552e-01 8.618098083556674505e-02 -3.539770383518304753e-01 -5.290802843566164704e-01 9.836685159805819145e-03 1.347988672651874165e-01 -1.025102597938145482e-02 2.373122301607630269e-01 3.409474571887884942e-01 -1.479556173563208732e-01 -2.321040462023316875e-01 -3.358147499611180420e-01 -1.275226344809650136e-01 5.574927157858464155e-02 -1.007256887338544571e-01 -3.809328537828329895e-03 1.019194422647605736e-01 1.801706234096234205e-01 2.152316344285889471e-01 -2.654027809037514674e-01 -2.324943959809215310e-01 3.345779756160514873e-02 -3.582296000601212782e-01 -4.510579521347409804e-01 2.409468570542288579e-01 -2.193829059034421158e-01 1.350561990231422538e-01 -2.973870566881822164e-01 4.154035455821928347e-01 4.124713224098554010e-01 -2.188380410731871895e-01 -1.322716937717250407e-01 4.060063727163878422e-01 -4.589429861436521152e-02 -4.989316521462876242e-02 -1.767686267338686168e-01 -2.098093469747694950e-01 -8.904289498830338101e-02 -3.587582732306724420e-01 -1.452456503056846204e-01 -1.273848319754486147e-01 7.038200151623243139e-03 -2.199468927406446062e-01 -5.981448869732837181e-01 -1.350190118814496576e-01 1.504986525375648365e-01 4.608767635506832647e-03 5.551138354816011374e-03 2.577820793964813451e-01 1.077142967252103511e-01 1.306668513142055232e-01 3.737763578451946955e-01 -2.720287003381550717e-01 -1.626336475432388351e-01 3.066148669867001519e-01 -1.391969033661418220e-01 1.693600835810556426e-01 -7.481581016936938999e-02 1.342642368886426130e-01 -2.371143645545346068e-01 -2.710148519130157196e-01 -2.566164027264314623e-03 2.387781149642457038e-02 -3.568603071033270568e-01 -4.587426971912592633e-01 -2.807477356596126405e-01 -8.439114328318352010e-02 6.985064513670091735e-02 2.120733102879776566e-01 8.354410285804274583e-01 4.260536943708971291e-01 3.222542891655328923e-01 2.172734477191008429e-01 2.394359808341688378e-01 -4.984657146667469396e-01 -1.548953323775353330e-01 1.063330110360522912e-01 -2.912907022677203583e-01 -6.481127532818339865e-02 -2.022516272251261293e-01 -1.278728664633040635e-01 -2.885060441974745486e-03 4.025129679072652483e-02 -2.337227709654361718e-02 -2.820378243384518147e-01 -6.140502395663367530e-01 -5.667293198455900516e-01 -4.368999393075538862e-01 -1.125530174508151959e-01 2.717634624842744234e-02 -7.214153140058759961e-02 4.339901739134368469e-02 2.899238362251820023e-02 -2.132504369037027669e-01 1.547421583116350141e-01 -6.477293273812195773e-02 -2.868728326090480563e-02 -2.070856973593866723e-01 -8.880407275264236289e-02 -7.365835242743004607e-02 9.478010652274443046e-03 1.148016165629852790e-04 -5.525382206156949708e-04 6.700532431851404826e-03 -1.309694162326087707e-01 -2.317687697087447707e-01 -5.051382535348476477e-01 -1.006520795863466544e+00 -1.080016000951475874e+00 -2.347077187420026911e-01 -4.419068779746079256e-01 -5.312738535877175039e-01 -3.505975554223453861e-01 -3.633436305973929831e-02 4.904065553644795100e-02 1.301270234464391995e-01 3.400157262421661386e-01 8.601071177895915076e-02 -1.201428424753278427e-02 5.127939700768842889e-03 7.338715260771571866e-04 0.000000000000000000e+00 -8.635888258882720638e-05 -5.133152238196189536e-04 1.321646069743088146e-02 3.018545213092444640e-02 1.283889194739073203e-01 3.721762802485067967e-02 2.328820114020308668e-02 8.767861819325357964e-02 8.040811097527986173e-02 4.220555935778765727e-02 6.627658848319947782e-02 1.728987114814694581e-01 8.088526348062317212e-03 -2.891327356746468957e-02 7.511792420719329288e-02 1.325534887732694386e-02 -5.354052310535779152e-03 2.950816489541591712e-04 0.000000000000000000e+00
-1.098925950250299044e+00 0.000000000000000000e+00 0.000000000000000000e+00 2.666348296254728348e-04 -2.565084649079271695e-03 -5.301753722697465435e-03 4.389214941121391544e-02 6.839187153732058377e-02 3.836612784069488163e-02 -2.079659601796621932e-02 -2.036993672428911994e-02 -5.810710887883449235e-03 4.848733828147704095e-03 2.734667088701182771e-03 -3.438517108050986437e-03 1.100636598295115509e-02 1.941421503033080934e-03 -3.722968153790277065e-03 1.495521852186146501e-04 1.772922153662431050e-05 0.000000000000000000e+00 -1.407052335257532448e-05 2.074497400442837055e-04 -3.319935235622188414e-03 2.627562809202550059e-02 2.128871157730412994e-02 6.915040842847762839e-03 1.288922592735095851e-01 5.077215179100267456e-02 -1.234470030997690537e-01 -1.899871386426713327e-01 -8.162880809575713548e-02 -4.871095596043604342e-02 -2.459720555959367047e-02 5.068187427290544306e-02 -1.234897520665884513e-01 -1.800319050972739102e-02 4.818591656869650880e-02 2.967176676508297486e-04 3.482806141172698280e-03 2.235885337335315887e-03 1.179052598234229935e-04 -2.236102537770236123e-03 9.690458107393461846e-04 9.868343776010328472e-02 2.045581813835431195e-01 -6.147730419133256435e-02 1.463226824190548281e-01 -2.199041538524857120e-01 -2.109258402738241611e-01 -1.860754144387994080e-01 -1.300643122317910183e-01 -3.492949838491825054e-01 -2.455973311523512725e-01 -1.165054773184390213e-03 -2.426807998124246857e-01 1.400372684502112774e-01 3.488337810584139775e-02 4.556056778758046932e-02 -4.200621385747428660e-03 -2.449699932535186198e-02 5.388770522611268472e-04 -3.333219925720861624e-03 -2.028306400961706751e-02 -2.211116696138225035e-01 -1.280017744803788743e-02 3.523093712940493782e-01 -1.280152312598929476e-01 -5.033030365141295814e-02 -1.233557449041872284e-01 -3.088185831770367540e-01 6.548165458763657854e-02 -1.720194452840077548e-01 -6.673408259814453403e-02 -4.375658693172216895e-01 8.108161598743961196e-02 -3.819202222235820177e-01 -3.206686940275304543e-01 -2.250116179737521038e-01 -3.841198651873503067e-01 -1.073205976977001791e-01 1.964556565463017020e-04 -4.133649960730517367e-03 -1.269752741187652190e-01 -5.441359727992102213e-01 -4.399033353275220715e-01 -2.915295567301843249e-01 -3.645331080462278495e-01 1.755012132936798093e-03 1.760310287394102335e-01 -1.050628623402322104e-01 1.676147853490809678e-02 -9.820518042180471224e-03 -7.585957620696752446e-02 -5.500684367188771184e-04 -1.576843799475055596e-01 -2.792648702278326400e-01 3.676867524764139139e-01 -2.481257306215468167e-02 -4.627038820270050756e-01 2.706073093728972659e-02 -7.932131366336522132e-03 1.311904787634344399e-02 -1.101003370157279948e-01 3.894820688395563280e-01 -2.162671012853419894e-01 -3.489021469106461104e-02 8.568549227634844612e-02 -1.178959016138321214e-01 -5.752504720558805629e-02 2.234798311670688764e-01 -1.232362028998049419e-01 -1.864609726183800720e-01 3.136370363165086328e-01 -2.158181979204449874e-01 -2.425221363506991912e-01 -2.820554347706775156e-01 -4.112448438889183822e-02 -8.485914886118937073e-01 -6.996857498849083923e-01 8.562456286513304982e-02 6.387790917864779802e-03 2.259191906363658131e-01 -1.793787324826529583e-01 1.330170500452197146e-01 -1.928279232487826456e-01 -4.917369277529060057e-02 -2.332511649965273159e-01 1.311021725204998545e-01 -2.280078939437968355e-02 -2.259953655617200907e-01 4.380072374977460326e-02 -5.055090777581569550e-02 -4.980770169621609456e-02 -4.275347695300479312e-01 -1.209707498264108033e-01 -1.646568143088647518e-02 5.034037375497235622e-01 -1.582078186246491658e-01 -4.999545047834023093e-01 1.449615959571041723e-01 3.844568757576973667e-02 4.282270660845081123e-01 -5.543267279761584510e-01 -5.510162592814438209e-01 -4.409802265371736696e-01 1.435519970622476660e-01 -2.558119826535641961e-01 -1.258301426433885428e-01 1.698053706930963830e-02 -2.640834346469977598e-02 2.393337148471674503e-01 2.527622958888758528e-03 -2.522320641065607383e-01 2.544583864172667576e-01 1.174813923161327350e-01 1.037189381991933945e-01 -8.722725894893555709e-02 7.683093031876886414e-02 -2.008250888726349770e-01 8.975520467244785250e-02 7.774330674180994494e-02 1.768891878167520026e-01 4.216535875360403335e-02 2.139394228122569741e-01 -2.415329816192449131e-01 -3.171937642485425646e-01 -1.203675363505945783e-01 -1.694599398346501029e-01 -1.764232667406598898e-01 -6.559987688826964813e-01 -7.301637401843876773e-01 -8.028625090926597707e-01 -1.723811986925969375e-01 -2.199974918719564965e-01 2.611244969865283982e-01 8.143280598412150351e-02 -3.323058486038904524e-01 -2.250171489905404276e-01 -1.809804274636519494e-01 6.855492151506910325e-02 6.585482504039000262e-02 -1.904769314998300822e-01 -1.564175354218265424e-01 -2.069416145206648960e-01 4.077122160983945309e-02 8.411620673726893926e-02 -9.000984148357418779e-02 -3.786797329281936797e-01 -5.049430873847309265e-01 -4.129532473511056123e-01 3.209831127732170053e-01 5.906623803313527654e-01 5.034609615300500440e-01 4.149848244751526138e-01 -9.689515937949810809e-02 -1.801920707446162950e-01 -3.927915352741850885e-02 2.463028652252624018e-01 -4.002902713242769694e-01 3.311617920921804126e-02 1.659755817426970814e-02 -2.049845419700095650e-02 2.087001194884790523e-01 7.057784590547676318e-02 -1.867478660807452284e-01 1.069495909566484382e-01 3.277256830075538918e-01 6.649426253085795047e-01 1.232210197828395026e+00 1.686450087393029484e+00 6.652439618969632207e-01 5.786657487364446073e-01 4.448346961302182545e-01 -1.133523782305699557e-02 3.394610886633533386e-01 1.105425025021265495e-01 7.151415460472083929e-02 -4.570849075400124639e-01 7.124785775320667536e-02 -9.960695208223943609e-02 1.808726043914704248e-02 -2.070923482521634384e-01 -2.050625113633922636e-01 2.244424820513803986e-01 -9.430624754455772807e-02 -7.079019813925795102e-02 -4.179590556128235518e-02 4.455682840984525467e-02 -4.316777221926795249e-01 -7.632020961604124576e-01 -5.285739402535996057e-01 -6.928401977669298439e-01 -5.074445238872877795e-01 -1.095461125760648913e-01 -1.923018859769574651e-01 1.718765868481299530e-01 4.770837756587479328e-01 -1.632252897411270443e-01 -2.887369422514516892e-01 1.786609508102228738e-01 -6.116709501024954893e-02 1.439468425612856484e-01 -2.899822886153152202e-01 3.926744608219445015e-02 -2.393031904432288415e-01 1.567716088155992060e-01 4.632634198866842495e-02 1.035954255035168720e-03 -2.671089758027875641e-02 -8.957498982349654248e-02 -1.363053763966946552e-01 2.632532799262219392e-01 -5.908374198704829938e-02 -3.972646558636437272e-03 -4.470808224478232118e-01 -2.751287441324650751e-01 3.477113583364029870e-01 3.034598103324478990e-02 -2.215439194992868677e-01 -3.993192923689388441e-02 -7.007519091124463084e-02 2.314108574098884541e-01 -4.540636614756625167e-01 2.838108619083881123e-01 2.489236807323197687e-01 4.489899686793795697e-01 1.163539014399199434e-01 -1.654360161063437307e-01 -2.741513101762504262e-02 -6.133793585780714097e-02 1.322763425096140921e-01 -3.725625491021419267e-01 2.328844129282997555e-03 -1.385070101215252203e-01 3.200631689734769747e-01 -3.107922496964857229e-01 -2.541647994689727463e-03 2.434812721523375023e-01 -3.712615787429930925e-01 -1.436495773971100190e-02 -8.892060144960736365e-04 6.773931455351228648e-02 -5.075034808115861384e-01 3.412499039161939196e-01 -9.365500828009235001e-02 -1.892910872962736413e-01 -2.989190473987228813e-01 4.131031643804361497e-02 -4.421377733389572628e-02 1.951233303611704661e-01 -3.469407679111697479e-02 1.458388230126929364e-01 -3.647483943980728976e-02 1.852775724099845617e-02 -2.096286903423595638e-01 -3.224613539032037401e-01 3.934556959964787826e-01 -6.536404445742871605e-02 -1.517477036171693827e-01 -3.507920660258753015e-02 5.722142731915458302e-03 -1.309895028438004261e-01 -2.992133344838773246e-01 1.761599799904837171e-01 6.570178668067759575e-02 1.970507951077968833e-01 -8.245906023733051704e-02 1.120347144957533903e-01 -9.852247517026947732e-02 -4.128808124320432725e-03 -1.032753903771904264e-01 5.953978902929666500e-02 3.964262189662845839e-03 -1.850672846280837225e-01 1.989858958703088487e-01 -3.790508710887443428e-02 -3.527311811407238262e-02 -2.119143246874239106e-01 -1.590205260522528086e-01 -1.245751012097238708e-01 -4.966925485923587465e-03 1.987062692202482689e-02 -3.410572500253945816e-02 -7.972022224629413123e-02 1.038724640809870203e-01 -1.357506159965416459e-01 -1.891563693434284432e-01 -5.700534984724672793e-02 5.620644193663029142e-01 1.617005334322917376e-01 -8.163554474142947770e-02 3.600755639085156945e-02 1.808908237921487416e-02 -4.824686942157382918e-02 3.892637101460968974e-02 -2.148854549373437339e-01 -3.581874307095161969e-02 1.114433612636420712e-01 -2.775060728043474145e-02 -5.420364482489891528e-02 -1.350198207765941540e-03 2.749440014277562336e-02 2.670537870444392517e-02 -3.797303795591778774e-01 -4.909043687261087641e-01 -3.972936325132846169e-02 -3.594420090789668953e-01 -2.301583094686327491e-01 -8.427619083698142943e-02 -6.850719520072497959e-01 -1.690680114228424596e-02 8.264661371448506211e-02 -4.074473884773137655e-01 1.226397791511337487e-01 -1.254584603310979485e-01 4.708800262962208327e-01 3.132487230923540200e-01 -1.308609749673869949e-01 -8.609798275613221585e-03 9.049785871880393698e-03 8.494816568647235505e-05 9.915880888503004423e-04 1.179999572433473864e-02 -3.428174226618607157e-01 -4.367981989217638028e-01 -3.461549322263617334e-01 -5.527179913301552006e-01 -4.316858174942946880e-01 -1.291330574397391018e-01 -2.319121032542045824e-01 -1.585594087076135777e-02 -3.267765578077742872e-02 -4.749716485590551041e-01 -2.151161280125789554e-01 -2.099706343594403418e-02 3.527835578794804583e-01 8.564563943728052686e-02 -1.339795617911497885e-02 2.952679287442231738e-04 -1.220250621525484190e-04 0.000000000000000000e+00 -1.891517109557341229e-04 1.250244608470594404e-03 1.743548090817068769e-02 -1.176590723365551761e-01 -2.083331568644427034e-01 7.588795075420751851e-03 -6.926598462419931990e-02 2.200884933344049096e-02 4.941009268924738407e-02 1.943366348024713058e-02 4.662821739549490030e-02 -7.559893335772559231e-02 1.005413442760272752e-01 -6.053479670321416060e-03 3.069603098115543383e-02 -6.897933947742415986e-03 -1.719150574930466318e-03 1.842369134887753750e-04 0.000000000000000000e+00
-1.785171256479597401e+00 0.000000000000000000e+00 0.000000000000000000e+00 -4.435634860584139851e-05 8.336447410437977526e-04 -2.752690587994499356e-03 -6.473296508746879951e-02 -2.330162742254517430e-02 4.553128952427113775e-03 -2.492836840368718720e-02 -4.902579004262939966e-02 -1.465528204466831283e-02 1.273130842921411238e-02 2.050020642806478152e-02 1.666727700511055899e-02 2.320479928125080207e-02 2.532158428959440169e-02 1.164981358485019103e-02 -1.724498502940645709e-04 -9.589792996084328387e-05 0.000000000000000000e+00 -1.366869518346021088e-05 -5.957006538928406907e-05 2.032704459898020469e-03 4.411240199116176972e-03 2.965817394314306660e-02 1.645114609901186242e-01 -1.994129179205624269e-01 -1.773335481386501267e-01 -1.316633646689706061e-01 -2.448081048129943371e-01 -1.426996833992794644e-01 -1.419891875421125105e-01 -2.502650680981683418e-01 -1.970792058743953135e-01 -2.820181407254915840e-01 -2.827748006280569881e-01 -1.391029207142869817e-01 -5.960162335787243248e-03 1.126056296047323654e-03 2.758732105495257238e-04 9.170388098917158773e-05 1.726184910468939572e-03 -3.572048060200093151e-03 -1.820894203177381987e-01 -6.787619729775211663e-01 -3.153109888882623668e-01 -4.345133892007416732e-01 -2.612486476626968424e-01 2.650350469558483968e-01 3.414158930901419753e-01 4.741439907717031055e-01 4.445488214877766353e-01 2.588537242413766482e-01 -3.225347841193487719e-01 -1.186087099406719081e-01 1.933586263507722225e-02 -2.859586886951698270e-01 6.012747646614197833e-02 1.860836430436361294e-02 -1.152150889934232085e-02 8.023306855415267280e-04 2.703895818257322572e-03 -1.525934297588127375e-01 -1.944210192048800578e-01 -2.024249226117282308e-01 -1.047723680116169759e-01 3.480749245352193211e-01 2.182217657635618369e-01 5.910609477935572231e-01 -1.790642869649769486e-02 -3.410298758414849474e-02 1.505101383084966882e-01 2.776782422754194846e-01 -4.329724780967333236e-02 3.046952743830469990e-01 9.059027288927574972e-02 1.109019512526714657e-01 1.144221770251489800e-01 -6.618049817701866788e-02 5.694988014567155254e-02 3.884237931300543647e-03 -1.431578170744098738e-02 -3.322633867573584476e-01 5.741529842009430729e-01 3.859157405691965304e-01 -1.121896456658346211e-02 -2.106619502506006381e-01 -2.442349520067519930e-01 -4.355543557650510822e-01 -2.438282721876212089e-01 -4.750849852400292894e-01 -2.551738133578844714e-01 6.015424364180836925e-01 5.445920683820448804e-01 1.603279801052208964e-01 2.676168598713848934e-01 -2.083789083406908105e-01 -3.375480386925371057e-02 -1.539260059422002946e-01 2.464379303862948012e-01 -4.764719982498086953e-02 -2.677950087847538185e-01 5.311394802920053199e-02 -1.440017348489571192e-01 -1.182133112882352843e-01 9.991005531063727740e-02 -1.853510202120935493e-02 -1.690241778056222888e-01 6.672924790485731950e-02 -3.701529141297438263e-01 -3.065220350914097530e-02 4.897740871973806087e-02 -2.295809014772565160e-01 3.713309204657038176e-01 -1.094513239981953351e-01 2.132532977305364730e-01 5.868817903829337546e-01 -2.262687214071362751e-01 -4.130737889210340380e-02 2.924289021479137274e-01 -1.476399879947751792e-01 -8.170383904588134349e-01 3.227062749953672066e-02 4.365401403794018087e-01 4.662130201440473631e-01 -3.236036630091659316e-01 -1.070793328638502129e-01 -1.174330938654944423e-01 -2.772164136642061294e-01 -9.275408049416719591e-02 -4.985941960881111190e-01 4.120343353964802113e-01 -1.829182507576875560e-01 4.395397898526576252e-01 2.966418581110675246e-01 1.304363262069011542e-01 -4.060338211787088980e-01 -1.335408560963772806e-01 2.018773647297618656e-01 1.599965038286187968e-01 -8.931026252063097026e-02 -1.037207322410993893e+00 4.311037223075215863e-01 -2.087991265226034066e-01 2.224527113908240372e-01 -1.529591231597726697e-01 1.889359297710901386e-01 -2.682119996266361661e-01 -2.095056952109123627e-01 -3.397006771098577405e-01 -5.397173863728489673e-05 2.537053169359141519e-02 -2.033028479030910343e-02 -1.573731414865379985e-01 1.106036984667256862e-01 2.299287408315853765e-01 -2.958811173155846408e-01 1.048455912002518517e-02 9.038731928369798940e-02 -3.646352666580209012e-02 -9.550332267962452493e-02 -4.466561921905981558e-01 5.388684043995497497e-01 6.477163158593829406e-02 1.307618333793549546e-02 1.357249506882690082e-01 -2.715489359962484639e-01 8.739839500417945217e-02 -3.138614711669895918e-01 -2.770064854569849189e-01 7.416364527073592006e-02 4.796765076375106851e-01 5.950648193629655414e-02 3.234771654568199262e-01 -5.581518817463443360e-02 1.832074514774590379e-01 -3.331498993432238653e-01 8.205840844166761849e-02 2.894483878186199788e-01 5.358346650765538621e-02 -1.064427015814724542e-01 -3.705084187800279372e-01 3.736592970209655640e-01 4.721217717214487575e-01 3.384354689853612957e-02 7.479881843133447117e-02 4.053527561368316240e-02 -4.073234782021289968e-01 -6.086068493609528840e-01 -1.458849110543615768e-01 9.861290045711862406e-02 5.977183553348368317e-02 2.058340706657401653e-01 3.567474387377427281e-01 -2.321613234501800904e-01 1.050906276078406587e-01 -2.966556911545575881e-01 2.325097301105630287e-01 1.880814987433967675e-02 5.495341418257384536e-01 1.143660062906303315e-01 -1.550212107337452405e+00 -2.884531599943795377e-01 3.729382683303356094e-01 4.342874712838138557e-02 -1.740722914897454565e-01 3.289401651991235020e-01 8.065254424170825720e-02 -3.067302225820353057e-01 -3.875358035532948664e-01 -1.215061694414139165e-01 -1.793006087548013605e-01 1.309380516678836925e-01 5.033804747537030666e-01 5.520352453150496885e-02 -5.978604071019207877e-01 -2.250462818390793623e-02 1.616735477110841090e-01 1.145719804322801495e-02 2.652051790992214220e-01 3.805637419777421204e-01 -7.736173474675644979e-01 -2.205823279295754946e-01 1.935508674609368734e-02 1.089308554217552627e-01 1.564455786690860384e-01 -3.778832554599194649e-01 -5.939690220161290835e-02 3.857116873245883815e-01 -7.161734699500457713e-02 -1.807909165713503241e-01 2.724895446155572998e-01 3.357674215523836492e-01 -1.612570899217133924e-01 4.269816039638372196e-01 -1.144206812331988316e-01 -1.881289780735047323e-01 8.251520806669801478e-02 6.637436910097301024e-02 -1.093983651556534042e-01 2.044454677910369222e-01 -9.093854974921226075e-01 -1.346152296516286984e-01 2.371106090423207857e-01 1.108380114198629085e-01 -3.239816278790732529e-01 2.566317883407338574e-01 1.312360190079307487e-01 -2.619001602676572782e-01 -9.118921558632103741e-02 1.698897801887886416e-01 -1.329662447864622676e-01 1.666283926923361469e-01 3.909796195562608712e-01 3.672335559206585387e-02 1.982395599511487250e-01 -2.490429060962277841e-01 -3.162577722439062211e-01 3.998651823104993897e-01 1.563699491977624256e-01 8.633686410742974493e-02 -9.077795852086425477e-01 -4.719281798787579030e-01 -1.644300975612679183e-01 1.100741444323432017e-01 9.648966462679595124e-02 -1.349676621348290251e-01 -2.084045278961066741e-02 9.971941406750822745e-02 8.573225455528858674e-02 -7.349612193643006997e-02 1.901428297117288835e-01 -8.700870757058293270e-02 1.231304713554339514e-01 1.482869073148785355e-01 2.237886721265245349e-01 -1.183096654782575807e-01 -6.563982500293288891e-02 1.722329132105971383e-01 3.749403566324591847e-02 3.421047059654888645e-02 -5.142963067830981228e-01 -2.191664302859218649e-01 -1.116893076778120164e-01 4.200595097745843387e-02 -1.976292184877058711e-01 2.084425343254075746e-01 -1.264974187226306640e-02 -6.421001334367129609e-02 1.447666441640213242e-01 -1.660008969954521185e-02 -9.428016153071279437e-02 1.178435938179648451e-01 -8.348570238235367147e-02 3.490395146738590748e-01 6.595535433217782906e-01 -7.145267765971213825e-01 -1.718336444895265935e-02 -1.775181599229719853e-01 7.814689677805319867e-02 1.393583723342304258e-02 -2.114132396061673136e-01 -4.279754123184280612e-01 5.002896470628678122e-02 2.011420617873022759e-02 2.500331046372995525e-01 -1.581065004043825106e-01 1.395183362764257917e-01 8.008454672705073163e-02 -1.142156775734469998e-01 -4.359442797387477753e-01 1.685267147183096004e-01 2.231196640705566114e-01 2.582078362264675908e-01 -1.040169307612139327e-01 8.229391553211329313e-01 4.774138966524515415e-01 -5.461780209604203407e-01 -2.002079217683443435e-01 1.803733861017135509e-01 -9.235069393532330251e-03 1.091965899533793444e-01 -9.019367552614505901e-02 5.905133961871950055e-04 -1.499782922532115204e-01 -2.915644092104779928e-02 -1.177145807486316420e-01 7.302351085551699039e-02 -4.508527554658943171e-01 -3.347657859859033691e-02 -3.875772807600133540e-01 -7.781222038654760365e-01 6.465612356954282269e-01 5.312636607260472488e-01 1.094389575174123212e-02 2.143527913236744908e-01 1.112445772779344921e-01 -2.268022057926957769e-01 -1.152553852043433913e-01 8.107691513671044792e-02 -1.038179624409545088e-02 1.164200069673262533e-01 1.352726793418268861e-03 3.660501154285844549e-01 1.737256290875029419e-01 -1.311719610579093476e-01 -5.758624432994055020e-01 3.799683212078319716e-01 3.739980148881371091e-01 -1.911179979414843327e-02 -5.755016755448677523e-01 -7.087557552169012620e-01 1.031068258728436104e+00 7.412379550666273742e-01 1.103558879313896623e+00 5.837818599287792898e-01 -2.935106193638339911e-01 -1.011897324651183094e-01 -2.690146946561902327e-02 1.660447167220517281e-04 4.066564481267462457e-04 -5.157430825548377229e-03 -8.272645145424346522e-03 1.096032413518662485e-01 6.573098016229651785e-02 3.146096129966431953e-01 1.035887137015063936e-01 -3.038599767701517518e-01 4.338298888565338962e-01 1.856824844566533905e-01 -3.590410398242661061e-01 1.582659377698043102e+00 1.965657686807428028e+00 8.582045717571000765e-01 4.714741808942957690e-01 2.100759006637569204e-01 1.186527058343334329e-01 1.868074727060365856e-02 -1.617965248773357888e-03 -5.396169960479297147e-04 0.000000000000000000e+00 5.089685620679653143e-05 1.021839567550806563e-03 -1.190332405291237051e-02 -7.534160202913542381e-02 -4.582579517593813462e-02 4.755778680048539098e-02 -3.420224192744569097e-02 -4.238147520286514314e-02 8.088658067483073255e-02 2.175817394452416453e-01 3.420436008184994936e-01 2.801977934977272211e-01 -1.598459722063068356e-02 1.275011385899265659e-01 1.154393893034693155e-03 3.885861370899013068e-02 1.177368318989022514e-02 -1.296192884887019175e-03 0.000000000000000000e+00
-1.952331299435768663e+00 0.000000000000000000e+00 0.000000000000000000e+00 -6.197396781852659853e-05 2.783394309423028448e-04 8.698544639260468239e-03 -1.049752640688746130e-03 -1.001413568317330721e-01 -2.080571219169728009e-02 3.007447277279226561e-02 -2.929249414980020921e-02 -1.376886962225987165e-02 -1.136466149903949882e-02 -4.140714166051110562e-02 5.808883261282708071e-03 8.822014964901177606e-03 -1.903252432672804251e-02 -1.154197781908443410e-02 -6.220724377922800651e-04 1.561255952002428657e-04 0.000000000000000000e+00 -1.078396636787364511e-05 1.562126171790294553e-04 9.775974133322798323e-04 -1.184506998207009512e-02 -1.746136137224043022e-03 -1.897661783834380667e-01 -3.685537420889308802e-01 -1.784616965450827319e-01 -3.750649781200156643e-03 -1.578016646775188547e-01 -1.791688100369488723e-01 1.485822694337640970e-01 4.690304817337602739e-01 -7.694930884919021219e-02 -1.011373777877525720e-01 1.967234594457364649e-01 1.012852977270404520e-01 -3.124947121211557252e-02 -5.766551246932129227e-03 1.396979840245584931e-03 1.178563849589459099e-04 -1.507703440468493271e-03 -1.134039153015966098e-02 7.345850162249954740e-02 2.756345461470001146e-01 5.841737421286615772e-01 3.108471562957523249e-01 1.844909832071711109e-01 -1.198148064113852274e-01 1.173184081011992008e-01 -4.874496916103024935e-01 -3.056269154743278538e-01 7.532873111107705189e-01 7.744004500620238485e-01 5.052272594019007190e-01 5.285460358244249424e-01 6.833025187916591525e-01 7.960762388529469824e-01 5.307788650350693527e-02 -1.544385120297517289e-02 2.275442276070570779e-05 -3.567394495456182799e-03 1.156830204687107552e-02 2.211012126816932488e-01 2.105879870187467306e-01 1.848229839406627939e-01 -1.923800334792415967e-01 -1.965135802487152084e-01 -2.705999625984408796e-01 7.880630312424311001e-02 1.806115708971943179e-01 -8.403434518711500045e-02 5.294560267397408621e-02 2.304827288864899903e-01 8.539071948155709801e-01 2.826587474671545808e-01 6.712644301479223641e-01 1.448087675665043594e+00 1.325354780348694458e-02 -5.441250957859799370e-02 -2.557906903525842667e-03 1.101306605941696284e-02 9.550485640792893971e-02 7.568512471555555177e-02 3.924048996786748678e-01 1.417499217717900217e-01 3.745271923271660253e-01 2.927348793817506900e-01 -5.046905250574197366e-01 -2.944946209155454020e-01 5.641959013514223908e-01 5.520241838634582648e-02 -4.968331112136499250e-01 -3.399938111251775696e-01 7.517491509802369798e-01 -3.898164361950312018e-01 -6.822520707596328726e-02 4.296760529311756116e-01 -3.556112130249088343e-01 -8.345120036197711810e-02 4.384532562115914245e-02 1.518186786714442182e-01 -1.897315976109683333e-01 3.344843223459705861e-01 7.507151649537250337e-01 -2.443586633269182601e-02 -3.214395888650876110e-01 -7.298899832127977994e-02 -2.723568027663048063e-01 -3.719134968548135078e-02 -1.277744914682701349e-01 -3.297102587751919028e-02 3.113874521477334040e-02 -1.545326326044368370e-01 1.385157880031760713e-01 -8.168743167192492327e-02 2.597734223919305196e-01 1.086310277410784675e+00 -2.004600217545096374e-01 -6.840829079773658172e-02 1.200448917131623078e-01 3.837902772537720164e-01 -5.028360032071460539e-01 -7.872019470358780913e-01 3.312117443003345651e-02 -3.545009489986955531e-02 -2.637988178308691700e-01 -2.814044947814953179e-01 -9.495933407211795685e-02 -3.458855559930035795e-01 5.837460087780408369e-01 -3.043322958649066767e-01 1.897848597271632465e-01 -2.758193273355120101e-01 3.448791097603579048e-02 -9.604147629461934343e-02 1.983941271314088040e-01 2.113866849661262259e-01 2.224200236556619220e-02 -7.707144483440216132e-02 6.146762022510295770e-02 5.223890589895738845e-01 2.878312178591487316e-02 4.869253851318028348e-01 6.768263357350833287e-01 -1.970418159424659754e-01 -1.750934506376260469e-01 -5.654865322762464563e-01 -1.582158585103042303e-01 6.483078906105596562e-02 -1.983852090828364945e-01 -1.683272240678708176e-01 -3.592172624155046678e-01 -3.176470752582118418e-01 -1.396272224252168292e-01 -1.771514551457872011e-01 4.849397268786239668e-01 -1.469200149305319170e-01 2.637900433784431398e-01 8.168713098587764010e-02 3.184860427781496112e-02 1.929245995523764245e-01 -5.957037972615500387e-02 1.668689094614302926e-01 1.912645581281228746e-01 -4.624969239966922330e-02 8.518453607287708451e-03 -4.475567623273484230e-01 -2.249261779440014375e-01 2.070746332274358559e-01 1.701321114197714701e-01 -1.374521706417794475e-01 -2.734315730444619175e-01 -3.059068464567312740e-01 -2.247784792166756807e-01 -9.784765501577741276e-02 1.561333224468821612e-01 1.932954052507729337e-01 -4.233542711243448720e-01 5.276167119362218383e-02 3.585196987594700679e-02 2.030968843870054052e-01 -1.156067822061370431e-01 2.165463374038638089e-01 3.126705607632451756e-01 -6.924839488253707598e-02 1.849493882466865524e-01 -2.530230627963446222e-01 -1.097088298004015028e-01 4.519249089398033048e-01 -1.840662352141261282e-01 4.224518271597724195e-02 -2.293919109575638937e-01 9.700524742425510258e-03 -1.442893731191734474e-01 8.619095393718374798e-02 4.464967702512507436e-02 3.327054034177023278e-01 9.985535184997836045e-02 -2.329724854088512376e-01 -1.013386349772752229e-02 5.122416024774166798e-01 5.556329621460079360e-02 -9.764669778662260491e-02 -1.361534942578285223e-01 3.416296617360610188e-01 -3.917398327018055681e-01 4.931579452982645662e-02 7.299114099857237914e-01 -2.183767536673327792e-01 -1.122317056393952739e-01 4.105343135312732039e-02 -4.053454987148889521e-01 -4.232802035198094392e-01 -6.465789303098876117e-02 2.446600344022136775e-01 -1.602429673765407570e-01 -4.225366594033159312e-02 -1.779751864892935020e-01 -3.406608361443406174e-01 -3.456345295488748304e-02 5.075640720278782325e-01 1.475034675392439265e-01 1.236216176991839499e-01 4.071821380089759579e-01 -2.323067590244556335e-01 9.639052575479473139e-02 6.216224523601042717e-01 1.013329493463389352e-01 1.472276418476313187e-01 4.704281563244089304e-01 -2.834477150238492449e-01 4.175438742391991420e-01 2.823048148935656254e-01 6.931871710907261397e-02 1.028299106603629554e-01 4.073838042725903136e-02 -2.355002971567792328e-02 -1.876506892549762162e-01 -4.915626880695350698e-02 -3.049332974032266386e-02 4.343659750954198540e-01 4.863093502679608493e-01 -3.697044145672717663e-01 -2.145702997531737655e-01 1.373070508372747356e-01 -1.109476389321675388e-01 2.406012372527331356e-01 -1.021294259767243223e-01 5.887382931357740823e-01 1.498853996631046431e-03 3.859870764841724089e-01 -3.920571579345840663e-01 9.003914110547125982e-02 1.843559418032915120e-01 7.329941945819629101e-02 1.855953979410888688e-01 -3.286670415727396266e-01 -7.584839628491314711e-02 8.716326715836972272e-02 -5.689972580046648298e-02 2.525400249080777537e-01 4.960356327117103614e-01 1.522835235935896814e-01 -2.549779812912539301e-01 5.342009519134935380e-02 8.464369582270393766e-02 5.369426089633564519e-03 2.292901267572827195e-01 -3.857199367920991495e-01 1.991121249741988897e-01 1.813973452917521101e-01 8.148425096148651514e-01 4.191210476458421402e-02 5.913214099029031473e-03 -4.952278547432466260e-02 9.143029397768154265e-02 -3.575606457321041654e-01 3.760391985218266564e-01 8.144086895128889447e-02 -8.316738286914752976e-02 7.351854237894674127e-02 6.997580794345525934e-01 -5.172374733306273065e-01 -6.089826197278488951e-02 2.792396822725912719e-01 2.810041455353320394e-01 -8.065058934554503178e-02 1.236802001516031091e-01 -7.735950483249175169e-02 1.867361363396846385e-01 -2.795136314450583637e-01 -1.620083475704451326e-01 1.191182971125013257e-01 5.826611340051468524e-02 7.817365096156211890e-02 2.625825849322323546e-01 -4.939944996900372809e-01 4.838151059700170342e-01 2.798069749028265774e-01 -1.386126309801868559e-02 4.686074919126842486e-02 5.765755045826818082e-01 -4.354154520951645790e-01 -1.239186737684628004e-01 -3.365786669920512453e-01 5.774719755634007828e-03 6.006450861872070224e-02 -9.153400743892434188e-02 -4.792228555327083805e-01 4.129115089628133117e-01 -1.187487601059774162e-01 5.460127179883584869e-01 -4.802279439798406990e-02 2.211136365892034106e-01 7.016915953882228718e-02 -4.414561062663886482e-01 -5.675838518824309620e-02 4.739681935886131958e-01 2.125825020073970617e-01 -3.628230654164428439e-05 2.202548452761622297e-02 2.085198943233272650e-02 1.117078124577029347e-01 -6.740151860664213290e-02 2.686830836266017597e-01 1.976880824990473740e-01 -1.403730554660709631e-02 -2.069953686545426552e-01 -3.571508481696581416e-01 2.743529583502372082e-01 -3.078853672776165479e-02 -3.252809064700035169e-02 -1.931594864360363928e-01 -4.069235786655905907e-01 -2.141838230928664322e-01 6.208243925679939740e-02 -5.065775521698115402e-02 1.390596500624854959e-01 2.004214091621777868e-02 -1.702991945178841714e-03 1.731507675591887133e-02 -5.831295506643487808e-02 1.014012723440937958e-02 -9.796491621801508773e-03 -4.461963461895964711e-01 -1.270426682022629816e-01 4.370898656030326457e-01 6.633541688501044808e-02 5.713947614583448908e-01 2.775417800881992969e-01 2.889351958064859671e-01 -1.304816151824173265e-01 -1.894633058046011342e-01 -5.145505417878557530e-01 -3.162985811527153079e-01 2.023910484099740170e-01 -1.662152719759031096e-03 2.215477472233536721e-02 -1.271089114697476936e-02 6.620615955439056969e-05 -3.579067276515370075e-03 3.052404042077038610e-02 2.563399349570365249e-02 2.770982617930363157e-01 4.404973625972652407e-01 4.114468892711356518e-02 1.236836304805201125e-01 7.574267238674504965e-02 2.772938288426599618e-01 3.082289680621294603e-01 -1.372458517390822558e-02 -8.591487205259185078e-02 -1.867463630560061705e-01 -2.006419168819738585e-01 -7.531747127895976890e-02 3.058429276558544130e-02 1.191868677482863653e-02 -1.471649524341973273e-03 5.120392025111259729e-04 0.000000000000000000e+00 2.414449231656988612e-04 -6.080297489719102642e-04 -3.487850503072512098e-02 1.882415661631078319e-01 4.512974173356057439e-01 1.888519307270136727e-01 -1.158558422986907810e-02 -5.576394033032463365e-02 -4.938656184014508094e-02 1.798122981628802464e-02 9.398258147893910619e-02 1.066575469483300592e-01 -2.780445900530287284e-02 8.231315830313043480e-03 -3.303782095221345638e-02 9.071859546544049427e-03 5.147802852046908656e-03 -4.836964555345357503e-04 0.000000000000000000e+00
-1.069782650860294559e+00 0.000000000000000000e+00 0.000000000000000000e+00 -8.554517798190671416e-05 8.250961567587739194e-04 2.872171769736204215e-04 -9.860181397263467762e-04 -2.363278648503014737e-02 -3.028761939490900654e-02 5.976857460550201451e-02 1.149176471036404690e-01 2.953166568834424133e-02 -1.017330758235142872e-02 -2.183550302957527368e-03 5.376029774335415283e-03 1.331725322030420482e-02 9.987197383666435169e-03 2.498580555924750923e-03 5.998697383055431659e-04 -7.517021078199602425e-05 0.000000000000000000e+00 -1.797228147564425125e-06 1.392066659007331903e-04 1.412840209079183388e-04 -1.442769447305651195e-02 -2.402099965616025581e-02 5.358108789023120766e-02 8.152247611671067928e-02 -1.962646057701334518e-02 2.843046314540280672e-01 1.969585984624733221e-01 1.689440208589259307e-01 1.009738693785604824e-01 6.607501604426198327e-02 -4.693797646410244329e-02 -1.547923809527077255e-01 -1.153285522911233346e-01 -2.549662609562304560e-02 6.583130531177114851e-03 4.008477614299524316e-03 4.875713496294613531e-04 -3.877228591119522585e-05 -1.529886949062950240e-03 2.849255209460072741e-02 5.313247682095943031e-02 5.079416265606838399e-02 8.870981326198608408e-02 1.431610266031268786e-01 -4.164094683818215237e-01 3.839091020392017273e-02 -3.966228371535572284e-01 2.867628529899794720e-03 -3.654847713249616548e-01 -7.186258765217283795e-01 -2.996589030803064463e-02 5.574292009062446762e-04 4.440619510604357223e-02 -9.536966942621002974e-02 -2.984041332229171450e-01 -2.208394833465597562e-02 2.197330729875410921e-04 6.337505848719698475e-04 -3.098296918535413044e-03 -9.250214532238681953e-02 -1.610282809620491029e-01 1.940259403818287431e-01 1.082801429568435170e-01 2.839931767503275917e-01 1.475912296940183263e-02 -4.965273395392686556e-02 -2.607616000549244362e-01 6.706441913480697403e-01 1.742307094304662851e-01 -7.412851166822862492e-01 3.685838493057605469e-02 -1.229537073542080472e-01 -1.769292444048833901e-01 -1.319364042319925157e-01 -6.284049307430371600e-01 -1.565070313151085968e-01 -6.854391179160275460e-02 5.005889897411922029e-03 -2.926985371949012218e-02 -1.843615598239922992e-01 -3.855745643557204616e-01 -8.675086433034140398e-02 9.290281947411570262e-03 -1.800121245538140180e-02 -2.990809222707223602e-01 -3.215296041651032333e-01 -2.407597568040231728e-01 9.809231026127676056e-01 3.251805413425721825e-01 -5.385043607994366432e-02 2.449188528444596336e-01 -2.952013238872188694e-01 -1.120215555770782134e-01 -1.277295512091983221e-01 2.301558229751893281e-01 -3.349967346329271178e-01 -2.138721160619418415e-01 -5.800796973309635396e-02 -9.527462734957130308e-02 3.163684463892662002e-01 1.099277134155900171e-01 3.124600170453074588e-01 -3.006237843616864636e-01 1.711960819994663430e-01 1.323141635083264767e-01 1.039666156926788154e-01 -1.650216278071633264e-02 2.377179776290438973e-01 8.742531474883578069e-01 -2.598745054835566726e-01 -2.923354683842864787e-01 9.172746561819788980e-02 -2.897028736439646313e-01 6.209383183304204024e-02 -2.675805911153026906e-01 -6.931503913985122001e-01 -3.401472481303250417e-01 -1.268959183391135115e-01 -4.639869045122821389e-01 5.200300323588038509e-01 -1.190870676315788634e-01 4.835421538008025100e-02 3.181554077270393188e-01 -2.483240314108134394e-01 -1.007970514797405792e-01 -1.886583398422828073e-01 2.585309534904434159e-01 8.829895428495410092e-02 2.586699576998312544e-01 2.234127027304303459e-01 -5.665848041024214299e-02 -1.209201393513425760e-01 -1.845706061434811973e-01 -2.002532841694998345e-01 3.043767664587475677e-02 -6.308615381098459096e-01 -2.382142585250618949e-01 -3.620932139664694016e-02 -1.001504999608117341e+00 -9.318072484271031630e-01 9.223210565415179696e-02 -1.527162768125580883e-01 2.701679023759305867e-02 2.134674347961157126e-01 -1.206551591684698332e-01 4.631680463268084136e-02 5.570375491655346067e-01 -8.876300990171204219e-02 2.291275938047293570e-02 -1.617655642482812850e-01 -2.280985323264468068e-01 -3.134033711556908353e-01 -2.799126430240626850e-02 -2.196637810570722382e-01 -1.806527362602533548e-02 -1.142549667568235172e+00 -1.772749478005405388e-01 2.008847150008989321e-02 -8.203638988559991407e-01 -3.319037208577927389e-01 -1.692587429921122433e-01 -2.275578479190968617e-01 2.210551291316175532e-02 -3.672138214069086137e-01 9.113426425951812182e-02 1.844638215335616671e-01 -1.801408620241014835e-01 2.949193010506045987e-01 5.192115752027370856e-01 1.077355266209653328e-01 -6.038260913352127002e-01 -2.763201898800914380e-01 -5.808276883050489392e-02 -7.559282433532021894e-02 -4.631781496448156635e-03 -1.305052569337767032e+00 3.485486985194204967e-01 4.679933905779139203e-02 -1.060855970669386084e+00 -5.944056927969655346e-01 -1.556718603154719216e-01 -3.269623480110152580e-01 -2.953060057361174273e-01 3.862445031565987785e-02 2.991852255410920591e-02 -7.230790644538526678e-03 7.086356078016312066e-02 -2.334101812398654135e-02 -1.927206215531020866e-02 4.938285565059131743e-01 3.582930188706161534e-01 -2.868800183627548406e-01 1.667772952357662597e-01 -2.875578409836232474e-01 -3.350653660482164065e-02 -1.279537546017991634e+00 1.425301236274339745e-01 -4.112436449270841232e-02 -1.101412053655149936e+00 -9.862733298717554220e-01 1.414644708854403410e-01 -8.913632430253439765e-01 -5.400076823244017721e-01 -6.564173720112707056e-01 -3.496383585047595499e-01 -2.722302696325245436e-02 -3.171896648286475218e-01 -2.705265691751691515e-01 -2.826254408110181332e-02 -6.749339511578350548e-02 1.787749859020786314e-01 1.648420202420915748e-01 -8.140711424428348497e-02 1.784238123986361946e-01 -9.014408841890231283e-02 -8.789960455676564255e-01 -6.360737076779272581e-01 -1.469027631959562430e-01 -3.953591923013529685e-01 -5.251333598008414150e-01 -1.366810641884001476e-01 8.496283990988078016e-02 -3.859367893776102232e-01 9.582575214832479704e-02 -1.084124319373155343e-01 4.439682074157351721e-01 -8.476364520847667894e-02 1.134065489474853916e-01 4.423537911712586146e-01 2.266890361650820140e-01 -3.081884637387724210e-02 3.970551121162798625e-01 -1.773894811312631825e-01 -5.824700673400803365e-03 -5.270201147851190093e-01 -7.980714027831824486e-01 1.570641047616292973e-01 -1.150371767065991591e-01 -4.666275062857407896e-01 -7.224738980544826994e-01 3.862942669823603570e-01 -5.150006295118626509e-01 -1.799168930053922921e-01 -1.621843910752803486e-01 1.757390232552099307e-01 5.757094769505635007e-02 5.130103555935487947e-01 1.523183215445982897e-01 2.814755118418309499e-01 1.723011654271447979e-01 -3.501028795846287123e-01 4.286111556553308666e-01 9.530623008295349696e-02 4.795438319065903343e-01 5.629339315341377187e-02 -2.320787755864550661e+00 5.816821551947422009e-01 -5.395948258555537114e-02 -4.225126594871651819e-02 -7.566925747380871536e-01 -1.446912055771202854e-01 -3.800346735915991481e-01 2.464972338636486349e-01 -7.123863357269322183e-02 -1.754929763836490242e-01 2.557109382753686710e-01 -1.734014069637728195e-01 2.228045243143860765e-01 2.659844352115287025e-01 -1.164682094981036031e-01 -4.050955916922110434e-01 2.466519414323481707e-01 -3.354207223223845125e-01 2.366518117318096581e-01 1.264329884109939850e-01 -1.918932643829363904e+00 5.629546575434477007e-03 2.325717508929271357e-02 -1.116257654401175137e-01 -2.194933370125374539e-01 3.763805253734968381e-02 3.256835772917637262e-01 -1.200655521416158986e-02 1.789638892105715334e-02 2.111425361960641567e-01 -1.933041415966228471e-01 -9.762876094389348614e-02 4.560494468364688636e-01 1.319295288464769102e-02 -1.513003739555355276e-01 3.096869263249442117e-01 3.522166176977767349e-02 -8.284105906523529794e-02 -2.330747521068622999e-02 -9.893056110861633834e-02 -8.535617216756876680e-01 -2.833965996147906896e-01 2.239411539804788201e-02 -2.391990324294635817e-01 -9.177806177698594192e-02 -4.076539106270606894e-01 -6.613108971676975867e-02 1.661567739073875963e-02 -5.081567342866485926e-02 3.358073137398560615e-01 -2.722375528678273593e-01 -5.015331284813481783e-02 9.693702911523710553e-02 -1.070821385037552947e-01 -4.555044111972794130e-01 -2.394687876992713793e-01 2.991564205002338328e-01 9.946554182346328821e-03 -6.170883791863833456e-02 -7.126329492474836602e-01 -1.130646286908109754e+00 -2.281474758652149992e-01 4.143968741371550565e-03 -3.427666630156443739e-02 -7.930092549952089120e-02 9.585105921602535273e-02 9.011155145506960507e-01 -1.537709765735768563e-01 -1.988615611282317994e-02 -1.669674851250454450e-01 9.637019586071550459e-02 2.622864432123458434e-01 2.752950728367051791e-01 1.528111108491552184e-01 1.264339659961722928e-01 -4.815049460466212794e-02 -2.342380524680507115e-01 8.406952482011875727e-02 5.777611899050681954e-01 1.375036848287590763e-01 -1.545073813013921327e-01 -1.056353986699238440e-01 -6.343399196747674792e-05 1.112593382965861022e-02 -7.477223690920931087e-02 -4.792699835995891666e-01 -3.171370903311985234e-01 -2.920795961314117117e-01 -6.213299481708635108e-01 -3.219174448832934354e-03 -3.102903909992096310e-01 3.081395542301353097e-02 -5.171248989983256994e-01 -5.917962587809796338e-01 6.760613329881831612e-02 -1.200914393794482171e-01 1.105455553366519600e-02 -2.013499598969507587e-01 2.386252162374380148e-01 1.396261456103387866e-01 -7.366293267278485254e-03 -3.072009419515076001e-03 -2.134608473144867954e-05 3.174568014177265272e-03 1.315403336881415704e-03 -3.370224422460145197e-01 -4.326580126598812415e-01 -1.773676662065364062e-02 -3.706273678809027805e-01 -1.782981276556389605e-01 -6.483633716910166545e-01 -7.435112337367428825e-01 -5.900120043626266852e-01 -4.849062485721501448e-01 -1.845238148677730283e-01 -9.029212622261527030e-03 4.398374029089463511e-01 2.913392837460455076e-01 5.513716157785800154e-02 -1.310120912813173347e-02 1.602807245768566886e-03 1.300494272391791327e-03 0.000000000000000000e+00 -2.907705811563705139e-04 3.453851367931108727e-03 9.858723774481853441e-03 -1.573552299472958660e-01 -9.353229138649264696e-02 -9.953206956808716144e-02 -8.915085220814908396e-02 -7.674617940626607404e-02 -3.716047959553877428e-02 -1.318445516390834814e-02 7.205868324541838538e-03 -7.928629012916359187e-02 7.847027869070334269e-04 5.088338626920552166e-02 -9.824524365938761342e-03 -6.700076924999175468e-03 1.731114948116473963e-03 -8.299303136373133768e-05 0.000000000000000000e+00
-1.143284448416511445e+00 0.000000000000000000e+00 0.000000000000000000e+00 1.129123402575937569e-05 -5.386592894060770456e-05 -4.285210025454272605e-03 2.247031894147804437e-02 6.649120208582466607e-02 -3.935111930775993944e-02 -2.829926713677907713e-02 2.403097448119621837e-02 9.396543351367563773e-03 4.422464917644044168e-03 2.415989345677317310e-02 -2.429010904926353145e-02 -4.200716666860648818e-02 -1.382451585029087059e-03 -1.203753164874336954e-03 -3.191315306340441690e-05 1.494880045869655892e-05 0.000000000000000000e+00 -1.376609269182541673e-05 1.765627505836905051e-04 -5.890708684857696520e-04 3.975496410375161174e-03 -5.291408391854885394e-03 6.238846716500534573e-02 1.561412351806758525e-01 -1.076478778851092388e-01 -8.914242269121316897e-02 4.932036407014350754e-02 1.016384822012758871e-01 -6.903783678834601867e-02 -2.990976012662650563e-01 2.631273309498965429e-01 4.740946795497010258e-01 1.517528148829800499e-02 3.724648246220541026e-04 -7.624391751627115910e-03 -3.745557926146975570e-04 -1.649707886862107826e-04 1.023537359935592299e-04 -1.382583484127273806e-03 1.092774925731366913e-02 -2.745264961166284795e-02 -2.123738378227495172e-01 -3.655194648513473421e-01 -2.536720481085952272e-01 -3.423815458349452768e-03 1.868597005875708428e-01 -8.704826529659769746e-03 4.386576403273208247e-02 1.764378173443821307e-01 1.838267685402284468e-01 3.383459577888844327e-01 5.421742014682069399e-01 -3.517705881332641726e-01 8.257015582208847293e-02 3.434206569692366262e-02 -1.119822789913676661e-02 5.052582146548239596e-03 5.807131698311764198e-04 -9.072989523728171996e-03 -1.108175670055342246e-02 1.098846724839804556e-01 -7.278926242840130789e-02 -1.736189097232381240e-01 1.708630379569259228e-01 -2.370426024650706519e-03 -2.860510324848702934e-02 2.276497216165961346e-01 -5.972097076112145020e-01 2.497276380747259217e-01 6.851311072590660078e-01 -2.344030162310283549e-01 -1.737656135381436817e-01 1.721067802033111604e-01 2.695481019025573466e-01 5.956153196571963848e-01 7.169728318219788232e-02 -2.716973051329564862e-02 1.738595240327380940e-03 -2.050901394669222763e-02 -1.401157494940024062e-01 -1.967996521379665464e-02 -2.898297135627490029e-01 5.155773489910094737e-02 1.449364491709892455e-01 3.185897323359378371e-03 3.041291219662608514e-01 5.003947567099097382e-01 -8.648402019885073622e-02 -6.173672749974492557e-01 -1.682226240599029587e-01 4.629168335143576396e-01 1.535714937455789734e-02 2.976236928081719135e-01 -4.685228302033932479e-01 -1.011346824934625382e-01 3.214047260977709874e-01 -1.383862773482281150e-01 -4.833549531955673439e-03 -1.018686385186940990e-01 -1.643598751953563586e-01 -2.980936764715310661e-01 -1.265929139074545573e-01 -1.841205423060545687e-01 -4.547024753565286764e-03 1.012486627730730185e-03 2.950332040154163282e-01 6.909525323813189845e-02 -1.013717553446835395e-01 -3.534498416666773668e-01 1.956996628268429794e-01 1.814876201080950768e-01 3.772454553612805128e-01 5.571267096002660568e-02 -4.542100494454735793e-02 -1.083555601417815484e-01 2.122584659264240281e-01 -9.515223874837681894e-02 -3.356852263320000279e-02 5.706895205126169546e-02 2.094613692974794938e-01 1.981891435525273970e-01 3.064608637676030645e-01 5.421569749721383280e-03 4.734740920823677368e-01 1.747400771749150206e-01 6.546712547697339235e-02 3.264714400421267482e-01 -1.626099654183074117e-01 -7.551504123527597034e-02 -5.209673534710148601e-01 -1.735948855827468273e-01 4.022784844471187227e-01 1.492473885315546700e-01 -1.905640902603786269e-01 2.639727858121955761e-01 -1.251895893656718162e-01 -1.149502827315934117e-01 -1.536266109490183260e-02 2.836306537715963527e-01 1.759524844322642445e-01 -1.355842755778124409e-01 -1.969609974161209143e-01 1.085798053337797275e-01 -3.024006285303254549e-01 2.696981325243187899e-01 6.250048208699880703e-02 4.558618850803927702e-05 1.056685434837438958e-01 2.242626808259863269e-01 -9.861972407775967953e-02 -2.901177039861831952e-01 3.256206805411834271e-01 -6.221459846373420671e-02 8.107948639615780717e-02 -1.060567743813734809e-01 -5.127349781320882788e-03 -5.536267978740327250e-02 -2.368884275429418429e-02 -4.493770205174218990e-02 4.810117380042415458e-02 -1.156871427822298293e-01 2.572808548862689504e-01 2.803226364679056726e-01 3.959078150868641788e-01 1.252646511712247612e-01 3.331073608834610456e-01 5.122551820314957816e-01 -1.698667327228952084e-01 -1.615164571150602968e-01 -1.341346861138958957e-01 -2.107880545232277414e-01 7.378271330174511478e-04 3.286835382334639677e-01 9.259295701005028356e-02 3.744207213920262567e-01 -1.783815717515464250e-01 -1.349828837384037528e-01 -5.023717483214565349e-02 -4.689269738141154109e-01 1.739211988539446085e-01 -1.031989529540773415e-01 -4.750245896251382716e-01 2.761617783388975456e-02 -3.639790691793045596e-01 3.943487388731798937e-01 -5.013451129101875042e-02 1.839553259828767551e-01 1.122260983278089430e-01 -1.097376860362167666e-01 -6.219393200242666342e-02 -5.521476394597951004e-02 9.249187115626197886e-02 -2.905173233096642327e-01 -3.996591311756421405e-02 -2.437286931101638465e-01 2.553839627458656669e-01 -1.167310329624838966e-01 2.284618225583558843e-02 -6.982183581156330421e-01 -2.075360177770271264e-01 -1.066482637053051269e-01 8.166112722172323701e-02 6.225154106539478732e-02 -5.395290322143064810e-02 -1.040726732310533198e-01 -1.572736927943320095e-01 3.872090711736408258e-02 -3.022360362161677361e-01 2.650128036748593541e-01 -3.406161395773870670e-01 1.434292115594221761e-01 -9.944657542987966892e-02 -1.849977893409175955e-01 4.410178884852704595e-01 1.564625814313190810e-01 -2.105666463598710458e-01 -1.757764066344988385e-01 4.988744033380011766e-02 -3.345495697746316832e-01 -1.312701285071156687e-01 -3.692743585814667329e-01 -1.498641180929273231e-01 -2.021646376795464550e-01 -6.015228076113565692e-02 -4.414013093702184864e-01 4.534100578998975783e-02 -4.174293038945089407e-01 2.445074922574836385e-01 -4.909525824639502378e-01 3.512434638172124979e-01 -8.398043228619463119e-02 -2.521170434087711965e-02 -3.292264078319285803e-01 2.026757984195205406e-02 -1.643018158115677196e-01 -1.238629995604387524e-01 -3.962906408090867694e-01 6.052848615915764480e-02 -1.670081206139265861e-01 -2.653717540215606019e-01 1.098957883574793043e-01 -5.990714233290317901e-03 -5.394892671135126383e-02 3.031408280719384285e-01 -8.126804198331234463e-01 -1.508127171642277831e-01 -3.588207299570794068e-02 -3.184903779372880717e-01 -1.780405443244735264e-01 3.338928308396820199e-01 -1.441427090574516068e-01 1.175534083652800682e-01 4.075345152299598706e-01 -1.523599592569844507e-01 -1.384757445589969715e-01 1.199336735444030966e-01 -1.852769719625083633e-01 -1.013454352789589126e-02 5.019448535908971332e-02 -5.835073748219550271e-01 -1.854318170450649714e-02 1.363600630949377834e-01 -2.183509767097071563e-01 1.094250723311294832e-01 -2.577674496651795044e-01 -6.217988604476170078e-01 2.550193612716490921e-01 4.441077782939364255e-02 1.640171488121490440e-01 -2.222774072465781847e-01 5.595053553896520704e-01 -3.820198313434189918e-01 -8.002463992051780939e-02 -1.269030554792284771e-01 -1.990960539966636633e-01 -3.665959516160331999e-01 -2.959585214861892161e-02 -4.142842453365529892e-02 -2.418185773749650380e-01 -4.853579179018971401e-01 2.580228953909600997e-02 1.952980213832737344e-01 1.781779958425426802e-01 1.857883349280740060e-01 -1.072405506124693542e+00 -5.400924845280647979e-01 5.207319670705953633e-03 -1.094046933453625275e-01 1.431295203486994405e-01 -3.500911329748316869e-01 5.922987405890447338e-02 1.928636088948501581e-01 3.039448161742154819e-01 1.671869278901231270e-01 2.429616946247565856e-01 -4.989256337020928078e-01 7.678020902758381228e-02 -3.873078884182525224e-04 -4.047633181166699345e-01 -4.577425058859762030e-01 6.387247127654229750e-01 2.413350160704170189e-01 1.195172065989602295e-01 5.393091263125447954e-01 -7.594071609156148872e-01 -2.857314272899219021e-01 1.025017363044793128e-01 -4.413212479284744916e-01 5.320877252757549858e-02 4.358803999794187423e-01 2.614467466401079743e-01 -4.476118457705554055e-01 3.494238500108126644e-02 2.396874618533920698e-01 -9.960512115323691407e-02 -4.680511008993725186e-01 -1.721088833007870522e-01 8.696611892795158907e-03 -2.126114104818062067e-01 4.593651224797413724e-01 7.940882846736396772e-01 -2.271312231566464390e-01 3.573218162504073758e-01 -6.094286434380802309e-01 -9.240180117320981878e-01 -9.142331632837524813e-01 -4.420427000271620610e-01 -1.625269367828736655e-01 -7.575823350181866422e-02 -2.456437505854220937e-01 -7.722298597403989828e-02 3.125274401604039576e-01 4.757230514365360374e-01 2.030345624247418823e-01 -2.743810127568062640e-01 -1.594116455649361996e-01 -1.120512712602412218e-02 5.700464679301879209e-03 -8.163928894991538676e-02 5.622544887193728913e-01 1.040113673283606488e+00 1.514998032489276003e+00 1.903186442216400431e+00 2.359983738213886628e+00 -1.131911481026486865e-01 -1.069899169559264340e+00 1.844910026770760492e-01 4.889363134405203537e-01 5.634775882827541826e-01 6.528559004808884292e-02 -2.577026344517114320e-01 1.981980382229435733e-01 9.268910803500343687e-02 -8.131590455714250709e-02 -9.119247826816302693e-02 -1.082620800784287254e-04 7.987264622850960907e-03 -2.434147670159135762e-04 -4.669789960020894522e-04 -1.628024760256108205e-02 4.516838645546544240e-01 7.306347764038257919e-01 7.371387307248480347e-01 3.168591903083155525e+00 3.044209724453756039e+00 9.961397552145601075e-01 4.545359611610269579e-01 8.046869067460882263e-02 -4.707167632635135268e-01 -6.103505518057275037e-01 -1.057988684823892717e-01 -3.465211105781068612e-01 -5.319617390899096243e-01 -1.710934468586564061e-01 2.222377544615642894e-02 2.586216525745580440e-03 -5.416456349638003927e-04 0.000000000000000000e+00 3.491021248312241396e-04 -2.320052061110630410e-03 4.688280136496423937e-03 -3.864844390463898494e-01 -7.149180484835679916e-01 -3.612761151494577744e-02 2.073687747796455760e-01 1.005205005249366068e-01 -4.356749437808610237e-02 -5.913463100401442768e-02 -1.187539245881958916e-01 -7.904249580486055748e-02 6.723397092921420959e-02 -5.167772463534962835e-02 1.735791386211032322e-03 9.658073668023067944e-04 -1.473040657074703571e-03 1.130632433824143315e-04 0.000000000000000000e+00
-1.673335097813958505e+00 0.000000000000000000e+00 0.000000000000000000e+00 1.832148143187881863e-05 -3.188507980275126952e-04 -2.317080651598633998e-03 5.807918577816788275e-02 4.647653792964138997e-02 -3.458936134955022113e-02 -1.847311926091965706e-02 1.728518982095982384e-02 7.465864672615033990e-03 -2.513592913819800035e-04 9.153688364298986913e-03 1.969493350266385973e-02 1.223728196578553751e-02 6.220317866788458664e-04 -1.107173922288005440e-03 -9.248573775202477410e-05 1.610866292432154239e-05 0.000000000000000000e+00 -1.905197918379297897e-05 2.495869696846590041e-04 -4.536297359556545352e-04 -4.309891112042206398e-04 2.487398668737042517e-02 1.197925966599716618e-01 1.665816202019049785e-01 1.150513519441274252e-02 1.057295462807936737e-01 1.296690476650160240e-01 8.738336138676940090e-02 -1.910513702122583132e-03 -1.054820290712154968e-01 -2.260937390027250582e-01 -1.345691691735844686e-01 -1.590450658693753211e-02 6.613789894226769148e-03 -1.788871024144665688e-03 8.246404145251240436e-04 4.193210972984884452e-04 2.374854532660027008e-04 -2.474085615488417177e-03 -1.225821630956577812e-02 -4.300269242102355144e-02 9.011013690526570308e-02 3.824777834501316698e-03 -1.398120825242428200e-01 -5.699041731489654095e-02 1.068132733958930547e-01 -3.830743416024954412e-02 -8.700016726012994861e-02 -4.370472719035677078e-02 1.415413434335563991e-01 -1.170684108080766728e-01 -1.199620483153139572e-01 3.355675802147556341e-01 2.727542914313174638e-01 6.267330178402712171e-02 -1.836408908541101170e-02 -7.874469188805700501e-03 -1.355646602182502332e-04 -1.117451692151378087e-02 1.700935834036725602e-01 3.471955597691850359e-01 -7.426794086313437404e-02 -4.905380710840957781e-02 -4.605677619400365408e-02 -2.655641456224200336e-01 -1.463486786937146233e-01 3.451833310929254273e-01 -2.543801095950672941e-01 -2.244915501256780077e-01 -3.304551882250692518e-01 3.129248493764585914e-01 -4.082363191189386509e-02 2.552739473075367194e-01 1.690720842366671972e-01 2.173940809113325823e-01 -4.386515947392539971e-02 -9.784573326855519615e-03 -6.869411363592291438e-03 3.489854797378052348e-02 3.367657250392675494e-01 3.996041844912548990e-01 -3.380753797594834159e-03 1.183894130453244098e-01 1.022824174072553549e-01 -1.045731730028624795e-01 4.355841313875921106e-01 -7.415619379255292132e-02 2.012456870627517269e-02 1.944862263861259488e-01 -2.106834083628650878e-01 -5.217341842074066927e-01 3.841941931159665313e-01 -4.403489174211757673e-01 1.933615302446275996e-01 1.099601707679438711e-01 1.336667213701477341e-01 1.285115443989202633e-01 8.212846477156790503e-02 1.836990298291222290e-01 -4.102411659775918040e-01 -3.492399579581734748e-01 9.739624333908146470e-04 -4.914955961309144250e-01 -1.411216798089683366e-01 2.981090507135736312e-02 -1.823120261730495628e-01 2.595821374345495119e-02 1.782319892353308455e-01 -3.410635457190206998e-01 1.891299036661520661e-01 -2.144951004561748420e-01 -2.306513418005245314e-02 1.777110939828480674e-01 1.620007758171617129e-01 1.137916086158676093e-01 1.954829030939788659e-01 1.864931479902900424e-01 1.939385482008679495e-01 8.218247273325838265e-01 -1.966764594498544017e-01 -2.742620225956617919e-01 9.070687359370115110e-02 2.089278886225640064e-01 -9.412226070719095783e-02 1.343669973573298482e-01 1.624816460860989409e-01 5.989803179900138330e-02 -3.265523482557847190e-02 7.622279622806653332e-02 2.509050142530971916e-01 1.682785329042343903e-01 -1.396690250646196452e-01 -1.584232221384560546e-01 2.292218114420769837e-01 1.836297714330794584e-01 8.461696360567572128e-02 2.186758680291220891e-01 9.777700162753902302e-02 1.500566516431522501e+00 7.869121700473407088e-01 1.739176370365290158e-01 -2.291268347429263330e-01 -1.762659808805153161e-01 -3.219785327118574597e-02 -1.478671600118910412e-01 -3.050827227373467676e-02 5.393986427773803279e-03 -1.577139265729014111e-02 3.090770981105065984e-01 2.868692551997727991e-01 5.572789340979921180e-01 -1.488545882105298812e-01 -1.453713004995184632e-01 3.522480293204670598e-01 5.649555334039749188e-02 2.749262156113527200e-01 4.102045277863618500e-01 1.023546475863849475e-01 1.208654193823388123e+00 -1.729779102401317048e-01 -3.707052588733090182e-01 1.007923505644122281e-01 1.840971045726624844e-01 -1.100046027500501539e-01 6.650742094576929039e-03 -1.628546997216579750e-01 4.143600869134779208e-01 3.332588601981815168e-01 1.582214704813460493e-01 -1.384883381215157999e-02 9.838571655484201761e-01 4.375980629523273935e-01 -6.130201903491272301e-03 -2.758407874893788470e-01 2.220981162628488104e-01 1.366920022919000388e-01 3.770055911349948774e-01 6.657602108838735211e-02 1.347836675648649507e+00 -1.439327535739410302e-01 -3.014285405599176348e-01 -1.143670017438219444e-01 -4.601485054455248247e-01 1.751438385672940690e-01 1.393325816449732524e-01 2.748541885668181473e-01 6.518343765275623480e-02 -5.315491631871229750e-01 -2.004096501236048433e-01 -2.900054782687094823e-01 -2.147578179921713903e-01 5.592684750412436623e-01 3.787212301110757795e-01 -1.191619158631312958e-01 9.146438024581352022e-02 1.145342266606649284e-01 2.761504263635594647e-01 -2.486791270809417254e-02 2.228752075464751847e+00 1.119669643538591330e+00 -4.838823819870029519e-01 2.358795708222687360e-01 -1.212571058013898161e-02 -3.036899341144804199e-01 5.954847357269051761e-02 -2.970748371702981450e-01 -5.968529552050973186e-02 3.785266663571132950e-01 2.470525944393472950e-01 -3.453865201190861600e-02 -9.664069424043972290e-02 6.145016798617163739e-02 4.949943372104614880e-01 -2.008397079655449002e-01 -1.641713031254683069e-02 2.283613770539829613e-01 3.551606196598435794e-01 -2.652184618232633628e-01 1.326262665109252836e+00 8.667219626597626458e-01 3.633680619054212996e-02 -1.727976757165940735e-01 -3.776101355438078455e-01 1.534816882168681118e-01 -5.256518407260537540e-01 -1.855343232488305127e-01 9.494415785458362733e-02 3.605544829085949310e-02 -6.954281720572427772e-02 -2.454243079568338148e-01 1.833211490130456367e-01 6.079605148217345767e-02 3.745128626149849538e-01 -3.366598611044976236e-02 3.779376620905473827e-03 1.922696172227352229e-01 3.141565121441816100e-01 -1.979753543844986197e-01 1.216605031471354792e+00 1.322111161931031287e+00 -3.734219250646612087e-01 6.373391251130329505e-02 -1.415523718139131797e-02 -4.937890960836116561e-01 -1.338241142393213623e-01 -2.403585622590745374e-02 -2.969540236190811033e-02 8.168879591601726359e-03 1.395551350393415269e-01 -1.863454721328082209e-01 2.510249296879871750e-01 -1.979626919394828488e-01 2.877382328766693309e-01 -2.992257362360455433e-02 1.285820930450753095e-02 8.245730436954090692e-02 2.601136396220763425e-01 -2.521463384223356086e-02 8.325237124855847659e-01 2.206802400997127656e+00 -4.341309473079725256e-01 1.058452840641261467e-01 -5.458221980245012706e-01 -1.380415720647002742e-01 -3.030058180058027850e-01 -2.873093822327979496e-01 2.287349526674686273e-01 -1.671646502307382598e-01 -2.801554419842049864e-02 -6.318006819468632851e-02 2.685118393540629755e-01 -2.084341887986323749e-01 4.221365612513752197e-01 5.060438161206054497e-02 -1.956899616657369889e-01 -6.283950905849511326e-02 1.205179896783035998e-01 5.168908621754050164e-02 5.509212720307150590e-01 1.697688328658688572e+00 6.967128372998869154e-03 -2.629426128166539867e-01 -2.295696725259660509e-01 -8.969906129377636095e-02 -1.609184953977335075e-01 -2.530074451147298342e-01 1.606315840374896997e-01 2.092945144107595523e-01 -5.360427571203987274e-01 8.569966764918306446e-01 -2.425306192970151653e-02 -6.382687568857652038e-02 -1.543294420966347946e-01 5.704775886690927056e-02 5.819858946079771445e-02 -4.272116603841075166e-02 3.222574126871396993e-02 2.557534546411564802e-02 6.412173971499395275e-01 1.026307869999961264e+00 -3.567549365402032935e-01 -2.803773041702793956e-01 -1.817365765306266923e-01 -2.156248363783464517e-01 -4.887282875070206867e-01 3.132026831296278457e-01 -1.104963108477774042e-01 4.595883590156327747e-01 2.139392042430051100e-01 3.798397854272613818e-03 -5.166591738688391944e-01 2.148967780934198379e-01 -5.008241716209498318e-01 3.418585144689890720e-01 1.670419819879654377e-01 -7.796828023295185317e-02 -1.089649058986611602e-01 9.485960102297427352e-03 7.088182018032727905e-02 -1.764481041014905049e-02 1.491749663818155713e-01 -2.440851488875721564e-01 -2.963358895140492597e-02 1.188497706041622692e-01 -4.295580779420830608e-01 -6.863796132523959648e-02 1.828500774831942066e-01 7.833099058428545647e-02 2.262563957636347101e-01 1.162146688661606087e-01 3.015473734619661395e-01 5.012368440841112882e-01 -6.840121245183956589e-01 1.001822012395079953e-01 2.339952773821406262e-02 1.604537473599653916e-03 -7.290701157646720457e-03 2.854190658638877318e-03 -4.772641329291439638e-02 -5.277883355766761486e-01 -4.476353472892036223e-01 -1.121702754881014064e-03 -2.228807481600276752e-01 -4.116301035103301365e-01 -2.269677075212040984e-01 2.001791356413576417e-02 9.158491940149819932e-01 4.018932694124486282e-01 2.332785654953881682e-01 -3.602558677018425914e-01 -1.839128809755645744e-01 -3.553199741522877764e-01 -2.593967496544304363e-01 -5.158274863878277439e-02 1.420836366273360053e-02 1.194278655900682569e-04 4.397752440279633496e-03 -1.591104635883349154e-04 2.031150891270653430e-03 1.380190196633786616e-03 3.653410523057307874e-02 4.583253597002137636e-02 -1.847974156484860908e-01 -8.555003551873716083e-02 1.309516733786006970e-01 -4.246008397817045421e-01 4.115701180632749256e-01 9.327918864378481612e-01 -1.526063488529991741e-01 -4.728764205323302550e-01 -3.872926648847152542e-01 -2.489579696262602948e-01 -5.296368426050905576e-02 -1.933610899457253313e-02 -7.216506638805811552e-04 2.235265449215885795e-04 -2.536651159418141241e-04 0.000000000000000000e+00 3.760876011458022240e-06 -5.386780769170481514e-04 -8.953944640483208275e-03 2.523975306855729683e-01 1.046935807361704801e-01 -2.286864212138500774e-01 3.058356210340863572e-03 -8.437015222833732508e-02 -1.331583802132503824e-01 -1.571029730682095005e-01 -2.149326144336388411e-01 -1.653960768349992672e-01 -4.292079252816172891e-02 -9.313734355056918490e-02 -5.573498442559861321e-02 -2.006026006609214901e-02 -1.836157836703390537e-04 2.115208975688175096e-04 0.000000000000000000e+00
-1.483422512194564780e+00 0.000000000000000000e+00 0.000000000000000000e+00 -8.103442332134234592e-05 6.147715364493069184e-04 -1.149873905521112995e-03 3.700093018142085188e-02 1.363020582012015591e-01 1.074441510790856980e-01 2.623723310571961925e-02 -7.831831423910595724e-02 -2.745080799034567420e-02 7.633843788459770963e-03 -1.854497298177665158e-03 -1.177587890838040566e-02 3.604709333730767625e-03 2.412643082304266173e-03 6.099819327246732673e-05 -2.689823936152237150e-04 2.043301264961860881e-05 0.000000000000000000e+00 7.316617160169821590e-06 -1.230958846582115270e-04 1.107202188775813830e-03 -5.226243699395379493e-03 -2.559739260735112432e-02 -2.891951760602535018e-02 3.326247062124311205e-01 4.659303302821660164e-01 1.625814743837571963e-01 5.177098167713449495e-02 -1.455702669485665623e-01 -8.301136929774446949e-02 1.140050176046683225e-02 1.440660044769207782e-01 -3.590043105837702891e-02 -1.574942380322602239e-02 1.360316960111562432e-02 1.392465670676288313e-02 1.363462457232930735e-03 7.562216827849022483e-05 -3.944448213850342141e-05 8.899938381247897868e-04 -3.956936138130611423e-03 -5.305491479019231599e-02 1.214948482961755033e-02 1.758985785966497295e-01 -3.045019918898240197e-01 7.400307803044972044e-01 1.731200235776764629e+00 1.191849235903249760e+00 3.234179048877685592e-01 4.723486431399194219e-01 2.278503167965841292e-01 -1.825993945699640741e-01 8.991607886004734929e-02 -7.173376864731433045e-02 -1.474903358557692334e-01 -1.894230452202667614e-01 -1.025574989838195367e-01 -2.392524328595556013e-02 -3.695382509503283733e-04 5.036304866466832439e-03 2.545667613279643457e-02 -2.989388630326300644e-04 -1.695951766378567260e-01 1.755490808050111373e-01 -1.822818135780956139e-01 2.966508643409162538e-01 6.053790162186460933e-01 4.891080896392010491e-01 -5.414058370107981411e-01 5.550430986180548108e-03 3.714971602292362340e-01 -1.695199801762899139e-01 -2.947632887781105326e-01 -8.916056253844625856e-02 -2.887564994789190154e-01 -2.251618785181849769e-01 5.220639189164734129e-01 1.708308558927634779e-01 -1.797566541282637860e-03 2.388025470702001551e-02 1.005527083040060332e-01 -1.942034652804632000e-01 1.695666109816685863e-01 3.475136693508905639e-01 4.370194726360684401e-01 -1.101531276185273994e-01 -8.750345930548217854e-01 7.634797944813119519e-02 -3.992806385452761231e-01 1.209402818045140215e-01 -2.325707827777202114e-02 -4.155148922616311857e-01 -1.227734102379502146e-01 8.825605986564175054e-02 -1.626916919025468422e-01 -1.328587340404216166e-01 9.473144027483968443e-01 4.605406910145130039e-01 -4.025579438412033723e-03 6.721293769667074924e-02 7.464240142846791104e-02 -2.102987821832813520e-01 4.252471399313553224e-01 1.342328571275515636e-01 5.900290822518204914e-01 5.202091232288882372e-01 -2.314518102750776352e-01 -8.658619260984229404e-02 -2.509552548767570723e-01 -7.789798363110203572e-02 8.167453347843062206e-02 -2.413233408331151297e-01 4.958349322259895248e-02 -1.552195746318067171e-01 -1.552171077246731756e-01 3.336412794965670225e-01 2.010086809665286189e+00 7.139344983267633671e-01 -5.181538198582207391e-04 1.457101951495769036e-02 2.002350016169883451e-01 5.370974648287678288e-02 7.009595412950139770e-02 -3.515664709702736035e-01 5.867993961124093882e-01 -6.154515383438254397e-03 -5.011193410643154100e-02 -3.477532169216517310e-01 -2.530288405759710535e-02 -2.232044064478264644e-01 4.097387664220450421e-03 -7.256192918967954708e-02 -2.819472990193131468e-01 4.031746071128387843e-02 -8.909649543842118602e-02 3.786537305137120668e-02 1.006040896111776828e+00 4.823232484333486170e-01 -2.503781874691850262e-02 8.182670266325716216e-03 1.003649293491400973e-01 2.292787634806015551e-01 -2.998641472275114656e-02 2.613048546737906097e-01 2.753997216742227749e-01 3.060471157903977418e-02 -2.915408874707383635e-01 -7.514584606615223872e-02 -4.541673584847456535e-01 -1.581367537079872987e-01 -1.271186611459071414e-01 -1.834826607515807340e-01 2.481459685830307849e-01 -3.731750383567980500e-01 1.961586765677253430e-01 -8.161108520273491207e-02 1.491112953004877895e+00 1.185442594628050239e+00 -3.223987491275287498e-02 -6.503990413847875185e-02 1.182110875773629069e-03 1.526201881987999942e-01 -9.563390200095006621e-02 1.061210940161392002e-01 2.500711070525977187e-01 1.046179104433149487e-01 9.748564408987381302e-02 -3.725118260855717622e-01 -1.104071818547361916e-01 -1.070773025991270805e-01 3.586840249986580215e-02 5.217833634868024317e-02 -2.149646060195284092e-01 2.246152630258821392e-01 -2.372488704116987313e-01 9.624325690887845786e-02 9.561571495704512813e-01 1.034762099246117506e+00 -4.632921711860892196e-03 2.351013485273615866e-01 -3.053490104836689006e-02 -3.285791481515976109e-02 -1.176320242577873210e-01 1.725205533853918227e-01 1.958570718687643597e-01 1.602587255302551084e-01 1.221518748070773985e-01 -1.282349976279195669e-01 -1.558853551598751719e-01 -6.062157655696698288e-01 -3.554743006675442629e-01 -6.426663118912709360e-02 1.474073260899230742e-01 -2.859837579556788120e-02 -5.320688746919700896e-02 -2.679472455657337382e-01 8.098254680930172533e-01 1.174225250256927033e+00 -4.662534443245273941e-02 9.338651794098495884e-02 -5.540238690951918357e-03 3.707505312399864139e-02 1.975662369560564069e-01 -4.241981465482541624e-01 3.399849092931190864e-01 1.983321714062926122e-01 -4.090319093354098934e-01 -5.285313182626711903e-01 -4.166501405820821624e-01 2.226628181431977160e-01 2.536374932697181284e-01 5.827376066021491136e-02 -2.494999921997069214e-01 6.484866020957895383e-02 -3.071714661979027886e-02 2.494445774075203237e-01 8.702376495189283467e-01 8.016295217447417798e-01 -9.249151256482045225e-02 -3.638640143352929457e-02 3.506230135025477646e-01 -1.371252951015565769e-01 1.484780218386171635e-01 -2.768947850756929840e-01 4.677599432732394424e-01 3.007798961500247614e-01 2.442357068354423788e-01 4.234848175493171468e-02 4.434927597702559288e-01 -3.421737611704616655e-01 6.827601823157915251e-02 -3.117953858900408548e-01 5.684439051248281125e-03 -3.271009270226379884e-01 2.892712962439191737e-01 -2.133329078726047823e-01 1.158718885449470992e+00 1.226528703883913440e+00 5.108013731230194240e-03 -2.406940555044310981e-02 1.885827519993014678e-01 1.555772518843156482e-01 4.545003121062748952e-02 -9.376183485583568233e-02 3.813975335374979875e-02 4.837149219840631287e-01 1.378372926755804528e-01 2.837124159437148102e-02 -2.055530355984546420e-01 4.610077446499838971e-01 -4.216304285639042859e-02 -6.997150958715024627e-02 1.239258121145072333e-01 -2.751105810393447149e-01 -2.998601890783962332e-01 4.725766409660679679e-02 2.629391709771722319e-01 9.135391924182725276e-01 4.535854841916976687e-02 -4.804167841787646692e-02 1.349686961789967332e-01 1.339254697116007975e-01 -9.439487777748853392e-02 8.837736253684988497e-02 -4.578240309231276783e-02 5.418590681624358557e-02 1.034771777231812961e-01 2.670832739977683709e-02 1.554983361368171835e-01 1.099315883715031028e-01 -6.222980099643594942e-02 -1.619759348975661761e-01 -3.360305228122132531e-02 -2.259785894483483382e-01 -1.717559579605155706e-01 -1.978993582218558644e-01 1.963240485696066684e-01 2.457531086981445123e-01 5.861414764038381381e-02 2.547351267597462443e-01 1.445895937830052325e-01 1.339396843020787264e-01 -6.537740123707203033e-02 4.159736875111808008e-02 5.053523340409190462e-02 4.653266341076886525e-01 -1.314110288645602975e-01 7.755049413521017398e-02 -1.150096260848731122e-01 2.527413360788577368e-01 2.425429802846960220e-02 -4.471324408736611355e-02 3.000473479912407412e-02 -5.458711314847897178e-02 -2.373007843829708086e-01 -3.434860559949192149e-01 -3.467789026545499698e-01 4.611703478743713752e-02 1.923188371956992965e-02 1.216984746169143261e-01 1.452757099506441218e-01 2.336947978345199906e-01 2.957263316123672769e-01 6.611219507146803495e-03 5.164329792653945400e-02 -1.452449566940570147e-01 5.397886276769719993e-02 1.775049206360934662e-01 5.806696382887890917e-02 1.991116158283011695e-01 -1.748137706792578239e-01 1.120795960054034590e-01 -1.409970929547037233e-01 -3.942065423528090529e-02 2.719729036598889788e-02 -2.478515951374175019e-01 6.290731284678971469e-02 8.116901799378708482e-01 5.824962891147019393e-03 -3.536764371502161552e-02 1.279075755289089678e-01 1.521531526357561559e-01 2.289898087409154015e-01 -1.896573031270132881e-01 3.665101219957050960e-01 5.349510680401732277e-01 -1.131546452587526563e-01 -2.048994309318526164e-01 -1.782631690149176773e-01 4.556414643801093289e-01 -3.240904945333560327e-01 -6.809272200069592385e-02 -1.563852599024476153e-02 -3.077989097424761386e-02 -5.118154275842814460e-01 -7.179693103175674995e-01 -1.471173055837438903e-01 2.691178733093737563e-01 3.085081452315183940e-03 -4.880036039079838073e-02 7.237842691592409616e-02 3.572538606862840638e-01 2.348862937784057803e-01 -9.302403131828647365e-02 -3.644092012178579143e-01 1.076851487039331007e-01 8.314532590939912801e-03 -3.941919430826399395e-01 2.726396839394815697e-01 1.311288775595358461e-02 -5.662365275172139001e-02 2.345541095848933666e-01 -3.092923372388671766e-01 -1.202592402044610487e-01 -4.695644932355644285e-02 -6.258315561589113118e-02 -3.993108687689186226e-02 -1.736590761971596591e-02 -1.304335168591750640e-04 2.263785364030930763e-03 -8.031674534378972427e-03 -8.867806861667148002e-04 -1.224503610745796417e-01 1.323142003102673880e-01 -4.004871428165548419e-01 -4.122462628637481030e-01 5.055766975448711120e-03 1.281646009246636964e-01 2.783660634820475654e-01 -1.873817086031821511e-01 -1.588763382308405747e-01 -3.949604506630105538e-02 1.103047615484157168e-01 -2.365125764133663988e-01 -1.493791531595552169e-01 1.081194020398440828e-02 3.607630010936983649e-03 -1.005375086019397526e-03 0.000000000000000000e+00 -4.806749048805181846e-05 -2.518775885612349087e-03 1.847829292838052556e-02 2.152506401971236438e-01 1.420241540843933947e-01 -1.863616589101469712e-01 -1.615652213986837685e-02 -1.999202535731206543e-02 -1.049479431742290567e-02 -6.510065764667533061e-02 -6.256917142034182366e-02 -4.657835812976649642e-02 -1.423339165339012821e-02 4.698180076850840513e-03 -2.749313975749357458e-02 -3.001403338674390325e-02 -4.682952347275779088e-03 6.487644088962259310e-04 0.000000000000000000e+00
-2.513295646731899868e+00 0.000000000000000000e+00 0.000000000000000000e+00 2.472127667184386476e-06 -2.114248185729898687e-04 3.455362410248859206e-03 9.188684657770875008e-03 -3.075590622086401410e-02 -6.643676015606218843e-03 1.914850939632679883e-02 4.688898778251011923e-02 1.613851990426238767e-02 -1.209311103465760852e-02 -2.340470988217421139e-02 -2.745473560936381383e-02 -4.021469557910777037e-02 -1.498781561905425039e-02 -4.004283812317778121e-03 -3.084181428050138812e-04 6.712455493274559204e-05 0.000000000000000000e+00 4.570416557888600548e-05 -4.076312438686806620e-04 -1.094207571019728282e-03 -4.610228629302928413e-03 -1.129076208217589736e-02 3.850937330725780899e-02 1.139026876849472472e-02 2.052591917419565801e-02 9.478260985360857649e-02 2.201506010037877492e-01 1.343181027666273120e-01 1.175545473717884565e-01 2.568885551282839574e-01 3.173531591030392951e-01 4.735196296253547654e-01 1.864680060080410873e-01 5.944745495032360827e-02 1.849123600527849756e-02 1.138201338806365051e-03 9.124927770196558565e-04 -4.143802019934638933e-04 3.329077294475692693e-03 8.573369248956191555e-03 8.522656008927119442e-02 1.274849790074878975e-01 -1.354395141882527853e-02 2.556809835156591548e-01 -1.006206661723936108e-01 -2.134006333570628577e-01 -4.178445880285358571e-02 2.552101602642278810e-01 4.968652436455404109e-01 1.226098322363359250e-01 -2.874009388775735085e-01 -2.439857288605145336e-01 -1.882364341098532456e-01 -4.263992815593663915e-02 -1.574944371307355206e-01 -1.795775989087440572e-02 -1.035214724431722522e-02 -1.368825515434992810e-03 1.025627364965254855e-02 7.268413197532884451e-02 1.352225615785055679e-01 1.747864330114795584e-01 5.839166001933464994e-02 -4.334064565485296061e-02 7.568301023901641278e-02 4.328584785124451884e-01 6.777697253774615793e-02 -7.951879517326571056e-02 6.264191626078292885e-02 2.494005089664523833e-01 2.946305245471692036e-01 -1.472140650989336996e-01 -4.844382409988300386e-01 -1.494487149978809826e-01 -8.594914927713912522e-01 -9.935137701974258717e-02 -4.744233905881963670e-02 3.757919916799650818e-04 -9.429525251840370839e-03 1.545592604359619093e-01 1.130179252288334435e-01 -7.206803912824182035e-03 -1.732319525957254081e-01 2.407394711164120155e-02 3.954328517627056505e-01 -9.191448381363546971e-02 9.689243011170092790e-04 -6.534556431589382264e-01 -6.848869334354240612e-02 8.123911844439460350e-02 -2.683613975665015139e-01 -2.192177593633203303e-01 3.912294731679475390e-01 2.741206501924232652e-01 -4.261623928818050189e-01 4.179345082667512007e-02 9.771553998987551892e-02 -7.871234584543728915e-03 -7.521598749012833873e-02 1.888287103948257939e-01 1.821748092376735129e-01 -5.805229181972719754e-01 5.800234064005281853e-01 -2.154521406891772572e-02 2.605110120612494362e-01 1.664164778188469418e-01 -1.809978422727600011e-01 8.653823266849453022e-02 -4.060366852460776943e-02 -6.445035803385190665e-02 -5.757698412674592744e-03 -4.230897385968207525e-02 4.744401192652787369e-01 -3.410367779547210931e-01 -3.842555871369307541e-02 -2.128059020766987497e-01 1.396277464543682900e-01 -1.987875274254530603e-02 -1.661615564115587196e-01 1.222356428629138847e-01 7.809115633432825443e-02 -3.859589267193725970e-01 2.126738782903340730e-01 4.949309859008858559e-01 -1.725599261661649453e-01 -1.371409270854586915e-01 5.581504533818947011e-02 -4.420369221743893073e-02 -5.021493559691242448e-01 -4.323128306205538396e-02 3.717256797183998707e-01 2.453251567956604706e-01 4.691910132658186350e-02 -3.870696467588207179e-01 5.028815150408116885e-01 -5.943352235732274336e-01 4.503737952587936327e-02 1.498904518040311724e-02 -1.630218744589196911e-01 1.483695721665050093e-01 1.646963576633724835e-01 -2.739897296887912614e-01 1.819018297067412915e-01 1.854843725301063562e-01 7.079273729252539837e-01 1.677675545621251096e-01 -3.701550093906976202e-01 -4.009401547207402383e-01 -2.179411865506859503e-01 7.496908510407009896e-01 5.478393695633063665e-01 1.101444336656733636e-01 -3.896547860943430641e-02 7.121390307592125046e-02 1.306480877250916217e-01 -5.823700310774349020e-01 9.303584480273618951e-02 3.538844038265469283e-02 8.691620285835036791e-03 4.724420937940705667e-02 -6.671184879950207980e-02 -1.148251987953482871e-02 -2.386564579615199633e-01 2.782024268772292364e-01 -4.158619093383789100e-03 3.507862165937407628e-01 3.686717810353924984e-01 4.018719984799670186e-01 2.127978096695681831e-01 1.332743419871472157e-01 1.234920358750734859e-01 1.690964134049466883e-01 -2.897828962138004893e-01 7.080471898923306195e-01 -3.033370113600071249e-01 -1.592027313831104463e-01 -9.310626051201215808e-03 -9.091271401860272217e-03 1.610760167369760243e-01 4.065166220514835338e-01 -2.258106845258653350e-01 2.650842715580068454e-01 -1.129685406429614125e-01 -2.575788464636649122e-01 4.277533655875149776e-01 9.258984194127066747e-01 1.422296765617136471e-01 2.511206580294143009e-01 5.104088891882487822e-01 2.912434789461102944e-02 -1.550030785969701563e-01 -3.836343827652521909e-01 1.487466861059194012e-01 5.980594612382434949e-01 1.613747783048884721e-01 -6.193626378572097968e-01 -1.017831765743802686e-01 6.381880515214047311e-02 4.989530142609698848e-01 1.739979064026045755e-02 5.476424561428042126e-02 6.727996542467640229e-01 -4.100635993471372087e-01 1.763088236445680690e-01 -9.029828879087291593e-01 -1.130680859619591916e-01 2.128664940860332949e-02 1.938489129038009073e-01 -2.949279200311970967e-02 2.224394246641065997e-01 -1.667997207704836060e-01 -9.434458931495282030e-02 2.978245679640833046e-02 -1.562510977264774115e-01 6.345298751389319980e-01 -4.820359333676929037e-01 3.142085127734297045e-01 1.024997570271086456e-01 1.780698837898321840e-01 -6.675659330536974634e-02 2.960777144135753186e-02 -1.072888484292655181e-01 1.136006368895430413e-01 -6.266549961528564139e-02 -2.879734736690471308e-01 -9.758648126809915668e-02 6.182240371117744271e-01 -8.896513008427660296e-02 5.253140331049191980e-01 -2.077449067324440568e-01 2.495985341915781253e-01 -2.263245949185764827e-01 -1.743870257766155230e-01 -1.582089293643895722e-01 8.722533018303813002e-01 -6.114471244844513764e-01 4.294177204416855242e-01 -2.727481273635278675e-02 6.010577680330723149e-01 -3.162545831020370235e-01 -4.681752737912610318e-02 6.231655712842802952e-01 -6.016747744042921786e-01 2.373144411600177917e-01 -7.633878135527943920e-02 5.815118858898927351e-02 -5.564241842067616517e-01 1.646922840694199641e-01 -6.561982634598467756e-01 2.504328480074806684e-01 -2.151654546177451111e-01 -2.732171325638662121e-02 6.900673107216935553e-02 -5.281289493489943476e-02 4.238236076475854763e-01 -5.644022658391800729e-01 2.716171498734478718e-01 -3.262426669238436411e-02 3.422602386700956956e-01 -2.559976058206241967e-01 3.620672320597925209e-01 -4.205159985509130394e-01 1.224093089103136661e-01 -1.676005569484817839e-02 -2.952488295692192732e-01 8.329380312217284921e-01 -1.571044811300554567e-01 -1.032804096035506158e-01 -2.746175369940332955e-01 -3.361683532782479000e-01 -4.056267088411018990e-02 2.985983847360013793e-02 7.929194571470771224e-02 4.278744766166874824e-01 2.623385182089651435e-01 3.105001776996286003e-02 1.694658782056645066e-02 -4.564432196403245268e-02 3.838438390701418013e-01 -4.892827258850720451e-01 -9.407553454343117738e-02 2.726802810622646067e-01 -2.234006468901989506e-01 -4.075868928071658959e-02 6.479599206043248349e-01 -6.873203479420325612e-02 -1.811983857429587674e-01 -4.162905252036561143e-01 2.600566052057762811e-01 -5.637833622096042469e-02 -4.572810390327730068e-01 -9.003804916432624206e-02 -5.989440492337854138e-01 4.284761550604829217e-02 5.191821874626748601e-01 -9.142530003363817659e-02 -1.270581244565870405e-01 -5.545653345871075224e-02 3.101092298731706887e-01 2.049273178942749019e-01 5.926779505778159013e-02 6.174127172522282658e-03 1.594383199182013156e-02 -4.766074525977892495e-02 4.057034841615089205e-01 -4.551863455922176838e-02 5.148910491650353638e-01 -5.267387182793854539e-01 1.246059782238925599e-02 -1.864852320131115682e-01 -2.050356023537599527e-03 4.779509375042340080e-02 -3.279991925642996575e-01 2.275425231516481905e-01 3.730415225924104128e-01 1.211781100536712952e-01 -2.145107625199112883e-02 -5.112684095417899428e-03 -3.141976707310180361e-02 5.249064045773324527e-02 -5.778637315250072515e-01 1.001312775562866325e-01 1.211947378582537982e-01 3.375904732514805051e-01 9.572123761901358829e-01 -3.986055871299174491e-01 6.104977928529999737e-02 -2.712944462676952773e-01 -9.039187672839094079e-02 -3.727210383010188810e-01 2.294107754077820416e-02 1.064801288023096981e-02 2.054013764108979512e-01 -1.105728980541533998e-02 1.944581940053682900e-02 6.762011911472856629e-02 1.992044305294288567e-02 7.426447553737009454e-03 -7.600901267516729787e-02 4.477806132287021762e-02 -5.191372664651701385e-02 -3.390265410764852771e-01 -1.680118388456529610e-01 6.470132579919614102e-01 5.446418152133751522e-02 7.441427975439245390e-01 -3.024432613263894898e-01 -2.060638033172545736e-01 4.412851137998137219e-01 1.993450996282664089e-01 -2.838516909712788805e-01 9.294430787962090768e-03 -3.103666852885721417e-01 -1.319240933867046051e-01 6.384740082260094429e-02 -3.254552630313961581e-02 1.289015575435304567e-02 -2.386846844385007149e-04 3.160207333813809874e-03 -4.226727158490748738e-03 1.088263898443348615e-02 3.105881284376232204e-02 -2.956780308057796458e-01 -9.916340526327942495e-01 -7.274556269158017896e-01 4.157471139743220134e-01 1.678290879001137770e-01 -4.450273516100575755e-01 -3.071826039275062925e-01 -1.012678072080036296e-01 2.403584524458357227e-02 -3.204488320648190558e-01 1.894785398936325513e-02 3.473002795068821924e-02 -1.247805897884821623e-02 -4.245443661693433339e-04 -9.586910032219344516e-04 0.000000000000000000e+00 -5.163750597556410703e-05 -2.145386486580777401e-03 1.505670720996368783e-02 1.809731202097341618e-01 5.066704262243497681e-01 3.125953420554594686e-01 -5.805138822623100159e-02 1.162316492800201662e-01 6.711855425167721767e-02 -2.702633377087796177e-02 -1.216405864881574261e-01 -7.133835637535854146e-02 -2.859287834466621436e-02 -3.296323145629831419e-02 2.241951902885091184e-03 -2.422490880974492809e-03 -3.198697324214533171e-03 2.828937836511576272e-04 0.000000000000000000e+00
