-2.790713594331982961e+00 -1.767199959307248491e-01 9.095091311088410180e-02 5.114162057770954561e+00 -3.494444894691841910e+02 1.493552962025587476e+02 3.277085136756454631e-01 1.017210900481552471e+01 -1.697725482712655776e+00 2.064667699701203674e+00 2.109694823385325435e+00 -1.309551803494823616e+02 5.614656205487881380e+02 -4.451031736215227284e+02 2.023568608920868428e+02 -2.581426381663186476e+02 -2.113520319444032793e+02 3.497934298952459358e+02 1.984363247439963743e+03 -1.652789545493506012e+02 -7.643172422761779217e-02 -2.330184164594447793e+01 4.596887370120384730e+00 3.201186178886520793e+03 2.940187512318652807e+02 3.246881864937591899e+01 -9.891601757539461914e+00 4.397348566154789751e+00 -2.437670381885254756e+00 2.144646268606720696e+00 -3.987218834997747763e+00 2.027458091934931872e+01 4.465493635779517945e+01 -3.544242122265075068e+01 1.687809611488205519e+01 -2.387931407241410398e+01 -1.266266309124694089e+01 1.417305349273374304e+01 1.581476872968114549e+02 -7.304229756161257683e+02 1.135487900054431520e+02 3.255225934418733232e+03 -6.591166353374021128e+03 -4.342232835310423980e+02 -4.481089068834080535e+01 -1.695949058520227481e-01 5.609079415419273573e-01 -8.758717022931890028e-01 6.440779841698649477e-01 -4.594551873040586543e-02 -1.862732848600160196e+00 5.118609601793195907e-01 -3.462114869286665453e-01 -1.551744409616276243e+00 -8.891843469820059909e-02 -6.625169224801652490e-01 -1.122076650969120237e+00 1.357887636089202488e+00 2.504473026402052938e+00 -1.304634606978879674e+01 -1.781222219988194411e+01 -2.679075575753767043e+04 -2.404377070440968964e+02 2.141591412102570757e+00 1.424506300457323960e+00 -1.408677130373490627e+00 -2.664560200144965307e-01 3.466755022866703229e-01 -5.134486379627567487e-01 2.896507914740595879e-01 -1.620531215916125589e+00 1.435795006821294351e+00 3.909987514115442764e-01 -9.729628379317318831e-01 8.293730651578812285e-01 -9.618688223803868453e-01 4.272429266730224384e-01 -1.103329281291891562e+00 2.268271666600213621e+00 -1.113269890321333833e+01 5.743112694656019812e+00 3.621267484947573394e+03 -6.705704041259559745e+01 -4.840444710592009869e+00 -1.174414906968763717e+00 2.317748392697751569e-01 -1.039454541250108832e-01 2.773853853991141705e-01 -3.539628970835337896e-01 4.485742116717545969e-01 -4.698846030038339450e-02 4.806625485155251454e-01 -1.851097142431399334e-01 7.043232238087284713e-01 -6.187436401231138916e-02 -3.492177310283182123e-01 2.717277107592224183e-01 9.007259386408819068e-01 -2.730345887953191664e-01 1.562862247181561415e+00 -3.185642499845954490e+00 -2.572213539261501865e+02 4.743295682160351134e+00 1.210476588764763051e+00 7.410264144177887147e-01 -3.018022196606828800e-02 2.826695601449102924e-03 1.440392956281435488e-01 -2.460112175985855743e-01 -1.146087028255067253e-01 1.804920767948772209e-01 -3.646299512526951503e-01 1.016815434831613629e+00 -6.926164600113651204e-01 1.074248047047586141e+00 -4.413911006010096116e-01 1.305904154152912611e-01 -6.635730242330097894e-01 -1.346271562174656822e-01 -1.681876048095971576e+00 1.048268949048981824e+00 8.781458304838815820e+01 -2.960471297728958007e+00 -1.166123807280008862e+00 -4.691935791651147269e-01 -4.638581011419375955e-01 1.546627978835886097e-01 -2.981218626643453717e-01 2.833644439289741968e-01 -1.287816379519313159e-02 1.074131789975609763e-01 3.574606832663107525e-02 4.408523918733209257e-01 -3.522271296246515249e-02 2.537967769529672069e-01 -1.133242004941976688e-01 1.951824574548055580e-01 4.085835938688617830e-01 -3.773949649250027960e-01 6.112175767948997418e-01 -1.899761152157196875e+00 -7.728602060037133015e+00 -9.272681582365800423e-01 6.276275651598126615e-01 6.382285112117358494e-02 2.067792385173845560e-01 4.976436641508996672e-02 1.634858366600155932e-01 1.545534735213038857e-02 -3.302636039336448448e-03 1.372721537202963304e-01 7.218441781413602598e-01 -3.669494022718282622e-01 1.366544772080118264e-01 -2.004888156944844013e-01 2.591821959435378631e-01 2.747984235724629798e-01 -3.129480874576273663e-01 5.609762304431598068e-02 -8.500742170797082053e-01 1.127618229942015660e-01 -2.065125505783953486e-01 -1.904533354610293827e-02 -8.437564999241260466e-01 -3.184405101865195320e-01 -4.568222641577648346e-01 7.991889170962451772e-02 -2.857956678886921509e-01 6.100133959215270352e-02 1.022188839717870223e-01 -2.512387806414579927e-01 -2.017325274949683944e-01 -6.405827859076396180e-02 2.232190129456412819e-01 1.496340287729935881e-04 1.565238725134321385e-01 -1.519076697875973991e-01 5.230978004935451509e-01 -2.572548656294983971e-01 -4.226544538886116698e-01 -7.050419076824994136e-01 4.440715204983405329e+00 5.424925258968329445e-01 3.823743094947893439e-01 2.885108348395988287e-01 2.897953800216193088e-01 1.640416244244065069e-01 2.000186984861755946e-01 3.317164218231027917e-02 -4.829170000263616203e-02 -1.479761405370183525e-01 -3.823661170229897266e-02 -4.305829365714473056e-01 -5.156017490482014409e-01 -2.655178705966250163e-01 4.366523089485667697e-01 -2.521329802455340996e-01 5.120872291480438321e-01 -2.607083884153809095e-01 -1.569267835229624097e-01 -5.764527659758869049e-01 -6.879939375497770015e+00 1.694441979537941734e-02 -2.435025936811285874e-01 1.625458721379260396e-01 -1.516763135665684104e-01 1.684773477028045363e-01 2.049979497447225185e-01 3.651857836683234382e-01 -6.927904256435652997e-01 -2.465951460763164960e-01 -4.937314489733637402e-01 -2.559972094816487242e-01 -1.422154810343272402e-01 -1.289955497325792066e-01 -1.482103489263408846e-02 2.693514466417923359e-02 -1.183203067903093597e-02 8.028046719380199647e-02 -6.374505310585192319e-01 -6.017617162819419718e-01 8.138358088354777919e-01 -5.359992004692912815e-01 -2.847045122596938427e-01 1.507910623368076131e-01 -5.852155649620982558e-02 2.694212941188851573e-01 2.716051247040383032e-01 1.237953289356426012e-01 -2.966260336053352376e-01 -1.361261846217303173e-01 -2.616745346766862212e-01 -8.130641143186778663e-02 -6.697869762678578809e-01 1.660491375500896538e-01 -3.158742405456109736e-01 6.566094504119348585e-01 -1.064166895898637222e-01 1.351951702977203240e-01 -2.367099546302142699e-01 -5.282556673718374896e-01 2.017501505586210442e+00 -1.896466257983746573e-01 -2.357152743213930535e-01 2.198621771373012734e-01 -1.771684460198059696e-01 6.067154720517820010e-01 -4.234499582935598028e-01 4.785785614834026092e-01 -1.056516602552051154e-01 -3.001848851520207972e-01 -3.062259187531708449e-01 -4.577217488192673045e-01 1.143637687192722296e-01 -2.620848821674428564e-01 3.212613913434978485e-01 -8.147445198283946866e-01 1.608216818508054757e-01 -2.027358060826962571e-01 4.018807197606655279e-02 -1.073633096499378325e+00 3.724152025215374806e+00 -4.575671079066410130e-01 -5.319828710113654324e-01 -1.120353776040303728e-01 2.650759611370432367e-01 -1.125037695662456372e-01 3.588946079024282199e-01 3.476564343280870162e-01 -1.516882466507354366e-01 -2.523004939079100950e-01 -2.760746549503210190e-01 -1.723321195422613528e-01 4.182685554340537237e-02 -6.084638022433352944e-02 -4.398534807685905434e-02 3.488085149416946251e-01 -5.890956835469296493e-02 7.346593114544361924e-01 -6.817089012467647535e-01 -7.300737062697493229e-01 4.017345601583542702e+00 1.680996984776461645e-01 -5.479544144459964627e-01 4.138125820973357349e-01 -4.419615950737068033e-01 2.519013151103592918e-01 -4.343699227575115174e-01 4.035811830899262986e-01 4.647992607580135882e-01 -1.288651726842715561e-01 -2.786474107682010981e-01 5.151464617778884758e-01 -2.396123472696132239e-02 -1.732187390944375238e-01 -9.893473358933135842e-02 -5.301483385588738884e-01 2.420861723812777200e-01 -1.396097752729630770e+00 6.835988856534811475e-01 -1.543421868414945664e+00 -1.719164526037229734e+01 -3.106725281893830015e+00 -3.080223150677880994e-01 -2.828640711754744075e-01 2.823578363877885522e-01 2.217072939401987242e-03 -1.279961611182045544e-02 4.942069307704670678e-01 -1.209453467805445825e-01 2.759188444867342049e-01 3.885117763564873705e-01 -2.912325988271184940e-01 -3.949653027969901586e-01 7.940182885266864332e-01 -3.511850901350364040e-01 4.594886893387268856e-01 -4.629261592698412642e-01 1.551936265121881320e+00 1.470330543623958874e-01 1.888692598543775603e+01 9.180010492705514480e+01 5.775192042756657429e+00 -1.387798960676803972e+00 -2.394033580627876745e-01 -4.523040354890177639e-01 -1.501298965450985623e-01 1.201656501800947296e-01 -2.550440297744529516e-01 1.276686612035270230e+00 1.563297399658516440e-01 3.895564223590808339e-01 -9.766870996933008087e-02 8.500220978687309525e-01 -1.497418107489266959e+00 4.100846977952272709e-01 -1.157441938168162210e-01 5.125737192403221343e-01 -5.281417317486329921e-01 2.055626769525360942e+01 1.932962124237456010e+02 2.069294421339873224e+02 3.577477538881794317e+00 9.066201342614021996e-01 3.767944781043297553e-02 -6.322922447914791633e-01 -4.251612618722391268e-01 -5.160549695156362304e-01 8.363067071051801804e-01 -4.255327816173917199e-01 2.861529105272353490e-01 -3.637785720205748419e-01 8.566939470851409055e-01 -1.220812633230138999e+00 1.509484332040187837e+00 -1.078537628097066658e+00 6.237699914310823601e-01 -1.074598601529032749e+00 1.081354178366382257e+01 1.750681969822944666e+02 2.251501815847237594e+03 3.323180004291236401e+03 -3.053831348383682780e+02 8.711673278357920935e+00 -1.052883626131006167e+00 2.343683251751542684e-01 -1.184297931835430973e+00 -1.063249339092010359e+00 -4.849629365410109472e+00 -9.615606256690512055e-02 -2.030664374436867092e+00 1.092843424875979963e-01 -9.456661061283373471e-01 5.848444281725306837e-01 -1.190160689522357984e+00 1.421659116391055022e+00 2.258360843097506176e+00 1.739017075073070373e+01 1.637644197179979528e+02 2.214772710909252055e+03 2.599265412981621921e+04 5.723174788754221985e-10 -2.610489377327394322e+01 3.628259456299128942e+02 5.014845082230021944e+01 -2.143023503053882450e-01 4.043320199314734964e+00 -1.184578370169134587e+00 9.712220310987220273e+00 -7.733817592916338413e+00 2.056667262950217179e+01 -3.501280534205193362e+00 -4.386844124788922272e-01 2.985229983847148105e+00 5.367686550488599551e-01 -1.311262572354573308e+01 5.208508737507543174e+00 1.998636639587539321e+01 -1.021020016555376060e+02 7.396200195439291747e+00 0.000000000000000000e+00
-2.177089445828663372e+00 1.088870546191316180e+00 -1.250369238089206192e-01 -6.333843192894073582e+01 1.763815336452789779e+02 -2.045915849682692169e+02 1.419598729804593518e+01 -1.507973955660486354e+01 1.617295890468415109e+01 -2.381788492115970257e+01 4.973540197835882282e+01 -9.043106661622914544e+01 -4.531350575631313404e+02 2.903934137292526430e+02 1.869211806687817443e+02 -2.768564178825854469e+02 1.682517871887821457e+02 -5.133630492123920703e+02 2.207875640981801553e+02 -1.187917861953337706e+01 -2.767896121261870235e-02 -9.267502883909401135e+00 5.415830941586173140e+02 -5.368796238184266258e+03 -5.056699227289936971e+02 -4.563748177215171609e+01 -2.765191664656185822e-01 -3.305769769755215748e-01 -7.238223422920100347e-01 -6.335004587069761328e-01 6.698175282490410609e-01 -8.417154685237619560e+00 -4.500370659280793006e+01 2.644448765985271166e+01 1.655372419009972873e+01 -2.380464039684557065e+01 1.212169129797223377e+01 -3.729307883149158442e+01 1.259906514702925051e+01 1.800374155292520300e+02 1.024310697500397509e+03 2.902427432110998780e+02 -1.411405314038041979e+03 -3.283757452087156707e+02 -3.411156193974420603e+01 2.291040733509589700e+00 -2.875309427636434378e+00 1.763941538871392822e+00 -1.536823732474630333e+00 9.971503135307884236e-01 -7.637608933999331384e-01 3.172978188605384275e-01 -1.765624044068403009e+00 -6.492601811648341936e-01 1.544355241667318523e+00 -1.950698873333237771e+00 2.094636299520033162e+00 -1.586688124711685077e+00 2.892378760927400094e+00 2.253183876358843918e+01 2.975473189499530235e+01 -1.542145021799951792e+03 2.678120095542399213e+02 -2.325274403205366980e+01 -3.543904525749667300e+00 -1.174783687208332594e+00 1.489215679307612561e+00 -8.344201588962647520e-01 3.184664440881590508e-01 -2.077344722773091235e-01 -9.744717705237064820e-01 5.976060133445741940e-01 -1.425727605815467314e+00 1.147788156074767585e+00 -1.051668704475432037e+00 5.590303534617859782e-01 -9.455830278841546033e-01 -8.527594309909858339e-01 -1.605396415334126914e+00 -9.039821685561264530e-01 5.484898365063486381e+00 -6.415589297671103850e+02 -1.295847341718763346e+02 -4.349232494014358963e-01 -2.707883475546992713e+00 5.458552253506638863e-01 -9.932927345845001810e-01 -2.535659107880405827e-02 -2.417312275614449391e-01 5.174753201375494882e-01 -2.605051159690106033e-01 2.092647658577675429e-01 9.306861659246123963e-02 -4.350899909742906857e-01 2.725785078472995338e-01 -4.072785626161703476e-01 -1.290544510138715850e-01 6.170447207922933330e-01 9.101506623231969684e-01 1.437941525276187349e-02 8.538531141614100761e-01 8.251334468346612994e+00 -3.842514392927114386e-01 -2.647284859054423123e+00 1.201834612625475529e+00 -9.428826767776801177e-01 2.982048955387170963e-01 -8.842416415042464450e-03 -5.470284370849753941e-02 -1.906587030234732083e-01 2.767703503586744773e-01 -1.861729833288450209e-01 -2.527603516504939307e-01 5.146679060680128259e-01 -3.273792610225427779e-01 -1.262222655289519935e-01 -3.683076714555966191e-01 -1.804594882629473318e-01 -1.241713842156400460e+00 -1.228492169807299916e+00 3.833939596942457229e-01 -1.372907978465991619e+01 -1.482180019733533527e+00 8.951161860252909719e-01 3.119098547663199383e-01 6.321839276010621234e-02 -1.431592483219930045e-01 -2.795809964631530420e-01 1.310070263905345200e-01 6.775980162728956202e-02 -2.767319690813394573e-01 1.102163790171459823e-01 -4.753627091474754707e-02 -9.413039111012722060e-02 -4.476310869222430711e-01 -1.930908983914605415e-01 4.704198270302129004e-02 7.007223324936546760e-01 -2.487260717117578679e-02 -3.879464443538438445e-01 4.874572410487303387e-01 1.378371619747554178e+00 2.631706356630780785e+00 -2.313732511526211510e+00 -5.459931832000393115e-01 -7.115623604813947622e-01 3.052245065917418287e-01 -2.489759214838613843e-01 -1.543470618364750635e-01 -2.730393818484344592e-02 9.352873031374997481e-03 1.706870212004645282e-01 8.642523504784094257e-02 -3.218884886235784393e-01 3.633424906821858258e-01 1.096030020855920384e-01 1.636948295726625702e-01 -3.391145157085162509e-01 1.825403419798590221e-01 -4.135229248654184175e-01 1.659783275433426297e-01 -4.795639286742243712e-01 6.409740123410756496e-02 1.203483720393535350e+00 2.998854573316407368e-01 -1.552029362814550950e-01 -4.496118118175616019e-01 -8.713061165363455984e-02 -1.866487299367065589e-01 -1.121544806709096065e-01 -6.377324444105028078e-01 -6.820460076933017035e-01 -8.887691869739597905e-01 -8.759606995509727767e-02 -3.444865265223455708e-01 3.379839820507442028e-01 6.447226385563453732e-02 -1.665325145479386038e-01 -4.325464525802829030e-01 1.346674448151929937e-01 -2.841507224135568777e-01 5.803710712262045490e+00 -8.889357826975157195e-01 -8.608421732974562701e-01 -2.893437669637819454e-01 6.531970546521392862e-02 1.575446107107012494e-01 -1.232895536913076739e-01 -3.887466187735384437e-01 -5.714900347434479499e-01 -4.974721601797398307e-01 3.297451071705754799e-01 6.220897982004105486e-01 4.138865863520493349e-01 5.762615945059295086e-01 -2.329325609472405745e-01 -1.550730984510053645e-01 -2.020039676609854951e-01 5.628139407597316790e-01 -9.352035126123396935e-01 9.160776090321718357e-01 -3.096617498578439154e+00 6.496933886501494726e-01 6.737558861909604957e-01 8.447018819215657004e-02 -2.411563356027244254e-01 8.618286852700407508e-02 3.673156204577310291e-01 6.829752608359811461e-01 1.331392372805101587e+00 1.826965967655514334e+00 5.707079187671340037e-01 6.600034960289491437e-01 4.642737096766040850e-01 -8.249238909078826509e-02 4.617116714574081016e-01 7.751849998665250041e-02 1.436164382370890280e-01 -7.454396555507116773e-01 6.982103483123864862e-01 -1.443473935731617530e+00 2.769184819392421559e+00 -8.899553020172277229e-01 -4.814737623730280802e-01 2.377544714436794493e-01 -7.537618753136854366e-02 -6.118666526793248295e-02 -1.203917151812561315e-02 -1.413101045633879949e-02 -4.890117956363297935e-01 -9.111838893371668746e-01 -4.043217671177217198e-01 -8.464300569570326616e-01 -4.700644832000477891e-01 -9.122409897733518847e-02 -3.028807484480466883e-01 3.138267418619875571e-01 3.672950171713011969e-01 7.248574681031527689e-02 -9.252444914152420097e-01 1.904765179766826577e+00 -2.134774223788895142e+00 7.601608349948492105e-01 -1.926078175376630952e-01 6.162934094044203448e-02 -2.907496555338298094e-01 1.617983383035905831e-01 -3.002802343570465382e-02 1.035509806443428715e-01 -5.135826677536670104e-02 4.805392393689089658e-02 -2.714444625578380510e-01 4.614559299161555828e-01 -1.712987118612261384e-01 1.047115823655815348e-01 -5.209021628953678373e-01 -3.852462723852170257e-01 5.378144782067124652e-01 -1.315458043482689021e-01 2.423165745718769415e-01 -1.825433004386383118e+00 -3.759258535347413499e+00 -3.195628499173892578e-01 -6.981733477825571299e-01 3.065413472385358773e-01 1.978110373014345669e-01 5.581917116704744330e-01 8.647376553784624775e-02 -1.807441092163912799e-01 -7.616932901930795197e-02 -1.404944841895314767e-01 2.310092269036374546e-01 -5.707868000114899587e-01 1.700964714004840062e-01 -3.004038151240138177e-01 5.145085833297287081e-01 -3.348282930716095507e-01 -1.696893708231073106e-01 4.397218080450500111e-01 -1.166518221249845055e+00 1.824235975130591214e+00 -1.038977111140667375e+00 7.898449764071777679e-01 -5.854130016814877990e-01 4.694629886024159759e-01 -1.768781064642013234e-01 -1.628626223153872843e-01 -4.068495757504138055e-01 1.618928761025699714e-01 -4.993199615603316488e-02 2.878911590958921352e-01 -1.012069416102576724e-01 2.469953686034216389e-01 -1.412678168208714169e-01 8.511751175500137379e-02 -3.210024911892901400e-01 -3.597424375240905192e-01 4.401173479486075735e-01 2.736891292940839548e-01 -8.701916066186754506e-03 -7.383143134773817451e-01 2.168587723402197298e+01 5.982520853326036558e-01 -4.823264781013278935e-01 2.400064625101805404e-01 -2.858493313900112298e-02 3.431945168517671618e-01 -2.169678961572856224e-01 2.639797059806028301e-01 -2.510520943927758708e-01 -6.418104636975385802e-02 -5.606936605140333540e-02 -4.660608201112381721e-02 1.043042416905564096e-01 -1.799216672155807828e-01 3.233414656200039872e-01 -1.762808877782333639e-01 5.569843734360802046e-01 -2.080898066430989957e+00 2.459006644301211963e+00 2.408898098271811250e+01 2.484298372962930443e+02 9.106488938269080791e+00 1.542171026915127641e+00 -6.979463264792684640e-02 1.828865830986359242e-01 -2.493485795557575102e-01 -1.565449101913642949e-01 -1.252856049820536555e-01 5.672327920330815232e-01 4.301758590063968768e-01 -2.454733678052747337e-01 -9.482946871247577292e-02 3.685633991665753229e-01 -6.169405297220720286e-01 4.215083040431144568e-01 -3.523064689477308775e-01 -8.047856524678422829e-01 5.258786718980331898e+00 2.542615144691671958e+01 3.066254581564571708e+02 2.506073528694905690e+03 1.466158916351714652e+02 7.290433671346249866e+00 1.934861394114733457e+00 -8.700123557065495561e-01 1.464311964355253792e-01 -3.356550764628778438e-01 -2.101077325343609914e-01 3.799826072819882938e-01 -1.583968185926796224e+00 3.788353746638506436e-01 3.712324471545116467e-01 -9.892747940615720381e-01 1.073848826806752754e+00 -7.649979487250249122e-01 1.077037758286443214e-01 4.982150991268554208e+00 -5.366065650805467158e-01 2.815102886086388025e+02 3.265045560846454464e+03 4.761508765845326707e+04 1.856678223663824610e+03 2.180157280565763358e+02 1.818785680927840076e+01 9.070879743676414364e-01 -1.687486030996723230e-01 -1.071614766737127411e+00 -1.194337100773751104e+00 -3.201358946244567960e-01 -7.905468860415112431e-01 6.318963898423959336e-01 -7.192702778732353863e-01 -3.579135014996097652e-01 -1.103629612702945906e+00 5.655115028030479607e-01 3.553728416759668107e+00 1.406969199172635854e+01 1.911071599094721023e+02 3.243238747632538434e+03 3.831917833282239735e+04 3.244704035578174906e-09 -1.336578692189650610e+02 7.180208960504678544e+02 8.123364144355946337e+01 5.011611511128194252e+00 -1.989277944952618782e+00 2.878447865734699462e+00 -6.566364657199358135e+00 -3.925156476914253290e+00 1.556543228446889771e+01 -8.919107511952347522e+00 1.023377755590183824e+01 -6.917439026164061033e+00 7.887657743004183430e+00 -1.242937891707174458e+01 1.758968201446566582e+01 -1.150255810920202748e+01 2.416515319674017519e+02 -7.803927573943695961e+00 0.000000000000000000e+00
-3.613920419223880742e+00 2.396473104645622243e-01 -2.326201975090924634e-03 5.397685600745171541e+01 -4.963465280916134361e+02 -9.456481058276312979e+01 -2.282711683818342863e+01 1.393905514918731114e+01 -4.880881532536932355e+00 2.330639313326491902e+01 -5.419497621150912892e+01 7.067566678855837381e+01 7.304037126294372229e+02 -7.564791591455632442e+02 5.022206037015821494e+02 -1.199977633218857591e+03 1.749967140544245012e+03 -1.530641407394614362e+03 -1.009612699467354105e+03 9.543810723654860340e+01 1.886780042445224126e-02 1.328185715594736394e+01 -7.620459614532956039e+02 7.278999130159238121e+03 6.998911630346715356e+02 3.046540709070433195e+01 1.432392949454883535e+01 -7.587894656189405396e+00 1.323827541954187836e+00 3.639040505210232368e+00 -1.284251265516650164e+01 3.279030727483859664e+01 2.472985220611508339e+01 -5.780072537615973260e+01 3.866443126263379781e+01 -1.020102818579679251e+02 1.465683397832091828e+02 -1.312700698355079112e+02 -7.744190430983690021e+01 2.196533293331667664e+02 1.227130608158709947e+03 -6.049862330588512123e+02 2.459902841592207551e+03 4.821257704487361480e+02 5.141149490086536389e+01 -3.838438548091630764e+00 2.938534508042778270e-02 -6.403458216581841000e-01 1.116891683673770785e-02 2.496079136591866643e-01 -4.387904019191068983e-02 2.552776904992015261e+00 6.708364898567538148e-01 1.922471496689610149e+00 -1.077114929816502809e+00 -1.137222718331400984e+00 3.506806004122537956e+00 -4.346424765485295438e+00 1.198560512559200930e+00 1.498349723947046641e+01 4.615070894500718168e+01 3.962097581787966192e+03 -3.790830770003667567e+02 1.937825056190740725e+01 2.890450567304469587e+00 1.089130899205031255e+00 -6.218427446874774667e-01 1.228333427052291427e+00 -8.052997396953607279e-01 1.984550171921021899e+00 -1.408769489303228539e+00 9.893871853617071110e-01 -3.815486140247088542e-01 -5.317265841479184019e-01 4.559334204022897907e-01 -1.072681258838763085e+00 1.629758628853178237e+00 -8.393684234846148229e-01 -1.767352605729371362e+00 8.211402698061363026e-01 1.544970163867151314e+01 -3.084734827829524875e+02 1.039269299703701108e+02 -3.256737279576213950e+00 3.568120374637345549e+00 -5.343481657564126408e-01 3.675148680065731810e-01 -6.474551139347539674e-01 1.717252554718697866e-01 -1.086473866873689076e+00 3.721409062680152147e-01 -8.435455601074579590e-01 2.829695451637803671e-02 8.240971564199526256e-01 5.029155628896262442e-01 4.805634290454179336e-01 4.760337045786400267e-02 -3.517387953823813973e-01 4.874831234532948088e-01 -1.557775079244301253e-01 -5.835332127225001386e-02 3.079223507426650031e+01 3.460117503027504426e+00 5.725661469117881097e+00 -1.894340997344045263e+00 4.677509306292708668e-01 -7.312705948429965019e-02 1.895732778732579504e-01 -3.937410317797827020e-01 3.808839184025600844e-01 -6.867728843089366819e-01 2.903995541769859301e-01 -2.252206057118684157e-01 -2.849200147369685965e-01 2.986883607757420123e-01 -2.372886388249355605e-01 1.762865265851800700e-01 8.923122832295504736e-01 -5.298473822360492136e-01 -8.363409674018029705e-02 1.219560013322492864e+00 -1.912431462601671228e+01 -8.438590773532439471e-01 -1.808180677964152494e+00 1.328868964765071325e+00 3.339685112460983873e-01 -4.242615665647520018e-01 -1.288629038959925310e-01 -1.731253628329909589e-02 -4.389314448307573002e-01 3.973164986393840081e-02 -6.524507469389391190e-01 5.651469989612678546e-01 -1.817141160929338639e-01 5.549302306192487322e-01 3.795873673512488722e-01 1.389756263349113397e-01 -5.770904907577545373e-01 -2.366778790856471915e-02 1.684370806415245170e-01 2.781847646455162248e-01 4.542570299872068063e+00 -3.849644959040350756e+00 2.131072262758806346e+00 -1.186452735146545479e+00 5.934799827087573476e-01 -2.230106766923682926e-01 2.570537037458677787e-01 -3.282098913331878975e-01 -1.133722259423279866e-01 -3.975628701929565523e-01 5.335365085402088425e-02 -9.890962054019780680e-02 1.481249313162891212e-02 -3.332686690867632251e-01 8.565038982496275821e-02 1.452647783586229480e-01 -8.665782582733072559e-02 -1.077950424650708783e-01 4.492254393554162561e-02 -5.305428591034910824e-02 -3.001965052169225601e+00 -1.221055567308326317e+00 1.413105668797101089e-01 3.086610311853092981e-01 -1.376022087376895797e-01 1.625175051629383915e-01 -3.494375960233355727e-01 1.521354692842891154e-01 -3.651017301183401287e-01 -2.129918300587121394e-01 4.666178059622438923e-03 6.079236907696525805e-01 -3.331099810738891165e-02 4.032632467781311902e-01 4.369886441071457739e-02 1.076755318467732536e-01 -3.812008523590435516e-01 5.755661305703085873e-02 5.795579086848334782e-01 -4.140249839418004285e-01 -7.179027535157047168e+00 9.988901065245414657e-01 3.571839763740527474e-01 4.651724637298428888e-01 8.515686646184406072e-04 1.282874195126311179e-01 6.274013401559841441e-02 -4.554690888570860352e-01 -5.379159212189676964e-01 -2.174466098129315128e-01 1.113137375620230074e-01 -5.409245809591212151e-02 3.053579937690216184e-01 2.541521669155031304e-01 -2.351460941448948461e-01 1.504629609703869164e-01 -2.434162163369890663e-01 2.260785973301722152e-01 -2.400743751329628140e-01 9.769690584883647944e-01 -1.141881015584601755e+00 -4.130636991799207181e+00 1.152372816625586438e-01 2.979503499377074149e-01 1.337293285190241932e-01 -3.231980356523393993e-01 3.739101541858929068e-01 5.623488146992627890e-02 -3.393624696171784194e-01 -2.946527162614955841e-01 -7.243168563968538365e-02 -1.114197113411421469e-01 6.602244026130676957e-02 5.687647604734138440e-01 7.335168452647167214e-02 -7.062865477272737280e-01 1.132607294894683037e-02 2.002753802483852041e-01 1.021514166667003565e-01 4.274626054296533084e-01 1.025832599335655004e+01 3.293464565217902873e-01 -2.999145395378235435e-01 3.238558860238782700e-02 7.182472020346608588e-02 2.949608494222246691e-01 -4.993123070089495741e-01 -2.436087329010661051e-02 3.267952954602577620e-01 -8.849279113071872871e-02 -2.213918012275399860e-01 2.760195691210611812e-01 3.604152086357572671e-01 -2.300511729987704257e-01 5.212835769074359860e-01 -9.350891826527174544e-02 -2.413049644475364630e-01 1.000859548384482878e-01 3.844890437690651197e-02 -5.107305793870153821e-01 -1.931804721954222259e+00 -1.915916861686895345e+00 1.476941809246454795e-01 6.422251422054614522e-02 2.448317608558383540e-01 -5.464062637328908068e-01 5.215087858614424476e-01 7.008385060566979519e-02 -2.488621279873939329e-01 -5.115371526760270626e-02 2.461450704307424076e-01 -1.626181373306110345e-01 1.331958536929960246e-01 3.885416418083025292e-01 8.863557941322142142e-02 1.421967290442580634e-01 -1.844806489358745694e-01 -3.981173626827274603e-01 5.512755450665274282e-01 7.768694027358549192e-01 4.852443483320740825e+00 -5.158575643281437806e-01 -5.276768608097768265e-01 -2.035409023157797037e-02 -2.343263228721070845e-02 2.953215905340300651e-01 -3.873935100724850145e-01 3.700530776096400132e-02 1.091936566894133875e-01 1.252159493948568070e-01 -2.325825463556157047e-01 3.166137979036136585e-01 -1.472996048606205477e-01 9.623845344526671397e-02 2.588042271118098370e-01 2.195639261674386944e-02 1.964839165518412756e-01 -5.224936227630934127e-01 6.500171410652058057e-01 -3.026077759796521605e-01 1.788313353605303746e+00 -1.466961633171870005e+00 2.776688484523788247e-01 -4.073200970421453349e-01 2.701556892981926694e-01 -3.890065881705879747e-01 4.761840601519509164e-01 -1.238638306558357272e-01 -1.096016388164287036e-01 2.887813649133477156e-01 -4.786201295016212498e-02 -8.076386160654180912e-02 8.098623574753105459e-02 3.403126276938905903e-02 2.453935270827685144e-01 9.935146579790483656e-01 -1.510781370112368904e+00 1.434418591282213384e+00 -1.533042085254791687e+00 2.256356957721962431e+00 -5.346293099125887238e+00 -1.046425006911704259e-01 -7.203149855692174697e-01 3.180394943266833252e-01 -1.103371761773104254e-01 3.265527510138781508e-01 -4.523900140817431748e-01 3.101650906381081541e-01 1.884488920921683075e-01 -2.810646668484935162e-01 -3.757442233214760563e-01 2.085719556327489954e-01 1.849367977967517618e-01 1.626705946981701345e-01 -1.454487750427091441e-01 1.183577611842807187e+00 7.248335187918115707e-01 -2.299610977168541126e+00 7.303059523047750190e-01 -3.807002853691301425e+00 3.762543241791900073e+01 -2.426882840432540434e-01 3.437258768887687665e-01 -4.372206705061216780e-01 -3.263485268006149909e-02 -9.716172317931182079e-02 3.025102991127397445e-01 -3.764644464816910840e-01 -3.850745506626083170e-01 2.446004828411219023e-01 -6.575171269300312815e-01 -6.515060051041032807e-01 6.671512610480760941e-01 8.313421816039863188e-01 -1.139346278890798203e-01 -1.136592221998711238e+00 1.822041682874669277e+00 -4.863778145148671683e-01 -5.428879811586057258e+00 1.821298482147540199e+01 1.001669572551909368e+02 1.587371795562648913e+01 -1.590878040644270186e+00 1.382449622117015053e+00 -2.312087429656131121e-01 1.864039539544286583e-01 -1.510041635865622567e+00 1.708820102131483054e+00 -2.307446748164068140e-01 -4.650181971134657033e-01 1.308150568387276280e+00 -2.184268111211835617e+00 1.555884678274779276e+00 2.202889681768027685e-02 1.503895121171431981e+00 2.793267533868132091e+00 -6.391204829026747802e+00 -7.722120296638308901e+00 -1.319968027405047906e+01 -3.460824539273744449e+01 1.478202677374868654e+04 8.469007544845953817e+02 4.596540723860016442e+01 5.416700700239971411e+00 4.166745651526184702e-01 3.594587199895258323e-01 1.404294495341460447e+00 -3.169251749463036560e+00 3.881767320112658126e+00 5.356014644406826619e+00 -5.518997965573351649e+00 7.352838926670060005e+00 9.198629706470633494e-01 3.933204445007277172e+00 -2.663678445331832734e+00 -1.879913950545656576e+00 -6.489546801346023130e+00 -1.342258742992926273e+02 -4.131771168888662942e+02 6.882599426279775798e+02 8.315816709526439884e-10 -4.902903911945031723e+00 -2.176003715883707628e+02 -2.627325015777751105e+01 -1.860838265400616365e+00 -5.036077347985070674e-01 -6.425426506119151782e-01 9.022707511639566746e+00 -2.321428012850851985e+01 2.985291828168249140e+01 4.813419292086717860e+01 -8.731991152949888146e+00 5.624692329710001104e+00 -8.088901154220138778e+00 3.188282573005750464e+01 -6.990565314480136294e+00 2.452693568090148801e+01 3.889518640028718437e+02 -2.993232033210688314e+01 0.000000000000000000e+00
-3.927823940080479304e+00 -7.357768229379608727e-01 1.289108706962345252e-01 -5.795766888867365196e+01 7.007367238064180128e+02 3.882381716039317325e+02 7.915975464396353800e+00 7.150365566825030328e+00 -1.391495700938321534e+00 -2.028651183373767708e+01 6.139465390115310583e+01 1.173444538234653010e+02 -1.863832825483559645e+02 1.494781761594440468e+02 -6.134435957023306401e+02 1.217544068836416955e+03 -9.825392002082480758e+02 -9.019320722719494370e+02 -4.559229474888416007e+02 4.435442399154544546e+01 -4.977893282948642195e-02 -1.302132477058694349e+01 5.315954694236497744e+02 -4.497562533554519177e+03 -4.146281863181879999e+02 1.500351516362201210e+01 -1.383760554731377113e+01 2.076329794504886195e+00 -4.356910504851612131e-01 -6.306553524635091890e+00 1.615053034478614791e+01 -5.150307147860348778e+01 -8.969032491052303158e+00 2.063473306192554446e+01 -5.797740226060795976e+01 1.045910460066561427e+02 -8.217958275762532594e+01 -8.020218314927296888e+01 -7.992899257841236249e+01 -7.494527751323985285e+02 3.008923411075025797e+03 2.312908506247564219e+03 -4.232981853074626997e+03 -5.219946490600559628e+02 -4.925455304719616834e+01 -4.167710548246645885e+00 3.957230719379628336e+00 -7.108175490741359681e-01 2.224088183336391467e+00 -2.310786914708216955e+00 4.269299205534053954e+00 -3.905242629393740117e+00 -7.344684597212278732e-01 -3.064136365970000497e-01 1.099016430625852081e+00 1.378938552334730616e+00 -7.616903076677772333e-02 -2.604106041782571879e+00 4.655453422504109540e+00 -3.291375615639714169e+01 1.295468105937086420e+02 -1.936638479252345860e+04 -3.489325794404430781e+02 -8.481572321833300521e+01 -3.521015002343574452e+00 -9.192060238617045798e-01 -3.129321680190058075e-01 -5.504356673993413551e-01 -3.083003890727304963e-01 -4.622284040801503124e-01 -2.702089172455401922e-02 -1.374805689522986540e-01 -4.525052830481968158e-02 6.901475368884746331e-01 -1.255878407019020981e+00 2.819142109630227822e+00 -8.696339818575680169e-01 -6.759834865531928472e-01 5.921064051108260173e-01 -6.570073248601659088e+00 2.807678087019030500e+01 1.032049439461145084e+03 2.659094788763468387e+00 2.551357563128703987e+00 -6.224059604683560565e-01 4.447238633568133537e-01 2.996879973934554187e-01 6.829443241200578996e-01 5.016046024953340066e-01 -5.352824884848814690e-01 -5.036732562750216857e-01 1.039280637832121101e+00 -3.996803072051875461e-01 -3.811012633927362003e-01 -2.956107186666656617e-01 7.802692558982471382e-01 -6.633198213551168010e-01 5.552036955492098969e-01 -9.668429446849202691e-02 2.918801321657582548e-01 -2.902942234315162295e+00 -1.482338897350273328e+02 -6.863249455264622156e+00 -3.014513438589645489e+00 1.524617114487256231e+00 7.216633347465215564e-01 -3.571835221065455812e-02 -5.922439636129581686e-01 9.093749508437554141e-03 -3.307636081007956363e-01 5.552129349794654445e-02 -3.028762645165272716e-01 1.908403984292021960e-01 -2.827019603347480370e-02 -2.003364305850539040e-01 1.590776371915723075e-01 6.161072112115562049e-02 -3.885173305598499383e-02 1.556556887588062210e+00 -6.767035289785958696e-01 1.539820663815874013e+00 4.758484902813506778e+01 1.235126804393360089e+00 -4.026237291296155263e-01 -1.754302484087670422e+00 4.001895206928907101e-02 -3.197486752674194577e-02 -1.060884015582814754e-01 -4.279552978659637574e-01 7.174051827115590640e-02 -5.360409561957339974e-01 8.259539699431286408e-01 -5.239549922730191156e-01 2.780840964899198298e-01 -2.850393181262234066e-01 7.007994535862849261e-02 -2.049493623180893564e-01 3.502350177046338331e-01 -7.165119178011991607e-04 1.610347679788048936e-01 -7.036054309143651153e-01 2.609450326373234930e-01 2.683436669983894518e+00 1.627316364057946885e-01 1.037940281645788332e+00 7.280245420177777760e-01 -2.652873666772137540e-01 -2.174492879908314080e-01 -5.531463511898522256e-01 -2.168570584559859071e-01 1.674307256864722149e-01 -3.194273402384482097e-01 -5.539477250191993107e-02 -4.401871288605647692e-01 -2.481306027850394003e-01 -1.899018234551732576e-01 -1.498190526230729347e-01 5.146428111795700033e-01 -2.542082973802877177e-01 5.814711282575046880e-01 -1.264773943856312144e-02 1.905518975316908836e+00 -6.679825881055876380e-01 -4.625924249452850745e-03 -1.800938163325014330e-01 1.609438440797532621e-01 7.615515770424963193e-03 -2.393635794835802244e-02 -4.366220530102822295e-01 -1.786606473162919428e-01 1.430053710424772362e-01 2.235768499457435610e-01 -2.246573356440535463e-01 -2.229361940308791645e-01 -3.782744763957879286e-01 -1.694490502235908025e-01 -8.118425385649175041e-02 1.010592433845260985e-01 3.391031259669432529e-01 -8.484666114400738479e-01 4.309645352358160153e-01 2.080998029883687650e+00 5.357807178271407622e-01 -4.682435907382398455e-02 3.909373161711044986e-01 4.199651167534845797e-01 -1.760762491742440261e-01 2.136279184170319922e-01 -2.718918624639030668e-01 -1.788915691941639352e-01 5.140053104219859392e-01 -1.937925318193158830e-01 1.098899507321000613e-01 -2.665122722274233524e-01 8.998594200087950412e-02 -2.208676022096511815e-01 1.027579727928724651e-01 5.407067238520113506e-02 3.325674135483467353e-01 4.543267762861233905e-01 -6.760601928694853768e-01 5.101323893727283121e-01 9.227202746940577072e-01 -6.665933308028115789e-03 -1.747215661079479787e-01 -2.616128493378937492e-01 5.149226227187142513e-01 -4.217596085066475098e-01 3.628175923687138038e-02 7.590421122391290965e-01 -2.302637844528945266e-01 -2.089884460824293910e-01 7.014649223526703281e-02 -4.595774958093130635e-01 -4.239286255622687349e-01 -6.974524555997163588e-02 2.365814771156635743e-01 -1.306375049005623623e-01 -1.738563154955841128e-01 -2.575617466300457181e-01 -2.931608958888318739e-01 -1.298232652325765457e+00 5.098003905524706170e-01 1.519821074174956266e-01 1.904336137555446840e-01 5.518153695670520165e-01 -4.274028725365326409e-01 1.980190853768633019e-01 6.280313499084684281e-01 1.128255366249391045e-01 8.785908376403028797e-02 6.125556025579044217e-01 -3.572079909329772818e-01 5.350177621157286012e-01 2.712714785340892831e-01 2.206991309407158042e-02 1.629969963402118083e-01 -1.407741341466817175e-03 1.281563125328517572e-01 -3.951847279179787620e-02 -8.104745902358416743e-01 1.255071441035454427e+00 7.000726534061953998e-01 5.105144003878478998e-01 -4.345504951987919640e-01 -3.182447568157371620e-01 3.154635801417526864e-01 -2.692961712283903353e-01 3.535459461533605463e-01 -2.243395972411121875e-01 7.368993563568722038e-01 -2.395689284034574484e-01 5.402123901792492688e-01 -5.925311487484350437e-01 1.848851262399762163e-01 1.885680304139896180e-01 2.847899193312741772e-03 2.912941074916091111e-01 -4.705226726843587670e-01 -3.435541280951781573e-01 1.227953198344067687e+00 -4.104539820394279559e+00 9.494706600247582173e-02 4.113520986474838992e-01 2.442952638586177727e-01 -2.019226403974698769e-01 -4.802237234608242034e-02 1.654796745586253337e-01 -5.704652650433672534e-02 3.674240775176400575e-01 -5.570240321827384378e-01 5.040822133470612698e-01 -7.153223937120856135e-02 1.133315779707459114e+00 -1.381100003901707396e-01 3.595895836006945956e-02 8.248618117812611672e-02 -1.988440183655058036e-01 -1.084351362484596848e-01 6.484363302663496142e-01 -4.287057815335231226e-01 -1.888714324671269651e+00 2.771595571804468250e-01 7.425056553260986902e-01 -5.558265046377641738e-01 -1.164039720334244521e-01 3.282794953587284681e-01 2.871013654093417244e-01 -6.932567098044728482e-02 -7.121319627202638003e-03 9.132742219634337744e-03 -4.215762623189789338e-02 -7.168280549640826393e-02 -4.596398065549323064e-01 2.553673492271713030e-01 1.013790991890886062e-01 -2.033545545422157375e-01 1.124238248202495072e+00 -1.515585125598896354e+00 1.037762903066145270e+00 1.053310828158942059e+00 -1.345952179446339869e+01 -2.127888705331315577e+00 1.159001145151776768e+00 -7.394402212928810059e-01 1.245852896671237886e-01 -6.355499010003882177e-01 2.460565076009970653e-01 -1.352096681573868864e-01 1.939641190442102925e-01 -7.774555711734620900e-01 7.140558772730258852e-01 -3.619001831586245999e-01 9.576459460128035062e-01 -4.120033665092535102e-01 3.340608846226444939e-01 1.140171618053642533e-01 -1.318679593572170461e+00 1.005353181669590867e+00 -1.315110823905740745e+00 -3.224047855696426268e+00 -3.407309969175548758e+01 -1.051117316043757910e+00 -1.015136062769073533e+00 7.631848915695229607e-01 -4.241847977095432043e-01 6.469921250279213609e-01 4.345485119189618217e-02 -3.787311590884456791e-02 -7.037629599665251590e-03 -7.107740671165743152e-01 5.485975954101149910e-01 -2.378285295284356948e-01 -1.644177853546899826e-01 1.678840654498401364e-01 -9.135154039504769230e-01 3.656696998168342816e-01 2.302307472764084650e-01 -7.873421869838921339e-01 -4.272751107201656851e+00 -1.251580712846916867e+02 -7.034915237982640974e+02 -5.199831429987443698e+01 -2.915049492625144012e+00 -5.551259995885970966e-01 1.514708480219439934e-01 -7.022198770331762319e-01 -1.302725886833115965e-01 8.262244050040976617e-01 -6.946278121755113943e-01 1.293013906553394321e+00 -2.852039737988860679e-01 8.531031621694893374e-01 -2.908291421349105121e-01 -2.574572934944967528e-01 9.540651580159931200e-02 -1.762879010934140567e+00 2.219013866136833713e+00 -2.668890075470244483e+00 -9.229184893399360590e+01 -1.218955568594567012e+03 -2.889339734265534207e+04 -2.298399363860517042e+03 -8.145733457843380165e+01 -1.111565113593042042e+01 2.418835954826477064e-01 3.134558349960236967e-01 -2.513946581454149509e-01 -2.199790428401371400e-01 2.080151262339313689e+00 3.113162192940421846e-01 2.541211768349086242e+00 -2.492015923499280916e+00 4.160360801339333392e-01 -7.877016631545927794e-01 -1.254023204078301035e+00 1.591129820980171417e+00 -3.701929039197239035e+00 2.908985413632763084e+00 -9.042305539140943438e+02 -1.434774901984073222e+04 -1.852738164055418417e-09 -6.959987091926450375e+00 7.325438030631048605e+02 7.586058133924234426e+01 4.108906449944015549e+00 3.357286579124181713e+00 2.184591833544629935e+00 -3.534354495932205964e+00 2.824422551831077044e+00 -1.543089601584301818e+01 2.108883760480841829e+01 4.386120967982378716e-01 3.648044159057235447e+00 -4.219521776019291792e+00 8.886944078167744010e+00 -1.253650295663933889e+01 3.118631388926360160e+00 -7.882638501052315405e+01 -4.301269588287709666e+00 0.000000000000000000e+00
-2.037458310581016008e+00 -5.598971868739965885e-02 -2.658943105014657249e-01 5.568346196092534228e+02 -5.562386680805502692e+03 -4.998572065527769155e+02 1.397116430733660764e+00 -3.699087856649137507e+01 2.071386821538908407e+00 3.517452405451649611e+00 2.152176692977809580e+01 3.814385152022387047e+02 -7.150760647089009581e+02 8.567758511536594597e+02 2.991035467983128910e+02 -5.008502093346842230e+02 2.001397553480137503e+02 1.538568810821852821e+02 -1.310274418126849923e+03 1.053379385162497783e+02 1.477690601748840038e-01 3.500443324993830174e+01 -1.411559698287383071e+02 -3.165310886555555044e+03 -8.136022258749508183e+02 -6.512531442784921865e+01 -5.561282325881364841e-01 1.339104496904610642e-01 4.404015552207511064e+00 -9.442137948849790519e+00 1.711316040617043654e+01 -6.803710161578737825e+01 -4.197043040195671892e+01 6.818832977192357703e+01 2.539921122586770252e+01 -4.319350071310418571e+01 1.371143810238675087e+01 2.092381198383418450e+01 -1.181469388208788587e+02 5.322164451452044887e+02 -1.436730948597512906e+03 -6.456349040229222737e+03 1.146531411998695694e+04 7.821068084406433627e+02 7.303309290247125318e+01 3.159536126072907791e+00 -4.378902406122229252e-01 1.820611017232636186e+00 -3.901904264792662502e+00 3.114519662010256873e+00 -2.616372996899471559e+00 4.157155714579516825e-01 -2.048168755979446587e+00 -2.123612710454295893e+00 2.430656775049669704e+00 -1.684277226466434740e+00 1.040587612515906812e+00 5.643236170444367872e-01 -2.558933792018819986e+00 2.456870060446885873e+01 -6.309381252140565266e+01 5.424784670258592814e+04 1.055496566477988381e+03 8.091212049670866691e+01 -2.437103767646476626e+00 1.351712589139879128e+00 -3.108829464207234494e-01 1.560882791759823363e-01 1.029133432570905171e+00 -8.431178192417192463e-01 2.128679078862063534e-01 -7.465584075803803898e-01 2.740019398069932777e-01 1.488615336931218280e-01 3.655923405315064656e-01 -6.409671400661451912e-01 -3.383715725856895062e-01 7.094524499773413595e-01 -4.401215374981688910e+00 5.953244620071359350e+00 -2.074276001341036135e+01 -3.769241915293678176e+03 6.487976213805995940e+01 6.626226699168341838e+00 1.770091472338634730e+00 -6.672613178457709182e-01 4.932636770564613471e-01 -1.951415380452914405e-01 -7.093359716399163517e-01 -2.477335333965413611e-02 -4.135307621523907073e-01 1.581396087498063707e+00 -1.141357079476108538e-01 -2.515963193277457322e-01 3.157989099276505840e-01 -5.089516187291280858e-01 4.482752669570402304e-01 -9.234432751738239631e-01 2.022803265823696961e+00 -1.687937002038019330e+00 2.752401563967097786e+00 3.411103359835979063e+02 4.484273755845242704e+01 -1.721068204389354150e+00 5.506408698410467650e-01 5.127502291242436172e-01 -8.025645595303734225e-01 5.760819776809968928e-01 2.410924624744552602e-01 -1.678079217339245588e-02 1.041976965424566970e-01 -1.603663397521870593e-01 1.303074156954806995e+00 -4.529853467740849737e-01 -1.808355039473497072e-01 1.924274714149021293e-01 -5.912094531785498930e-01 4.019420454638691353e-01 -1.012344344001320451e+00 -3.681250602197341237e-01 -2.032855908366499875e+00 -9.931344696299674979e+01 -1.172245010726538794e+01 4.082516524901009802e+00 -8.032409601173995384e-01 2.230318096463008715e-01 5.965742494422414666e-01 -6.594883878944131084e-01 -5.439289113515144436e-02 -2.416914199159521104e-01 3.101366499342645966e-01 2.050760313734087958e-01 1.471890281228809272e-01 3.249546996641470287e-01 -1.082878912726812359e-01 -2.298585982348555490e-01 -5.966256071639008951e-02 -2.882600734645279772e-01 3.556113370868985157e-01 -6.801329331289736047e-01 2.421985015939753794e-02 -1.258507814035624506e+00 -1.689452378885562212e+00 -3.356446422766765636e+00 8.758535841675580969e-01 -5.532036666160564664e-01 1.536360711244810773e-01 3.974354243668898334e-01 -9.845647735596685379e-02 -7.005913953172182573e-02 6.843234248677418918e-01 -2.784451121166355847e-01 1.304835313550967157e-01 -3.171395581867955116e-01 -6.386046659665112202e-02 -3.147544435639275662e-01 -4.694080057494431912e-02 -2.644835699000083196e-01 -1.180596780133100765e-01 -1.279017296446980367e+00 -5.083998731319923081e-01 2.349112707999893246e+00 -2.065206827105384946e+00 6.344539813771206127e-01 -5.392334468054400531e-01 -9.834122020980373691e-02 -1.902648706254694844e-02 -4.663566630163558102e-01 1.212611398608487434e-01 2.695537750524010789e-01 -2.924606945931174096e-01 4.279061768065162141e-01 4.706949883296758230e-01 1.718091606033098628e-01 -7.250029996151994283e-01 -2.572535186935454021e-01 -8.910301797895670006e-02 -4.369490261007058507e-02 6.624418137195675627e-02 -1.402187329037928976e+00 8.020540052640683371e-01 4.214605502504809920e+00 -1.884197044025415657e+00 -7.660157967292207104e-01 -1.381960708189353682e-01 -3.411457934170094575e-01 -3.251439808300773393e-01 1.844146492544496141e-01 -1.071458063886154832e-01 9.744655307471816741e-03 1.695084863251992147e-01 -1.593135791583115690e-01 4.545924223656072627e-03 4.896780516346410650e-01 4.184031654380930831e-01 -2.879799143058932032e-01 1.652106891892941576e-01 -4.130872786118331419e-01 7.236328519637424961e-02 -1.732732646384327779e+00 7.584858738522797239e-01 -6.481695744703642958e+00 -2.223853353141322486e+00 -9.212798544121199029e-01 2.547180644397002425e-01 -1.101364284666033200e+00 -4.273094068481526620e-01 -8.509330978963589587e-01 -9.987879532580734576e-02 -1.171852137673141669e-01 -3.675021337398689525e-01 -2.180213099565122548e-01 -3.000219838958173568e-02 -1.021717628743488149e-01 2.092147812684004293e-01 1.504747437396787291e-01 -8.334630105267137878e-02 2.224426325312833796e-01 -1.048781160258442924e-01 -6.502846294352906398e-01 -1.814397116319000247e+00 -1.358338159079522711e+00 1.700695034498380664e-01 -8.004992984068621809e-01 -2.057716120871901921e-01 1.559860131171859621e-01 -4.527849040408966630e-01 2.080225433942928248e-01 -3.305089770680922356e-01 6.225030803949778146e-01 -1.040884486848341339e-01 1.145952307746682663e-01 4.143237935140007266e-01 2.857067255393985761e-01 -1.106274615913065418e-01 5.651400252560137005e-01 -3.425963379400371878e-01 9.268409807569355507e-02 -8.434072312210929567e-01 -8.474523498503003793e-01 4.374131508994878459e-01 -3.521916947953855015e+00 -1.357123986192732445e+00 -5.237298110857011579e-01 5.408643411761175912e-01 -6.154988885428309686e-01 -8.376246792595054558e-02 -2.495111580163182907e-01 2.906229974649079395e-01 -3.987041043174599508e-02 5.661462635455194459e-01 1.869769793250810608e-01 2.798523761109663610e-01 1.776229326563907307e-01 -4.409365809490850552e-01 5.445971742529422954e-01 9.790611569212614995e-02 4.632300182125419497e-01 5.857591458886339808e-01 -3.004131473392966711e+00 2.191350173292107684e+00 -4.014347856459451691e+00 2.788653265237428514e-01 -1.245098255974866674e+00 -1.782070439275287299e-01 -4.829175120133584187e-01 2.306163972309747123e-01 -4.153290739569115431e-02 -2.782419590464400017e-01 4.202879634955678512e-01 -2.732019881981244680e-01 3.420863775725138112e-01 1.108443525125721862e-01 9.869895156890606813e-02 -5.908427794029762481e-01 3.049079202606890249e-01 -3.285249867484907327e-01 -5.718584126282166835e-02 4.616105509224155412e-01 -4.296786607031918948e+00 3.336532591165195072e+00 4.947570546244037359e+00 -1.452805669782364362e-01 1.079543500710258286e-01 1.873690372981258179e-01 4.158182376149568427e-01 2.079509642527455071e-03 2.774447939151514220e-02 1.530374074276323881e-01 -2.260258674870101459e-01 -6.723402766317576607e-02 4.331878621988209943e-01 4.065857222771285251e-02 -2.908362416460761324e-01 5.276008395006641649e-01 -1.639841062208802214e-02 2.856911120488803135e-03 1.474497466288937630e-01 -2.996638906335462593e-01 2.136270426239697429e+00 -4.687862428136014614e+00 -1.309518434076017002e+01 -2.208818552683396774e+00 -4.425870396011077901e-01 -7.949050175290679476e-01 -2.431724711400278238e-01 1.717020263964315063e-01 -2.782160189530884509e-01 6.230360685522953190e-01 -4.721767096729223567e-01 3.168125722326777804e-01 -5.201563715849033542e-02 -1.121131818523792845e-01 -4.389522293844834167e-01 -4.672640252462088029e-01 4.372207079742338465e-01 -1.241704968222165917e-01 -4.007812483839927609e-01 -2.660504582158296216e-02 -7.880943308679547954e+00 1.091948318410709362e+01 -1.437559574944953056e+01 -7.397006517447039187e+00 2.214617903209330052e+00 1.012529081011592780e+00 1.135993627257093408e+00 -4.396414514447855026e-01 4.286379363625272276e-01 -6.141434354035339993e-01 2.437428299901256423e-01 -4.721138131694146978e-02 5.907336971100818346e-01 -1.121142509241010998e-01 3.500440913081312999e-01 -4.987093396007935553e-02 -2.669246344666529325e-01 3.250394368063069805e-01 7.799799164720582212e-01 -1.667611060056060523e+00 2.120948403353941103e+01 6.710313396458514035e+01 -6.465883779669966316e+02 -6.979167678023532062e+01 2.453158227044127671e-01 -5.769848501743908287e-01 -6.370435676569314865e-01 -9.477810730449220955e-02 -1.129968883523066125e+00 4.037320168623708128e-01 -7.708214537736282068e-01 9.933778169507441191e-01 -1.268629855509985305e+00 -9.298226433243428346e-02 -1.716331199981766531e-01 -3.262934663920731282e-01 2.162456048525172037e-01 -1.702385050668155486e+00 2.490429526171567431e+00 2.371099839638645790e+00 5.103347298613880412e+01 7.099277421192382462e+02 -2.650521285970881581e+04 -2.930098945464444114e+03 1.315369459743051266e+02 1.297429621654850962e+01 1.385005541010002617e-01 4.750617727921309097e-01 -7.787391625844577447e-01 8.324512556013559106e-01 -3.600598767942813083e+00 -4.015624192060045061e+00 -2.617567808644267302e+00 -7.123537473193408687e-01 4.862746070045176339e-01 -3.383210032649515142e-01 8.473061856782067025e-01 1.608604276594306270e+00 -1.682368270560345991e+00 -3.415293960615235846e+01 1.212134698158886749e+03 9.386972122880630195e+03 -1.253614426358979103e-09 -3.762356396647846850e+02 4.630328215904009994e+03 4.711707152585513541e+02 2.395606692208571076e+01 1.770211071786865986e+00 -1.735447386767532407e-01 -1.163379753488450774e+01 9.756624154187619524e+00 -1.531208078734414357e+01 -3.723436346924131612e+01 1.559584061501038832e+01 -6.475721827805728026e+00 2.206673345353692639e+00 6.528469723546550085e+00 1.342383408154205426e+00 1.170515927105225273e+01 3.069957632280893449e+02 -9.359413379163925129e+00 0.000000000000000000e+00
-2.311071738305578549e+00 3.098773114967812603e+00 -2.393209960610072073e-01 -6.330432572295067075e+02 6.263917373006785056e+03 1.021024322841185494e+02 2.573474653509180143e+01 2.332741023179210060e+00 3.002271863515034056e+00 -1.686565904208191569e+01 3.754914885949892778e+01 -8.350134815273486311e+01 -3.726719207827864011e+01 7.379452010284931021e+02 -8.205767419387593691e+02 7.712481200269162400e+02 -4.511167357975591585e+01 -5.166870609979014262e+02 1.710315238744631642e+03 -1.317769759597431403e+02 5.238152529442530181e-02 8.037390752495412016e+00 -2.342150927927505109e+02 1.397830713305389509e+03 6.970484142645618704e+02 1.486326627364523745e+01 4.863591847069017149e+00 8.027065259084054105e-01 1.750806377490334853e-01 -2.884911357659575515e+00 5.598315795548842289e+00 -1.143603804445956484e+01 1.823555041904660357e+01 4.639364902452496153e+01 -5.977189263367131389e+01 6.549010164916592203e+01 -2.428039953019720087e+00 -4.432598643217397694e+01 1.115366579293713585e+02 -1.549121378920754069e+02 -1.167412891013096669e+03 -3.205139969844021834e+03 4.682451814488274977e+03 4.913028455167077482e+02 5.311485597718274221e+01 3.656823409684079706e+00 -1.150433180039080128e+00 -3.172611618286071966e-01 -4.596585176191325672e-01 1.436628617387619045e+00 -1.585172180195229430e+00 1.264740695816044536e+00 -1.156426150428615074e+00 3.864431210700729480e+00 -3.234551558401562943e+00 3.595517751527893324e+00 -3.487000689227016892e+00 1.827061933557416751e+00 -2.663775041187605552e+00 -9.219873021154626258e+00 -6.111351257239721235e+01 2.794980331157241017e+04 9.073865680674498435e+02 8.456817111766031303e+01 1.649709511393234607e+01 7.155042303828054173e-01 1.447603999948814391e-01 3.123986420776461159e-01 2.845280575856818928e-01 -7.589893149034026010e-01 1.440813295879948441e+00 -1.676377763799791865e+00 9.767432470663663935e-01 1.215982986120252463e+00 -8.827592610756127556e-01 4.894586038059216548e-01 8.473102237500604872e-01 -6.081651080498886586e-01 4.494658995890688402e+00 -2.457077234998450876e+00 -5.542633184699297999e+00 -1.287831697369809262e+03 -1.717943779058259679e-01 -8.131137353686881397e-01 -8.389344504634266286e-01 -5.657482106385600673e-01 1.355463002223729063e-01 -4.651459530369095319e-02 1.863995752565017483e-02 3.876633178293218407e-01 3.639050850758280831e-01 1.149847790908893330e-01 -8.382011469627173028e-01 -2.568919227560968466e-01 6.307302573282242975e-01 -1.756304609864685062e-01 2.598040621309820608e-01 -5.515886214241447760e-01 -1.240946276913810209e+00 1.341928894097133451e+00 -3.062424055062535899e+00 2.263084058232343523e+02 -7.821522616842230491e+00 1.645641918561508987e+00 -5.557267440840121253e-01 8.595212027913134989e-03 -2.569810764469799835e-01 9.211741370362602765e-02 -1.002942836091591516e-01 3.227304299084607919e-01 6.069988291187655705e-03 2.122841525022067799e-03 -4.976744307919886978e-01 4.828700161157968296e-01 -9.106084695972072041e-02 5.069776248094797211e-01 -4.198323999257524974e-02 9.129339451079232504e-02 8.485685493795358525e-02 3.633123391949339975e-01 3.463278135151597326e-01 -5.759793333743073163e+01 3.442514127355309483e+00 -3.675114996235961939e-01 3.191986135032465199e-01 4.054039807748353041e-01 -2.369197612325990576e-02 5.831302565386522474e-01 1.924222276193745529e-01 6.654813536408710206e-02 4.217146652724466094e-01 -3.231235212666376810e-01 2.504498671203236881e-02 -6.554830238112856478e-01 -1.134433012371403038e-01 3.562446022818193114e-01 2.917585815210088640e-01 -4.877278521891525997e-01 3.705209815509817872e-01 -4.154698503322009628e-01 -3.806321769216083339e-01 1.714482198795872137e+01 6.909242597645430806e-01 4.797966828850519505e-01 -1.687118938755816089e-01 -2.687438291630428466e-01 1.352264602494557266e-01 -4.599001690953059551e-01 3.217490637937032716e-01 1.146987756261950153e-01 -1.787177042223575540e-01 2.611197657649384496e-01 1.559202060877566964e-01 -5.430996265687326741e-04 -3.493117452294569603e-01 3.823025198121854373e-01 -3.083332818969637401e-01 3.775524149740192570e-01 -2.610492950767593356e-01 1.767681673357230920e-01 1.629033081738384681e-01 -7.612974070227437551e+00 -1.903715901379428033e-01 -3.331963199945562337e-01 -1.190505049244592328e-01 3.456961977005619246e-01 3.156398177045076636e-01 5.390866938636378336e-01 7.606296779097476701e-02 2.986175722370774110e-01 6.633884460083265822e-01 -3.164039381311596344e-01 -1.139799159577350451e-01 -1.960747998572784923e-01 -1.616077635082717734e-01 -1.050881589711281094e-01 5.124458388099952799e-01 -9.971599439550971056e-02 5.836424032038678433e-01 -5.461190422603294792e-01 2.079940672542335278e-01 -3.073487933379396964e+00 -9.707354505051739579e-01 7.387317060039393368e-01 -1.771910788727879549e-01 -5.222213558080497364e-01 1.008272015879185801e-02 -4.342951754066604053e-01 5.071495538949619686e-01 -7.961643173211996327e-02 2.290928231683153626e-02 2.830964268037821085e-01 -1.809171201249917260e-01 4.766366085740969538e-02 -1.048400617985976169e-01 1.059473059246300863e-01 -3.811991342032143848e-01 5.901815635100149393e-02 -4.601333864621537373e-01 5.778354294756127274e-01 -4.503798510129684018e-01 1.685633727456973929e+00 -1.489207994324857509e+00 -3.914399708960445423e-01 -5.435637950336058566e-02 9.807836936310820874e-02 1.372477734346944089e-01 -8.551851875715499318e-02 -1.319080970047536994e-01 -1.019899942233237766e-01 1.389271082113552325e-01 -4.823056591180829855e-01 3.475033314156519282e-01 -4.417751417578159590e-01 1.884571313137826110e-01 -1.214572474260506851e-01 -1.350049671520281436e-01 3.984283876763754506e-01 3.069069562789934480e-01 -5.078274252420413859e-01 4.656255908874413763e-01 -1.300715397459185851e+00 1.516026550070250778e-01 -1.925424185912874009e-01 -3.989723636031214937e-01 -1.280419836536665912e-01 -2.583242743144040787e-01 1.183372820701578121e-02 -5.572107894161248964e-01 1.174114788084636984e-01 -5.212222205157246435e-01 4.214127476280111750e-01 -6.119546199773537865e-01 4.709610076876344920e-01 -2.138880381568242228e-01 1.804308182210832001e-01 -6.331016793474759652e-01 1.217501423018632067e-01 -3.043518663026816284e-01 8.079317044735034870e-02 -1.008213842262435378e+00 3.214451247909892118e+00 -6.658128926065671749e-01 -1.173602572607137517e-01 1.418272906794442179e-01 -3.196914617348056709e-02 1.031082053528109554e-02 3.329270743907244423e-01 -9.112107842067871388e-01 -7.173031100509774660e-02 -6.867434785262105379e-02 -3.097333356964213635e-01 -2.415693550675825918e-01 3.944710207965158588e-01 -1.637373938224868652e-01 5.754675664746855546e-03 7.722483713933030458e-01 -3.803421159110484950e-01 -2.105185464131675843e-02 9.009180233474722854e-02 6.601464404977264167e-02 -2.049565829795113814e+00 8.473261929636350942e-01 -1.037279694010535991e+00 9.275379777706405093e-02 1.904188936813682176e-01 -2.597438353544561096e-01 9.844413102160842755e-02 -2.034684354238720516e-01 -7.878431006277537563e-01 4.105623925043175859e-01 -1.277164959759886642e-01 3.737016640058072880e-01 -4.057285424247254468e-01 8.457954511329148772e-01 -5.346939480052270710e-01 -3.534107754888680120e-01 1.196091035747031128e-01 -5.909958085757551771e-01 9.661600239269318990e-03 -2.262212292065655106e+00 1.250677687196855459e+00 -1.140643956090684696e+00 -2.630723264951484452e-02 1.621271384874489740e-02 9.880436434720252237e-02 2.489771933541931048e-01 1.982253732514038802e-01 -1.204824793409130734e+00 -3.194342351882824005e-01 -6.859523358627939160e-02 -5.011883700220209903e-02 1.483515688081951112e-01 -4.497450767470638766e-01 3.456818725354082744e-02 2.204187639540009513e-01 6.762475134709688973e-01 -2.768914203826966514e-01 1.118209256136914576e+00 -1.797570237095087009e+00 5.096536782315823189e+00 2.039997110760714349e+01 1.849052448218344580e+00 -1.008027845622095242e+00 6.814698035909856344e-01 4.406302266921926503e-01 -1.111074807185730151e-01 9.497701278147872017e-01 -1.329694659400189494e+00 -2.074236553229411584e-01 4.498891491125789344e-02 -4.988799466260331883e-01 2.189137892825669951e-01 5.066145759853952768e-01 4.295385412786174584e-01 -7.193153780620207272e-01 7.766284885541097083e-02 2.241016072019874628e-01 -3.439755791016381181e-01 -2.907652847907229443e-01 -8.438848391592728149e+00 4.629222378235226643e+02 1.130056118877882909e+01 3.794401211666581730e+00 5.611985285996894390e-01 -2.896465276399382560e-01 6.215086511083356413e-01 -1.009050123979168490e+00 -2.274953135021604567e-01 -8.299000254227308915e-01 -6.667707495654440208e-01 2.103695291552156732e-01 -2.331779348235514249e-01 -6.593498303361542412e-01 8.133946462591268300e-02 4.065674188587466986e-01 2.182663075777213635e-01 4.636423335844597204e-01 6.888529792018971420e-01 -2.892160790752313915e+00 -3.581762731482740492e+00 4.173399509178074368e+03 2.340928735234228952e+02 2.189448198316873118e+01 1.568931551872196906e+00 2.365225382125852427e+00 1.275710785717009799e+00 3.002782904595463265e+00 -1.991411144222993812e+00 -1.505060611122345904e+00 9.296838785675660688e-01 -1.223883336257785004e-01 7.341883911061302115e-01 8.975960467971049184e-01 -8.939534177622618927e-01 4.599409074288942634e-01 5.474252959497860616e-01 -6.370616821306498423e-01 -1.285304932949202339e+00 -2.057802111376076937e-01 -1.920972284376039170e+02 1.368294197425264865e+05 8.008746703781653196e+03 5.391220629069939605e+02 5.877686997991827411e+01 3.641232247174002623e+00 1.464191352213777719e+00 4.533669099668429681e+00 1.063845642456064411e+01 1.943648592288809596e+00 1.412257494201412555e+00 -3.013230828970137054e-01 -1.305905721102803341e+00 -2.111797339919737837e+00 1.287568771144378843e+00 -2.497933212330765151e-01 -2.271126904824384951e+00 2.393135188838641625e+00 4.422126005288009765e+01 -3.441461502376478165e+01 -2.331682467989623547e+03 7.542353244190637681e-09 -7.169198369103446566e+01 -1.623354303044703556e+03 -1.735632241595808409e+02 -7.598889705303804476e+00 -8.538864787494375719e+00 -7.205144605900102306e-01 5.633187979830665881e+00 9.185091355796458856e+00 -2.372502827637549672e+01 -6.118191786612214855e-01 -1.275555105677312895e-01 -4.418921214543161113e-01 3.791595248464147971e+00 -1.050441143911535846e+01 4.361654599975622659e+00 -2.113178667462102567e+01 -6.159290862740090233e+01 2.061617366925827355e+01 0.000000000000000000e+00
-3.379436187791846180e+00 -3.384036737266313821e+00 1.203797506581167909e-01 -2.688104559456405696e+02 2.592359298519673757e+03 1.112566237485625606e+02 1.351890352764041836e+01 -2.645115316297861341e+00 -2.447857429726582268e+00 -1.398146631670897477e+00 -6.973058204262997606e+00 -1.020255679353540472e+02 2.209983195919576247e+02 -1.656530623410508269e+02 3.543073621135463327e+02 -1.763607239404154825e+01 1.314008916608599975e+02 -1.295629984208644601e+02 7.724499027159035904e+02 -6.807665450385411532e+01 9.435968648492831790e-03 5.197087836778791825e+00 -4.329901238120146445e+01 7.773521226897719316e+01 2.283242337210303958e+02 2.219271213368293161e+01 1.222448199507923050e+00 3.327719661628009362e+00 -1.154961876803099585e+00 3.727429694443912922e+00 -5.296701289009433822e+00 2.189196456011904957e+01 1.343251907165836201e+01 -1.241884899806552767e+01 2.570669331372869237e+01 2.457891987544371659e-01 9.472072585227010677e+00 -1.200358245733696094e+01 5.859623721982734423e+01 -1.236663584147427173e+02 -8.891246055312221870e+02 3.748285324459429830e+02 -2.513750917708966881e+01 2.773708092054584995e+01 1.687480560940457508e-02 3.211271135520291864e+00 -5.730859829211993883e-01 -8.881870112906042891e-01 -1.305932143571908455e-01 6.891119780781806980e-01 -1.415856986480463320e+00 6.704895939296022789e-01 -5.521801662466430116e-01 9.164504814450538106e-01 -2.050230893481170824e-01 6.510091752772950713e-03 2.283160058226485489e-01 1.163054437459038581e+00 -7.032043154822531505e-03 -8.726847916549559159e+00 -4.250392420934667825e+01 -3.921507655715569854e+03 -3.238494038572825957e+02 -2.583646931659859547e+01 1.782135078738519951e+00 -9.299143752299272592e-01 3.975111903626462606e-01 -1.164066374806225213e-01 1.731665947308549391e-01 -1.215791494569430142e+00 1.811746511891570321e+00 -9.276509965943660063e-01 9.481132952038251460e-01 -1.590442380239537101e+00 1.683065670744994691e+00 -8.342790143955767235e-01 1.225896755393112159e+00 -9.741698827088072221e-01 1.983871781567870585e+00 -1.156781254837596862e+00 -8.432267437561108636e+00 -6.674743057360174134e+02 6.121212611872397247e+01 2.834210258041679253e+00 7.554481596192772486e-01 -6.428266405785620918e-02 2.416996090687462129e-01 8.188254789416760104e-02 -3.330191936592967750e-01 1.004302685053858113e+00 -6.750899553143767662e-01 2.431294643667456512e-01 -4.568191434975688026e-02 1.966585988960503073e-01 -1.092912774756882754e+00 9.188868487924537476e-01 -1.021067332226323288e+00 6.775400542436216256e-01 -3.995815813868119903e-01 1.632332471315720568e-01 1.211516052129681498e+00 2.646131209730810951e+01 -2.896416180101323334e+01 -2.109414484154626734e+00 -6.180154267109436717e-01 2.141743395056501242e-01 -8.279480251197490759e-01 3.046783528851904066e-02 -9.633029676754745196e-02 -2.347519036706557927e-01 9.756877825810761351e-02 2.685134990566666602e-01 -4.463346513347516975e-01 1.541197144081820625e-01 -5.346109152300471123e-02 -1.740232945575570511e-01 3.952672180373184574e-01 9.935462606335931923e-03 2.539668676113748802e-01 1.920878875751679260e-01 -2.903230277421897654e-02 5.017519275152153568e+00 1.034432371074944967e+01 -7.599946339848671073e-01 -3.077709451503523042e-01 -1.370365629132379581e-01 5.999334628506005629e-01 -3.428827300255079535e-01 3.368076549725742552e-01 1.065679705852176085e-01 6.134323217656856286e-02 -7.395322435127127392e-02 1.163774983156429244e-01 2.081043524667620659e-01 7.044096440947100746e-02 -4.790904652705307853e-02 -2.500844415959448952e-01 2.261306543513086353e-01 1.885841753311581215e-01 3.879043858205477591e-03 4.258143563122303021e-01 -2.763246526703937889e+00 2.034827506705255473e+00 1.192365824625369441e+00 4.538033037369189060e-01 -2.954437653623358528e-01 -3.708053969330933342e-01 1.080825128586866413e-01 -3.222346504766591124e-01 6.917299037847612908e-02 -3.390974718595884951e-02 3.227414032504682950e-02 2.499154587137191186e-01 3.854702450451412687e-01 5.406687974374122518e-01 -2.651599673869000640e-01 3.715771773644860332e-02 2.966920931577803344e-01 6.122832838593694760e-02 3.539045728974912208e-01 5.845626717040204312e-01 3.245273559317432444e+00 3.984645763620278558e+00 -4.725452659372137987e-01 -4.557568822876589820e-01 1.990516933099542030e-01 3.614831499694162176e-01 -2.820749394179813407e-01 1.761175201131948143e-01 -3.009810100256942178e-01 4.415569063264541683e-01 3.045282490242868789e-01 2.472440236505946132e-01 -1.214101791088531002e-01 1.115244544345472377e+00 3.325526464619485978e-01 1.521679242731011072e-02 -3.813717513942123105e-01 3.210379562651866081e-01 -7.455994801316023768e-02 8.478710645670872736e-01 5.219254354351505754e-01 1.010848979766810984e+00 -3.083171414053396120e-01 -1.151041014021814135e-01 -3.072795715044236431e-01 -5.137997155221043499e-01 2.856627934551596582e-01 4.740303147984548104e-02 2.642963748968583104e-01 1.631413978488822636e-01 -6.143476880978298027e-01 -1.511990233124045346e-01 -2.449402025668732108e-01 -3.127278665317021478e-01 6.137110940869092701e-01 4.297577685876348141e-01 -1.269342842522505066e-01 7.322282338716945560e-02 1.890698133896222544e-01 6.444853511086989784e-02 1.037010371566043432e+01 4.915769073770462683e+00 9.762738616519897050e-01 -4.810048032485809699e-01 3.514600633175888333e-01 9.654164818961419314e-02 -4.208297343406286473e-01 1.940038081058617081e-01 -3.656281787068280664e-01 -9.827105847027439722e-02 4.540606154097588387e-01 1.697780517809945877e-01 -5.674291544943343979e-02 -3.875080371358308184e-03 -1.150896001705206118e-01 6.195867892196815774e-01 -3.039375361364449191e-01 6.097517625534010222e-02 7.448375535290097105e-02 8.131299804913680873e-01 -8.334444351740472712e+00 7.822393062453159018e-01 9.207995107436346416e-01 8.498017723938033896e-02 -2.207338544021766324e-01 -4.431510132262062029e-01 2.782079510038926173e-01 -6.489813782431070877e-01 -6.072540044499419309e-02 5.207445470918514729e-02 -3.738610795082308869e-02 -5.672269859849166096e-02 -2.312618376477928450e-01 1.675824040330553544e-01 2.999841291028815249e-02 4.019641026423386165e-01 1.098934790222472202e-02 -6.954727571211094528e-02 2.960763802056476379e-01 2.188141205239020337e-01 -1.628280710190722402e+00 1.843055683080805807e+00 1.061805790991741105e+00 -2.053959459671972354e-01 -6.769942032921960617e-02 1.722661163975942600e-01 -6.238034720192331406e-01 -3.010290410591665022e-02 -6.477334852175431479e-02 -1.871247944683318565e-02 4.183041058055891881e-02 1.218509355260835036e-01 -1.951352552797516182e-01 3.567624044988519927e-01 -4.051278769512833833e-01 5.081555139857414360e-01 -2.819032610229470492e-01 2.088252742317351363e-01 -1.812067368597887196e-01 9.151871457420099887e-01 3.757854308736497728e+00 9.958391901311074434e-01 2.744921546756600605e+00 -7.767309045318881999e-01 3.704317704350046370e-01 -7.772828793129207270e-01 4.150286702160599361e-02 -4.096440363156119702e-01 -2.232267060820305460e-01 1.617708771969432746e-01 -2.207750857011205881e-01 1.944193069176378685e-01 -3.258926477783745668e-01 4.320165632994701355e-01 -3.917572691934054774e-01 5.054421604204577534e-01 1.659674750817714539e-01 -2.883708606822921183e-01 2.481647399747544114e-02 -3.539715603274942168e-01 -8.520319952624305415e+00 -3.377398293719053868e-01 1.603907654953999895e+00 1.102203879723049340e-01 -3.757395707725095235e-01 -9.866378555408061857e-02 -1.809770361116136428e-01 -3.488818791197445535e-04 -3.173568430777038429e-01 5.112503316365746286e-02 4.458916163892183704e-01 -9.078578627686084701e-01 1.330797858708308468e+00 -2.930397298072620060e-01 8.128193402816918933e-02 -2.000814667604373653e-01 -1.090273392536715846e-01 1.509939942292888304e-01 -3.230585482075980508e-01 8.303823680896442738e-01 1.436631289682577517e+01 2.571152799920696452e+00 1.427298915636470156e+00 -5.726272083165184767e-01 -9.494281896657241759e-02 -2.812485750125404138e-01 -1.018952833657778001e-01 -6.599144414805238057e-01 4.656719192232827709e-01 -2.429237912491686302e-01 3.688384968168563205e-01 4.045496546105482594e-01 -3.079550636658296980e-01 -4.510451689501735473e-01 1.961925398685480104e-01 -5.814317218025735201e-01 7.859063797918395267e-01 -7.206729460966698753e-02 2.443487030460005371e-01 -1.250403364710109599e+01 -9.093120072126366722e+02 -3.145938693161087940e+01 -6.548860388415079115e+00 4.523357790611726159e-02 -5.104740012030362095e-01 3.801478325915752521e-02 1.772054395138056293e-01 -3.582478074282420266e-01 -1.876471736018459069e-02 -5.773893378524519449e-02 3.617691906726889783e-01 2.104573732711685352e-01 3.251701240533009241e-01 1.635888704941379501e-01 9.302928883744856492e-01 -1.219613299867262413e+00 4.642095308734610626e-01 -3.340643863294872062e-01 -1.254283728374002749e+01 -1.130035002052682103e+02 -6.819651748327712994e+03 -3.904971249674053979e+02 -3.143976717711620950e+01 -5.538397214838902016e+00 3.975776323766950782e-01 -3.453213729647508501e-01 -5.519163165217690903e-01 -3.615296424475928916e-01 -1.840178498082281067e-01 1.823120248315902359e+00 -1.402335673562252083e+00 8.287306157419553898e-01 -7.637605644773515223e-01 1.848654166416707767e-01 -9.340867229353193579e-01 3.171693508898520975e-02 -7.056100542231433792e-01 5.682001209881946124e-01 -1.057733893060794799e+02 -1.216416529635665938e+03 -1.695552141936817206e+05 -7.757598309963446809e+03 -9.383475429243117105e+02 -9.369769461402097477e+01 -5.630821553161624138e+00 -8.522136375745041903e-01 1.432223795498828167e-01 1.478638872796949499e+00 -2.861571597574311454e+00 -3.194646418165518753e-01 3.827023890988357380e+00 -2.549131098535170281e+00 7.031817000580602439e-01 -2.089804127178780391e+00 1.552126193749877814e+00 1.078483953249872229e+00 -2.749987624188179325e+00 1.583236036659945967e+01 -1.338896390745649114e+03 -1.464997435248084366e+04 -9.585035690591372359e-09 5.189627170535586629e+02 -3.331499746023997432e+03 -3.504047225505637471e+02 -1.606000942106879847e+01 -5.787229715467034907e-01 -4.098972620874519635e+00 -3.753557971613162181e+00 1.376825830287856434e+01 -2.958326872969792021e+01 -2.412723737124814249e+01 1.433651222532034808e+00 -2.599155010674053301e+00 2.450257516425551785e+00 -1.757996824324360574e+01 3.699610328821506755e+00 -3.051926225045303909e+01 -2.370591298852032196e+02 5.134454600772187405e+00 0.000000000000000000e+00
-3.022146531595907959e+00 9.336604507858083934e-01 2.442255021610861832e-02 -5.404901549824826361e+02 5.070330009194556624e+03 3.836316212307715432e+02 6.105954578967157431e+00 2.842070616250987314e+01 -3.544071172061762809e+00 -3.585361825708218930e+00 2.061099510095118603e+00 -1.018206209836998823e+02 2.393689131227220059e+02 -2.676746894310563221e+02 2.732340618818998337e+02 -1.415077305575350692e+02 2.650270513138138995e+02 6.088906037292763358e+02 -4.971818966748833191e+01 7.683562738238833845e-01 -8.014619968110991977e-02 -1.653255059428829554e+01 1.945651892841924564e+02 -1.753216522903967416e+02 4.233636959599434704e+02 3.108589515765697797e+01 -3.938442379145328687e+00 2.260758683176391060e+00 9.511450744958551695e-01 -1.344018228616505439e+00 4.220483816766886775e+00 2.623004828291414015e+00 2.148010484423866728e+01 -2.676766345364399058e+01 3.085656631983988518e+01 -1.839556089108032211e+01 2.931984727494000254e+01 4.613107703103332824e+01 5.189696551064662344e+01 5.986481569773968658e+01 3.313359539045966812e+03 2.836476174838026054e+03 -5.087198752809781581e+03 -3.430590862132667098e+02 -3.470011510120093590e+01 -1.202995601088900912e+00 1.384156524354709816e+00 -2.228283077991669359e+00 1.764184726624165478e+00 1.746234788872797594e+00 3.225603496775335088e+00 -6.106065261029698377e-01 2.305982701499104337e+00 5.018221544920038468e-01 -1.430962187761451787e+00 1.322773257974233729e+00 -4.655758896559234472e-01 -1.863726930696998352e-01 1.592719853289423781e-01 -3.617133774775686561e+01 1.493924336277896145e+02 -2.367977040658239275e+04 -4.337362677865603473e+02 -7.140061182403042039e+01 7.002375288022221866e+00 -2.778700401889039995e+00 1.475316596604780983e+00 -8.784111325848797946e-01 6.726317786281157396e-01 -8.882353982970236927e-02 9.990869423718375941e-01 -9.964611832655236867e-01 2.302265153552696120e-01 1.941809073393585550e-02 5.106945897222772146e-01 -8.269282233506842772e-01 3.619042934562486380e-01 8.611313075375193193e-01 4.586957450836735006e-01 9.814573708015302600e+00 2.945379547833863398e+01 1.102562284015293699e+03 -2.162955567888275255e+01 1.873527934810340412e+00 -3.030130727851542360e+00 1.026577816581152547e+00 -2.392935783905087987e-01 8.420502743638991205e-01 -2.611030378028260657e-01 -1.062845105730588102e+00 4.121532565904715284e-01 -4.340088871367697720e-01 2.920373059928351722e-01 -2.240583264560314092e-02 -6.116956199123819715e-01 -4.347721959331352082e-02 8.250327404198287695e-02 -5.045423518304659183e-01 -4.502472577285629995e-01 -2.329755773166176880e+00 -3.364114225065577557e-01 -1.783810385192773538e+02 3.023942881068705901e+00 -1.353880997390277230e+00 2.096394943883268525e-01 4.624160525425038415e-01 2.844052277689632646e-01 4.386219073808845792e-01 6.763059542010552150e-01 -4.160169998187939200e-01 -5.465984491672770673e-02 -2.377255517616845282e-01 -1.220375828392832318e-01 9.292272685235047902e-02 -2.155334630881924340e-01 9.975366052167089492e-02 -1.742713597539307102e-01 2.897369938058602656e-02 3.320397906592873483e-01 3.824111274434411456e+00 2.919440874049357149e+00 4.306959547559381463e+01 -3.911473079696122568e+00 1.439364852496581193e+00 -4.025670752788563789e-01 1.805257622709177667e-01 -5.497263134459160483e-01 7.924261452945131623e-01 -1.626971679115598590e-01 8.426236610802106952e-02 -4.874475870007302092e-01 1.322731043070746182e-01 -2.794150908854646786e-01 9.084060270586746810e-02 -5.750025867112640299e-02 -3.655248060018010392e-01 1.387114528785531320e-01 -2.915797303673031138e-01 8.557042019575078484e-03 3.686416908572880402e-01 -1.531591864916066470e+00 -1.371208102123557637e+01 2.451071403560478146e+00 -3.624576494831899254e-01 4.858684295094093386e-01 -1.239940913100241460e-01 4.732866958705415072e-01 9.011064113906286366e-03 1.950549709607827253e-01 -4.832520399754969276e-01 5.158704008523784523e-02 -5.389645505941302872e-01 -1.267069558668652007e-01 -1.689308213093525524e-01 -3.146627557615602200e-01 4.710504249506755059e-01 -6.413081791577326385e-01 4.721834137665155140e-01 -2.409130181267613580e-01 1.941239116315706781e+00 3.481207137012631847e+00 4.751376882248109723e+00 -1.813265810180553217e+00 8.055586227472133487e-02 5.582604351940290144e-02 -8.396135050180930648e-02 8.934200415350801450e-02 3.567509461201865406e-01 -6.538383860859653396e-02 2.837501159059740985e-01 -5.094728423526930783e-01 -5.182781969482164186e-02 -6.527586738629054253e-02 8.206491838622298474e-02 1.892224550844616715e-01 -4.361975538895848103e-01 4.741467752910679678e-01 -5.245683838581527425e-01 2.989375738867039445e-01 5.706177165665309303e-01 4.169320126574262986e-01 -1.698046706155082575e+00 1.332232811425777541e+00 -8.642630514412985576e-02 7.080165965826523689e-02 -1.626993686747937318e-01 2.403005770508173100e-01 1.960946973640318447e-01 1.022503894142232639e-01 1.370545858813727591e-01 -1.346280852996883937e-01 -8.963512104282145287e-02 -7.690519211014574807e-01 -3.223870679474032386e-01 -1.854337173115112591e-01 3.031683005238576811e-01 -2.327276742408841415e-01 2.147436232839652348e-01 -5.144857880212256873e-01 1.043079529288540641e+00 2.598327383402164514e+00 -5.838599379986817439e-01 -3.028147319732568121e-01 1.297282003946520490e-03 -6.456430809980417962e-02 3.064131773258651492e-01 -4.561391302154902405e-01 3.607792014350224008e-01 2.389136613534361686e-01 -5.901446691916163445e-01 -3.953920421467884694e-01 -5.687358062698280037e-01 4.368254913418496699e-01 2.392996533038740381e-01 8.260932495744555126e-02 -3.503715734648551461e-01 2.598792473375368672e-01 -2.884270891572953133e-01 4.992875419256108671e-01 5.851892287477369337e-01 5.085083379671146986e-01 -2.040164856201414523e+00 -8.295864159602217569e-02 4.386251452717289112e-01 -1.791318434954405348e-01 1.600463561973839433e-01 -2.783382413240715891e-01 4.754594646678000913e-01 3.216382668040651538e-01 3.525430766093506918e-01 -8.712341398633327572e-02 6.465125868522534347e-01 -5.920493262968733461e-01 1.700712198168901068e-01 -3.682594130103069574e-01 1.085959088341041934e-01 -5.315136496392653953e-01 5.856934032623968278e-01 -6.603028109632873566e-01 1.676663119897568777e+00 1.988695609735458447e+00 4.582403616856822737e-01 -3.804280684863670103e-02 1.694005513841716493e-01 1.561886108411982832e-01 4.541254285895490739e-02 -6.643507230192113866e-02 -1.430232312198143063e-02 5.329979705878855611e-01 3.836171425402312707e-02 1.568653138243973899e-01 -3.877618670433662373e-01 6.154795360485536548e-01 -1.110464096128112033e-01 -3.232041037728095034e-02 5.909696285624477241e-02 -9.480613753979127978e-02 -5.511848872438207536e-01 5.392457232761103114e-01 -7.850926508227296097e-01 2.352824532262893342e+00 1.533491567046979753e+00 -8.028950667156209420e-02 1.575006195517971719e-01 1.206966408476688457e-01 -2.651030509535701185e-02 6.113109592827470351e-02 6.211303231367537592e-03 -1.030552699873510392e-03 1.233274694134109950e-01 -1.163384989007454351e-02 2.508476461416648817e-01 4.445556359371494182e-02 -5.430979509344524558e-02 -1.163712628131747806e-01 -3.009985484496269237e-02 -3.843294324111354854e-01 -3.162680732071976308e-02 -6.444134692090131011e-01 9.943100516004790279e-01 3.893653489774635545e-01 1.529949348012735300e+00 4.844273745188090174e-01 1.192464870800336030e-01 1.249132578070373256e-01 -1.218360176063697509e-01 1.081582826871283487e-01 -4.694866652886275915e-02 6.227019004826672699e-01 -2.399089650994028489e-01 8.643012886270184936e-02 -1.649246229119398777e-01 2.479764997319335862e-01 8.158894164120056303e-02 -1.215632004475679651e-01 7.670056023502525022e-02 1.571974862152956121e-01 -2.070676875022599006e-01 -2.423530426859556997e-01 -4.065848359292800751e-01 -6.845304951341333322e-01 1.839783347886714182e+01 1.810295952307399148e+00 7.850183667429178058e-02 3.383599997032007423e-01 3.320230268219717118e-01 2.290172947212454346e-02 5.968303356270610038e-02 -3.244353274363191986e-01 9.012945553922691033e-02 1.585311873645878222e-01 1.093211818459849383e-01 1.648204181335728435e-01 -2.358954397717241136e-01 2.564067702930969972e-01 -3.959244072956522587e-01 -2.598951482553815140e-01 -1.169074955924003234e-01 5.758673629665480576e-01 -2.586599881072515927e+00 1.885686529146914836e+01 1.163149300342647621e+02 2.070447953862583290e+00 1.612465916134993904e+00 -5.811133909796524222e-01 3.915555390314153783e-01 -3.148335453387289817e-01 5.480193684395402443e-01 7.422313766167789595e-01 -3.803386169000333439e-01 4.293368707419631392e-02 -5.443621474378375069e-01 8.944117695296469606e-01 -4.374002221232338172e-01 -2.442530596158292155e-01 4.482261374588958347e-01 2.490422864255492641e-01 -1.000800496918913041e+00 5.784441178307702103e-01 9.503428404547321406e+00 1.431701882297275006e+02 1.373499738140686532e+03 8.192557189964372810e+01 4.663207135944617221e+00 1.256929608002245402e+00 3.896857001212126193e-01 6.037569814977672422e-02 -8.388490374221824197e-01 6.362017905699914877e-01 -3.050519834086742321e-01 -8.949231099777676945e-01 1.002383209095668803e+00 -4.569850911403960936e-01 -1.779941654006762519e-01 7.322410925722806496e-01 -1.355745567548964914e+00 -2.097984953154821142e-01 2.346590061930385218e+00 6.872499683571504647e+00 1.028400251066050259e+02 1.305612490798521321e+03 5.106986316638952121e+04 3.362476072367164306e+03 1.683313905827671988e+02 1.705411352384589918e+01 1.989382708464688676e-01 1.129792404731908562e-01 3.342082158208086184e-01 -2.472232822611360348e+00 3.059642856304606084e+00 -1.384014064794200749e+00 1.447845913552626484e+00 -1.095064148878492460e+00 5.903452124607309059e-01 -1.319817825605326789e+00 2.228985393181227792e+00 9.879633947962389584e-01 6.792066293024618062e+00 1.268018251714383950e+02 1.283151934793626424e+03 1.648804505024477839e+04 3.058618299735702773e-09 4.073471909775253152e+01 -1.253571333337604301e+03 -1.152573702377121663e+02 -6.324025321475119199e+00 1.911191196134158332e+00 -5.078668543716332806e+00 4.857591387658175108e+00 -1.014629354079902335e+01 1.425489951666781963e+01 -2.100613964489741647e+01 5.037337672889975693e+00 -2.077490457507337851e+00 1.426818067970486936e+00 -2.445791223111200452e+00 -3.290028986676418299e+00 -1.168069114733862079e+01 -1.026422805854253966e+02 9.125526319167022393e+00 0.000000000000000000e+00
-5.036463863199827529e+00 -4.579879824747123962e-01 2.020926921304528889e-01 5.473225039274329902e+02 -4.933651477923296625e+03 -2.000064597026976116e+02 -1.609584048278526325e+01 -1.501820746077231661e+01 -1.686730719731031058e-01 1.335466218074157041e+01 -3.177145100608868233e+01 2.035914769293849531e+02 2.074519229553807236e+02 -5.856091865766247793e+02 7.094789968780969502e+01 2.553180106684831117e+02 -7.139996449899804247e+02 1.826582845628938230e+03 -2.022761115455010440e+03 1.507022604645435422e+02 -4.115497020280045604e-02 -1.221965829407145065e+01 1.644428760350201628e+02 -1.536313745563675184e+02 -4.451599357029044768e+02 -2.544437258719742090e+01 3.771158957140954726e+00 -7.489871629201729775e-01 1.148941148128187706e+00 -2.246014216511184713e+00 5.799780354326685483e+00 -1.504888493383896275e+01 2.485503905152904736e+01 -4.890121724860830454e+01 8.394740580287134435e+00 2.622562933732240253e+01 -6.300506768298419047e+01 1.618693699266164003e+02 -1.452410983315530757e+02 2.789848062229502830e+02 1.789519274428748759e+02 2.511458965149126016e+03 -4.287705623484216630e+03 -4.098700804303662153e+02 -4.641487323345609184e+01 1.449864540002181457e-01 -2.644900550170184772e+00 1.711908862183075364e+00 -7.636861590854593373e-01 -6.842740998461209756e-01 6.210910677356480392e-01 -8.369257342135938416e-01 2.525599828591452933e+00 -1.465616406593596821e+00 -4.341981370200187484e-01 -2.905607798053324586e-01 -1.073750343800952578e+00 2.878955475014066678e+00 -6.966120683272123415e-01 1.237722002640884966e+01 1.456997325175120750e+01 -2.121325457977689803e+04 -4.638388716251065489e+02 -1.874831235487181402e+01 -1.129549577534226046e+01 1.366950562010060821e-01 7.892859335260560272e-01 -4.923595952036521339e-01 -2.328289116009116810e-01 1.201602488870378238e+00 -2.622896688201592497e-01 -7.918804466166307066e-02 9.525635230647822027e-02 -2.887932222020879180e-01 5.969605619413016484e-01 4.989610128083228346e-01 -2.055026769032277656e+00 3.111821125622029172e+00 -5.115073086496238375e+00 4.676017075948493584e+00 -8.923376167443507256e+00 4.219787733489065431e+02 -1.829565535789006390e+02 -4.164828591595664875e+00 -2.082720294950121342e+00 9.660103675637969900e-01 -1.008967027601556765e+00 3.111240608205463332e-01 6.028616030558566763e-01 -7.576984301852007775e-01 5.685168316676936229e-01 -1.107111969581694666e+00 3.014161654020028891e-01 5.103523154838285336e-02 -3.029947236573207192e-01 -5.611958528252785072e-01 8.726260516151285174e-01 -2.813532947341457202e-01 3.476316503534704339e-01 -2.488014271028333724e-01 2.873325969828471216e+00 -1.126629536668187939e+02 -9.432582651797474682e+00 -3.832020124154382756e-01 4.649562049215489878e-01 -1.205733503661855721e+00 1.239721381076268614e+00 -3.981151473693067544e-01 3.934725244703116687e-01 3.542724786747157850e-01 -3.720263666898233623e-01 2.003187757213709119e-01 -6.781411073760068575e-02 -1.031204914916656890e-01 1.881518405223800983e-01 -8.389360943493784362e-02 5.424718357844966476e-01 -3.922899122914174086e-01 -1.350713298191941192e-01 -5.440366729352046349e-01 -8.787990271663659314e-02 1.180001078235181922e+01 -4.170143970563344737e-02 -2.668678685392222860e-01 8.044211224035535679e-02 -2.411874691750028887e-01 -6.987182598078334195e-02 7.764718395782495008e-01 -3.120522299385015685e-01 -2.471986316765253378e-01 1.932127604945321764e-01 -1.638944997959583816e-01 -4.230702322984427610e-01 -1.070972426687859524e-01 3.187074381825141245e-01 1.839815793905756891e-01 7.534360929823691322e-02 -4.303553282598500118e-01 6.942498250332960197e-01 -5.813626910933749059e-01 2.101157612324016100e-01 1.727191087115784285e+00 -9.180312722413290771e-01 7.190514117602617716e-01 1.919984541525820987e-01 -3.522560466987414429e-01 3.124900538386867765e-01 4.744639756651736207e-02 8.596622639770572505e-01 1.879039134218913887e-01 -4.286120180623669285e-01 -3.376383473571316074e-01 -2.687318252027708354e-01 8.352125623976576207e-01 5.990778458772609838e-01 1.080438164035868454e-01 4.893601543160741585e-02 -5.069236302478685730e-02 2.008405385064833126e-01 -8.126141611046051594e-01 2.194208856738555369e-01 2.546212037012082874e+00 7.685953017195288339e-01 -5.673868560969737018e-01 3.320492735642233129e-02 5.123023971799511855e-02 -3.803728169619517985e-01 4.625178943960577271e-01 -1.983959836942403854e-01 3.845553097800831210e-01 3.423761078326208462e-01 4.694568636214313528e-01 1.378442580633958414e-01 1.515989949037717111e-01 3.770921291760487293e-03 2.937670958611704464e-01 -4.505275579859500112e-01 8.969617035080972300e-01 -4.499988228877143115e-01 4.644159560737648462e-02 -4.072675331245534380e-02 -1.766291437706172474e+00 -4.984871570387241491e-01 9.103514688061977722e-01 -3.820808845490972772e-01 2.129307028008540215e-01 7.611623283700907905e-03 -4.144184603009790635e-01 6.629864285586108963e-01 8.993230483448684254e-01 1.825586196823110186e-01 1.876097774441269905e-01 6.163989119849766496e-01 -2.189429608596782373e-02 -1.210492680822028433e-02 -5.024736468172221748e-01 2.440149566995728492e-01 4.994978579279347741e-01 2.205821483790231241e-01 -7.029517679554260212e-01 -2.686741686505200732e-01 3.969901970524063017e+00 1.675390962678847018e+00 -3.902742034509998348e-01 1.357518592217701325e-01 7.876052886417710397e-01 -5.890183754551117090e-01 3.439252667548373665e-01 -1.178182182375948628e+00 5.798563679023516215e-02 -1.292777444172088508e-01 3.242506800964122249e-01 -2.029024946240411964e-01 3.316612076419147570e-01 -3.245141921284897535e-01 6.039701514268358551e-03 6.017822240161763148e-02 -1.759508680002994652e-01 6.315866017493334539e-01 -5.483834077546703156e-01 5.994690108218776459e-01 2.750500875455145433e+00 -6.262980701656601923e-01 3.645538785451947206e-01 6.656352174677238054e-02 -2.822236501549895138e-01 3.136721993237969741e-01 -2.142039432891209572e-01 -1.028029046756628873e-01 -3.036589035918382251e-01 8.887141957439297357e-01 -3.008063092724739818e-01 7.772469288462673376e-01 -3.770073586497915130e-01 4.473609958297402045e-01 -3.847664886190074185e-01 -1.821581959277835949e-01 -8.904523633469807464e-02 9.895817502279555811e-01 -7.570915155503996630e-01 7.585592773518357035e-01 -1.105259107816664255e+00 1.637644658510168938e+00 -8.265813960548342720e-01 -1.485557146557994201e-01 8.678774072299617615e-01 -8.348066885974532170e-01 3.212484322096145206e-01 -1.113711090115003799e-01 1.234680434303214724e-01 -7.756540581298168036e-01 2.993303436844314547e-01 -8.150880776826170404e-01 3.934542921648471747e-01 -3.480613629376989593e-01 2.984326992546471047e-02 1.759420604838339841e-01 -3.913934636639169184e-01 7.282956417267492100e-01 -1.212565236155924708e+00 1.239981510063259407e+00 1.098753889533838901e-01 -2.906240459350613037e-01 5.902404978186837070e-02 6.564139058021396522e-01 -7.905559512386446386e-01 3.494669728922019658e-01 -1.434248901034607115e-03 -4.034110641640893391e-01 9.373151142533089342e-01 -6.819453983951007103e-02 -1.818245728790941484e-01 -2.066136988356959137e-01 -4.806899933812189829e-01 9.980298711880664086e-02 -9.621788660594177145e-02 1.968138710578557493e-01 7.115444653511531214e-01 4.024785406103603691e-02 7.460266909063477669e-01 2.181527563668907987e-01 -2.982648892835726429e+00 1.334154577349725201e+00 -1.095050132044875113e+00 -3.342111678775694372e-01 5.265201062704960577e-01 -3.947156329318914914e-01 -1.011068517039603876e-01 8.504771613216917103e-01 -2.801732166781789601e-01 -2.229190414523714026e-01 -4.306646211897486864e-01 2.591961319945568221e-01 4.316045237942489621e-03 -5.576143491071832159e-01 -7.547337134931808578e-02 -8.210560111265010619e-01 -2.452050307457369627e-01 5.040685276132848003e-01 -7.762581632430709533e-01 -2.911258801630978610e+00 -7.395917925267440296e+00 1.350699353884522225e+00 5.859507914152572994e-02 6.387824291530463938e-01 -3.529878279542089103e-01 1.952919238528920687e-01 6.351255743723527303e-02 2.581125867651792305e-01 2.235468888312794888e-01 5.073847485341644870e-01 -5.828857215516052293e-01 9.682917533626778095e-02 -2.243826827017301184e-01 -4.493972752521813163e-02 3.454177314778945629e-01 -3.898428499992121488e-01 3.483788284055435724e-01 1.750489741343670858e+00 -8.450525033870235347e-01 -2.737434314279653336e+00 -5.719647983504182776e+01 7.982719291385365068e-02 9.335761018082848750e-01 -1.343030927909950378e+00 3.766120477257146604e-01 2.046908715868340778e-01 -4.672852440942421026e-01 1.933398028548818814e+00 -1.664192427218239345e+00 9.803042107707256037e-01 -9.917290405506946627e-01 1.998190181916967845e-01 -7.507520052621323714e-01 4.071780031721345949e-01 -6.359056630258042020e-01 8.045893929461129801e-01 -3.259692159021767566e-01 -5.072223813510731816e+00 -1.617852408897306304e+01 -2.364253345898760017e+02 -3.454175636414001929e+02 -1.373509857599947281e+01 8.047909346227584138e-01 1.297182440373561008e-01 -3.167008920222684765e-01 -5.646960524176076746e-01 2.232684073159077798e+00 -1.430553818150102074e+00 3.008341890661228035e+00 -2.390040136898829104e+00 1.200515996026354060e+00 -4.087907329375184418e-02 8.921388181052947175e-01 -1.233755962719570221e+00 1.256668766465722342e+00 -1.291130988093639687e+00 -1.827893705575661443e+00 6.485869199855187617e-01 -1.827835109626103076e+02 -1.910728316051885486e+03 -4.522128664943389595e+03 4.089132766149414238e+02 2.263651508179100347e+01 2.395171856937167831e+00 -5.623829258190937708e-02 1.171675591268126482e-01 -3.680685006081290567e+00 -1.003400910077729691e+00 -6.760092189667261664e-01 3.169361005878158721e+00 -4.241051276413898563e+00 1.459222118160809600e+00 -1.471692919494088869e+00 1.995817504731462577e+00 -3.159740851699535114e+00 -3.278741506038329590e-01 -1.868104145986490039e+01 -2.189767692628156510e+02 -2.162688486261991784e+03 -2.575016458295937628e+04 -6.903758218439860108e-10 3.032923839896830032e+01 -9.318294846362550743e+01 3.211795458057167707e+00 -1.173544138578563434e+00 2.966926081287887484e+00 6.633269512161973580e+00 -1.046706509343366065e+01 1.031568685007118802e+01 -6.216898478355574298e+00 -1.463856829716860375e+00 -7.428027336100626599e+00 2.789489191917823518e+00 -2.684333862107934010e+00 3.087429003492218271e+00 -7.812275217698328333e+00 8.393179716217673558e+00 1.659941170921229059e+00 -1.305201118485399547e+01 0.000000000000000000e+00
