-1.543916565503066174e+01 0.000000000000000000e+00 0.000000000000000000e+00 -2.361970930428493856e-07 -2.771731097080024997e-05 3.337540500636457914e-04 3.177403772782323027e-03 9.529304281207001855e-04 -8.784722713030053854e-04 -1.825394992176308491e-03 -3.034886337360922278e-03 -5.267977110772512983e-04 6.526953444068838827e-04 1.116346567778041862e-03 1.033959758115895328e-02 9.302285991623858094e-03 7.772675282169640078e-05 -2.622776870201406924e-06 4.059815480283536770e-07 -4.440558343626052716e-07 0.000000000000000000e+00 -2.234067326384277548e-07 -1.409887845400379619e-05 -2.364632366587607196e-04 4.036614630086163800e-03 6.044298350321296309e-03 -2.279414181139130177e-02 2.694866719299561855e-02 3.463463451896519468e-02 1.778769153087900526e-02 7.557977825105324787e-02 1.034176967981770279e-01 1.005166603697493360e-01 8.432378398046651291e-02 -3.699012319956816730e-02 -1.181088594850686208e-01 -5.113652474782202917e-02 3.581013022833240411e-02 4.673866620865457788e-02 -2.098523392837633225e-03 6.588138680340518462e-06 1.976680516794905807e-06 6.079659047070627758e-05 1.155660227809472435e-03 -1.670590200911664311e-02 -6.615941821868932815e-02 -1.669961253505048981e-01 -3.861053047930679272e-01 -5.800790820054454455e-01 -6.401968039693698431e-01 -1.112256822002438250e+00 -1.920705073273959673e+00 -2.141722904384676607e+00 -1.878611368981709218e+00 -2.574261343046210904e+00 -6.028329952276416659e-01 2.926088982507517144e+00 7.966636121861462305e-01 -7.472592456415264595e-01 4.341507631782209886e-02 7.460058494661019057e-03 7.376355198864042760e-06 6.074970081573892889e-04 1.888573551339583004e-02 -2.119411299509106339e-01 -5.686944177035608838e-01 -1.232414939033283696e+00 -2.407159030362184815e+00 -1.315210423484796554e+00 -7.311362840493099702e-01 1.079403968179170614e-01 1.553219916283431257e+00 -2.713503871816441149e-01 4.185897502516288671e-01 -9.223749046201416002e-01 -8.099782936964201596e-01 2.289996425983789496e+00 1.230639537003971329e+00 1.445709963656030828e-01 -1.420679270042983777e-01 -6.450972125428239279e-02 -2.476004312965096024e-05 9.265271311484446146e-03 -1.987728098224703088e-02 -9.739192111845322852e-01 -1.861900013190754821e+00 -6.188176911299815286e-01 -1.893237179442027074e+00 -1.787864983990680168e+00 2.588345250438533807e+00 4.250173780147376235e+00 4.945385903871713396e+00 -1.113379695113520196e+00 1.452309554302277483e+00 3.025473427418500894e+00 -7.742143406141636097e-01 3.488358131343651802e+00 3.482720088125636160e+00 1.299771641078999007e+00 -4.927582574969850415e-01 -1.710635137702760933e-01 -2.273625106819793663e-04 9.961159070541489996e-03 -1.140268942253415546e-01 -1.156211166072395047e+00 -1.630080736319104329e+00 1.598108298234161451e+00 -4.590292512106087131e+00 -1.243446697767959241e+00 1.143486204842824261e+00 1.413714484397547544e+00 3.505252192663219635e+00 6.298410520874060836e+00 -2.708214577116790367e-01 4.581135664264142981e+00 1.969944590862496181e+00 -8.312589886235542957e-01 -7.218655695108577852e+00 -1.921748743019974892e+00 -7.896164258680071768e-01 -7.551470508429115880e-02 5.051628710949548212e-03 -3.971431922724570629e-02 -7.752806233713823714e-01 -2.405536554568330931e+00 -3.663215277669913394e+00 2.317799023165567351e-01 -4.482971350112205933e+00 7.284772913767975089e-01 -3.440054037866234982e+00 4.335359529624023822e-01 -2.088347024989553269e+00 2.900845949346647856e+00 1.865520542694542039e+00 1.785520350451229366e+00 -4.894177210184554316e-01 -3.386826174746444540e+00 9.986216522490538594e-01 -3.135468714993290273e+00 -2.250227919304311097e+00 6.715798890792225306e-02 5.977595634051900871e-03 -3.997862717632254259e-02 -3.667280352466168125e+00 -2.300009675486188954e+00 1.434486718224653679e+00 2.369162225622252205e+00 2.298019271737040403e-01 3.242121679644762722e+00 1.599678842750532404e+00 5.864175788853754900e-01 5.517063838120952468e+00 -8.572899107693990883e-01 1.890202899929711577e+00 -3.365290347382108749e+00 5.869959149522124164e+00 5.214494789491593174e+00 8.862086100990936188e+00 1.237368282237748973e+00 -6.208765675042962506e+00 -7.782324343215910600e-01 1.094636354284126041e-02 -3.224979254132328554e-01 -5.485840640446664196e+00 2.718552888813257074e-01 -3.092578890284805038e+00 -3.414665338351750568e-01 -3.364420254918608411e+00 -8.074592680358991803e-01 2.222587783627230973e+00 -2.954453453522621231e+00 4.417606565355499448e+00 3.533104063917736237e+00 5.612373340963256574e+00 7.323675982141008234e+00 5.287471614706175771e+00 1.334391111473170799e+00 2.491792678018648566e+00 2.310873251330216149e+00 -2.209193238245953150e+00 -1.415881689771341323e+00 2.790598468565214790e-02 -6.594582185613193648e-01 -2.395037897432558793e+00 8.037034347959086666e-01 -1.507976963879289478e+00 2.485247267269141691e+00 -9.319543017605124158e-01 1.061014286232438542e+00 -9.406710132010661640e-01 -6.171461217013125555e+00 4.900602966936524751e+00 -7.995878542438572545e+00 -8.982822205609075183e+00 -9.368239767057708889e+00 1.017081726837222755e+00 -4.515898200513684735e+00 2.890106596479965706e+00 -7.559960613624542303e-01 -1.801117752632091507e-01 -1.194375482765412055e+00 5.501977198636757993e-03 -8.251117055761757468e-01 3.195357980551424948e+00 1.553015737223047532e+00 -5.514958886008398675e-01 3.433036196521842331e+00 2.997958684103781302e+00 -1.948888328355989019e+00 -3.061664489237976294e-01 -8.532021367599833539e+00 -1.433418805863771617e+01 -1.531528202710178732e+01 -6.316118411672580479e-02 -2.950188132551320841e+00 -6.998054056339389817e+00 3.594886821787403264e+00 2.330658254382312222e+00 -2.188360930685161243e+00 -5.280089699296252270e+00 -3.859441858624914623e-01 -3.118531198316389363e-01 -3.096654138132616918e+00 -2.759411933996791078e+00 -1.010289725327766730e+00 3.165546500194692747e+00 -3.073316122002530015e+00 1.705128360436066470e-01 -2.911979050020813364e+00 -1.607137878473583914e+00 -2.758723234037439909e+00 -2.898589515345433298e+00 3.995541532243938487e+00 -2.822497361167422447e+00 5.860832731699691101e-01 -1.017723644691280738e+00 1.435436594742467875e+00 -6.562749466631973005e-01 -9.718115326808766108e-01 -4.329018569506520642e+00 2.569902618029256125e-01 2.447093529593989680e-01 -4.578996726718344235e+00 1.367847067751729040e-01 1.775495930593695704e-01 -2.546936847022158723e+00 4.623260932114948041e+00 -5.274389437687599519e-02 2.342118762351233840e+00 4.076047785333218876e+00 -1.220099583894427436e-01 1.549255692826198239e+00 -6.278914154526214375e+00 1.938330257284133884e+00 -5.280303323193457077e-01 -4.997879246081380344e+00 -7.830959833748060817e+00 -3.806324824795732087e-01 -4.063107903813922839e-01 -1.223193409379377927e+00 2.342142545063853609e-03 1.810261866057493452e-01 -2.022921421657649876e+00 -1.795257991480291082e+00 1.174688874900250646e+00 -3.254879273017669661e+00 4.457185235209494500e+00 3.184601878876759162e+00 1.348954562044626382e+00 3.390011992968353649e+00 -4.889506957266359422e+00 -1.292028462310390147e+00 -2.694121773561741762e+00 1.057671145378189292e+00 2.123586031448493339e-01 1.851532314453423700e+00 -4.749972906475693257e+00 4.249798851570791847e-01 -1.611399059696605907e+00 -1.139494879202378685e+00 7.359012831621625228e-02 -2.002867290131343792e-02 -2.271138692321783559e-01 -1.663657224024836179e+00 1.857539168996177603e-01 3.978779238652923045e+00 -2.737509469608481738e-01 -5.000922559985466975e+00 1.322595438275544266e+00 3.144421058264772917e+00 -2.238355669122159330e+00 7.173256234126349495e-01 3.967427830129680810e+00 -4.941679079814226050e+00 1.014089026462250409e+00 -3.826159522805307134e+00 -3.566152118798113779e-01 1.490616338436253407e+00 -4.436187127214132886e+00 -1.668838914856889399e+00 -5.572450888810603908e-02 -3.077060031866114733e-03 -4.474209173374579102e-02 -2.126266714288640891e+00 -2.719595024878167067e+00 1.685066783037198590e+00 -4.801374709200033841e+00 5.804231464291160769e-01 5.046671970049949607e+00 1.886456646380402669e+00 -3.087246174207960880e+00 1.567976632815309967e+00 -3.917009275236992050e+00 3.218667364210409665e-01 3.063729049831914519e+00 -3.569408632727896435e+00 4.996105733158726636e+00 -3.184801000430113049e-01 -2.969741730492510889e+00 -2.194324453457459079e+00 -9.624281908793842488e-01 1.592367883554662725e-03 1.387495669885654417e-04 -5.340357672220332752e-01 -6.965167077497446124e-01 8.853578501169978576e-01 -8.411542988967002366e-02 -1.447386420131779650e+00 1.259869995979010060e+00 3.934715263182722023e-01 9.368063805784899722e-01 6.855597771855703293e+00 2.057569353852509053e+00 -9.776232103381876648e-01 -6.012812628430013184e+00 -2.332622134861016772e+00 -2.682821071788171974e+00 -2.378064785057804276e+00 -9.832846719019592285e-01 -1.501354485798628957e+00 -5.714180567412724399e-01 -1.330820976554784548e-04 -4.758216841109517981e-02 3.698373613190275577e-01 2.372928085387933983e+00 -2.249453609341068194e+00 -4.171394496658582085e+00 1.482329159788827178e-01 4.218482621386533959e-01 -6.257805955816162502e-01 1.072220460384093021e+00 2.557063606480409312e+00 2.349163822576556537e+00 -3.126470310427271748e+00 -2.495329710281260382e+00 -3.048814066452674165e+00 -2.976965477055852904e+00 -1.763868148241743761e+00 -2.266882638384690174e-01 -1.569006131534285420e-01 -2.914048238344917724e-04 -4.922337829748468994e-07 1.266818117846460305e-03 1.007107007132613911e-02 -1.461812887597882353e-02 -3.355441268490931161e+00 -3.703456346587593373e+00 -1.151335675121993640e+00 -3.707276263084929302e-01 -1.364376133107513267e-01 -1.230937119815459946e+00 -8.320960313424525800e-01 -1.035556805787500423e+00 -1.605345238965447452e+00 -3.416981650023329098e-01 2.882967287689950156e-02 9.089837911165209172e-02 6.189656261093750417e-02 1.572463175010140046e-02 2.242359092297149109e-02 5.694714582016088995e-03 0.000000000000000000e+00 -3.927739550088972552e-05 -7.393936148047009372e-04 6.794378592046654286e-02 -1.021175339632654833e+00 -4.142718727506337906e-02 -5.186456293474172446e-02 1.042588036056599742e-02 2.211432393076045652e-02 1.151317015460273929e-01 6.350356987322991476e-02 8.132200892972819839e-02 1.472207987828804687e-01 4.334302974279041765e-02 5.433116986315767762e-03 9.998477046949665048e-03 1.800034019650098224e-03 -5.168016581922662070e-04 2.245595901104400620e-05 0.000000000000000000e+00
-5.842674635042049758e+00 0.000000000000000000e+00 0.000000000000000000e+00 2.706322483876129749e-04 -2.502040800879225431e-03 -2.723918604815215791e-03 1.220321658553807746e-02 -1.399390531383278846e-01 -5.279379198882814400e-02 4.972790642002958110e-03 1.137763768396072434e-03 6.294070412678871244e-05 2.004445233767615173e-03 9.324015796900205280e-03 5.582606170687507904e-03 6.085280613471535927e-03 7.390754641928390899e-03 6.289937636001574975e-04 -1.066108664422554781e-04 -1.105495996198688969e-07 0.000000000000000000e+00 -3.351118130604262187e-08 1.485458448324704963e-05 -3.310204223778497219e-03 2.892127936220955167e-02 3.262342051797085390e-02 1.697573143109521593e-02 -1.978402606444420730e-01 -6.838734801584517298e-02 2.256336093400815312e-02 -1.753025118082431402e-02 -1.211611581416238747e-03 -2.358685188704550892e-02 -9.569681929305871859e-02 -2.471208396624217582e-02 -1.928564282683372169e-02 -3.730274706439822008e-02 4.471209221559508534e-02 4.990226923787411534e-02 -3.329241986159195681e-04 2.630337908448358267e-04 2.841590819543349483e-07 -2.915375410806434441e-03 1.170502096310051948e-02 2.125048430706898139e-01 3.263676315945504003e-01 5.313171596971354438e-01 6.361564919543314378e-01 -4.641200070486130314e-02 -2.512404333945345014e-01 -2.844379844874100546e-02 -1.339555792792264943e-01 -9.510409807703807533e-03 -5.863132226879567144e-01 -1.245400045299958958e+00 -1.510435528012763262e+00 -5.376751128377347255e-01 2.393332611138685451e-01 2.277666138349115077e-01 -4.096253183895432089e-03 -4.547291782114821004e-04 1.222895117864133425e-06 2.347598756325889116e-02 -7.871056778666650489e-02 -1.816258626048212310e+00 -3.140755622594548768e+00 -4.659353117334583239e+00 -5.969824455836487687e+00 -2.595183898518945487e+00 -3.498686793285816776e+00 -5.637834625080431206e-01 1.409899405485568691e+00 -4.832110023103473595e-01 6.897533988918354286e-02 -2.366355639237702757e+00 -2.774323010813142698e+00 -5.766265115805358832e+00 -8.954394301064978023e+00 -7.711856861976968958e+00 9.754541628004108345e-02 -2.786231071561684827e-02 1.590370225939580973e-06 6.783737954094368194e-02 -6.021056322608763223e-01 -1.397095646020379167e+00 -1.720860785768082712e-01 -1.532586439963570868e+01 -1.126038318329716859e+01 6.138899255783898390e-01 6.334545626939424245e+00 8.190507622773393948e+00 -6.750071995547379800e-01 -1.729506359406351779e+00 3.072700960864896746e+00 -1.215597040691394959e+00 -4.186169835932785688e+00 4.134322008076981803e+00 -1.730693043031230616e+00 -3.969793621545508078e+00 -3.243281619608092692e-01 -5.515818014420832693e-02 -1.852398545526486750e-05 -6.627382888982323583e-02 -1.032259111421214293e+00 8.846379793125445090e+00 -2.600040916496310431e-02 -1.915075824265253690e+00 -5.860201046700566962e+00 -7.365944396508148806e+00 7.470215907130123512e+00 5.987379762638907366e+00 -9.284908932758131783e+00 -4.595638155970931393e+00 2.357851532249656934e+00 -1.966940168707738135e+00 -7.035337807252955322e+00 1.395136637005109037e+01 4.115751308762379601e+00 -9.029667036279047210e+00 -1.196573789143584365e+00 -1.087678944096377998e-01 -4.344278538900264285e-04 2.362689439473979539e-02 -3.499458077760019936e+00 -6.076457807745613282e-01 -5.971858516577308151e+00 -2.450524153998332899e+00 2.487308990434397238e+00 -6.525616045799137233e+00 -3.572007991004400029e+00 -4.381710709132208947e+00 -5.944594256656738906e+00 -2.433906718118088452e+00 2.225696692018449774e+00 -2.285131481386439400e+00 -5.939779387461177507e+00 -5.894345971620529312e+00 3.395481868260814551e-01 -4.904164158236420157e+00 -2.679241940581941872e+00 -4.250224934925065506e-02 -2.302947746260801919e-03 1.082451095361638416e-01 -5.996179831888292178e+00 -1.101053956893610497e+01 -1.744991475701137995e+00 -1.744561420101522486e+00 -1.796877566269336590e+00 -1.467497938767003740e+00 3.167140006485131387e+00 -5.666088509028394782e+00 -5.248544592037616141e+00 -4.078510329912833576e+00 -1.055761952948189197e+01 3.496219163005191977e+00 6.067894839023978193e+00 -6.631704358144271394e-01 -1.731086952441677429e+00 7.465809530431326557e-01 -7.707437235939904596e+00 1.401786089125389156e-01 6.322723681580744159e-02 -9.558207697739177222e-01 -4.231269473159415817e+00 1.060080047587373508e+00 -9.408136778991176286e+00 -1.923492352180955711e+00 -2.686578622269277794e+00 -5.658893142247483077e-01 -3.581912934919224134e-01 -6.861131701149436601e+00 -3.082591803778670925e-01 5.483395387644661945e+00 1.098504904108383418e+00 -8.516563848881594012e+00 8.290163528495364531e-01 9.843706957951631198e-01 -2.177563489382419171e+00 -2.561747179878977931e+00 -9.442028061497442337e+00 -1.258223841145231114e+00 1.344371967836616166e-01 -1.512068744224069450e+00 -4.693104847644128941e-01 -2.630016203966720312e+00 7.651950974010146567e-01 1.406102152633699642e+00 -1.214916190054410761e+00 2.048025734435659828e+00 5.859876365680604104e-01 9.179769991802786411e-01 1.428205113615764743e+00 8.642609991702955297e-01 2.141933992243155949e+00 1.981409784100482518e+00 -6.486314523402617604e-01 -5.328056455690318494e+00 3.248229652485858376e-01 -5.218737565632017628e+00 -7.021718131266856844e+00 -3.705342563602416761e-01 8.253729893020748942e-02 -6.093570694045308267e-01 6.100592469287547948e-01 -6.078839743316055255e+00 -1.081646454110399169e+01 2.233219584762573096e+00 -5.213895048254471032e-01 1.179906313810934693e+00 5.394297007639446306e+00 9.688436816337379298e+00 4.696791495751254431e+00 7.335997240424570798e+00 -2.849179733228034195e+00 8.360415836552032687e+00 -3.081436021731893682e+00 1.216500383363836812e+00 -7.025620040843713054e-01 -7.460095882414061741e-01 -3.781805952876411858e+00 1.776080969053290826e-01 1.375668341977202835e-01 -1.750926742005022518e+00 -2.131338474679663531e+00 1.256292519662517471e+01 1.349223309879724386e+00 -8.891260740418474029e-01 -2.598425307703780884e+00 7.142666493972431141e+00 2.734916711550794410e+00 1.697962979711171272e+00 -4.611699334850085208e+00 7.791283632316072794e-01 -6.084845371445157802e+00 -3.626062618122385839e+00 3.460133153401374617e+00 2.193465837402123420e+00 8.836823931702452173e-01 -1.150775924168783426e+01 -7.327823556971611474e+00 -4.995550884373983758e-01 1.693728430174099298e-01 -1.663868186921927173e+00 -8.503770831235289762e+00 -1.136118941384201619e+01 -5.252034229350931227e+00 -7.151011313209981068e+00 -1.788268310290148433e+00 2.048465574417264179e+00 -1.576305306088615410e+00 1.035260385305859510e+00 1.219671734832638466e+00 6.587466429659754041e+00 -1.248256174090847992e+00 -2.129190292329123046e+00 -4.818844561915092584e+00 -2.699495830701589938e+00 9.194503797683896806e+00 4.880287222229418020e+00 -5.611152776743656645e+00 -7.140949362025382774e-01 3.196597877390855436e-02 -6.377923725254598386e-01 -2.897914244530738759e-01 6.949852727309328237e+00 3.458378008222682709e+00 6.373984883976284266e+00 -3.950202777896287376e+00 -2.668227264070964999e+00 9.502422019778007822e+00 -4.074341115019743498e+00 -3.687949010085346480e+00 -7.984795590930433562e+00 -5.832659551203867032e+00 2.866749945504181163e+00 6.318257265645788046e+00 -3.126987663631228820e+00 9.746592108208363969e-01 8.505320853783072677e-01 -4.061220791380319994e+00 2.794217154776705569e-02 4.618778861841275028e-03 8.067879581117574916e-02 -1.949369980432719807e+00 -6.151473939210796438e+00 -1.187786477220810211e+00 -3.822273127049530039e+00 -3.410987290166322961e+00 -2.862805799068902424e+00 -9.193046569979179239e+00 -7.733800322936128069e+00 -3.587917531881005040e+00 -6.530738694022110380e+00 -2.360084206376633187e+00 7.804325662744391323e+00 -4.566189733163946052e+00 7.996218982096149341e-01 1.218497161683518470e+01 -6.872194196444980641e+00 -2.468633743144440729e+00 -1.844045617374494017e-01 -3.412170673249460156e-04 7.194313280748576567e-02 -9.032796377268065280e-01 -2.049721193883581538e+00 -1.934214794281717165e+00 3.745876693589402784e+00 2.696542170783716164e-01 -5.383125912202873842e+00 -4.125352456323743588e+00 -3.182770984237097700e+00 -4.979215623805430369e+00 -7.097487642305789990e+00 -5.643377149438673968e+00 -5.726081010516878678e+00 -5.850764626189461359e-02 3.018761610073346091e+00 -2.098918102400155472e-01 -8.563171481876095115e+00 -3.424661283590751254e-02 -4.718513906301648880e-02 -1.742596798782432285e-05 -3.048949950998141797e-02 -8.850867693300364103e-02 4.805032372648612160e+00 -3.690044358380743628e+00 -4.223151715242956961e+00 -3.920947975049603684e+00 -3.429052420633101672e+00 -9.289054663290844394e-01 -4.814397007494108927e-01 -1.352898142456823369e-02 -1.604538934613597700e-01 -2.120112641460384140e+00 3.603617203574959404e+00 4.357572840216652921e+00 -3.598754555720425685e+00 -4.368690953759170270e+00 -1.329902067139430377e+00 1.039821877512686274e-02 -5.112189422267226363e-02 1.267083046544802597e-05 -1.170634101506350284e-02 7.610514970914580846e-02 9.851587047292506005e-01 -5.872728956336197292e+00 -5.706748691418145114e+00 -1.511208194996224607e+00 9.265147580687984608e-01 7.507890074643838174e-01 -4.869373985965899099e-01 1.235979569451045035e-01 -1.539236266743479187e-01 -6.011007852198549939e-01 3.353793536013475851e+00 1.112305582102966461e+01 1.135912724802305540e+01 2.975030732856341675e+00 -8.290582018937496800e-01 -2.089842185119990953e-02 -4.210655476185669668e-03 -4.673678903973898528e-07 1.314743835335875069e-03 2.101418339938233154e-02 -2.621973576109835613e-01 -1.795950563429267621e+00 -3.280601826962719625e-01 -3.910229768541451656e-01 3.777745941199076807e+00 3.154689936452873766e+00 -3.387900387506806443e-01 1.522859180916620758e+00 2.729502438935375586e-01 -2.652666619374920431e-01 4.913760217794543167e-02 2.323937681345197959e+00 8.269140116729060352e+00 2.245305135965359966e+00 -2.381454051565552732e-01 1.025987472658706351e-03 8.737260100912495756e-04 0.000000000000000000e+00 -6.599465755419562838e-05 8.710561634289607294e-04 -7.348800489742701204e-03 1.214664214234949940e-01 7.868811155474346800e-03 2.388919846149774318e-02 -3.397053940066957489e-01 -2.980779638659249442e-01 4.131739502958372418e-02 2.752995798871640254e-01 -1.553163685592523491e-02 5.531761658698672868e-01 2.591627770180429557e+00 6.264590631192426540e-02 -7.741482177155133426e-01 -1.924959809551033962e-01 2.375395789548158040e-02 2.596431011004467124e-07 0.000000000000000000e+00
-8.814272694012242226e+00 0.000000000000000000e+00 0.000000000000000000e+00 -1.718213122461523462e-03 3.061332758448463698e-02 -1.474778005174998408e-01 -1.387526276778147327e+00 -2.364251197486816114e+00 -4.469094372497258050e+00 3.889067594037565190e-02 -1.597720582071881223e-01 -6.972464911077963512e-02 5.716471297827015879e-02 1.340374057857262324e-01 1.209532479910692265e-01 -1.047634816300113680e+00 1.052130769917574593e+00 9.714357936375990210e-01 -1.003457197464156653e-01 -3.570583409754317502e-04 0.000000000000000000e+00 -7.578439178739875412e-06 -1.112973996181599104e-02 1.277576954894840133e-01 -1.377858035824215677e-01 2.894785123629179058e+00 1.819799274637297515e+01 2.164595716872224518e+00 -7.080028822896716534e+00 7.584310867750899687e-01 -4.436036692213073951e-01 -8.696357818561414321e-01 2.023943087339744373e+00 1.661101545753977504e+00 -5.076231608548513741e+00 4.156385554281597727e+00 -1.615349985259401677e+01 -1.283330891654517103e+01 4.148046561709037294e-01 6.254289120063420693e-02 -9.758943108713259056e-04 -5.479607338772765537e-04 7.700768790815985809e-02 -1.516081563572305169e-02 -1.799755927897645158e+00 -3.978705790450908353e+01 -1.390938131924569632e+01 -8.154642129581983312e+00 -2.671587628720097385e+01 -9.478453368335689788e+01 1.539072855506370274e+01 4.038395630573656092e+01 1.297606816463105606e+00 3.709478468798248940e+00 -1.378790436913931217e+01 -1.347004063511836947e+01 3.221495478092163012e+01 -2.534478216547978846e+01 4.133038084297065318e+00 1.747050828751554485e+00 -1.435886295825274661e-01 3.297481667523445917e-03 6.594792827436803950e-01 -9.566871336905059309e+00 -1.700973174465968540e+01 4.182997197099350473e+00 8.206359466311804240e+00 5.845219699890080278e+00 9.263540281296096524e+00 3.141305728886553439e+01 -4.962037474586508523e+01 9.429729912484720700e+00 4.210259466544914453e+00 -5.576545668419625734e+00 8.113136383181505096e+00 5.825461502242196943e+00 -1.155811902602130736e+01 2.932520426478831599e+00 -7.934053288145134886e+00 -1.708126597001864866e+01 1.376187632143938355e+00 9.468105914707956872e-02 3.000902245537700463e-01 -3.491374900634517076e+01 3.220919646050553808e+01 4.420987308362001933e+00 -2.549664347330892156e+01 1.276872428015568772e+01 -2.169238684818392926e+01 -4.952266884426144600e+00 1.269447044102786970e+00 -8.143833838794044766e+00 6.519784172195424610e+00 5.341793180941423635e+00 -3.829447497547884716e+00 -9.044742699757435389e+00 7.284984892105650367e+00 1.327208954751338377e+00 -3.557975462077545892e+00 -2.960134027947588820e+01 2.523039254357252847e+00 -1.523227667431876486e-01 -3.702516079781859482e+00 -1.654227311255679567e+01 8.749366791255817066e-01 -1.081416669913289574e+01 2.389818624743434228e+01 -1.424710454227544965e+01 1.880772423310106589e+01 -2.438141597053332887e+01 2.041361916182126812e+00 5.344575249164645214e+00 3.338707679043129151e-01 -3.837825924862911187e+00 9.750889664807576906e+00 4.508190191266614022e+00 -1.734390287440399581e+00 3.686802354606284471e+00 2.257092903079747526e+00 -1.536238738070544052e+01 1.964444703984455254e+00 -2.476036400355990708e+00 -1.752160648814422927e+01 1.849653331661773592e+01 1.114137778454083572e+00 9.750716512191377916e+00 -1.670490370809240233e+01 7.277736829730472756e+00 -6.359793702218365929e+00 6.542337873500364331e+00 -2.601794835093161851e+01 9.131764987800179867e+00 -1.637490237370370083e-01 5.539569506776497398e+00 -1.152200134804009046e+01 4.627684327543990506e+00 -3.353604949146454128e+00 -3.611290546712178529e+00 -3.012756464969497561e+00 -1.675891046131967599e+01 -2.247408518123762133e-01 -1.626435819196779597e+00 -1.896835421520930609e+01 1.140172958051495655e+01 -5.118220603827047022e+00 -1.330319414082731688e+00 1.081286024287496339e+01 2.219852605219451824e+00 2.742732877902477107e+00 -1.068742327964187844e+01 6.812532176058880395e+00 -1.406887240737425415e+01 7.793761376185512901e+00 -4.956539397231420452e+00 8.124378868525372610e+00 -3.090097071351193492e+00 5.794703999000851979e+00 -2.729482127235663746e+00 -1.638317259169449258e+00 -1.654053742313307751e+01 -3.206105648510116257e+00 -1.222366533659132504e+00 1.192599631899063262e+01 -1.571452741613487136e-01 -1.472391318825549966e+00 -2.418069717236938754e+00 -1.364485768416354050e+00 -3.255699219602164352e+00 -2.614287033673776239e+00 3.556286532060261241e+00 -8.855232336929825365e+00 8.580499793994928126e+00 -3.157351165163725937e-01 4.357115580324495419e+00 -4.086411722880739283e+00 7.038096258804931615e+00 -3.955034759596101068e+00 -2.260470002946330048e+00 5.001551179698827676e-01 -8.181127797634323073e+00 -1.508745355941950861e-01 -1.302981877968301117e+00 5.931243201028940426e+00 -1.878132624981831533e+00 7.742831566297780910e+00 -1.851255191696005387e+00 2.424158679515987735e+00 2.719737564165047861e-01 7.028816161556455076e-03 -8.844069222318935886e+00 2.458411318098511433e+00 -6.995348872240651161e+00 2.048727709381060968e+00 3.556438175726719386e+00 5.057530714807275452e+00 -4.276660803088808471e+00 5.958023503785309316e+00 -3.063834374136998329e-01 -8.905486646976282117e+00 -1.142662666099834645e+01 3.622725780661693595e-01 8.730084175486101827e+00 -2.633877188699749183e+01 -1.192618056267030324e+00 6.109153229643975447e-01 -2.511800541788967722e-01 -1.493636021271912417e+00 1.903479468245832695e+00 -6.711942744354701063e+00 3.914875563298302552e+00 -8.627590585179541804e+00 7.469440136989400791e+00 -1.231900640789245216e+00 3.442620313774812091e-02 2.620003721916633666e+00 4.076711538994063133e+00 -6.679105779794194397e+00 -4.433603312297073606e-01 5.192436677570409387e+00 -5.329929634715963971e+01 3.748649318736329672e+00 4.113186272854865422e+01 -4.602842674163087011e+00 5.960498129852881632e+00 9.563503572420208876e-01 5.530608538863117651e+00 -5.112001225258517856e+00 4.414451134516805375e+00 -7.091581089896621393e-01 -3.252785064732611087e+00 -2.907143382112614138e-01 -5.848761099213013459e+00 1.707697702827503772e+00 1.999288789023003776e+00 -1.982426891641749345e+00 2.470543030230033743e+00 1.310822522946899271e+00 -4.538523088219782231e+00 -5.787210989460464639e+00 -3.293603725362321910e+01 2.467227735788199539e+00 9.127361207292103984e+00 1.036314732786813636e-03 -1.218090890357693823e+01 3.419259516504646434e+00 -2.367321792940860981e+00 -3.535453695141301256e-01 1.646960502055641706e+00 -2.658364068539504910e-01 -1.149823249397818659e+00 2.316478604837408639e+00 -9.474115204217795627e-01 -3.173713843296965376e+00 1.183695931235040577e+00 2.634713450656484213e+00 -2.691902661292958410e+00 -3.509691350012445810e+00 6.306848861340147216e+00 5.008285779619465750e+00 -7.186983697803158044e+00 -4.148895483468508338e+00 3.143412708208559447e-01 -1.176326753772261391e+01 4.481167094961500119e+00 -1.614115065151668915e+00 1.541016953284053859e+00 -3.509835611735921734e+00 7.888437916714562625e+00 1.329951726306964899e+00 -1.171372597540877258e+01 1.450313995293178448e-01 1.396929857513913964e+00 -1.380789647059004421e+00 7.571876219633427718e-01 -1.088517233527792838e+00 -6.445728341535061912e-01 4.623673942154930216e+00 -3.333375148782512287e+00 -2.438578758370240962e+00 6.470893474502719123e-01 -2.433137639559536680e+01 6.553889368140232152e-01 -5.504413299191606157e+00 3.137465739249677199e+00 -3.893998204428329224e+00 -1.918575325689114042e+00 -1.149739135803724333e+00 4.146095309727590106e+00 1.083049266985453007e+00 6.966253967876854247e+00 4.018954921368044886e+00 -8.021821886496519838e+00 6.937998957821896795e+00 -3.002857607788249172e+00 -7.620156418757535022e+00 1.088231831222318924e+01 -3.215351732950029184e+00 -7.370680472564123065e+00 1.971999990090125010e+01 -1.189609902843977807e+01 -6.012072498422409872e+00 -3.729083593643380823e-01 -3.648565990622492095e+00 -4.649906362556794015e+00 3.808568136867446885e+00 -4.954756003003995879e+00 3.965298282805504559e+00 -1.020792894646476850e-01 -3.923996683408763175e+00 4.350367634368644154e+00 -1.036083747868626936e+01 -8.532711452369918348e+00 3.979303854502070692e+00 4.239318495937594022e+00 8.641377383991128980e+00 -8.682402823396499159e+00 1.378835302100803695e+01 2.420783698233283765e+00 -1.553863622898689290e+00 -3.384875921096031703e+01 3.272799702014005163e+00 -5.291828603427677358e-01 5.365576969181838685e+00 1.619241069049770054e+00 -2.494885744580567177e+01 8.513580092853409553e+00 -7.779535757382056715e+00 1.488935363173484916e+01 -7.438540598418696526e+00 -9.113696597660904786e+00 6.015759735534233599e+00 3.776879472010453043e+00 -1.764585199512542957e+01 1.259447164125059082e+01 -1.423594371731696384e+01 1.824942765435163494e+01 -9.334037302029733141e+00 -7.739698412353433810e+00 5.430590371402779226e+00 -2.337663181530840717e+01 1.973130634448790222e+00 -2.664491491369718745e-01 3.791235607533010921e+00 -5.249334707292317326e+00 2.026490119182291139e+01 -5.764801198937685278e+00 -2.490752565011654696e+01 -4.063950860243473784e+01 3.796865436244819847e+01 -9.595440845218643489e+00 4.993874384397808619e+00 -4.933020934479975139e+00 6.519530027334151434e+00 -2.407450291488299587e+00 1.763995009719547369e+01 -2.615305367917806123e+01 1.884511419150837952e+01 1.020012460661559750e+01 -1.288535707941534625e+01 -7.173278369670132548e+00 6.153585583811317372e-01 1.176154658650575488e-02 5.310883073239149738e-03 -4.282783729290561503e+00 2.198774966347615489e+01 1.504809050455648745e+01 -4.336988030524085325e+00 -2.461423123096837173e+01 -5.298058571895466429e+01 5.408878801492251398e+01 2.338449222822312379e+00 -3.406922059015737148e+01 3.478581934468369496e+01 -5.987072806919786494e+00 2.273102265925471244e+01 1.492381952394326028e+01 -9.197403164200281367e+00 -3.648693385808956524e+00 3.251044739875568745e-01 5.159887220191499146e-01 -4.221882037750238070e-02 0.000000000000000000e+00 -1.445990750831303503e-02 4.254619303355539062e-01 -2.286842110134851502e+00 -2.847284260825529323e+00 -5.403072071225255568e-01 3.166038388708940055e+00 -3.295597335319835786e+00 -3.604531406382274383e+01 2.128820073014226466e+01 1.243454988616823798e+01 7.150437524459043459e+00 1.692268585564150607e+00 -4.057132857620717736e+00 1.974179740507251068e+01 -5.909634091661855493e+00 -2.469419722326931854e+00 4.343699319147213411e-01 -1.275909977874071718e-02 0.000000000000000000e+00
-9.114032693569697585e+00 0.000000000000000000e+00 0.000000000000000000e+00 -8.882788859999314569e-04 -4.452097614857356001e-02 6.131773330426885105e-01 6.063103136027359952e+00 9.085644196391923222e-01 9.094392982888547250e-01 8.052083757243990725e-01 6.812024518354273424e-03 4.752381961783277986e-02 -6.922058074764118052e-01 -1.983396603958656801e+00 1.732730935017437579e+00 1.753226522657659547e+00 -3.493956110132868109e-01 -8.968967632617405941e-03 1.607587034799489627e-03 2.391967140800098967e-05 0.000000000000000000e+00 -1.920827868853549195e-07 2.105763604722634894e-03 -4.919656768455309137e-02 3.210931860014130113e-01 -2.434527127834941740e-01 -1.635937285500584082e+01 -2.149254184333616990e+01 -1.602987445517827325e+01 -1.074037467978222615e+01 -1.528863749952228679e-01 -4.477430197239357645e-01 7.882285457995219069e+00 2.232518329156617298e+01 -1.842547600719077039e+01 -1.676955165301464135e+01 2.877401180874329167e+00 -4.980954680461079920e-01 -6.431283798914891880e-01 -2.043343562369275279e-01 2.149224438146606422e-02 1.668946181277332076e-06 -1.313465525093150330e-02 3.117472464028290813e-01 -1.894949922054465663e+00 1.245688348670158696e+01 8.689086868733413738e+00 3.812657211616891750e+00 1.884690310599970076e+01 -7.521371009012139730e+00 -5.678313812172652159e-02 -5.584087659381887114e+00 -1.579694623771886342e+01 9.492858919448391442e-01 -4.116178320875188312e+00 1.616624455210795475e+01 -3.172054566242527573e-01 3.805614033539564289e+00 2.999169838113718001e+01 1.590830257683857329e+00 -8.008146353435340037e-02 -7.655969009906703974e-05 -7.995066829431374256e-02 2.230776241273236149e+00 -1.274164985549497153e+01 4.354674266828119755e+00 -3.854800629135890055e+00 3.107732669145210735e+00 -1.821120112355555776e+01 8.671640342789348921e+00 -7.662202519795896727e+00 -2.614475480547109143e+01 5.992648640581109021e+00 8.457130295855836977e+00 -4.269137284041445213e+00 3.718921403753226773e+00 -5.387113973275185153e+00 8.899198345906796703e+00 3.025624348120839358e+00 6.267376641877786980e+00 -1.398216448340916962e+00 -4.402064000259723687e-04 -6.428424254306800423e-01 4.686856069065882480e+00 -2.643723192285336143e+00 -2.245175645649100549e+00 2.585995462707131320e+00 -2.384910419501322210e+00 1.852809548953593577e+01 -1.484535416843902844e+01 -3.415309095245816273e+00 1.443074327529414980e+01 -9.584154159738330847e+00 2.195969802237105029e+00 -5.093642298628349607e+00 9.245116305127812240e+00 -9.496325305603743328e-01 1.741413556047959776e+00 -1.221567192890153208e+01 4.659589783786597827e+00 -7.238434313881425552e+00 1.984036194492551017e-02 -1.338764300503054283e+00 -2.088697910940694236e+00 8.468816944490907161e+00 1.731368886332093737e+00 -2.495381441212175255e-01 -4.379019214941119453e-01 -6.092690275643289688e+00 6.446032095886334856e-01 1.625244074736097000e+00 -9.753431799633693444e+00 -5.821810254423488651e+00 4.500431515567881569e+00 -3.890340287268525987e+00 2.807180249944284611e+00 -4.196870770935196227e+00 -1.010022444989603141e+00 1.679409090330826970e+01 -5.827658270966735721e+00 -5.252255270578331192e+00 4.100354874290471074e-02 -2.844427447904960715e+00 -6.555352879911111152e+00 -4.872239278959383135e+00 -1.302999730674092582e+00 3.768641538183569173e-01 -7.233389699667037709e-01 4.868401489064518028e-02 -4.528661511886240554e+00 1.248007545419254349e-01 8.962682203800302005e+00 -2.722590044242898522e+00 -2.036926874397519960e+00 7.857451556266414894e-01 1.078196318399601727e+00 1.060670227518138775e+00 2.322913869262528852e+00 -9.126073625121492228e+00 6.232074986205019762e+00 -1.009743890062191518e+01 3.664412932109662596e-02 -2.070663741272329883e+00 1.218570024557564579e+01 -2.174735676479381485e+00 7.355397425452290250e+00 -4.864485040809969796e+00 4.566463866754884998e-02 -2.962749330339191633e+00 -9.619970341983525852e-01 -4.899527712901301513e-01 -4.580259515676054605e+00 -5.496844403149856451e-01 -3.787130564719841441e+00 -2.792779767065034502e+00 -1.869222037839275208e+00 -1.128062093316217762e+00 2.966295724433565956e-03 4.593820651935630828e+00 2.372423340859127983e+00 -1.373856716778284914e+00 1.353014645218801604e-01 1.627067624318473182e+00 -4.754466099801212486e+00 -3.904923671809328312e+00 -2.311178458073858355e+00 2.468701977850146889e+00 -2.709741060176614535e+00 -1.121245042271365788e+00 7.105350494377471460e-01 -6.826400762304398739e-01 3.996070084778372333e+00 1.545592203232500017e+00 -2.399533351426701433e+00 -1.571340686615893878e+00 4.801374137576582823e-01 -5.598908706879178743e-01 2.491419902519933505e+00 -7.138498486068968196e-01 -5.049519556579736168e+00 5.903889757760378387e+00 2.385009591118485983e-01 -1.438021300476734377e+00 6.020359132333347851e+00 3.093779959525272627e+00 3.404038572793966821e+00 -3.988009044793908497e+00 4.135369196137935965e+00 -2.601872898446377036e+00 -7.979807265413622064e-01 1.168725446568722903e+00 -2.216728581550703403e+00 9.686406915211888402e-02 -2.125325254549737419e+00 -4.261450467983933788e-01 2.197775715313915690e+00 -2.365583663474213338e+00 -4.462060146010618511e-02 1.207367817792244447e+00 6.451670236752941712e+00 -1.763256973931835248e+01 2.318386141900252440e-01 -2.742169628011237759e+00 3.580059498238432059e-01 -4.516267011071712467e+00 -2.710246926714227289e+00 4.685181015689315664e+00 -5.158123136089880489e+00 1.931540690750292999e+00 2.964336626669267005e+00 1.972315377576514095e+00 1.483853086020059941e-01 9.035404817178301906e-01 -5.298814820642003376e+00 -1.727561585097984631e+00 -1.169138967514335770e+00 3.307869592794622005e+00 1.325081941794914231e+00 -3.274239028810484342e+00 5.368082775555584885e-01 8.360242988385878371e-02 4.543491357839798961e-01 -4.301285239301531504e+00 -1.508581353815138915e+00 5.388999620853224037e+00 7.262226395318532868e-01 -3.656134487438621239e+00 6.733732871538365750e+00 1.793999682205196233e-01 -1.971689985757383079e+00 4.384697221344024953e-01 2.653022074414467801e-01 1.740983199574870133e+00 -3.009073436559757675e-01 3.222269935866003188e+00 1.096175901744328662e+00 -8.845959957235401128e-02 -3.302704640915634510e-02 4.190626742823542195e+00 -2.594449756384573647e+00 -3.371688676344125835e+00 3.006946805053576366e-01 -2.716478584395016771e-01 5.883055030206699065e+00 -4.862761298295612988e+00 5.602899457078441836e-01 1.016240781478380706e+00 -2.392994226106602174e+00 2.955576739917284979e+00 7.563169906115221330e-01 3.572147153484170445e+00 -1.277768326030553903e+00 -2.258805310111033915e+00 7.652632004344348537e-01 -1.445886305956809892e+00 -2.517249160304554145e+00 2.797565000315467287e+00 4.948103199332163804e+00 -8.664986259505759847e+00 -1.091174845158300677e+01 7.903765726260537638e-01 -1.135596411428482083e-02 -4.060589397524401178e-01 -2.973126497264274026e-01 1.749754034097253053e+00 1.301030603438526057e-01 2.555201612919992815e-01 9.667615140626304449e-01 -1.586329215972716478e+00 2.505134827025552902e+00 -4.266901268293294081e+00 1.622904765926430404e+00 -1.032620058998209078e+00 3.435089888868256836e+00 4.939712683108281155e+00 -1.794210164016826425e+00 -4.544598954265214874e-01 -4.942883439810042745e+00 1.318230866445293081e+01 4.632347051807817806e+00 2.736202772724513288e+00 -8.663365664965749779e-01 -4.398862912259601465e+00 4.142936703800278453e-01 -3.849273087551901007e+00 -5.907951732173484238e-01 -5.197635332671307618e-01 3.260785390497158875e+00 -1.389093376255511991e+00 9.422261483984718522e-01 -1.182893759973326242e+00 1.909706507622436211e+00 -1.330854201843529427e+00 -2.041677151524960099e+00 2.178523833110657202e-03 -7.041831720541539275e-01 1.420743247690080813e-01 8.027721202462078764e+00 -1.416662942079504539e+01 -1.623921858554900677e+00 1.346717809942572863e+01 -2.729062672460726979e-01 -5.578240390463914400e-01 9.480711229592712286e+00 -5.157949793358485024e+00 3.663160117006526439e-01 -5.769456155939093556e+00 3.429603428234552887e+00 -1.835001025349183745e+00 1.821252488819764093e+00 -8.493705675894698715e+00 4.262238954156897464e+00 -3.906102634956642561e+00 7.748874285711302434e+00 -1.133540650781512893e+00 5.072349655657691692e+00 -2.271471283183143619e+00 -2.780355934589789246e+00 4.603953765400621734e+00 1.675912895735257635e+01 -3.474758311509839270e+00 1.764887872667139992e-02 9.052050386407660687e-01 -1.236996984216389706e+01 -1.801180309438390470e-01 1.974709183145274549e+00 4.288748587246948851e+00 -5.873522971013836802e+00 9.041275417565151074e+00 7.127972943859832711e+00 -1.729084951334785814e+01 1.199635179250549744e+00 3.781853981368233697e+00 -4.927274868166654498e-01 -5.478523999306320391e+00 -2.583030237482917268e+00 6.863001908993010325e+00 -7.173038975922889193e+00 9.550525838519788868e-01 2.656954035252347968e+00 -1.725547082378416031e+00 2.690331977277365589e-05 5.239740346795594000e-02 -1.509256255622127174e+00 8.978032576840069723e+00 -1.494045688991712595e+01 -1.572477279786533977e+01 -1.490355331024126784e+01 -8.463624540386469164e+00 -7.354547112918529805e+00 -1.245962856965387466e+01 -3.644952130714107064e+00 2.315496551895545352e+01 -1.071079327191233510e+01 6.972994622045185942e+00 -3.211334492864861279e-01 -1.509614531402742621e+01 -2.379904936766832346e+00 -3.959915110500253466e+00 -1.680552783823318075e+00 7.862848141333811380e-02 -7.229017272873521282e-07 -5.819411991905340011e-03 2.207847820178839848e-01 -1.247082969942700403e+00 -1.233870157439299398e+00 -7.309568932131376151e-01 -2.312004224543596997e+00 -5.148346260532841612e+00 -1.583951735153973361e+00 3.232274697854337075e-01 -7.308653344572422661e+00 -1.654208489903817281e+01 -1.606701787838706608e+01 -8.367430337066172896e+00 -4.617234142859958368e+00 -3.560691386844542006e+00 4.141517614081531296e-01 2.162300118007619287e-01 1.086883953090295590e-01 9.198989975621898671e-03 0.000000000000000000e+00 -3.291855084627520051e-04 2.199804263721550756e-03 1.626544949387814451e-02 2.043819524988042119e-02 8.111604517074814946e-02 8.908022962494654973e-02 3.162749415207934400e-01 1.318803425145471109e-01 -2.851404565262840585e-01 2.989282700539680704e+00 5.335597308163270824e+00 -1.275203338470219938e+00 -1.068253353348656454e+01 -1.041625200713670818e+00 -1.821406925263445054e+00 1.124438681199840251e-01 -1.784540858808456303e-04 3.800000804864989190e-07 0.000000000000000000e+00
-2.797581755843749463e+00 0.000000000000000000e+00 0.000000000000000000e+00 -1.242919196936203832e-05 -4.963048163592925001e-05 3.159647909401031712e-03 -2.925634974742890009e-03 2.680007662906092741e-02 3.403645724983701548e-01 5.874702666331029777e-01 2.671824975432171900e+00 8.527170797887229092e-01 -2.013710769074624207e-01 5.098807228323018470e-02 2.408927818828344447e-01 8.114665024311763786e-02 -7.982630454568349215e-03 4.554592541479012338e-03 6.128437885422948969e-04 -8.955272221779563100e-05 0.000000000000000000e+00 -2.385044871048345109e-07 2.585279385005171630e-03 -1.499415760452249211e-02 -1.358582279239242963e-01 -4.451224237230624881e-01 9.485113022736449406e-02 -2.021327465859522832e+00 -5.576005059232637784e+00 2.656305043853262937e+00 5.240850381718579420e+00 4.496885106350465122e+00 2.070420722628266930e+00 4.791214146715930822e-01 -1.736315798333025739e+00 -9.557724729986664114e-01 8.478217248769022441e-02 8.327818519946716611e-03 1.213149744310316469e-01 7.812999262221575342e-03 2.233167919757743803e-03 -3.697474306351289651e-05 -3.254519544292397426e-02 3.041972094204725141e-01 1.041400778796996551e+00 7.528316118946939417e-01 -9.536804965577109883e+00 -1.186361181525478692e+01 -1.422497251913380722e+01 -1.523080103741093083e+01 -1.508757166933017935e+01 1.270229090891595725e+01 -7.558947246710607359e+00 -1.759732880984133985e+01 -1.270573977569342894e+01 -5.214460212703572184e-01 4.378312135087931156e-01 -7.705514775231212532e-01 -1.119294237225814115e+00 3.779783088353011467e-01 -4.582918002788963913e-02 2.333584778831158078e-04 -7.401204850048216481e-03 -1.827012979715917362e-01 7.722204021347692793e-01 1.687667949812123425e+01 -6.324779932398022275e+00 2.097196593065923409e+01 -4.522382453770456223e+00 7.098889829971007259e+00 1.375130670874465721e+01 -6.585383029502772878e+00 1.482931074759172851e+00 1.402948024796827786e+00 -2.773505169247798463e+01 -2.757747995834866975e-02 -2.204604143502182811e+00 -3.962126430606203620e+00 -1.240494869038209913e+01 -3.149503343923926835e+00 9.159371656939037376e-02 2.849800984918124044e-03 3.252062291470571576e-01 -2.127259344987949774e+00 -2.371528815349187624e+01 -5.859382416892453094e+00 -5.506802702251667458e-01 -5.008935067756189241e+00 -1.428819749967261288e+01 4.793976791892766265e+00 -1.833019636224675963e+01 2.190369975028691485e+01 -8.549650589607038498e+00 -1.669471688302978407e+01 2.415976313926900687e+01 1.045059402229858669e+01 -1.942471852302673341e+01 -2.469951486439223132e+01 1.868242585141156553e+01 -2.163892933377088212e+01 7.803361865529715446e-01 -1.267261136268470461e-03 7.192141779671414048e-02 1.594004810938622063e-01 -8.169014323704111291e+00 7.941336115358482495e+00 -1.589630081962257435e+01 1.410700726268106386e+01 3.027686921543277787e+00 7.145826723593533103e+00 -5.339235554877750367e+00 1.199222213568457462e+01 -9.277221126489148872e+00 1.650759019712985065e+01 -1.498985310278322736e+01 -1.570116608854073448e+01 -1.393958821054248531e+01 1.161060247251605482e+01 -9.796959862621443804e+00 -2.483561657183354754e+01 2.471757755455018746e+00 3.527370421609597739e-02 1.139966893247159885e-01 -5.868315681076874846e+00 -3.768409964148079272e+00 8.816207545757785979e+00 2.636210660478460088e+00 -1.981813866001755287e+01 -6.417079226024097416e+00 3.445456095688481213e+00 3.180210072127826582e+00 6.685937833194957491e+00 1.363261646059569898e+00 6.301898300879107850e+00 -6.534710382409068430e+00 9.119949917248664661e+00 -9.410929871666203539e+00 8.605603449924814186e+00 6.837974199081317650e+00 -3.712452547826396998e+00 2.994791400491160882e+00 2.455993229087353735e-01 -9.761364297852821892e+00 -2.599089416746102543e+01 1.116657560818447692e+01 -6.387255163235297850e+00 6.275057527151025605e-01 1.088173858579930631e+01 -1.945683598435819839e+00 -8.016091157806358725e-01 5.147742617449387659e+00 -4.616580630192167689e+00 5.131220336271207216e+00 -7.590509902734473791e+00 7.890199514485711774e+00 -2.809846716765337504e+01 7.185206081398623823e+00 -1.446471439137615356e+01 -2.831184356038674910e+00 -7.334672221051072860e+00 -5.027209676173825414e+00 -1.592556892492756060e-01 -1.307407680690489649e+01 -5.269110299342335324e+00 -4.085285972517338493e+00 -6.040406711297527487e+00 -1.135664313640613043e+00 -8.941537438922049219e+00 3.755976679686869435e+00 4.901799167381996725e+00 6.922344863915403934e+00 8.246664442714354948e+00 4.636654164756313534e+00 -3.938880543115473643e+00 -5.555689616497179184e-01 1.157642619066029432e+01 -1.078202806490318721e+01 3.523099211214943516e+00 1.103609741575646702e-01 -1.106466889026830991e+01 1.945479088521830935e-01 -1.909426656516647336e-01 -6.709992902221782352e+00 -1.752910335129500652e+01 -4.012714197180256015e+00 -6.312365225569322114e+00 -1.065585021416067590e+01 3.761525651202322962e+00 -1.009676132588178632e+01 1.157812560236998634e+00 3.884058829799801327e-01 -1.071072382916770538e+00 -7.693851570815105845e+00 7.852130291544131779e+00 5.713628613078419044e-02 -5.555336166401906084e+00 -3.479267824894610173e-01 -1.944672796275327964e-01 -6.002777422129905283e+00 -8.484822960382789603e+00 -1.064422025062869182e+01 1.010442822180404487e+00 -2.150523097088223778e+01 -2.840380519981728114e+01 2.474832864885943895e+00 8.692353242245639544e-01 -3.101478280494429640e+00 -1.218277365411437962e+01 -2.731873294239828276e+00 -3.667273272113289462e+00 -4.081917982088605790e+00 2.022527379514952095e+00 9.156124595597516347e+00 -2.693678235661344011e+00 1.148837128301713228e+01 1.687061440658787215e-01 -6.258001498939033347e+00 -8.069524019428538253e+00 7.221567156178951841e+00 -2.648750723634625714e+00 -3.154433057776783400e+01 -1.327348801943664558e+00 -1.354403034539054307e+00 1.011711524080017810e+01 -9.169699236441090306e+00 -1.967771487303535460e+00 -1.308152438278407637e+01 1.359415669101574586e+01 -1.227751456846561240e+01 1.061816320237803879e+01 -3.747376951808000456e+00 -3.418248949785648083e+00 5.216085491900908977e+00 3.731058919148363628e+00 -6.480554197237197833e+00 1.704503868464996330e+01 -9.918993635785581020e+00 8.886131205695464885e+00 -1.004992965054306886e+01 -9.222360765034093077e+00 -1.623425014854470305e+01 1.135458943274712196e+00 -1.893469576200060800e+01 -3.263577589635242759e+01 1.418901803348168933e+01 -5.692141680066701959e+00 -4.143096506419243208e-01 -7.341764740319995042e+00 1.020297861822908825e+00 -3.282433971409124851e+00 7.734915854316660067e+00 6.612617157794865363e+00 -9.475553574559778980e+00 1.275465600383409637e+01 -1.017220187933950903e+01 -5.115675693996376339e+00 5.104756777042084082e+00 2.247039077237561688e+00 3.069892408178043208e+00 -1.450006980557404113e+01 -2.106640146811503556e+01 2.228055939199057589e-01 -4.132262242494062043e+00 -4.867709015691558783e+00 -5.207865961536087163e+00 -7.774961966208024045e+00 7.231821425464526776e+00 -7.236989017785719014e+00 4.197295408972380848e+00 -7.323333019173069447e-01 -4.012201373021706985e+00 5.083840879963636539e+00 4.210031102479465659e+00 -2.719289075340400430e+00 -3.424597218838828283e+00 6.597083371859797651e+00 -9.775119841196618253e+00 1.222573093353700635e+01 -6.698106267439086992e+00 -1.289836418380828409e+00 -1.203831542748294625e+00 1.634381159915823112e-01 -2.169271383713927026e+00 -1.236407972988206616e+01 5.053701956576448495e+00 6.628629873627104985e+00 -7.371439741967804160e+00 -2.652125983509683760e+00 -3.494122615767568441e+00 -2.854900912634669830e+00 1.066849969710018087e+01 -8.735461046565417220e+00 3.525349979363111341e+00 8.020101031449234696e+00 2.937604804755670873e+00 -1.227951905458134085e+01 1.221528385588266019e+01 -1.450605615600238707e+01 -2.347599704060142844e+00 8.259633182981055199e+00 -5.981073898524356558e+00 2.364357845751944853e-01 -3.817804769825913880e+00 -8.557007685127286933e+00 1.288433582267007971e+01 -1.615262094261250780e+01 2.173745076154328260e+01 -6.241552114727768164e+00 -4.872454866159873776e-01 4.631879656019180835e+00 -1.634042569779294629e+00 5.415640123794895011e+00 -7.596108491351706071e+00 -8.763582626519758279e+00 -2.684115965610354149e+00 6.244857663204103737e+00 -1.014568629444331904e+00 1.119302995616108021e+01 6.205220961744431385e+00 -2.054788851400092398e+01 -8.718227924745526991e+00 3.619273187989059670e-02 -1.533472577778533852e+00 1.069848249814831931e+01 2.284455134998078663e+01 6.010634933950558256e+00 -4.004548398602787884e+00 -9.214488609445652401e+00 1.019415033340584564e+01 -1.913462957318923330e+01 -6.769882869424075800e+00 9.464206190629656845e+00 4.030838129992670993e+00 1.404689288499283961e+01 -1.469421438917891720e+01 -2.380103338803819213e+01 1.737247764083277701e+01 -2.190658001787445297e+00 -1.955501078461902154e+01 1.596458588300671266e+01 -4.294620781627320305e+00 -5.050850120200859640e-03 3.607877681083682120e-01 -1.011531804777771049e+00 -2.723437449343712302e+01 -5.043946876516923972e+00 4.074009046402966128e+00 -6.396071490133856230e+00 -7.725757866749725089e+00 5.708920213579273373e+00 8.948263481659340712e+00 -3.047222382453134415e+01 7.319754934896480769e+00 -3.334927543501546854e+00 -1.326795416681206596e+01 -6.054046317969674185e+00 -2.485692416683162431e+00 9.621967586209486001e+00 1.103341046372629819e+01 1.619006381765558800e+01 -1.278769923248686435e+00 -1.096392246930679390e-06 -5.816279518279645483e-03 3.405151306934705024e-01 -2.534001615394121831e+00 2.272921178703288358e+00 3.525368338414584191e+00 1.420034687676354856e+01 -2.960103632199570622e+00 -1.844188271849981220e+01 -2.372393298628405489e+01 -8.136782551200182345e-01 -1.607689890386886944e+01 -2.837560885889191908e+01 -5.287450446324952757e+00 6.315016466740404066e-01 2.905288291191128192e-01 1.676410247994189126e-02 -4.672144446245546368e-01 -8.968156286711620462e-01 9.589669288377559997e-02 0.000000000000000000e+00 -2.553781560170406565e-04 -1.419034382313108479e-03 8.783159859994864593e-01 -1.406820431820887407e+01 -1.492580110050147191e+01 -1.163974675073502496e+01 -2.111008857065247157e-01 -5.167632972613095177e+00 -7.297661332921863142e+00 -4.259108887755357897e-01 6.699945983677022543e-01 -1.378267418990379767e+01 -3.518117059968285165e+00 3.133436847311292239e-01 -3.751252363354849045e-02 -3.076974180149743762e-02 2.632092341820035757e-03 5.865009770256218908e-05 0.000000000000000000e+00
1.813999700676946158e+00 0.000000000000000000e+00 0.000000000000000000e+00 -1.011053600220625163e-06 2.710571089215093460e-02 -3.341662752140365789e-01 -2.953146298503990685e+00 1.573000129029767102e-01 -2.401175784844063882e-02 -1.415704689981780832e-02 1.401652887291392723e-02 1.164118203759451081e-04 2.280135176591876686e-02 1.591288131379711146e-01 -5.965276622553022934e-01 -2.314168888460979567e-01 5.082794840409444737e-01 -2.255997747423220748e-02 -4.415053122953437688e-05 -2.313240818895324438e-05 0.000000000000000000e+00 -4.598035278994095577e-07 -5.693541884200413260e-05 -2.762503521536364363e-03 6.716645160320576513e-02 -3.989400518238796489e-01 -3.829769143394071040e+00 4.657726989760885283e-01 1.487987447760375781e-01 9.438947170469527692e-02 -7.520088324913547506e-01 -5.860886498516693771e-02 -1.517028745583470783e-01 -8.714539097709074478e-02 6.101048004770367683e+00 1.785945449444765076e+00 -5.775673322249485153e+00 -8.156996132111147269e-01 -3.951189290145561139e-02 1.492312840649823169e-02 -1.125885854100225412e-04 4.085508432647333267e-06 8.963788733914962263e-05 4.724970320730705053e-02 -3.453736906192122480e-01 -1.541270185348679433e+00 -8.578713786561692700e+00 -1.248203771693613362e+01 -4.173470991804896002e+00 -4.806718740622405228e+00 4.657619347523499265e+00 3.019643525342932122e+00 5.369351358709259614e+00 -1.028627253912441653e+01 9.722487014527567695e+00 1.813915614295354084e+00 -1.190741939578299124e+01 8.491087404719637632e+00 -2.671195432474179343e-01 -2.907172874106691562e-01 1.943960604768586731e-02 1.465194436383170964e-05 3.615881861884317865e-03 7.715530430299423481e-02 -1.060807215004057058e+00 2.706982751312552615e+00 -1.164052069236975484e+01 -6.180666746737323081e+00 -9.050040433849565247e+00 6.204017573217779358e-01 3.817012474436723313e+00 -2.592562854269388950e+01 1.872393621255310592e+01 -1.229203571693452979e+01 2.767322093648749703e+00 -3.856435692283190608e+00 6.157251923110035996e+00 -1.235235772868553239e+00 2.378460021062425600e+00 1.184177786221749740e+00 -2.132831736551671631e-01 -2.078221353243391890e-03 1.385030962960482337e-01 5.488403452487942147e-01 -1.922514933727569186e+01 -5.213639890580397562e+00 -8.486440105263862721e-01 1.577634088831722892e+01 -6.396082710222728451e+00 5.458987449200558117e+00 -1.779281782232506437e+00 4.557350572662621779e+00 -4.498232550979496480e+00 2.179226948598596003e+00 1.134498704200461106e+01 -1.059214333488071347e+01 7.722285187514133398e+00 -9.383345801093673444e+00 1.450692392040060952e+01 6.927294107824547353e+00 6.451335758294638456e-01 -1.076575677678018490e-02 -4.481057846497685238e-01 3.032121234348862160e+00 9.898005234393677298e+00 -8.355079075769420882e+00 -1.150579827842236558e+00 -1.199090433768812503e+01 2.143640655305520060e+00 2.960897004224583906e+00 -3.871407855584287350e-01 3.427289308346663232e-01 -1.139075742669531088e+01 8.085161945971924169e+00 -2.752208505704898389e+00 3.969124489130427591e+00 -3.326150920586859350e+00 4.074899466125717851e+00 -1.527773983624560472e+01 -1.243199560341661858e+01 1.665478520553474784e+00 3.562688766935788176e-01 -5.320760458307087326e+00 -3.944375967124743365e+00 -2.308189532849538317e+00 7.865508020108769038e+00 -1.199130301784017583e+00 1.026502136002875076e+01 -2.364258597088278790e+00 2.417026321838948277e+00 -3.743888134830486436e-01 2.455412084824350583e+00 1.930077754659905498e+00 -1.015639018608538535e+01 -8.175784634803529016e-01 -5.718585655110337146e-02 4.835321450969661150e+00 -5.098229058391170909e+00 1.320532048791276303e+01 -8.284935078633036687e-01 -2.947236433458445326e+00 4.359837816767209717e-01 -7.451214954693068826e+00 -1.468903625166419857e+01 -3.146685017372878868e-01 -5.998632941804109997e+00 2.520683278216766965e+00 -9.413555518822075641e+00 6.290382775541415228e+00 -2.933621405148167383e-01 -5.916182902222821838e-01 1.934499228848688190e+00 1.873240260162695181e+00 2.300261474017703200e+00 -5.158163936762689694e+00 5.058521583342234784e+00 -4.385939673940206340e+00 2.919597893907457387e+00 -8.814887051846831412e+00 3.126568174383452803e+00 -1.131790088352689683e+00 4.551157346340810039e-01 -8.614091685647089491e+00 9.509244603303910637e+00 -2.966403200650744587e+00 5.207842950890893441e+00 -1.960391263289652963e+00 1.031121156527143157e+01 -6.808763047459811979e+00 5.366904759835563254e+00 1.603469268948411464e-01 1.071381814330748306e+00 -3.170918856768870420e+00 -2.673200007021872437e+00 1.165288846479650253e+00 -3.286191805159829116e+00 2.881439534471927022e+00 1.331652873758105482e+00 6.794465689650424522e+00 -8.544770291127731454e+00 1.969310849842868194e+00 1.414005437420135847e+00 -1.795983888378898286e+01 4.866987200357616672e+00 -3.535329770981545661e+00 -1.491178662785601183e+00 1.787766121885381976e+00 -4.960929127889352586e+00 7.029465077397043515e+00 -2.191342219798593227e+00 2.148274434579039216e+00 5.117315752663621486e-01 -5.912358272080307092e-02 -1.950853665682088289e+00 -2.678499516568000338e+00 4.177523981802134578e+00 -1.014923955304288805e+00 -2.599425832947634518e+00 -3.175344089687364590e+00 4.711625425054442040e+00 -1.442232097724346129e+00 1.799080519802979561e+00 -2.307204844104299823e+01 -6.733278766223540934e+00 4.375603928418827060e+00 -2.660528469562840614e-01 1.146576077179799258e+00 -2.540886042942494427e+00 5.046173627245249538e-01 -8.465358822760191693e-01 -1.241747834052320032e+00 -1.933333830769870865e+00 -6.507315940216495953e-01 -4.372632528277908825e+00 3.289644153228618251e+00 -4.416917128699764383e+00 -2.873038115335104226e-01 4.917050675296096074e+00 1.063164652200671911e+00 -1.714640375289770091e+00 -3.835451520547970450e+00 8.031232844156653838e-01 -9.982801488770970622e+00 2.066107023083949112e+00 -4.443686960803421293e+00 8.528426605407198879e-01 -1.135497934601790160e+00 -2.701881139828569811e+00 -2.607631779662973770e+00 8.291252078083800603e-01 -2.134104711627322626e+00 -1.050988757979739452e+00 6.856001501316472124e-01 -6.219445197444624096e-01 3.761261300185882450e-01 -1.039808784662280328e+00 -1.600567183371776503e+00 -2.646321990414998382e+00 8.514898241064666751e-01 -7.565818224087860422e+00 5.881972975907751255e+00 1.381209127941791737e+00 -1.320757565983297432e+01 -7.906998443073353755e+00 4.114825186841844840e+00 -3.611360888088932519e+00 8.038057797585849151e-01 1.285294983144404712e+00 -5.392072684679518169e+00 -9.872558726616993685e-02 -4.003167819556208151e+00 2.737565037845106630e+00 -7.322557974192577923e+00 6.067338647004032026e+00 -5.025728998821121785e+00 5.474840525985318784e+00 -4.036305376481613472e+00 2.733704945418351961e+00 -3.111601456726003079e+00 8.618830000750854481e+00 6.463599219016300523e+00 6.036415310854124083e-01 -4.426457219084324990e+00 -1.092382201250035045e+00 -1.096115126282526164e+00 2.519083348577269899e+00 -4.235160301973762031e+00 1.716859027678979022e+00 -2.228745982532152503e+00 -1.885110253693518034e+00 -3.727708215432553596e-01 -1.549396870351223310e+00 3.757582277225706147e+00 -5.263467397251297086e+00 5.433854084926387884e+00 -5.503223539191129277e+00 2.383505187914185974e+00 -3.211151548618668361e+00 2.763795008670844489e+00 -1.329842756111015056e+01 -4.375958000794376801e+00 8.312022285672231448e-01 -9.049194720515101764e+00 6.024006981531803362e+00 -4.124828159662075611e-01 8.650607286384089933e-01 6.226252387581797443e+00 -4.623382004375060639e+00 -3.480138371364914107e+00 -9.903335093068928785e+00 5.758543819904246241e+00 -4.659270700002825727e+00 4.823418591507065756e+00 -6.004016813633545446e+00 5.494725630902298263e+00 -3.495605783881307715e+00 6.852220573828478933e+00 -1.037297290397423311e+01 6.577356052367393957e+00 -6.861326891202998546e+00 -1.205230393335382733e+00 1.193568096301282022e+00 -1.212606891169771117e+01 6.663061836691943629e-01 4.879149506172111295e+00 -3.298407404780097085e+00 -3.430118510091237027e+00 1.264116649717594498e+01 -8.238941034489966952e+00 -1.618928435695259438e+01 9.319595780185007783e+00 -5.288094768760485564e+00 6.818743185503344684e+00 -1.079156803584944813e+00 -6.183077806652099717e-01 1.785919007060617458e+00 -6.864227716512926181e-01 6.643192151859025785e+00 -2.028928051993119208e+00 -1.272833542681766872e+01 -1.137930550194529822e+01 2.515247438603777086e-01 -9.748011923289509051e-01 -6.391711759604064902e+00 2.937705533224887144e+00 2.469558272971915880e+00 5.927993372284038109e+00 -1.377834879401156520e+01 1.630128034460825859e+01 -1.344142629993913829e+01 -2.780732060057250266e+01 1.482347539403542847e+01 -2.676450481930742953e+01 1.859343184796676596e+01 -1.680962963080352424e+01 9.008610408365164801e+00 1.685496570872076383e+00 -1.165847030637086279e+00 1.428787960958443515e+00 -1.708487347174612925e+00 -3.084346677811449666e+00 -3.256261029459846246e-02 2.789146673667323162e-01 2.146938231492113491e+00 -9.115766024798313438e+00 2.848675591933656381e+00 4.223254111439824321e+00 1.643340747715165406e+01 -5.308708834851163516e+00 5.882856734053975245e+00 -3.933013450734716088e+01 2.357116641827057890e+01 4.502188285640557730e+00 -9.535782738891903851e-03 -1.207683913977464357e-01 1.223221422445896778e+01 3.721734563256152040e+00 -1.742831220638562684e+01 -1.144199812602892052e+00 -4.812781579184970959e-01 3.568755054783602776e-01 -3.132710451556280835e-06 -1.004087919849036004e+00 9.566675063924794387e+00 2.677524088784359790e+01 -5.967131384888039181e-01 1.050857306818335601e+01 -7.377554829572482653e+00 4.123134684219950685e+01 3.511746740099069797e+01 6.415551191622519411e+00 -9.467290839330638974e+00 -3.234229788946463735e+00 -1.007318386144479438e+00 5.739514873393550154e+00 -1.804890132847398831e+01 -1.767196804226087892e+01 -3.923615182760446629e+00 6.240152943592198742e-01 4.398254022600512486e-02 3.670501873797206958e-03 0.000000000000000000e+00 8.351824592124296176e-02 -3.339811429692918221e-01 -6.362462989526710189e+00 -4.529307287148640171e+00 -2.112045414037541846e+01 -1.113046013549100044e+00 -3.581685976056399490e+00 -4.905624704085445487e+00 -1.227557497577320689e+00 -1.922504834725377476e+00 -8.575179528568520837e+00 -9.683598891703429246e+00 -1.304367397736843293e+00 -9.030422186849271782e-01 -1.534316664955323928e+00 -3.173132565242423042e-01 4.153714336475725771e-02 -2.405225308805723503e-05 0.000000000000000000e+00
-1.015042257816207183e+01 0.000000000000000000e+00 0.000000000000000000e+00 -2.147417390641410779e-06 4.547266173817654446e-05 -4.162601360294917638e-04 -7.976067368137306542e-05 -3.653851513375859679e-03 -1.924490911908288302e-03 5.946107254516379715e-05 -9.693949512300557110e-04 -3.596448208471034517e-04 1.570695669919880790e-04 1.205166083224779445e-04 5.894470215984457927e-04 8.272048238027159342e-04 1.868968548873904320e-04 2.941240377349558442e-05 2.839764016606132246e-07 -3.850919342760353224e-07 0.000000000000000000e+00 1.164192024260386485e-06 -1.664615136385766558e-05 -9.567623741828586062e-05 -5.477048130759078030e-04 3.039112344744511127e-02 4.529759339187561934e-02 1.523534760076760558e-02 3.445608717986557018e-02 6.819099961133637255e-02 8.072858128613097373e-02 2.239866580790988437e-01 4.058078630745615839e-02 9.864680381515196494e-02 3.601628119115328659e-03 1.385862457468582144e-02 8.147979640393814005e-03 8.546993369638333522e-04 1.573528097236944064e-04 3.898542307046757525e-05 1.917758661599585011e-05 -5.151014632468709949e-06 -3.131969480829918488e-04 -9.218917101343768530e-03 1.513374093741324533e-01 7.885230425098423493e-03 -1.414695977093213930e+00 -9.240907312783813721e-01 -9.172803043647298482e-01 -2.301992927899928709e+00 -2.906420607772172815e+00 -3.216297047640584772e+00 -5.221028121881480244e-01 -8.296740051719386777e-01 -3.567443959813996757e-01 -1.928805990274743143e-01 2.636974788063792818e-01 3.037424804436871309e-02 -4.385670123201308029e-03 -3.574225547537847195e-04 -2.074093116986922263e-04 -3.876179278429788661e-04 4.958304831264674466e-03 1.768599584474983555e-01 -1.139336600494744944e+00 -5.335601264455004156e+00 -3.347545645922223034e+00 -1.506820444640575019e-01 -5.727992726901549148e+00 -2.746747626549265853e+00 8.167893428444408244e+00 2.558567976798124644e+00 -1.520687708362345569e+00 -3.806851627635869928e+00 2.041621200049107632e+00 -1.126912461331788462e+00 -3.446711204580395815e+00 -2.675191022681346342e-01 1.727904900452801873e-01 9.050446757072656704e-04 -1.384743165573567789e-03 -1.249173497706028771e-02 -2.478598838158832182e-02 -1.523988319783184719e+00 -3.378113287902798856e+00 -1.005750121697801536e+00 4.272133669762532726e+00 1.763766036329675435e+00 -5.758507924732195526e+00 1.060101806967248095e+01 2.169387855897070505e+00 4.391720082243385725e+00 1.738807675216857529e+00 -4.990745703956076973e+00 -2.860110338732464896e+00 -3.629983198092468388e+00 -1.086245634956859796e+01 -3.945438265186940185e+00 -2.561523013909556834e+00 -5.299380463248717227e-02 5.097815918454314671e-03 1.751508261114790577e-01 -6.114488526897073895e-01 7.410767756785667792e-01 2.115700720541558333e+00 1.015717864086942424e+00 -9.583133515611764963e+00 -3.369313916412433496e+00 -9.245864762650743973e-01 -7.674157943927108150e+00 -6.096323631827153200e+00 1.277996948294022062e+01 -1.260428728464699155e+01 2.826022715928282913e+00 -6.744173205719563580e-01 -5.413416618930769530e+00 8.426788756993227381e+00 -4.655382467768683696e+00 -5.160206021487870665e+00 1.837296180451979677e-01 -6.106243151203691842e-03 2.132014239653128307e-01 8.535657416850245482e+00 7.343566117959544393e+00 -1.582012335335662545e+00 1.687434671218885018e+00 -2.472043805084043200e+00 -2.457917942465231320e+00 8.369726139662725828e+00 8.156772420720418637e+00 -2.836097177491191390e-01 2.595623011232841559e+00 3.490607725206220646e+00 9.428230936643553051e+00 3.096893520542971512e+00 2.177931891551643240e-01 6.539643511663000730e+00 -1.359120693341296926e+00 -8.207480149651566137e+00 2.180089348650338654e-01 -1.121723144878003335e-02 2.771527440669493414e-01 6.261015096760015552e+00 -1.344333821889588609e+00 -2.663811786575271068e+00 -1.814406465252943246e+00 -6.553709773331227728e-01 -7.111065633143591747e+00 -1.665010785866285481e+00 -2.450677580994530036e+00 1.507178040286812903e+00 2.518007236203490429e+00 -2.505299305849613578e+00 1.240617491302156594e+00 2.805767378636109477e+00 3.118851530849143572e+00 2.399899448128193669e+00 -9.564691230111385112e-01 -1.431183240779097865e+01 4.992481959925471058e-01 -1.224235274740297086e-02 2.367202736104111471e-01 -7.962763250386164504e-01 -3.093166683008317097e+00 -6.581321331558466881e+00 1.804936666628238484e+00 -4.056229529721613325e+00 1.999687399939539700e+00 -4.688628609340643294e+00 6.337823932102602420e+00 -6.995455402223065278e-01 1.519835476443164524e+00 2.869366530039921148e+00 7.836165173327836797e+00 4.091340064041532720e+00 2.362969926690187350e+00 3.783277601156464165e+00 -3.398152316522163652e+00 -1.279243597008553479e+01 4.783397677404508386e-01 -1.676018134528357850e-02 3.378258660729767660e-01 -1.646207929071084042e+00 1.952789928675904063e+00 -8.485096632912261683e+00 2.341309880522101317e+00 -1.005621322815093421e+01 2.910986820529573915e+00 -6.246565277518808301e+00 2.803298395160176426e+00 -2.255348865651333329e-02 -6.475812680141387334e-01 -4.709857944187417544e+00 4.153541860665924679e-01 1.755965417039283549e+00 4.123505006919524263e+00 3.030069920645824144e+00 3.331946426309088327e+00 -1.281680614843857313e+01 -5.679749373426054015e-01 2.504448156915177817e-02 2.471944672408331600e-01 2.106843515804254885e+00 2.840558071823241271e+00 -5.236500057698272315e+00 7.025210623729506443e-01 1.866976549616016889e+00 -2.503480185412223502e+00 -3.307443334357376141e+00 5.523073596193990298e-01 -1.899522880698256699e+00 1.230984428399894171e+01 -4.458020881553966253e-01 3.912226047225761061e+00 -2.667138247373026516e-01 5.397950485737340820e+00 -4.571675600608909207e+00 2.369987336374130393e+00 -1.631098383663599805e+01 -1.133582480762230782e+00 -7.761071057840781239e-03 2.765589907897045285e-01 -2.112101742479933986e+00 1.264617570163693694e+00 -1.533271180444989223e+00 -4.427774527746761279e+00 -3.436839255524051229e+00 -3.363292130925155110e-01 -8.212832779308497422e+00 -2.668389697976687902e+00 -4.311037009278252619e+00 -6.044754120068740910e+00 -1.681579283354562637e+00 -4.277864780134649436e+00 1.087965694653349358e+00 2.997712801893771761e+00 7.939105166065186125e+00 2.339493036386495639e+00 -5.470040946210708910e+00 -5.012343663725981058e-01 -7.968444717455284293e-03 9.018060786767513604e-02 -2.224200541038980461e+00 -2.948633403871266934e-01 -2.781408699245907723e+00 -4.894530552901168896e+00 -1.111887079614412022e+00 -7.258214991052049037e+00 -3.706082215882971376e+00 1.654728635427481054e+00 7.325459090486013958e-01 2.396755271994122971e+00 -3.026528431484794002e-01 1.975355189288402924e+00 3.638627956929133767e+00 -5.765108038162352067e-01 -2.459270030223965897e-01 -8.044418753232852382e+00 -1.603429209087784205e-02 -5.050908153479900520e-01 1.681357878888579830e-03 -3.607015948883343093e-01 6.575396211230391863e+00 3.665210695082083525e+00 -9.164953442491489355e+00 9.410919680136208498e+00 -7.256518758270828151e+00 -1.151036127791654096e+01 -5.087186049027641488e+00 1.942931555199438887e-01 -1.949607551238147884e+00 -5.189757550074789449e+00 3.667537145725026537e+00 -2.804988150940278757e+00 -2.264921050822067183e+00 -1.074978475589537075e+00 1.399501238433503580e+01 -3.017810504125038595e-01 -2.660019876750328915e+00 -9.361886511451926740e-01 4.469529235249913857e-02 7.346163777716746557e-01 6.966306871646026799e+00 3.412812389351727482e+00 5.152622281982058183e+00 8.015695646086047343e-01 -1.677654429192199004e+01 8.863851163003198863e+00 -6.945034460369468032e-01 -9.023112800638724451e+00 3.292126807996144638e-03 3.895893553628121619e+00 -8.617422446879551501e+00 1.187775437399676726e+01 -4.672734967779881288e+00 7.013698233290188710e-01 1.808654230624271442e+00 -6.060685496146054341e+00 -3.239149296263853284e+00 -5.398876973786206346e-01 2.203946430829060305e-02 1.388320697421254746e-01 3.258877837061255889e+00 -1.247260115402929337e+01 2.930261420734744382e-01 -6.274879171622700369e+00 -6.995031087392143965e-01 -4.780595445892075190e+00 -1.103013564493363319e+01 8.477734006121956156e+00 -3.696723471156904584e+00 1.201042573448234130e+01 -2.994054773000855540e+00 -2.304900889715788992e+00 -6.909591588914472560e+00 6.686287629738935090e-01 -8.589766897915961152e+00 -4.898412497522263820e+00 -4.216321402748471336e-01 -7.959983046526018791e-02 -1.482650604381619830e-01 -7.809986449754388604e-02 6.949887893335400246e-01 -9.814815038727841667e+00 3.426317805674111705e-01 4.141574185301055699e+00 -3.140767490898687786e+00 3.030104954753647384e+00 -3.381945018267979997e+00 1.237897273623771666e+00 -4.068459228393739302e+00 2.986410518892443910e+00 1.733203961782839864e+00 5.504311819426489727e+00 1.061034181272875632e+00 3.975070370087311344e-01 -6.655886295798017827e+00 -3.063533838926606911e+00 -2.440032589885954284e-01 2.865153856119090348e-02 -3.591861183335513796e-02 7.127594645947131838e-03 1.922395422962268619e-01 -8.535172162893866599e+00 -1.012616673577419668e+01 2.430533356438552839e-01 -9.007204032814525974e+00 -2.047602047858795871e+01 -8.685843311887726514e+00 3.338474005747963158e+00 8.199514129435604204e+00 5.920918925553129597e+00 -6.453209443932138356e+00 -1.004035450016954734e+01 3.865007416063305778e-01 -4.755305181097817524e+00 -4.911256091299903481e+00 -1.734938908496210797e+00 6.221325775923500223e-02 7.643937995756024464e-03 4.888288059162883975e-03 -7.246882068212886256e-06 4.014193249446742356e-02 -5.173360332529965966e-01 1.166179091114003530e+00 9.226759269343922654e+00 9.484744650140128353e-02 -3.354892103125785230e+00 -1.397281861858967522e+00 -1.284729861775344162e+01 -3.819934885074556696e+00 1.095671951430946223e+01 -1.362866359488418277e-01 -1.532587194170946521e-01 -6.727194537138082575e-01 -1.525836301110930160e+00 -1.410284305683547068e-01 2.286604653501118564e-02 6.356397017360152120e-03 -1.565583144661295153e-04 -1.933589908108776804e-05 0.000000000000000000e+00 -3.608240428820789613e-03 -3.147915127228761989e-02 5.772060703659424169e-02 1.199864734006103895e+01 8.361587380221369159e+00 -7.456596077454301641e-01 2.348999638514542854e-01 -4.875061353080007431e-01 -2.087518694755140736e+00 -2.189599025350593475e+00 -3.009214725733788676e+00 -1.459662855577690044e+00 -1.542122165663744049e-01 -6.790872822900241579e-02 -3.303395795056492806e-02 1.978913861508954566e-03 -6.423676346702537681e-04 5.338219359950816770e-05 0.000000000000000000e+00
-4.512640855803585538e+00 0.000000000000000000e+00 0.000000000000000000e+00 -3.692367851775730516e-05 -4.399032957683029869e-03 5.358202705933928778e-02 4.702910760385513034e-01 4.467844408887419183e-01 -2.433301509436539833e-01 -1.277828365717383237e-02 -1.443189090932666362e-02 -5.267914212081630312e-03 3.571472090606627684e-03 2.114416499074176989e-02 9.489785842980697980e-03 -1.910310438881395335e-03 2.199576443753675802e-04 2.719056405529312668e-05 9.251716163724183683e-07 -3.527257852711654938e-07 0.000000000000000000e+00 -7.409883949272993684e-08 2.493636599098397414e-07 3.889090016659978513e-04 7.335325210527900153e-02 -9.645457679952272878e-01 -6.766599305872741610e+00 -1.139514639574681576e+00 4.513985516334037551e-01 3.890520153787562219e-01 -8.517447528423881531e-01 3.356099145554802821e-01 -5.983296583082683417e-01 -6.909933812588855417e-01 -2.797502108405949817e-01 2.845125316057766640e-01 1.276713646307537364e-01 1.476861752344536816e-01 -7.559844140468613763e-03 8.172153548355043373e-02 4.809963921517217827e-02 6.343162331389892378e-07 -8.616700653317410091e-06 -2.261843196585080693e-02 1.412926371643238865e-01 1.440266153667465465e+00 7.774606371975523178e-01 -2.284335351430479832e+00 4.210948853406080161e+00 1.238628457606951905e+01 1.439864466353888872e+01 1.759095076318313300e+00 1.615157539762929417e+01 5.916534179556927064e+00 -3.966723311300085708e+00 -1.099614644312679879e+01 -1.176588574588014779e+01 -5.924480637982196818e+00 -1.734974497389497605e+00 -1.621019697471006271e+00 -5.216173197912766790e-01 2.692961130239912465e-06 -1.150455705759359390e-04 1.930280199906758698e-01 -2.269266316948606477e+00 6.999070502920637260e+00 1.337193708069164799e+01 -9.335309921956556067e+00 1.620309498475391763e+01 1.246326481569418476e+01 2.413800012482872148e+01 -1.489954617247390978e+01 -5.214101408520140701e+00 1.197718289809842673e+01 1.483201462422726102e+01 -1.262607766927888697e+01 -5.169498585482492636e+00 -1.651460624545671774e+00 9.904945196752017011e+00 2.257317165567066741e+00 -1.027444011273326518e+00 1.849664529240112690e-06 -1.149968584557727221e-02 9.091139647084787168e-01 -6.729299243526611463e+00 -1.693438366825509078e+01 1.547953561750885143e+01 7.629956547743719675e+00 -9.739931793073047572e+00 -2.534434298878285574e+01 -2.195135847666616957e+00 1.144931721280335779e+01 2.445542993867368065e+00 1.075853990284007189e+01 -1.643369936097667861e+01 -1.390096391866129544e+01 -1.771260860383872782e+01 -1.632472591054510147e+01 2.006024739027078141e+01 -4.192396386253104623e+00 -1.396156193683915347e+01 -7.851803470250940319e-05 1.032102833987858237e-01 -2.243001763513165603e+00 8.675637108621572224e+00 9.873123490921537737e+00 -3.880760446399032837e+00 1.658350162962940288e+01 2.123490142063709563e+00 2.728612302381965904e+01 -1.971050751769853804e+01 2.480661502845678434e+00 -3.771365434458005872e+00 7.901122917510962296e+00 -2.772987373673552014e+01 -8.896904152509957697e+00 -2.948348581394005574e+00 -8.670843923309019985e+00 -1.038752054026375404e+01 1.440158879227829658e+01 1.205480432018155801e+00 3.041824724067053974e-04 5.557725726132739519e-01 -6.737046158959659081e+00 -2.943963404923743088e+00 -4.301834181743972252e+00 3.319724352694469083e+00 -3.265755121331838762e+00 -2.089964746298426324e+00 8.009061545111055835e+00 -2.118289735785805306e+01 1.666884801981418818e+01 -1.269544808019983684e+01 4.163370530351619081e+00 -8.443817586506918715e+00 -2.777888188106701239e+00 2.651151533802275395e+01 -9.386287171332510226e+00 -4.762356488221876738e+00 9.626426865369719366e+00 -9.265232310389391657e+00 -5.986043319793455742e-04 3.767808665928812362e-01 -5.733576231314343907e+00 3.865162152051596856e+00 1.175950754208139770e+01 -1.387453146041753405e+00 4.071288768585388240e+00 5.297127721084121887e+00 -1.001626497744532429e+01 1.591631698144700913e+01 -1.235999565838129222e+01 4.763679251652537694e+00 -4.539981513973024185e+00 -8.872434901663456941e+00 5.449104908796972291e-01 -1.143550718592893212e+01 7.320123101304271351e+00 -8.888415546031653847e+00 -5.369165396654522304e+00 1.368665746051879673e+01 2.217752212099708894e-02 5.528766391274983483e-02 -4.900528191106239717e+00 -5.746472767616617183e+00 -2.985779274574705600e+00 2.911507695416032160e+00 6.347899797626499030e+00 -5.507586101826463576e+00 1.531239470206734943e+01 -2.816771551818802166e+01 1.330631563046952692e+01 -1.172723195509481720e+01 8.992582782280624798e+00 -3.005237891669365169e+00 1.161035169300001435e+01 4.262922958116200256e+00 -1.252367691228641000e+01 1.177749833332427665e+00 7.981389956367658911e+00 -5.816179200373347236e+00 5.688758918746354698e-02 -5.823883455028726619e-01 -2.196977893578925478e+00 -9.472963338337713424e+00 4.241956860230180482e+00 -1.721543310078726297e+00 -4.948034483034550846e+00 1.117203886147386349e+01 -1.250658709375984401e+01 6.216047486588507809e+00 -1.214959508267267374e+01 -4.154336197458253999e+00 1.367390385071530767e+00 -1.160681351429530750e+01 5.033541657289934079e+00 -2.134006743502808501e+00 1.165681470958310406e+01 -1.663834390600161939e+01 1.906385853081424608e+00 -1.999727958051737531e+00 4.019285913970845232e-03 1.105621300493237813e+00 -1.747542915407568742e+01 1.372645288560284671e+00 -1.078357869864357887e+00 2.100543561532493442e+00 5.925492756559895824e+00 -4.088534986010234462e+00 6.087573709973284508e+00 -1.194126357749431122e+01 5.847273404862868951e+00 -1.601365019584223059e+00 -1.521458040082238172e+00 1.159925281836845734e+01 -9.290129111381986604e+00 2.678308681431202487e+00 -1.322891533215503124e+01 5.292870735136765425e+00 2.079878049656476435e-02 -2.907344188820391029e+00 -7.557759607366954738e-04 9.485358898554260287e-01 -1.235862854587611537e+01 -6.436761294373428477e+00 2.396474292600056177e+00 2.962669921763273706e+00 3.611689562203641124e+00 9.159459383305652125e+00 2.767875219747309767e+00 -3.721867977533531935e+00 -7.148288289595809530e+00 -9.400730618103219527e+00 9.704503148942441371e+00 -1.685008664124660882e+01 1.398708872258415070e+01 -8.173730098807785893e+00 1.753443635835072456e+01 -1.286301654039773723e+01 -8.854156880275565467e-01 -1.913861204028752816e-01 2.983176883898977592e-03 7.550755344877871367e-02 2.637386126709532874e+00 -4.184202518917913238e+01 7.500183124354125930e+00 -8.428694346219859357e-01 -1.111388578254838055e+00 4.844965754131735913e+00 7.948285089974260309e+00 -6.526318308455489436e+00 9.285873501819763121e+00 -3.684339214493597581e+00 -1.660635055881610089e+00 -2.718001368288688324e-01 -1.815181760879373485e+01 2.880695543878639242e+00 -1.429962888152167722e+01 -4.141816567262545767e+00 5.414844494976955858e+00 -2.307354000411675266e+00 2.297084146615165773e-03 2.210384717768789362e-04 9.620406439943461896e-01 -1.394969696499826384e+01 -3.473471340429180376e+00 -4.817474341507290703e+00 9.282674776309182363e+00 -4.522976022156230513e+00 1.480053733578194652e+01 -1.809589198171961399e+01 2.873453416931589288e+00 1.146010424935439787e+01 -1.125570847200594082e+00 5.438466703484338360e+00 -6.974011156808749279e-01 1.114678722068713546e+00 -1.663427802442833325e+01 8.629277640559618323e-01 1.993709058631710818e+01 1.771965691776503959e+01 6.520622212952563359e-04 9.706344718020678067e-03 1.742257906252238309e+00 -1.930356353936516811e+01 -9.641044266884508218e+00 6.991689174939082818e+00 1.024204337773319429e+00 -4.349946565958644484e+00 9.910548707592381490e+00 -6.636910038745399198e+00 -1.433292562826570249e-01 -5.042087329352586522e+00 2.231836862463932203e+00 -4.606308363964991770e+00 -2.071965863750424575e+01 -3.776649546693787052e+00 -5.155825701106692832e-02 -3.860034314670385669e+01 7.937443386743777474e+00 5.593742492583474224e+00 3.170398835550630826e-05 -8.698548455688921233e-04 2.690066479331612914e+00 -2.685549934374774139e+01 4.242654208730860965e+00 -4.099901739539530965e+00 1.041568761236073293e+01 -1.095483822064187684e+01 1.365852436965132588e+00 1.030641491235366836e+01 -2.828894008330130827e+00 2.206848836254991397e+00 -1.879451546607546319e+01 6.934142338347410117e+00 4.824588469816786684e+00 3.819796808373271624e+00 -7.680787901961985575e+00 -1.171388744719909702e+01 1.041435831272524126e+01 2.590602922665352281e+01 6.205194576759439704e-06 7.666942712982419139e-02 1.005596441976031041e+00 -1.885553983471227113e+01 -4.185143412645130567e+00 4.100468723630982026e+00 -7.588304790345688389e+00 1.267700629945357171e+01 -9.598329165265305107e+00 -9.032412777259677394e-01 -1.526589692515584140e+01 2.321997186508279754e+01 -1.899275751457103212e+01 -1.240788598953956523e+01 -3.132556258470549437e+01 -1.804871874611432503e+01 -1.830680444847009625e+01 -1.635588794949674352e+01 -5.317318533406011127e+00 7.739611663823611210e+00 1.142896425808671576e-05 2.242223759395337024e-01 -1.556732250398663586e+00 -1.071340180928675956e+01 -1.374070917891478416e+01 -1.435760156494090900e+01 1.026814450280828073e+00 1.963606369483976266e+01 -2.271284610565077244e+01 -7.179588342237992471e+00 -3.262784907374256527e-01 -1.748476449792351062e+01 -2.337636535605371080e+01 3.401887763415574284e+01 -2.224437686553912386e+00 -5.326889376139291699e+00 -8.244152538423942245e-01 -5.851793560910720782e-01 -1.754045274214862671e+00 -1.043896609638627737e+00 -4.621528635748128123e-07 -2.580493281563046859e-03 -1.533305663901629243e-02 5.453733205856760025e-01 -5.814150246412939094e-01 -1.274085783243059034e+01 -1.196024662068410649e+01 -1.970882591135710626e+01 -4.517474121287144762e+00 -1.362766574133583219e+01 3.128444306126475638e+01 4.714922295820649367e+00 -2.093228417552112308e+00 -2.478509438779434304e-01 5.629378073714990105e-01 1.217921336065494881e-01 -2.783899293236440808e+00 -5.833078517022006748e-01 2.067473845854751469e-01 1.408619363784780441e-02 0.000000000000000000e+00 -2.923179719020927260e-06 -6.072703105779967293e-05 2.784142057603651924e-02 -3.944307770908548338e-01 -1.329234652543735518e+00 -9.026268966297344987e-01 -4.024502195276549621e+00 -1.248495787375025534e+00 1.424969618188872023e+00 -2.761163487165002817e+00 -4.953172740964300602e-01 4.190367372551915409e-02 -3.472923671775677290e-01 -3.200219466388086464e-02 -7.552678745821304884e-02 -1.544952241329057729e+00 -3.882248014528867364e-01 4.487458235437661452e-02 0.000000000000000000e+00
-1.137956395358978590e+01 0.000000000000000000e+00 0.000000000000000000e+00 -8.003187049941541502e-04 7.382301918810288237e-03 8.476118351070571419e-03 1.264201225174039489e-01 -1.454344032028876965e+00 -1.040285674399893168e+00 -1.911205207990786942e-02 -2.748996497802713365e-02 2.323942213478793518e-03 1.094081778168559731e-04 8.782811398778155639e-04 4.920783655442719819e-03 5.984758340663387001e-03 3.591204289594781066e-03 1.395982423523517565e-04 1.340527775281010060e-05 -4.120908036426995809e-06 0.000000000000000000e+00 -1.322920971009248877e-07 -7.631560979699984022e-04 1.614652604976724720e-02 -6.424548711511247900e-02 -1.161605913112195992e-01 9.769486432304745893e-01 -1.731241629667901849e+00 -3.411402250620936272e+00 -2.466187214629872670e+00 -9.565014406551199944e-01 7.522615060414208354e-01 -1.587331711097744180e-01 2.052391014877704145e-01 7.662534479738243309e-01 3.652299526183527267e-01 4.049740830150057591e-01 1.350535049381589525e+00 3.152004256973305885e-01 -1.045924948334431802e-02 4.606568438999473179e-03 9.479099942952913561e-07 2.079958184441528263e-03 -3.152052749614442373e-02 9.630111500560158133e-02 1.654799029055593895e-01 -9.835576011905152072e+00 -1.004460347505474616e+01 1.909225971978363079e+00 -1.677462632144260724e+00 -1.970391142806593443e+00 -8.427321823050144545e+00 3.193028821922806237e+00 -4.931838215511158197e+00 -1.270228615075679812e+01 -9.711102898141009021e+00 -6.758953079361634586e+00 -1.699708002067171364e+01 -2.709355936223803329e+00 2.036725430782043711e-01 -5.629331465196948936e-02 -7.363079833349951188e-05 6.753412761756645566e-02 -1.945587042693089075e-01 -3.421170949014336937e+00 -1.341922147832882439e-01 -6.988897892946292600e+00 2.457347590567613871e+00 -4.136718638240497903e+00 6.137123709561423723e+00 2.983588836690572066e+00 -6.682392332311357208e+00 -1.219182188902146180e+01 9.267366288462447699e+00 -3.996162696245990631e+00 6.869323937958959014e+00 -5.057104570800897037e+00 4.075831305300078533e+00 -1.432995313853430197e+01 -1.101877072210637604e-01 -2.731525013348973241e-01 -4.238801369432885916e-04 1.985517522561252024e-01 -4.321102547368271374e+00 -1.379978069867867774e+01 5.019308971777038053e+00 -1.036890392035842723e+01 2.396629684510991343e+00 2.818398823692573441e+00 -5.175655852112205579e+00 4.604027003232941340e+00 -6.020530361225524096e+00 6.035953437183795067e+00 -4.260160624937748608e+00 -1.746832056312719983e+00 -8.435451578065223137e-04 8.860951474505277536e-01 -3.419428365729209052e+00 3.449102520855536813e+00 -1.665647982219753942e+01 1.695208980392618692e+00 1.428620964723274593e-02 -1.540765856809567902e+00 -1.025986521053735334e+00 2.510074452005267798e+00 -8.281520527999209236e+00 1.084760236677069223e+01 -5.396179786942919776e+00 4.317873447671955134e+00 2.615883972986026568e-02 -2.019442619021974306e+00 -2.158564927188111882e-01 -3.556993183634221012e+00 2.995350989216886806e+00 -1.438994519544151585e+00 -1.364739369935861424e+00 1.617667927373661829e+00 -7.809606881941030254e-01 -2.137971272170247072e+00 4.783671363207451788e-01 -2.287101604618768214e+00 9.038237770540342997e-02 -3.329610446196591855e+00 3.584356642280006611e-01 2.698584524100759552e+00 -2.726247388787823134e+00 -2.020148518826821782e+00 3.167824952582861009e+00 -3.618997613334097863e-01 -1.286660077386711232e-01 6.102692336009386542e-01 -4.499284415418438460e-02 -2.133954654426826192e+00 3.321383809036529411e-01 2.356102436046289217e+00 2.955905524040267768e-02 1.345496194275781765e-01 -1.629250147915971336e+00 1.748778476599211595e+00 -3.523505399192499610e+00 -1.330909937140043908e+01 3.461358208852182705e-01 -4.319882252287722046e+00 1.234667425024691401e+00 -8.791965901834872810e-01 -4.659986190292229880e-02 6.067763018537145614e-01 -1.513573779058296154e+00 3.305180995804702260e+00 2.567540039797390206e-01 -1.863903618911125104e+00 4.734625110943584958e-01 -7.027237000271174816e-01 3.111557432052603378e+00 -3.710706645517052316e-01 2.654835745887540455e-01 -1.968516760664163590e+00 7.855927627159539073e-01 1.959158616423144206e-01 -3.872757646427306355e+00 -5.283526710700653162e+00 2.072263058432652072e-01 -2.193392574256473715e+00 -3.595975264577361941e+00 8.432763827547451463e-01 -4.843347132757773454e-02 -1.495519919224705063e+00 3.137563298809440848e+00 -1.768523748855876043e+00 1.016133115665091013e+00 2.179196366232925453e+00 2.187424982613271673e+00 -6.105990085216950192e-01 1.434673926758290197e+00 -2.441857912199999481e-01 1.926757380329855662e+00 -2.751484915179942536e+00 2.754164681242721180e+00 -1.800981964307153627e+00 -1.846441978205361156e+00 -4.572896472487165909e+00 2.097792109677009131e-01 -4.636443891699757458e+00 5.861048720223969610e+00 -2.094737912918530398e+00 2.088562327268027818e+00 -9.178873671113242372e-01 -4.299412019115815831e-01 1.553535526434729030e+00 2.367597165244839097e+00 -5.998856814651897240e-01 -2.536617237209108922e-01 2.794715494657591837e+00 -1.742114694329590513e-02 2.027392252523287031e+00 -3.102596212195238401e+00 2.085631426318784065e+00 9.714559515509877397e-01 1.835803728627217302e+00 -3.168284982390608295e+00 -7.767290104815021579e+00 1.986996039485524335e-01 -9.857131017885265578e-01 -6.760741461218908732e+00 1.481196332928699233e+00 1.752869325227869535e+00 -1.704345659586597561e+00 1.020946350453402207e+00 -3.511996393999277988e+00 1.231368922940905053e+00 1.222627363469994677e+00 1.361989805514970397e+00 -1.727555942755149676e+00 1.432770269388216500e+00 -3.115186447072298304e+00 -6.059255198721332780e-01 1.696015244036069403e+00 -2.046936113098861920e+00 7.417889939420838630e-01 -2.182456058079920158e+00 -8.704945119178182367e+00 1.483968285479053684e-01 -9.238619958368310847e+00 4.784836772820268536e+00 -7.398254938563636474e-01 -1.821929492886056101e+00 2.051548073038783837e+00 -2.812636757608899085e+00 1.725398635488992083e+00 -2.887608889502893739e+00 4.514140149302608762e+00 -1.571902135878596507e+00 3.977816739375890087e+00 -2.127387344831088267e+00 3.453709217213759342e+00 -2.483746875994330416e+00 -1.529741217138157472e+00 2.031441099939498063e+00 1.920368006561871344e+00 -1.866948400170286959e+00 -3.460581652845977629e+00 2.561464087988151173e-01 -1.122600226002920643e+01 -4.585463657615185262e+00 -1.167643802974340117e+00 4.915813859608339165e+00 -4.358295353239149961e+00 3.424379988823250898e+00 -6.732891790585215919e-01 -1.748261274764590090e-01 -3.510441683432075077e+00 2.114385237348037627e+00 -3.007199194193477254e+00 8.909383238522000648e-01 -2.137252601573746080e+00 -8.437088717430067941e-01 3.712329973906263181e+00 -4.035685054408713057e+00 2.582376410640451425e+00 -4.681886215509746485e+00 -5.518653146823522704e+00 7.400164302607838973e-01 -8.481916854599663935e+00 3.934352555199104096e+00 2.000161859020551436e+00 -3.278141841547633106e+00 1.372440763386536977e+00 -2.494795191287054958e+00 1.357610760565154173e+00 1.828335773046686263e+00 -7.888152701080757279e-01 -3.798312362001596276e-01 -7.679207148995029764e-01 -2.434461919391373463e+00 2.348233364730178963e+00 -2.466599316899770855e+00 1.398909760169732286e-01 4.007872247326700332e+00 -1.638839832707329247e+00 5.715831282497780386e+00 -6.636255506862626774e+00 2.554530938626000669e-01 -7.895453041156034191e-01 -5.470091264328869052e+00 -2.452928146629496098e+00 1.774486042629667359e+00 -1.211895875420479385e+00 2.660696329369760083e+00 -6.607856139210848134e-01 2.405932702003898527e+00 1.066239223897555988e+00 -5.567310010245974716e+00 4.270534866286771702e+00 -2.231059460773896053e+00 -2.265161099232757103e+00 1.807245508451600369e+00 -3.805479768839474364e+00 -1.067998265687126080e+00 2.791370893581380130e+00 -5.051030261750765860e+00 -8.097507193726812824e-01 -3.494251578647707135e-02 -2.622355926892971922e-01 -1.128623736718076920e+00 4.239509794039666879e+00 -2.055692246879516905e-01 -1.512168774632998147e+00 -8.062541731329347927e-01 1.693432935377872095e+00 -2.442679361154530548e-01 1.325899402126652804e+00 -1.694923289481762740e+00 -3.714958744747499653e-01 1.917545947325642042e-01 2.772395207234433778e-01 8.398629026472080872e-01 3.562349837501015859e+00 -4.201657296468913394e+00 8.714112214490453923e+00 -1.205053573783782817e+01 3.957056768132843239e+00 1.657462529455121236e-01 -2.080043191485148046e+00 -6.193229572399940874e-01 -5.227033537246306594e+00 5.344737560524582820e-01 3.760257400143508288e+00 -1.891755651528542304e+00 6.210234466669875886e+00 -3.865027378731432872e+00 8.072766521143439178e+00 -6.404694417766245707e+00 2.207568057422783170e+00 -3.914718424183407652e+00 1.566241971429839674e+00 -9.782399694676923163e-01 -1.539388859052856828e+00 9.709137283307779143e+00 -2.140281021643849968e+01 -8.588412209661735464e-01 4.649424030342645509e+00 1.447342740747251388e-01 -2.688787382262201930e+00 1.051736146124197724e+01 3.307852912082379859e+00 1.271130207249564492e-01 -4.458437843537209844e+00 6.854055293678862348e+00 -8.218605298791176850e+00 2.082544670112403296e+01 -2.539330497814613707e+01 1.408922717316704443e+01 -1.117046027198926339e+01 1.224182380650187163e+01 -5.452233555132393938e+00 3.557026633412079697e+00 -5.820812270262720745e+00 -1.981203137574959428e+01 2.582085980117856838e+00 -1.105995293361913046e+00 6.902831221790007854e-01 -5.850146335609422710e-03 2.314953206826402821e-01 -2.861548090614446593e+00 9.603609845824360391e+00 -1.872774008467176676e+00 1.769156839802640269e+00 -1.089910833662108125e+01 -1.092991774294819612e-01 -2.166277267027877329e+01 1.871176113901733018e+01 -5.680283915185375676e-01 -1.934417894058111997e+01 -9.872283508335955915e+00 -1.846326452466118795e+01 -1.905874776427735640e+01 -5.313310553787857771e-01 7.938794522230231410e-01 -4.990114968192665978e-02 3.188009793230524996e-02 -9.055623366509052419e-02 0.000000000000000000e+00 -1.293460771813605137e-02 -6.726891780339098181e-01 8.418061957974531495e+00 -5.472748940224109404e+00 2.649029075578126502e-01 5.862991916564307182e+00 -6.401204527327172267e-01 1.220364794189624291e+01 3.479204190339500791e+00 -4.555850765203239838e+00 -2.992680174633496115e+00 -1.981057918617796787e+00 -9.183594766767287254e+00 9.602124947694255785e-02 -3.432200647340984956e-01 -3.342190664532322664e-02 -1.455501196678917267e-02 1.672122936556860555e-03 0.000000000000000000e+00
