-3.368766629478023855e-01
1.671453199307209106e-02
-4.109896023649302929e-04
3.150420143622878043e-04
7.738640044016788233e-02
5.596484488791483858e-02
1.171442802427107369e-02
5.519777795109477581e-02
4.625822116058923156e-02
-9.324894125348462751e-03
-7.300399103468755216e-03
3.224921433125181591e-02
6.482533764906951539e-03
5.894843470489643210e-03
1.010328646762895591e-02
-2.269621247670810821e-03
-2.405430221713683939e-03
-2.413465398266529185e-02
9.071915967504944056e-03
1.154929755499492852e-02
4.677850222084029008e-02
2.749507599621216214e-02
-2.669258364040806488e-03
-7.434909422294497076e-03
5.866428205773713961e-02
1.751973064862056423e-02
3.266010502741109600e-02
3.110963227948471306e-03
4.437496020594065491e-03
-3.285853476765060455e-02
2.494906308767915262e-02
-8.813031704761420046e-03
-1.474906734549393840e-02
-1.099697008850613195e-01
2.173154151667287259e-01
1.486581014581699611e-01
-2.646551955363680292e-02
1.309764846627075631e-02
-4.986898083201451309e-02
7.189374579586617353e-02
-1.857375624119528626e-02
3.694432506185847676e-02
-1.539484765155654800e-02
-3.620082502019393578e-02
-3.327150283709100903e-02
-1.386406659163083865e-01
-4.822158865239138947e-01
-2.032165728975355024e-01
-2.594211921047556713e-02
1.714113594883926589e-03
-4.479516381717468798e-02
5.056513092164473255e-02
3.451003536131354993e-02
-7.631019101970219765e-02
3.932640927394768782e-01
3.143689168835636094e-01
-1.240084339170019756e-01
-6.995910648867466330e-02
2.232451936122172367e-02
3.491479615670474435e-02
4.762124614901044189e-02
-1.266710423113251958e-02
-7.837910423185946371e-03
1.843890792737412979e-02
-6.512760103478033857e-02
-6.459996271781781596e-01
-5.590734524584238807e-01
-1.975655215704898715e-01
-3.320802871581954863e-01
-1.778605828861868632e-01
-1.238945615644778259e-01
2.932551946958114053e-01
2.351620028988923028e-01
-1.575677291662687385e-01
2.924242168849993662e-01
4.283854297905530517e-01
5.324217864101098152e-02
9.877249106695905334e-02
6.006093224419586235e-02
-7.076166138436532083e-02
-1.144964147905840578e-02
2.948264640734266778e-02
3.189515892513099943e-02
1.308220839516597567e-01
-2.687519645392054679e-01
-8.018520623148727156e-01
-3.634360874360145210e-01
-5.823282065784232686e-02
-4.658792694514795607e-01
1.213689359578723620e-01
1.793150509194903763e-01
1.877098860075385456e-01
2.377125640663891454e-02
-7.872464692852549906e-01
-2.585977808644386866e-01
2.190443152940965421e-01
8.149637015440648613e-02
4.830572438039655303e-01
4.127567804207194629e-02
-1.543401744047130306e-02
2.916680332593831956e-02
3.393033073746867107e-02
5.019512057006539352e-02
-3.249220830126877541e-02
-2.752544950099619081e-01
-2.290337130714782676e-01
-9.323990156458540624e-02
-2.164832865720287269e-01
-2.612073031369633314e-01
5.648271957953553413e-01
3.371407827453140604e-02
-3.898651420010105784e-01
-4.215320374001450543e-01
-3.420722173704000002e-01
2.763608062003699017e-01
2.610577206724533639e-01
-1.042934081219425574e-01
3.162663803451830069e-01
-2.528918431150409263e-01
-3.857778969624184318e-02
1.176402595443371696e-03
-1.532924284211028589e-02
1.775969512481698209e-02
-2.130757944075420407e-01
-2.875669189783591206e-01
2.209267269643335474e-01
4.096802131148239989e-01
2.337058044254690381e-01
-1.951322334914842513e-02
4.245862248712027331e-01
-1.143220521775841630e-01
6.401017390249125194e-01
2.669817696596614720e-01
2.207387062139331002e-01
-6.902482557181225387e-01
-6.995384617177717590e-02
7.360437212408945523e-03
-4.656028683935109491e-01
-8.356694056049934760e-02
7.603755128957384590e-02
8.852278958017285176e-03
-1.321088883385627228e-03
4.641886166339089653e-02
-3.480689314057047179e-01
-3.459740506505606383e-01
-2.666156275397227327e-01
1.996306470676826594e-01
-3.734744022919211925e-01
3.300081547810492649e-02
1.055711328933561510e-01
3.306422137225406219e-03
3.514100062262598967e-01
2.370559188227327335e-02
3.461109836971111853e-01
-4.239869251911500547e-01
1.510470214600028449e-01
3.407848157265418454e-01
-3.619014707898839389e-01
3.698103610827659926e-01
1.173647691057726622e-01
1.223879246411797156e-02
2.161181359192988413e-02
1.035041768558450370e-01
-5.200125181612285513e-02
-8.718557527858127043e-02
-1.574461240695924080e-01
2.829722016326150502e-01
5.777466589655297913e-01
-5.859954530617640656e-02
3.076777674174271393e-01
2.571583293202318599e-01
-4.536788821659273330e-01
-5.773545201717706910e-01
5.022770702940654308e-01
-4.196605109721114890e-01
-1.013172793638531938e-01
-9.459096406549055702e-02
-3.565155236970867780e-01
4.057995669060123212e-01
7.061559261817894340e-02
2.115417402027946342e-02
3.088204005039973249e-02
2.707498936694079789e-02
-1.993089879914777124e-02
1.190509324483799737e-02
-1.513621484194016542e-01
2.320833894791539398e-01
-1.339164664341838396e-01
3.241220757706915201e-01
-2.030938137957011280e-01
4.996674040173962675e-03
2.715337488660901633e-01
-1.708975626293533223e-01
-3.105496491463496378e-01
-3.501702749128756120e-01
-8.613729027724996434e-02
1.818982646512013746e-01
-1.333940004215384556e-01
-2.790370291436753900e-02
1.527805621035509265e-01
2.916555776754166038e-02
-1.538642669684208569e-02
1.239167612463618617e-01
5.508293137281973229e-01
-6.344057672890177080e-02
3.561812226176283569e-01
1.718744767493469994e-01
-2.110162431809078087e-01
-3.587765223244433477e-01
-2.819714948334589577e-01
6.010831527539678074e-03
3.551204178524260402e-01
4.009158768899332426e-01
9.616955394341933361e-02
5.919715116777801711e-01
1.554426109396125633e-01
5.578854703651078273e-01
4.099093091568763447e-01
-2.611119101739301993e-02
2.331929779754568777e-01
1.241426587765544209e-02
2.378035990408644551e-02
-3.651540140860011496e-02
4.446304997159349903e-01
1.027252301872335766e-01
-1.581856370058795647e-01
6.757401605963314628e-01
-6.045405195851741853e-01
-1.664583948259390267e+00
-1.684400898359684207e-01
-3.828747316189267669e-01
-5.237983256049975056e-01
-4.443337087381927231e-01
-3.882447813828855399e-01
-4.367532412484156912e-02
4.225584953970037971e-01
-1.069023872527284230e-01
2.202127017048505220e-01
-3.109552847530273056e-01
2.704994204109448241e-01
1.606777592478733641e-02
-1.236676674392579202e-02
8.949971775927614837e-02
4.240894025328804662e-01
6.590012214062548335e-01
-2.805219365298513567e-01
-7.575589257044440528e-02
-8.419726282999462352e-01
-1.912289878324107351e+00
4.227989020170788703e-01
-5.539573893328818555e-01
4.471876682382696644e-01
8.528623894709572162e-02
-3.633642054288960810e-01
2.531513855054907114e-01
5.040120713179557788e-01
-9.839441594669626201e-02
-9.669582145271561624e-02
-1.018152510215770967e-01
2.455774318131510037e-01
1.824915358648471209e-02
-7.454462503958629842e-04
1.850132171631519717e-01
5.502394438335777016e-01
4.045200512603659426e-01
1.188583288363189855e-01
-4.220328380716324712e-02
-2.582109989856467558e-01
-1.929676428858701387e+00
-1.781993251694525271e-01
6.051580705707865215e-02
-2.227110901279341915e-01
1.489989691345635914e-01
-3.670607328939752279e-01
2.455332309314808836e-01
4.352901110587600875e-01
3.918375368080674881e-01
-6.867863180040384430e-02
4.960738065047901740e-02
5.467852924152299954e-02
-1.434467377117717470e-02
5.211204843675937975e-02
1.298731507604590218e-01
4.176421378922755556e-01
6.108948231907008752e-01
-1.519138201630802765e-01
2.571555175385450975e-01
-2.199236000084813791e-01
-2.159702789512893961e+00
-1.229527775131865619e+00
3.722397754235303169e-01
6.213576063138620542e-01
-7.382475346259453897e-02
-2.892151629917417144e-01
-1.039374881091130881e-01
-8.003524105733952898e-02
1.711070959839812999e-01
1.470253378735004446e-01
1.063589381146523988e-01
-4.631732864161847846e-02
2.364358328334243906e-02
2.490964768903007609e-02
7.043837313014518486e-02
1.401567042063594226e-01
3.487437033082205762e-01
-1.522891175482798953e-01
4.540234547695911616e-01
-6.442674566278840109e-02
-1.954923250119514400e+00
-1.053605221256022295e+00
-8.561078151240297807e-02
2.385946517717546164e-02
9.505191420783955236e-02
-3.313221624631395024e-01
-2.321682083026395949e-01
1.420148348023557161e-01
-1.078568659765004462e-01
5.874835976997897641e-03
-1.638924873178244090e-01
-5.203032469707102869e-03
-2.631957707520149112e-02
-5.433077796689174399e-03
-1.969490155659573208e-02
2.568856726281779426e-02
4.149825161925261297e-01
1.935822438325011108e-01
3.055140327382573351e-01
-7.678012637529489925e-01
-1.535723854293073343e+00
-7.350581074554378702e-01
-3.897708794762280160e-01
-1.490185070756949448e-01
-6.390383377701959466e-02
1.243344208177268595e-01
6.241984028666176521e-01
5.982574478466221590e-01
1.258915429685203147e-01
2.348686542214841952e-02
-1.745328103132330611e-01
4.941753727534994867e-02
1.736867015806454681e-02
2.185452420422047219e-04
-4.052742999835887844e-02
8.101882939272406214e-02
2.675388262261335637e-01
2.496613337673068422e-01
5.308143035437754564e-01
-3.291157009062651295e-01
-7.123318764392668756e-01
-2.971253353715411771e-01
-3.323762010455135196e-01
-9.274111496145050204e-02
2.529502449759729599e-01
2.752986245752119254e-01
1.835978608139493540e-01
2.902789466727888623e-01
4.689610913742881526e-01
2.840099088238070418e-02
-1.533459669422810104e-02
-3.531186522245219339e-02
2.073745434770752835e-02
6.547408190111086990e-02
6.868289247593780192e-03
4.241324077494473127e-02
1.149896383677376649e-01
9.020017589808537739e-02
3.441868074964075236e-02
5.423136899265729172e-02
-1.074058171915105199e-02
-6.203903946678185344e-02
6.660875697625796843e-02
-7.747877610593975617e-02
-2.330479768242696148e-01
-1.913915692761967435e-01
-1.035746340427161072e-01
-1.983939012677665356e-02
9.474281223778641126e-02
1.490148835179096881e-02
8.365248420227915441e-03
8.012986716020970013e-02
2.951144195203841622e-02
6.752592039357221965e-02
5.225054804263937897e-02
6.331277567964248287e-04
-8.232980885504460541e-03
-8.339226084821021664e-03
1.904685850196075406e-02
4.604901726893459446e-02
1.399503226263137598e-02
2.699057169208635143e-02
-1.734204143230129794e-02
-2.574407111288808461e-02
-4.902711756909333696e-02
-8.884966702599497723e-02
6.822831929024340651e-03
-2.658990348238448112e-02
-3.632315404355039579e-02
8.712848976115959362e-03
-2.928759853808895683e-02
5.180424767354036009e-02
-2.145550793698304537e-02
-2.208012447890791985e-01
1.002842853238835111e-02
-2.527202301990478031e-02
1.045173907391522272e-02
-7.995962537163227649e-03
1.109740237458161499e-02
-1.016676305572464592e-02
-3.886948032518876359e-03
1.388017180607005116e-02
6.170840998899629337e-02
-2.366308239606377053e-02
-2.602420194968812703e-02
-2.078513521667964270e-02
2.894827657612247113e-02
-3.298942522467754324e-02
-1.404902361750360110e-02
1.425675186219588393e-02
-1.275936300135927133e-02
2.223426743263011082e-02
2.959578859741844158e-03
-4.221464095060346172e-02
6.805993938030380219e-02
8.227896349195034167e-03
6.353708011095839971e-03
1.463478828424637050e-02
-1.438181886087138914e-02
3.881632875937080646e-02
-4.468552950250879313e-02
2.699926886574764359e-02
1.546514055241857317e-02
6.121064851878360580e-02
-2.114532394053147968e-02
-4.704571623631796651e-02
2.869421459470437863e-02
-3.291505171237736355e-03
-2.878440903840258011e-02
8.748024509808764130e-05
2.086952351600426282e-03
2.214381383400080075e-02
2.618895425047032544e-02
5.481714890697188258e-02
2.938021739967671634e-03
3.468782540087137628e-02
4.550887897620481404e-02
1.872306680971462522e-02
5.188140073433952434e-04
2.624900451045612468e-02
6.190582762286968820e-03
3.993335535628531052e-02
6.517087636868239969e-03
-5.118707777563315936e-02
-6.236810631480986522e-02
2.915734575548838744e-03
-1.407302925716328711e-04
-4.414009137290737100e-02
-4.277342298204095047e-03
-6.505806784844510304e-02
4.134990427356263071e-02
-2.204020386427648151e-02
1.074471478942251416e-02
1.560021149836067836e-02
4.604532440916869057e-02
-1.329701366194810039e-02
2.619566021520220583e-02
6.067551625838681247e-03
-9.208754528530619862e-03
-2.814192746582873383e-02
3.375187667485683024e-02
-1.636633700713571726e-01
-1.920690235928974310e-01
-1.014837445899951368e-01
1.093702252275548931e-01
1.594286616097752574e-01
7.788358277528252549e-02
4.698790681795815549e-02
-6.353479882314415350e-02
-7.335200264224218947e-02
2.463986038373897416e-02
2.120120486461808673e-02
-2.331497644164460051e-02
5.337305014275966347e-03
6.835709530989284369e-03
4.250768933708618663e-02
2.679825933866351526e-02
-2.785690373597360381e-02
-4.792813572713328779e-02
1.351085412008802382e-02
-6.707862624502035354e-02
-4.373221540098415350e-02
1.310848635788434691e-01
2.281146365754667948e-01
3.191737463115404960e-01
2.820479982733756774e-01
1.442252239959645188e-01
1.859253512636320146e-02
-2.699045186285776166e-01
-5.300453444360774674e-02
8.069324013160664166e-02
4.399198135787178027e-02
-6.143678678539083587e-02
-6.740850615726196038e-02
1.562708785810136905e-02
5.327921119122445981e-02
-3.143009250985140390e-02
-3.348057289166809364e-02
-5.952800269914192838e-02
-1.443572470823876186e-01
-2.606413689362983496e-02
8.328433769707596634e-02
1.160555317708248380e-01
2.115122243609966757e-02
9.265857867672553554e-04
1.789867761952165237e-01
2.245248526791177868e-01
3.485733584054802048e-01
4.425410693657881589e-02
-1.639488688209504996e-01
-1.643810263834146745e-01
-1.006531773827992193e-01
2.407160316959097365e-02
3.172948644004916496e-02
1.530915493212153984e-02
4.769220865962052469e-02
-1.264227668658573778e-01
-2.227720077989543690e-01
-2.834841754382279588e-01
-2.329455320429824894e-01
-6.821231536534916838e-03
-8.859616057653665888e-02
-2.177382688203967076e-01
-2.599223514671466367e-02
1.343979318133258494e-01
1.694868641557744637e-01
-4.721281497540825295e-03
4.727737450479417569e-02
1.088387878480013976e-01
-2.410708258904009360e-01
-8.414179142182909299e-02
-1.644200303229012006e-01
-1.002790562617068837e-01
7.994904752629721292e-03
2.218158661802668505e-02
1.092434153503488159e-02
-1.687565334112142157e-01
-3.218495269468744646e-01
-1.137067588499550419e-01
-2.204083039082905052e-02
-2.450709018070808820e-01
-6.877126389173091048e-02
2.947278286437710060e-01
5.322138940273944963e-01
3.518846772433582570e-01
3.232237669257199790e-03
-9.662068539010326695e-02
-2.567695257847035437e-03
4.227028062865945679e-01
2.185965678727548600e-02
4.256486410112262503e-02
-8.647378628645464860e-02
-8.563109864776680125e-02
-2.726347703518073803e-02
7.042755328769326195e-02
6.677110967039535244e-03
-4.562925533061289174e-02
-2.190175932370237999e-01
-9.448667131186749835e-02
-1.943605103010836721e-01
-1.995137605697110961e-01
2.249668406011286481e-01
4.131935051560227667e-01
2.288447928431149025e-01
-1.134866596171141134e-01
-1.294280193099336673e-01
1.956668899413242400e-04
-1.724664780935989544e-02
1.858997073614595819e-01
-9.068775480070682266e-03
1.751654954784923335e-01
-5.817001969448077486e-02
-6.848761611178146025e-02
-3.726702786070185819e-02
4.484357216686183506e-02
2.058782916950587308e-02
-1.545333306030712839e-01
4.735641296777828510e-03
-3.280719836146311907e-02
1.200371162524613289e-01
1.362213458957589329e-01
3.131683573851916647e-01
3.687397267242120691e-02
-1.897090799854108875e-02
-7.530122244560541467e-02
-5.757432495043443010e-01
-5.849176442803245557e-01
-4.143307033726317812e-01
-1.076595163000020478e-01
-1.667299077161142340e-01
5.151770701399417396e-01
-8.394374632162583671e-02
-3.327826122019762745e-02
-5.780881917459506497e-02
3.678354772952355245e-02
-6.733499100626270939e-02
-1.298187619402521309e-01
1.576823062421141286e-01
1.016226593513599036e-01
2.523158957824728210e-01
3.142464177692584348e-01
1.841800641341914124e-01
8.286764864726527124e-02
-3.565425722447120305e-01
-8.435961212117547570e-01
-1.013169366929403514e+00
-5.275613658250147830e-01
-9.030807723012712618e-02
-2.954556015488386533e-01
2.049362013817145056e-01
5.226139117761957609e-01
-5.721477392612833723e-02
-1.126284902017473805e-01
-3.384003931631658635e-02
-6.414200575447745120e-03
4.015217217472604773e-03
-2.516034303836166552e-01
1.269966049892894688e-01
2.922946368621184288e-01
1.693836203621392478e-01
-9.557580142625425601e-02
-1.083553161568080181e-01
-5.973067176419703805e-02
-4.971438605447849879e-01
-7.682920321770057015e-01
-6.823317012149434646e-01
-1.669685364055740473e-01
-5.000987442820263584e-02
-1.352563254731815323e-01
1.164306051767210332e-01
-1.241012977588520222e-02
-1.781700828252322788e-01
-9.263229623432121806e-02
-2.361191088598295004e-02
-1.142258228808993442e-02
-9.047342695320453876e-02
-1.868159192330820784e-01
-4.084454269412095273e-02
3.886430942713132303e-02
3.903896945274725611e-02
-4.006008487304943411e-02
2.186773299183298602e-01
2.404547252386118328e-01
1.283158929608842896e-02
-2.907201303520201008e-01
-2.214901506867648917e-01
2.405834179380508808e-01
-8.195757620823244938e-03
-3.031902826255418737e-01
-6.467279108701050605e-01
-6.077731630471409213e-02
-7.858744168879874814e-02
-6.884820674462198420e-02
3.286527825094289618e-02
-8.494734785055579884e-03
2.489335588767279880e-02
-7.582567091498483569e-02
2.707403177248103934e-02
3.277665124394778945e-02
1.667388138386457219e-01
2.782692941964011180e-01
4.435947131306193780e-01
1.671028907727762081e-01
1.902095903857514703e-02
1.627838813213781238e-02
-1.270891276766202005e-02
-8.195600958926380075e-03
-1.510176816451194448e-01
-5.728112076681883824e-01
-3.461663490749617988e-01
3.750161466061231047e-02
-1.939382197582784420e-02
6.590020291516522979e-03
1.220888666299907270e-02
-2.078180199848845416e-02
9.722144281950316231e-04
-1.202115541018933670e-01
-5.311257829717089957e-03
-5.299083093604609052e-02
-2.112893846237940965e-01
-4.036977657621976245e-01
-2.108588809946297660e-01
6.727513806759951448e-03
-3.423168674110447368e-02
-3.299317622004174777e-02
4.167965729195057673e-02
5.445215338803448268e-02
-3.395661975112873598e-03
-4.581399417723963086e-01
-1.387030858452888149e-01
-5.382432516690634910e-02
-9.438148039833765823e-02
-1.057637370772577731e-02
3.501300008388541496e-02
1.075568859377218529e-02
-2.017137231019239252e-02
-1.611893217660431699e-01
-9.903260118017971625e-02
6.232630525124741722e-02
-1.934670305558712777e-01
-1.544036763304266202e-01
9.398623201556553786e-02
7.054969017964410338e-02
5.857396412551926779e-02
1.413713213767499310e-01
6.879937632097665734e-02
2.533549286206383533e-01
1.084837073690045339e-01
-1.365671469617626699e-01
-1.299489428416195358e-01
-1.823513665289520219e-02
1.066209010742214941e-01
2.084947297395817190e-02
-6.598382493748751812e-03
1.504827906526298373e-02
2.427104741466399110e-02
-7.928592987735188710e-03
-6.357534962389841185e-03
-5.825563619440389355e-03
-2.856448858951838449e-02
-3.465380312952255626e-02
2.916273864066283306e-01
1.989630789986450710e-01
2.348214142196456133e-01
3.012234735052972678e-01
1.110738883351753831e-01
4.430995982121654908e-02
1.536605599778355542e-02
-1.343885292761040906e-01
-8.931287934659438987e-02
-2.995387913214458964e-02
5.591031696221965275e-02
4.291068517211207769e-04
1.735055673190186165e-02
-2.213001397365390449e-02
1.683827589858949078e-02
1.983729740605412115e-02
-1.625146398780363821e-02
-6.138888191151697232e-02
-7.328737929150681840e-02
1.208953420293379724e-02
5.492518939097913722e-02
5.146878115208673721e-02
1.096564388464823653e-01
4.595650533023262069e-02
1.322915482084753569e-01
9.818023345411820701e-02
2.404129034263706097e-02
-2.456554727094991883e-02
-2.274306959421274008e-03
1.345725577444509963e-02
1.610420232970653440e-02
-1.950484105242230454e-02
4.430472322296537258e-02
8.667445730581644844e-03
4.178671318781339988e-02
2.735143227835029611e-02
1.878019397449578673e-02
2.269039470040521561e-02
-9.949192104956175453e-02
-3.224705462252987209e-02
1.420543153142407589e-01
2.300350540849038783e-02
4.253145695806431065e-02
2.846725733583807885e-02
-3.044621856348651671e-03
3.614911666375385940e-02
-4.962901594457010124e-03
-1.214417216597853122e-02
2.470117797607663049e-02
5.099426013108891015e-02
3.593479994018484308e-02
-2.469135107654963496e-02
9.347382035226776964e-02
-8.889749921659155854e-03
5.221948971761385463e-03
1.951564535318674881e-02
-1.212419080244428113e-02
-1.004336644058408459e-02
2.223520438642353700e-02
6.925119550695207730e-03
4.920961245304810577e-02
-3.209867112142280633e-03
6.015568937738512839e-02
5.923865186521619364e-02
-2.086767149764475610e-02
7.299715101274875662e-03
5.191809254393953826e-02
-5.625550760938567707e-02
3.365177476381056142e-03
-4.983504492336183686e-03
3.452114920026742168e-02
-1.398060099076942064e-02
1.259488857979204797e-02
-3.237895783876399425e-01
-3.520886252245846912e-04
-1.303973451825895039e-02
4.395015158828806390e-02
2.361193096463594029e-02
5.585838227393972316e-02
-1.832001775777567995e-02
1.536659904716392890e-02
-2.493279902145547483e-02
-2.133389945795780007e-02
2.636928968450126184e-02
3.582781437882394393e-02
2.293790400066525459e-02
-5.328881025811570485e-03
-1.476923412171237543e-02
-6.751844171472959864e-04
2.697181933016050762e-02
-1.713883084994355334e-03
-4.662341838831354779e-02
1.868883953819119870e-02
2.369350369034553191e-02
9.327198409172001922e-03
-1.314612543592350198e-02
6.682128170397083448e-03
-7.118726900884848408e-04
2.422144823611098452e-02
2.311113761976063899e-02
3.390408597230888665e-02
1.786827379971403229e-01
9.547641734657687229e-02
4.458966235310561632e-02
6.083815057172791557e-02
-2.804152022675208966e-02
3.785984838172487630e-03
6.741593440572822560e-02
8.364244904695855576e-02
5.737137357933967848e-03
1.995172181215041154e-02
2.345639714481488267e-02
7.784447916504039222e-03
3.375696335161561951e-02
5.202577576489756522e-02
1.919414539619599888e-02
-2.896624785778757413e-02
1.170372167492884918e-02
-2.449868181533747355e-04
1.998140627790771090e-02
1.190179065920483892e-01
3.659306958088833772e-01
3.034565298682753154e-01
1.399658700143771861e-01
-4.665353630536986373e-02
-3.322148222269905721e-02
-1.007531927426841556e-01
-1.225364498220784387e-01
-1.182684332990542320e-01
-6.712332750796223824e-02
-4.315611640219544493e-02
-7.868913044365641318e-02
1.086326874885237652e-02
5.792823277479297898e-04
2.978817428211599783e-02
5.632124790020862082e-02
1.746925867210621323e-03
1.764214437549156342e-02
2.803572209477497509e-02
8.689165506461452027e-02
1.755600380822627815e-01
1.381638730739042920e-01
-1.629050948845005009e-01
-2.663471432498218383e-01
-1.347520408446278573e-01
1.083552151744467812e-01
1.626235293893681100e-02
-2.977981253792977290e-01
-5.543133032612299615e-01
-2.962479872577136186e-01
-1.455107764566498096e-01
-1.185361879543798125e-01
3.012941503888956485e-02
6.315380399087101859e-02
2.117812870408875003e-02
-2.634800449119004129e-02
-2.469718846731042573e-03
-4.826428833253391948e-02
2.144629306634020238e-02
2.972192138631288283e-01
6.510730500859331082e-02
-1.399957293572155759e-01
-2.552128179373633343e-01
-4.185837250921622954e-01
-7.872009944991556485e-02
1.079952620570138050e-01
2.415226220373984378e-01
1.585695293286409624e-01
-5.505892435933594786e-01
-4.476065260815768609e-01
-8.488922410937251029e-02
1.525087134396995760e-02
1.177851259347361818e-01
-3.083155267490281584e-02
5.194031602456052749e-02
-5.585961766673534952e-03
3.221996690371238883e-03
-1.512956734554371241e-01
-1.741292568076190095e-01
-6.420970961650904196e-02
-3.052948933648583218e-01
-1.492319836210969364e-01
-2.410751393747730814e-02
-1.399092867424472919e-01
-4.856611785760232003e-01
-3.516209367917483286e-01
3.638929257658989579e-03
3.131282461856624288e-01
-1.034152907219858808e-01
-1.952503087680681482e-01
9.303739939097828426e-02
3.860893853585303792e-02
2.341597773340960420e-01
5.403581065238878545e-02
5.949699865819879641e-02
3.234895339878371412e-02
1.026563068926213650e-02
-1.524991779529948077e-01
-2.298119733089198924e-01
2.238180995150223229e-01
1.741039578092606621e-01
-3.656606766404528752e-01
-2.767508877142505486e-01
1.313112823048211975e-01
-2.956162393213383408e-02
-5.738268460202315957e-01
-6.330147464669677593e-01
-1.660954549556266369e-01
1.948030744750199328e-01
7.077298178745156099e-02
1.313177680930487368e-01
-3.424857827610141014e-01
-8.146931957938056967e-02
2.547059377583529849e-02
-4.133260051257076767e-02
3.787479661428176658e-02
-6.573690049164943039e-02
-1.177168173533095497e-01
-1.529324502349039550e-01
-2.570079038964595552e-01
-4.032260478374118384e-01
-2.634423895663643433e-01
1.074067221329917943e-01
-5.581615708563934797e-02
5.280112013916193892e-01
-2.545503850289400072e-01
-7.612381208809297639e-02
-2.191118923824910206e-02
1.835559677078480723e-01
-2.074639155205162122e-01
-3.188325450731674393e-02
-2.702214284349365725e-01
-1.836156921364789918e-01
-1.009838202391346446e-02
1.337456548416070604e-02
-2.940122719767483683e-02
-1.756694797204895742e-01
-2.557625635235371564e-01
-5.710836912827641498e-01
-2.849232583781464712e-01
3.382944328802994227e-01
2.414440636120143147e-01
1.281803782348586163e-01
-2.858517230768307660e-01
2.442342475751244357e-01
-2.060495616384434847e-02
2.440986826682035038e-01
4.009560812988766793e-02
1.415466913073565036e-01
3.367728464514523345e-01
3.361511943855115536e-01
3.844016564226865329e-02
1.290842752467322441e-01
-4.641515965762833817e-02
1.474227523404492146e-02
-9.533336980758097545e-02
-2.358570289985050805e-01
-5.515068074957311106e-01
-2.190262766834963903e-01
6.801292451253627691e-01
2.182556617163401713e-01
-1.018128706916688608e-01
-2.838404043321126613e-01
-1.811107642799500428e-01
2.276548963807628612e-01
-3.576643983830792850e-01
-8.594140262022831322e-02
2.346494708716301281e-01
-2.117759829794796378e-02
-4.769696705080418986e-01
-1.737007514756039317e-01
-1.522868632160079283e-01
3.775599631471195372e-01
6.453318254430251422e-02
2.198380868972027447e-02
2.901522081132262496e-03
-1.220536307532748693e-01
-5.459262039961896296e-01
-2.263724044164808491e-01
2.105285818074200954e-01
-5.811287463458685021e-02
1.642661730366549444e-01
-1.935726404056753169e-01
-2.531653040930962884e-01
-9.331854009673852535e-03
8.773254445225063536e-02
8.833056015338057454e-02
4.588021949838669983e-02
-6.464198274716129733e-01
-3.270259400465627131e-01
7.483215919967672880e-02
6.125417379621597019e-02
2.206808352958440356e-01
-2.561420653355097124e-02
9.750605632707985693e-03
-5.611732125439534286e-02
4.128213191674983545e-02
-5.643879653452208434e-01
-1.762084213400758603e-01
5.845886372652966401e-01
4.328580064719053655e-01
6.849917879218079264e-01
-8.863102985232218511e-02
-2.047285305369495878e-01
-1.219654776054754503e-01
1.132962503382474173e-01
3.814806619396325371e-01
-2.836415341858974926e-01
-3.772904385229917112e-01
-1.363281419774303727e-01
-2.962814417583856108e-01
-1.191841347885784635e-01
1.783028397943112464e-01
2.028334430230581756e-02
4.397704482699700199e-03
3.174587257764621261e-03
-2.074048969226305605e-01
-8.183800979367796824e-01
1.153830004835797313e-01
2.918102347657856588e-01
4.280155819187778099e-01
2.856157718068330076e-01
-4.630189045078939025e-01
-7.761846287683163981e-01
-1.260019672091746215e-03
6.489282714355013582e-01
2.456356621761008607e-01
1.695991003152076126e-01
2.243272056075631404e-01
-3.949735098209524176e-01
-6.442519825172395853e-01
-2.061338717409010313e-01
3.787101032699267122e-01
7.552187598925824696e-02
-3.185208536787666102e-03
6.891807803440756774e-02
3.691106179648551838e-02
-3.681137627992789318e-01
9.923320029889047544e-02
2.609579321644305283e-01
6.087543150814461734e-01
3.756836869837361648e-01
-4.790068461927333709e-01
-7.576196263079644222e-01
1.079817137990674025e-01
4.192039953243002492e-01
-2.136500279386049084e-01
-3.860191044459839738e-01
-4.443113911223118828e-01
-5.582175606903149179e-01
-5.523660175621831758e-01
-3.535243346299163369e-01
-3.086486880637838090e-02
3.821490017814649365e-02
2.799902231094773125e-02
4.936167748096108310e-02
-1.461857242006334157e-01
-3.783094421285475573e-01
-2.006145823871345948e-02
3.292805617007993346e-01
1.840189317411576875e-01
2.176269595359932862e-01
-3.652150225580598208e-01
-5.480021939821614341e-01
-6.022745740872923470e-01
-5.909713180071742844e-01
-7.358388960309135696e-01
-6.261091797798197245e-01
-7.276496766179265663e-01
-2.974571721981905670e-01
-2.436885532784359987e-01
-1.439787513783757633e-01
-5.909861678833937260e-02
-5.785961991948695982e-04
-6.210744209455632339e-03
4.592062965252866752e-02
-1.305156238271607261e-01
1.135531229669344694e-01
2.306262664176557675e-01
5.025010971335558407e-01
2.285957122143533471e-01
1.475498898148374372e-01
-1.129407072039112503e-01
-4.370330692604207368e-01
-6.416185386150445868e-01
-3.184420760587802768e-01
-3.221658042027617519e-01
-4.196973809098371588e-01
-4.257007275055045281e-01
-1.761663695604399893e-01
-1.485065888436361281e-01
-3.083307903963750443e-02
-3.883123327374352063e-03
-1.136898547127433365e-02
2.879240582207203900e-02
-1.282505450120986421e-02
-1.002781830806047728e-02
3.205482691860070399e-01
1.361925472326991904e-01
9.900537975566471582e-02
-2.117255258157273515e-02
1.969294336824731553e-02
1.461244616362460946e-01
-3.378274890418607734e-01
-4.972046114548342444e-01
-2.725089182161737345e-01
-3.876113865754716170e-01
-3.870648723861598306e-01
-3.039556845931744578e-01
-8.778334687204801534e-02
-5.027952296883024530e-02
-3.542194497617012078e-02
-4.257222917060537321e-02
2.974472392681928520e-02
-4.288274697129816626e-02
-3.526568946015517982e-03
1.053216909660089490e-01
1.373560248364713021e-01
7.064685962448764150e-05
1.123120667914696419e-01
4.275784458336501781e-01
5.919528101977834522e-01
2.547472549539772646e-01
-2.160412012569568885e-01
-1.425202641530551873e-01
-2.246361229194752951e-01
-3.492553658166394071e-01
-2.292457918628016400e-01
-8.061050097288870175e-02
-3.292172079683233863e-03
2.967147203305743261e-02
3.594120759668857634e-02
-5.008031910028157285e-02
-2.988818462939146076e-02
2.828110413962598574e-02
-2.034803455792338206e-02
4.585091991505307191e-02
5.813045773762220286e-02
1.526015830751683011e-01
9.914010652783798727e-02
2.768890772392467170e-01
3.726045434973588866e-01
2.084835360764434875e-01
7.021863597996062800e-02
7.724538696837991714e-02
-7.308142571150737232e-02
-5.011930531061466881e-02
-4.846146590495691714e-02
3.564294532574898214e-03
-4.118716739426189072e-02
-6.944947008034545177e-03
9.928094460818518915e-03
2.129629296179251854e-02
1.417222236988729608e-02
1.555467343969627915e-02
1.559139553588984733e-02
-4.940761292924547576e-03
-1.353848682694965000e-02
4.854221170836196114e-02
2.162963876040719172e-02
5.246906013237987582e-02
-6.566666939049740914e-02
4.484969706026698151e-03
3.853446294851475828e-02
-2.995687433787537490e-02
-1.914723506805073722e-03
2.011939363263792399e-02
4.109351356171935671e-02
2.126806630998765574e-02
3.018297061309491158e-02
1.862576576995170945e-03
-1.097121834893424307e-03
6.132106422544079949e-02
-7.581273278521960188e-03
-1.589286306476852983e+00
1.726812503637167526e-02
6.188643055447588977e-03
5.366692323486740163e-02
-1.109618844709292160e-02
-1.302229850711575029e-02
4.821300541480872531e-02
-2.986190157709405976e-02
-4.617950775467533943e-03
-1.148092563151013878e-02
-7.779279479644384812e-04
7.749219785751151890e-02
1.701160357390111080e-02
1.448691224518076394e-02
-6.736188512429916637e-05
8.738935304044591346e-02
-9.745731207829851084e-03
5.240899773366803141e-03
6.758280383555466397e-02
-4.223825467776271339e-03
3.725930192804262353e-02
6.651058607690477076e-02
3.362267094399135070e-02
8.516649490534676514e-03
-4.342106755615370711e-02
3.769370895946033695e-02
-3.361602442418782592e-03
-2.049323493629191112e-02
-5.934083384275292555e-02
3.086243512365441713e-02
1.810056139047945545e-02
2.324939084721817234e-02
7.782173796554109346e-02
1.735561612840727519e-01
-1.329875363429579571e-01
-1.129448542408642564e-01
3.709001300808652951e-02
-7.490160662795289186e-03
5.714873654313615964e-02
-1.747905583487576256e-02
-1.794372633212545226e-02
-3.315840524732657085e-02
2.145212121621068238e-02
-1.325856706834571339e-02
8.333549797336232967e-02
2.422815780993582968e-01
3.685636003454392795e-01
1.754618083204701751e-01
-7.444223244824015040e-02
-1.538177970155198693e-01
-5.860258092083437537e-02
1.614865730189421131e-02
-3.618028478609715964e-02
2.957061929167555947e-01
4.426855792972281822e-01
4.975421438539837649e-01
1.639298916987966814e-01
1.208872079510566466e-01
4.582089210526923417e-01
-9.069697553441781815e-03
1.239319179062605900e-02
-1.221398719355590995e-03
1.900177564538984968e-04
-5.707508286106824022e-03
2.170809806536805886e-01
4.110228539416611593e-01
1.225537187260403588e-01
1.014929556438184804e-01
-2.636039493298615866e-01
-7.734731135288419601e-01
-2.929415693211599447e-01
-1.052550816866770211e-01
-4.088961188414628189e-01
3.544142599840394148e-01
4.310674703955357789e-01
4.009977539471187846e-01
-3.263311023887963680e-01
1.514542221743101214e-01
7.141486236908202168e-01
1.106055697030655927e-01
2.399844500284825308e-02
3.781144705314734566e-02
-2.690513073941636774e-02
-3.600739790197774598e-02
4.009069636066320275e-01
1.187478481180196166e+00
3.587938929044185432e-01
1.469001431954544412e-01
3.813934125218790272e-01
-2.935392986519072545e-01
-4.284205404970106157e-01
-4.214110827888547517e-01
-9.984460563661978760e-01
-5.998044694864150816e-01
-2.059785335180622512e-01
1.969776363563960631e-01
-1.577048882701777288e-01
-1.982596541647904942e-01
6.349245496221942453e-01
5.757325487336851372e-02
9.461836731686918897e-03
-2.413822342865348455e-02
-1.988575979730191831e-02
-4.749357637443118313e-02
6.124926211367195394e-01
9.550057132695862760e-01
3.894163197528450748e-01
-7.676567173666283550e-02
1.160471765986208631e-01
-4.739591395421208220e-01
-7.023435550915128889e-02
-6.685717617768969223e-01
-8.078725474848753585e-01
-2.073647319196867400e-01
-3.345016221038674131e-01
1.954049319484234826e-01
-1.002027929964215136e-01
-8.037276876200544207e-02
5.731561841265974122e-01
6.304816266710805417e-02
2.214310684182439152e-03
-1.281643051809692319e-02
2.911540776602369006e-03
6.659379419628366770e-02
-7.558546741484871434e-02
3.594305861375794442e-01
-4.767696946674738756e-01
-5.945053271226556912e-01
-2.964145882518630093e-01
-6.477798397904547256e-01
-3.751042563435172394e-02
2.547867367445615372e-01
-4.628922860210388790e-01
-4.362226759685224886e-01
-1.788601954081582290e-01
-3.961426436425603548e-01
-1.111039174616487712e-01
5.251772375888037470e-01
-1.009098096784204479e-01
1.245979722876862372e-01
-6.230909034839680373e-03
4.084088451403898785e-04
4.586076784668863954e-02
-1.346973659776839194e-01
-1.092082525818319355e-01
8.174179709530712268e-01
1.775853173501292792e-01
-1.293556371403822847e-01
-8.449008949884301289e-01
-2.157034831879185155e-01
-7.709640796791845940e-02
-4.032914234464651804e-01
-7.594698585877279751e-01
-1.085698913030304080e+00
-3.800827159062961091e-01
-6.510464397969654149e-01
-1.471020217412858377e-01
2.982628332332659844e-03
-1.212827197896535619e-01
5.243825952473831764e-01
-5.254965782183484285e-02
3.974428617740230485e-02
-6.009870472625330855e-03
-1.963477722917195689e-01
-5.104176673469585507e-02
-3.575434145845392542e-01
-3.703344262294601119e-01
-4.915395175634557079e-01
-4.999879138580930471e-01
-3.782313494496030715e-01
-4.745363789235901852e-01
-5.078285561530004877e-01
-3.776432618553333953e-02
-7.552194771497251768e-02
-3.474379241737332591e-01
-1.039867613741614766e-01
-1.297967399562554580e-01
-2.460030862950970121e-01
-8.614953896703882175e-02
3.830045625455492098e-01
-1.029954315391384129e-01
-2.974908697283870987e-02
-2.233793699671426589e-02
2.438114102769799452e-01
9.201175673493448004e-01
1.496886730960459710e-01
-7.373595387068783424e-03
5.009133528901861254e-01
-4.306402611695629434e-01
-2.337617544171296247e-01
5.749639332860254637e-01
2.596364349087524892e-01
6.848734037976232925e-01
-6.964560903440621120e-02
2.330757879622990907e-03
1.804280185048249274e-01
-8.604880571533713995e-01
-2.863285804906737231e-01
1.779778479231887145e-01
7.497422637870057582e-02
-8.586823227538499526e-02
4.574217014653463552e-03
-5.496205934680980371e-02
-1.504016480155063729e-01
8.839502139161331540e-02
-4.268497567742793319e-01
1.179124787699132454e-01
3.111779410004704705e-01
1.035925566394207964e-01
8.197562571562790890e-01
6.870333104933310508e-01
5.988550393462936938e-01
1.915464310167351303e-01
-7.946979171119721297e-01
3.356748178728350962e-01
5.343033596843939081e-01
6.074181245123287942e-01
5.663377982699494689e-02
-3.299144448945064978e-01
-1.796908346757752073e-01
-4.214000585869164678e-02
7.773778622026876473e-03
-3.156927919003706118e-02
-2.559865001053507338e-01
2.610403967492392341e-01
1.120365116169450698e-03
1.657621683528159862e-01
3.906037039522867738e-01
1.324337693113962322e+00
7.588981353279176112e-01
1.895846057887537461e-01
3.541172642171082630e-01
-1.361303420475955261e-01
-4.345423898722352574e-01
3.666641966872666303e-01
2.214630827880019470e-01
4.055774617328453679e-01
1.128270819035669392e-01
-7.410167302480283880e-01
-3.666638670424198776e-01
3.389570373652830287e-02
3.528609603163479925e-03
8.291121947295726491e-02
2.869813594856385763e-01
-6.306382534160636100e-01
-3.848711703611559787e-01
-2.190630491895144416e-01
-3.047071246896850272e-01
2.152778785669113848e-01
4.495344953793383724e-01
5.678795144215127433e-01
-2.061853016298551278e-01
-3.251408329995272295e-01
-3.162447987715940045e-01
-1.758519041113579540e-01
-1.511920855055823021e-01
6.513946268128237849e-01
4.114232920148971351e-01
-7.011013905899519949e-02
-1.281189076805281102e-01
1.005946439933802505e-01
4.357478678016468016e-02
-1.773814599158416100e-03
2.392318421917499216e-01
4.283759657869187776e-02
5.122054965110375280e-01
3.418780543350331547e-01
3.873305327519424579e-01
2.934017808437207053e-01
4.829208501669897124e-01
-1.866784256006270848e-01
1.657645467884943935e-01
-2.562018388915186795e-02
2.576675004322951379e-01
2.168024259594628078e-01
4.766046708028162660e-01
3.812947218208677658e-01
-8.481124866005493312e-02
2.719628542861108333e-01
3.429302803854027137e-02
1.771929867670982428e-01
-2.159347558517716106e-02
3.305625879145432378e-02
3.008059919760538437e-01
-2.011086424239309223e-01
-5.259712528606496074e-01
-1.880949835309169427e-01
3.200468400166359140e-01
-1.011856786318831442e-01
1.514812909537275876e-01
6.620767575054878340e-02
2.120165998765341508e-01
-5.659360999577495166e-01
-5.303347059691430054e-01
-3.443899659838209892e-01
4.184595409283677347e-01
-5.961506068477128578e-02
2.324206494637713061e-01
-9.266162255202395337e-02
2.265796590082821693e-01
2.423038487631332671e-01
8.548158229858110121e-03
3.329161437681769226e-02
1.312367533922271512e-01
-3.743722349929966553e-01
-4.937181081656568105e-01
-1.419695091470097870e-01
4.861024236215222838e-01
9.517390061707274584e-02
-1.924778745689048609e-01
3.474010927555690187e-02
-8.573067791692333406e-02
-3.296622692506814278e-01
-1.092683364716857258e-01
2.802981270472559849e-01
4.037501442461355894e-01
2.535373450224647288e-02
-1.972066371342100222e-01
3.000878039182891532e-01
2.809856552648724026e-01
1.656820198437018374e-02
3.680628447694101607e-02
-2.907000207655467683e-02
3.514826145957331005e-02
-7.457986110221669074e-02
-7.932693377708872895e-02
-4.871799834436814081e-01
-3.420583437168520091e-01
-3.976875760320184305e-01
-2.022537102099240536e-01
-1.629085837021368444e-01
-2.948322984296829555e-02
8.275819081476225303e-03
-2.944674901258396149e-01
-4.986807498929194948e-01
-1.811588029775323405e-01
-2.178220656289108492e-01
1.697548100378878377e-01
3.249631428524381582e-01
1.196493064735543732e-01
-1.187102351615261508e-02
-2.501207206113264039e-02
-3.208265241684854496e-02
3.772796026360290822e-04
7.432872094202648550e-02
-2.600757227908737090e-01
-6.647980388901598703e-01
-5.721019224184887841e-01
-4.668623769556127789e-01
-3.007410045273891663e-01
-1.750596318850925481e-01
-3.931572869558240015e-03
1.883917484587219193e-01
-2.070930216159107967e-02
-1.502976535279364027e-02
2.159275668979652174e-01
1.157600139211196338e-03
4.987052950524130390e-02
2.482398493570490278e-02
3.690381432027458469e-02
1.625260818214617833e-02
3.274918368008807382e-03
5.062607438391114427e-03
7.938193291493091455e-03
-1.241050726824862033e-01
-1.825371951167621409e-01
-8.651483859659402087e-02
-1.595304144348290432e-01
-8.952522223860242059e-03
4.929431136708112456e-03
-1.020889593603535421e-02
-7.870274948421750183e-02
5.031945675420609887e-02
-5.748838831300320806e-02
-9.479153752948006606e-02
2.623517955851103686e-02
2.087782647428975125e-01
4.171516844422452214e-02
-3.356495092605499969e-02
-2.252292138730211529e-02
4.828368026518389811e-02
4.247220501490602679e-02
-1.909589236810799520e-02
1.068402237407968698e-02
-2.719930699392184535e-03
1.490771650240643384e-02
2.246714629409912387e-02
-8.398088423554073492e-03
3.594138610096294512e-02
5.692356063586895710e-04
-1.994538721721700672e-02
4.710165907641742505e-02
-2.606430515967405465e-02
-2.551255178758369407e-02
2.930346220712387248e-02
1.552497158287968401e-02
-1.779097402779089565e-02
-4.846121130575125474e-03
3.610158305616340685e-02
-2.828046906870671732e-03
2.890528099863735184e-02
-2.698681144117677788e-01
2.358832450511365308e-02
-4.679480770017580005e-02
4.762372130564949263e-02
1.753578456370698604e-02
3.938010792470927890e-03
3.311182020461635178e-02
1.783887490778389082e-02
3.614363027390444724e-03
6.960774176386584633e-02
3.587634954018720235e-02
2.201342283000230424e-02
3.393716291649470640e-02
2.933047877633005243e-02
4.615418230381362202e-02
1.769513994017814923e-02
2.515829734057523342e-03
4.856748452799670296e-02
-9.833354277860381285e-03
1.659089253391846791e-02
3.080762384573674378e-02
-5.087126040544692578e-03
7.503386808445377393e-03
3.318585302549288685e-02
1.324276867098876133e-02
4.294629198103091378e-02
-3.364519948300288832e-02
2.945881984836243306e-02
2.517834205981000530e-03
2.958314817890953657e-02
6.114906658455009081e-02
5.722172861090341067e-02
2.830758898999122947e-02
5.424020152734133904e-02
2.286211769242474032e-02
2.098083038514843377e-03
-2.319977056158169671e-03
2.225626411556079834e-02
-3.259135104037949593e-02
-1.545137321838175280e-03
1.599637284136693968e-02
2.207678761312305282e-02
-3.097657688452797129e-03
4.960157360844168542e-03
1.948390934026820315e-02
3.143293516889384548e-02
-2.594390079363621815e-03
-5.844373740630381259e-02
-1.119457342752710471e-01
-8.426140267886103596e-02
5.807683226048731412e-02
7.719438373981786505e-02
5.813416683514524997e-04
-4.651581841846736537e-02
-7.711295233831197415e-02
-1.574105743999336740e-02
-1.352057701136583773e-02
6.693711118069916016e-04
-1.581963294767645134e-02
1.163821896166373875e-02
2.197512874162903566e-04
2.903022683208351246e-02
6.373296417991923535e-02
-8.228705655164356148e-03
-3.675197254924002926e-02
-6.272988108110852390e-02
-1.131879638021286300e-01
-1.049334994601938686e-01
-1.844810017907108357e-01
-1.565446390225454509e-01
3.050144250128494598e-03
8.418307310712346003e-02
1.911763350949565454e-01
-3.578060056571520653e-02
-8.523608821779628253e-02
-1.170776174248014112e-01
-8.927404000027824860e-02
-6.045344055698087526e-02
-8.797669334005874323e-03
2.156977956467502622e-02
3.487834564171995305e-02
3.699326207776240660e-02
-3.006274200081242992e-02
2.672172677141768093e-02
-1.261644956509927473e-01
-2.002148947802131485e-01
-1.005044789235359365e-01
-1.935135540533106102e-01
-1.974333870545921521e-01
1.534533464829997695e-01
7.119556272750059145e-02
1.322837121112207803e-01
5.178508072323871891e-01
2.351310300922528351e-01
1.084586681582589279e-01
-1.447444598152109740e-01
-3.116015285643728983e-01
-2.507606761778283788e-01
-7.760028257148739173e-02
-2.194346672008924692e-02
2.130378890005966974e-02
2.627910725076672976e-02
3.117205148886252955e-02
-4.499203122237832933e-03
-9.843124925389956648e-02
-1.055582055963433519e-01
-2.126751304900944273e-01
-3.343223240797218998e-02
2.706584888012117940e-01
4.591209397049488272e-01
3.327141614662600944e-01
9.643131381088131115e-02
4.635991022312678234e-01
3.686293618037643771e-01
1.721290931953607661e-01
7.653459489522496106e-02
-3.807273916756366838e-01
-3.408848001883595935e-01
-1.752826226668738885e-01
-3.559562971332843467e-02
-2.564629711537800595e-03
1.539882257224964301e-02
4.183514061322939070e-02
-2.070694011243176189e-02
-2.060827682906258007e-01
-1.336154733460357125e-01
-4.716003484467201461e-03
2.179582296970878352e-01
1.107890691145026751e-01
5.746429467045315320e-01
5.929916945019553243e-01
2.543053601949973319e-01
5.736707746639401195e-01
2.970818705537277005e-01
4.412383499563488770e-02
3.571640418682611035e-02
-3.132577058284511384e-01
-1.610445606255380413e-01
-6.614776517299653102e-02
-2.404344554668548170e-02
4.970499838283339716e-02
6.231733393873799265e-02
-3.936721023605060238e-02
-1.514175539236986556e-01
-2.265018400423947920e-01
8.240432441517486772e-02
3.562154113214354711e-01
4.289985080733766387e-01
4.444574371472413410e-01
5.224179621279960717e-01
3.775392996269955614e-01
-4.079653323587569685e-02
4.908110566654206447e-02
-3.684406193996289103e-01
-2.279763095663548678e-01
-9.547878416022144432e-02
-2.838848968037706033e-01
-2.438011750626320195e-01
4.435786247744208551e-03
-1.400993898852181674e-01
-4.286232195053301525e-02
-3.798633488161042883e-03
-4.376376153586866019e-02
-2.012314269430286184e-01
7.698007546032106796e-02
3.531309793624242688e-01
8.305733215293180371e-02
2.384143234918901372e-02
-1.056866238097003280e-01
-8.445832732190056147e-02
-4.774237674659231184e-02
-4.602682541174388797e-01
-1.207816155329781288e-01
-4.147200469018576530e-01
-5.475067302221406917e-01
-6.220598861732909990e-01
-5.108125028952621438e-01
-2.423515656351121761e-01
1.255437840147304585e-01
-9.408473458029414926e-02
-4.978924677589050690e-02
1.499817470024653390e-02
-8.674770404317198869e-02
-3.507929510911839688e-01
-2.216583496774967299e-01
6.664938003311708659e-02
-1.986219830309045309e-01
-6.249421493557776319e-01
-3.991527347852571461e-01
-2.705300358365291258e-01
-2.897588860740120120e-01
-2.312374026998297305e-01
-2.568695613787399523e-01
-5.578794095223368332e-01
-4.922740157024917407e-01
-4.999470926831119377e-01
-1.427265182369663044e-01
3.299270585154479019e-01
2.212319768935294695e-01
-1.070728556146672145e-01
-2.187509582180235598e-02
9.308334213965092918e-02
-5.231019091975926127e-02
-3.175654730223659294e-01
-8.245021109314962238e-02
7.493267795326573333e-02
-1.813717209521620022e-01
-1.573989117786713243e-01
4.532998982462652093e-02
-1.107130582157532170e-02
-5.412351067767889878e-01
-3.262518318294115871e-01
-5.088320554016532160e-01
-4.078441279388406171e-01
1.623696067661201670e-01
-1.694466269822429150e-01
-4.185215470228065976e-02
3.615518761252501934e-01
2.053023684848411523e-01
-6.220276846883153465e-02
-3.664998934048054047e-02
4.947776031042948330e-02
-7.090998351326170679e-03
-2.338479782540585916e-01
-5.231221897858449876e-02
2.591698122298100732e-02
-1.576649677903348978e-01
1.455374716721865025e-01
3.163251262825786392e-01
3.136483121631127302e-01
-2.957020473849968356e-01
-5.553217988795171312e-02
-2.196749590131512886e-01
2.093577347272125022e-01
3.355091756031639005e-01
-2.214461883302109024e-01
-2.439560222542395684e-01
1.535882987522030341e-02
-3.695836131261756585e-02
-2.680040672853130079e-01
-4.886993017703085418e-02
2.746610316188214176e-02
-1.377843752706262304e-01
-2.993918075719670946e-01
-1.382773847846475723e-01
4.934690434940479375e-02
-3.151895595718577359e-01
-1.391635506417965573e-01
-2.305504077224013876e-02
1.301474554818331242e-01
-6.743101102856929874e-02
7.028193141632232965e-02
1.719640616731534510e-01
3.851148207889589226e-01
-5.014250886576281097e-02
-3.135368306652385195e-01
-1.681955157659249522e-01
-2.026752996394745945e-02
-2.065085887538130882e-01
-1.794139845524973520e-01
7.656170760870962926e-03
-8.165809324293629712e-03
-8.398843992664677127e-02
-1.914452350000920289e-01
-1.891959908183312167e-01
-2.718830630962413286e-01
-4.184941312507513000e-01
-2.075567428162122530e-01
1.139477711506649560e-01
1.194258975814368323e-01
2.770813608040967324e-01
3.969869597308569031e-01
3.134059845320448234e-01
2.120465535669082136e-01
-5.765803291817989118e-02
-3.657235023964550830e-02
1.834620676702871100e-01
-2.088861058688914335e-02
-2.524077751083392829e-01
1.733219566482483917e-02
9.063284161522516813e-02
-2.352350599703228323e-02
-9.084407646341420561e-02
-5.986027662450586241e-03
-1.830921083786569981e-02
-1.519011008101300297e-01
-1.832560475173134473e-01
-8.057834174154322737e-02
1.249239595737922093e-01
3.549582858917508243e-01
3.436938236519146428e-01
4.045690715795563497e-01
2.503666012505532112e-01
2.781007922402025656e-01
1.807258286928302426e-01
-7.024237116067896802e-02
1.123926695335160375e-02
1.296045279044209797e-02
-7.404745889351443955e-02
5.925240260099550599e-02
7.421586015243041012e-02
-5.275374408161467854e-02
-1.472885079692187564e-02
2.959210114990666607e-02
2.216859166913223017e-02
-1.109763030110510335e-01
-7.183079358245229862e-02
-6.136844832192855925e-02
5.765547029650595207e-02
1.394470823736001022e-02
3.265064273323548677e-02
3.237293505168835628e-01
-1.211372935792019989e-01
-2.176844970215729425e-01
-2.281069283570991424e-01
-1.499268715804395469e-01
-6.659218182938834996e-02
-3.124511523643733538e-02
1.535072299923046224e-01
6.181071762391889685e-02
4.562611386302019983e-02
5.533868155214936163e-02
-2.973848657951350810e-02
-1.027686285785842438e-02
5.944316517449222542e-02
5.014160715731685869e-02
3.271090189985756402e-02
-7.387306555794227736e-02
3.534265438284065614e-02
-1.482582464767218111e-01
-1.064775166509382837e-01
-4.476210689797591874e-02
-1.647455450791042164e-01
-1.946405364311465380e-01
-2.802193612697669312e-01
-6.132261054767799285e-02
2.779744508653798907e-02
6.700608909668252788e-02
1.520016942218571920e-01
7.889817278131043554e-02
7.610406550956340561e-03
7.537631506991623875e-02
-1.586815617169917703e-02
-1.103168169030506983e-02
1.009807875607791373e-02
1.139272705133122371e-01
1.024412399974728716e-01
-3.539676568443995974e-02
-2.362799687492039488e-02
-1.216351534721562544e-01
-1.440264858795093916e-01
-3.228752175002398972e-01
-2.506331830771016955e-01
-9.668331149209118125e-02
-1.322597206628931682e-02
5.356637927119135140e-02
9.884328951803351970e-02
3.961833786865803786e-02
-1.972880333560299987e-02
1.448965942289363873e-02
-2.650422314064990962e-03
1.403288776647328671e-02
3.556981830484329948e-02
1.046837970581857187e-02
8.451039023963383828e-03
1.560031149054218365e-02
6.545577806098806795e-02
4.038698524768388753e-02
6.054854046713292748e-02
-5.125408437319674271e-02
-5.571061657925879124e-02
-9.710440365107249339e-02
-1.999795212542583578e-01
-1.599976515294571078e-01
1.842631761212119509e-02
-1.916100693204166039e-02
9.676863694624894888e-03
1.287028217399144867e-03
5.525720416796792156e-02
1.250322844716544347e-02
-4.531655109758740176e-03
2.022623550112720436e-02
-3.565639973644823407e-02
-3.524686571223335785e-02
-1.594407900698589786e-02
3.884606849547445756e-02
1.773507184618323268e-02
-1.803890545108039617e-02
3.860470528862361417e-02
4.831578932121646797e-02
-3.286980741765237884e-02
-1.015813372496389595e-02
-2.493317227847156176e-02
-2.358327676997738764e-02
2.571229184956055902e-02
3.264320162216868132e-02
5.212593136796456195e-02
1.633502956825483646e-02
5.814790302215659852e-03
3.911595119019919270e-02
-1.793939780385656740e-02
5.742501299483164789e-01
2.369343580149873771e-03
-3.252227983194337473e-03
-2.927695425141025459e-02
1.373666742554590856e-02
1.991633976100221776e-02
3.418870021749274846e-02
-1.659160398910863171e-02
4.944202891570145808e-02
4.086258713654349062e-02
9.931046376159137490e-02
-3.262531372937892138e-02
-7.504865101090047244e-03
-1.799007449074565071e-02
4.438302319527624024e-02
9.040174781080718980e-03
1.213384058034697177e-02
-2.574808993100160398e-02
-5.663801475490334164e-03
5.688278808578230844e-02
-3.725986698868984787e-02
2.763500617297168227e-02
-8.652885368370732272e-03
8.608323244635077143e-03
7.814970978928036799e-03
-2.709812692028361683e-02
4.404626552420270319e-02
-1.046429388884876147e-02
7.111120172871396306e-02
3.021651832708858315e-02
3.906438293690474989e-02
2.484913311100725442e-02
1.746948730612608511e-02
2.555500496246967609e-02
3.741450037790975541e-02
5.286885807286458711e-02
-7.804732502164311858e-03
6.091233220843967483e-02
3.106469676203088559e-02
2.942229285285829707e-02
5.795078065950726859e-02
5.347913985481924509e-03
1.926202752295518364e-02
-7.155972423994538291e-03
-4.533232890859883318e-02
-2.677978168392652208e-02
1.208271942018326189e-02
1.132183952839964022e-02
4.054556553300777549e-02
8.166980392677082590e-02
2.931961783339495555e-03
-5.220941942545573311e-02
1.682860184909359610e-02
8.782353018535150879e-02
7.474527112812071050e-02
-3.356927508117800874e-03
-7.745680886822420633e-03
1.406399757642426765e-02
3.530899044581577162e-02
3.076114143635967635e-02
4.728390558318778386e-02
1.072985568162228460e-02
6.100004797502724813e-02
4.296278592081025083e-02
1.661470343659512267e-02
-5.005100934374498087e-03
-4.700689771645740617e-02
-1.300555809585370037e-01
-5.697992468760568197e-02
-1.189444760680516272e-01
-2.204205017279729784e-01
-1.444362039362622752e-01
9.368953031655488650e-02
2.444272169191508415e-01
1.523799272955937423e-01
-1.373980907674613415e-02
1.201555384800531180e-02
-8.659554920537293476e-02
-4.487543973850392082e-02
-2.048597769448417399e-02
-2.269799670223776253e-02
-1.542934389998692514e-02
-3.201053062522225823e-03
1.610491300484594504e-02
1.919414298679252354e-02
-3.221626807804071208e-02
-1.762762262884630116e-01
-2.294804101724577661e-01
-1.984315125749881448e-01
-2.958616020413700198e-01
-3.128450049993219406e-01
-1.933968101434136166e-01
1.394580972297755905e-01
5.043321681220299668e-01
4.008200087367171788e-02
5.939076564295387578e-02
9.437397720657365874e-02
-5.600330090604011685e-02
-3.813171448148119230e-02
-1.449456012903314883e-02
-6.898177216125151757e-03
1.659105567328096088e-03
1.182715918836700110e-02
1.983168685417376412e-02
7.659343187106949780e-02
-5.015679217469493772e-02
-3.260528852108164899e-01
-2.860906699836296418e-01
-3.349641407185942055e-01
-4.676658819641506537e-01
-4.811652614641526715e-01
-7.588917392813052110e-02
1.078978574196821499e-01
2.833135833806045278e-01
2.151810197387840906e-01
-6.905528329530317283e-03
1.304265904042267721e-02
-1.099575381952107161e-01
-1.983877514804418402e-02
-5.170751804552094558e-03
1.486224910798955058e-02
5.167933616635481120e-02
-3.403675684758382392e-02
-4.766993750750211228e-02
2.980996433470852608e-04
-2.139040940852639239e-01
-3.701242219882901474e-01
-1.135995621486082657e-01
-3.278399067814262158e-01
-6.825448822308233243e-01
-3.449604987046479554e-01
2.165362667886423786e-01
3.161985936571665157e-01
3.555910614713099216e-01
3.758698610365884818e-01
2.037236761388829254e-01
-2.268877432413952122e-01
-3.278598334928080060e-01
-2.152867351945128016e-01
-1.149195999975081567e-01
2.834949316098017355e-03
-3.155026540247396483e-02
4.093338217274149204e-02
2.723476948608739845e-02
-6.215850372579758906e-03
-2.329962537067742645e-01
-1.683667518179864930e-01
6.775900885956274988e-02
-5.047802922227068168e-01
-7.522553418431746630e-01
-3.040722530083122543e-01
4.184620790520644507e-01
5.151444616290391521e-01
2.821212050310905051e-01
1.881018892568686596e-01
2.718791166193836872e-01
-2.072329834446247632e-01
-4.106083410940850054e-01
-2.007619340722840429e-01
-1.041006881292817904e-01
-1.096868081753325092e-02
-1.316486269496679705e-02
6.785751783470489462e-02
7.890489127975218453e-02
-5.492310060494542956e-02
3.527091815408035791e-02
2.550373632397961443e-01
-9.622384773557038362e-02
-6.294926492910255522e-01
-6.730540391453869731e-01
-4.150392311786317845e-01
4.132519116224934175e-01
1.796737439144570903e-01
5.217291838044317565e-02
-3.850443772641157225e-02
4.474221956191392485e-02
-8.186445660723859485e-02
-6.071252005416372111e-02
-8.955792398593430403e-02
-1.334333380089434973e-01
-2.227998228027022395e-02
-5.158710348972787678e-03
4.923649740218088294e-02
6.428877369228414018e-02
-1.330739745805068486e-01
3.950089583058349896e-01
4.132879010630612915e-01
-1.072983061297707597e-01
-7.798847412188321115e-01
-6.129450373287347320e-01
-9.994685235661826539e-02
1.005013125238957139e-01
-9.553555213404774094e-02
-1.570587782456469017e-01
-1.043339188716796706e-01
-5.282581288823186977e-02
7.740423043225361233e-02
2.518735955417607530e-01
-6.905711413218422468e-02
-7.965965647543306327e-02
-3.906568541990069338e-02
2.951803494471587005e-02
5.961678488376842555e-02
-4.897949453304360767e-02
-3.110513908588735665e-01
2.207298005403858232e-01
1.917181806112571441e-01
7.135669545880993225e-02
-3.189287128455952081e-01
-1.675147336213297089e-01
9.239064054639756218e-02
-1.091798091666507375e-01
-2.914185183278752977e-01
-1.951168771883536879e-01
-3.409539136879344290e-01
-4.967101158611663125e-01
-1.398530167144172442e-01
-3.083117883804353462e-02
6.764943098437535551e-02
-1.018997918426283317e-01
2.648348006306610204e-03
6.670055159194021588e-02
6.894331241991887016e-02
1.389321264004997510e-02
-1.000305438024329252e-01
3.594593662075227791e-01
2.335305430327376530e-01
-2.485660396777313041e-01
1.236697809150929389e-01
8.688756756439625084e-02
2.522041128230277651e-02
-2.111015962272294877e-01
-1.516257993896185652e-01
-1.424910950565680401e-01
-2.826734905426623867e-01
-2.012897810421758749e-01
-1.378869425470072574e-01
4.552132350043547326e-02
-4.603445106867479555e-03
-1.605228433173742641e-01
1.134034197743948296e-03
2.408014408288450953e-02
6.235186206825026750e-02
-5.609846190433567109e-02
-4.159675784260778997e-01
2.914605941842318693e-01
2.982010016308001554e-01
-4.128920083315783252e-02
2.582242419330760819e-01
-2.213528596652426447e-02
-1.179039115265578808e-01
5.457576739106988206e-02
7.730665978852491182e-02
-1.549596181774746950e-01
-1.040290503850626463e-02
-3.031841418512296604e-01
-3.040244948464955188e-01
-8.223583519007325593e-02
-1.008586577640437770e-02
3.492401488160409156e-02
5.796541846161663847e-02
-2.034818752984563026e-03
-4.512861450876137076e-02
-9.411153237385233572e-02
-2.762903283879319938e-01
-1.343404688435440864e-01
2.596612213079221854e-01
1.293609860414020015e-03
1.070279339837146015e-01
8.087638638870869867e-02
-9.501983875347454200e-02
-2.236324055689836721e-01
-8.282500893060264213e-02
-1.419292293629197121e-01
-2.385577964044895416e-01
-4.454240109795302716e-01
-5.102857727098116802e-01
-2.039868147155410871e-01
1.758244824316053086e-03
8.954224206996186375e-02
3.186287974808486856e-02
1.803982946422869743e-02
-5.029291601236295095e-02
-6.275226334537110928e-02
-2.844783995700214674e-01
-2.335970209242045625e-01
-1.951176584235957967e-01
-2.685043929825339792e-01
4.965220612223487928e-02
2.876057662421068611e-02
-2.107181719544506115e-01
-3.175683226627623590e-01
-5.797177671651438519e-02
-1.709526077648110542e-01
-2.293535833964433501e-01
-1.858762793714524575e-01
-3.497638839920594878e-01
-2.871156587929596382e-01
-6.782624189182923091e-02
6.422003611400084466e-02
2.633586457868241498e-02
1.601314127718160563e-02
-3.276734052016883753e-02
1.131351441102363027e-03
-6.806739425189022030e-02
5.857102349647469453e-02
-8.901712259553994089e-02
1.123923017029826166e-01
1.843995125594024842e-01
2.420137066821566318e-01
2.148131324654763419e-01
-1.930675585568943087e-01
-8.510043088800819944e-02
-1.257766687231817448e-01
-4.059441044817382188e-02
1.394971726463086273e-02
-1.258520921960865901e-01
-6.629348025273031075e-02
-7.232616198748181846e-02
1.154315413650659761e-02
4.477022641509914580e-02
6.381641012100033872e-02
3.314201788070113980e-02
3.176133495018149122e-02
-4.737411091911094413e-02
-1.878801155931854594e-01
-1.452473289478346530e-01
2.243628241757604780e-01
3.973845878140335741e-01
3.187980311248764798e-01
5.286776169519549068e-02
-2.198810938755800526e-01
-1.576033192162547836e-01
-7.293866420944700169e-02
-3.275470734428509272e-03
-1.153686187418478531e-01
-9.082682718024549795e-02
-8.562461960945753903e-02
3.037280051966209302e-02
4.670173891321584801e-03
7.319024381618279007e-02
-5.963328062389921733e-03
4.381648092619738408e-03
6.789242485489080381e-02
8.353804219370671025e-02
-1.820033114985343536e-01
-1.496368367765700258e-01
1.088973179360770843e-01
2.758015313958478987e-01
2.163508569666755532e-01
-9.880825479461816108e-02
-7.347574153289211131e-03
-2.741330455778985889e-03
1.163031208666241434e-01
5.107886433650004471e-02
-5.566077878332394840e-02
4.176719361998428373e-03
-2.712116466073278762e-02
4.555803062563865830e-02
3.589474571107035411e-02
4.331476277967332214e-03
4.502945802687606004e-03
-2.853325811446672661e-02
2.399532586976452914e-03
3.725677118991279485e-02
-1.189124032941076686e-02
-2.569514616835694848e-02
4.776600574675761435e-02
6.820926613453592857e-02
1.160487340274254098e-01
4.097054097774657094e-02
3.388186238625713609e-02
6.400587423276712928e-02
1.180104303044617747e-01
1.786653078519670826e-02
-4.817364479644593855e-02
3.257861196126620590e-02
2.232195223977503570e-02
-3.472993237646015974e-02
4.008261475212764047e-02
-1.317664612906557786e-02
-2.020849451808573796e-02
1.122464800421514586e-02
6.745785451190511317e-02
2.352627764635502675e-02
-1.655284938982550663e-02
-7.489901314829483861e-03
1.252608896065634039e-02
-1.146101883597893528e-02
7.591044139878311107e-03
-1.661632315493560830e-02
-1.608206413110436009e-02
3.636823585430581929e-02
1.917544066968535424e-02
2.900585950706735874e-02
3.184410914054097708e-02
2.578141533479826053e-02
1.969804606463594274e-02
5.722377332559680507e-02
-2.492349656952876774e-02
-1.545012637115955600e-03
-8.850907780572817574e-01
4.240884480383732419e-02
3.393276558472215626e-02
2.124849583930382181e-03
-6.394893171419944664e-03
9.967449612960865846e-03
3.550037993133681874e-02
1.487430909941744178e-02
6.043726863973521851e-02
3.652484566747537381e-02
-3.472396478960045746e-02
3.365190108269562608e-02
4.638220720922166945e-02
2.181626135590572502e-02
6.650757263268913810e-02
-1.781430645886250899e-02
-8.504167682556058525e-03
1.616228190726907987e-02
-7.855269308848493448e-03
3.373962487557247147e-02
3.882588063587401328e-02
-3.640570098163071512e-03
-7.497782326142142517e-03
1.588540530373152085e-02
4.483540990584950620e-02
5.901257210848546292e-02
-7.214453006642525951e-03
-1.069466064202691941e-02
-1.631180759137368652e-01
-7.310465191401159524e-02
7.692005789108989980e-03
-6.764147093073708331e-03
1.284098301532999968e-03
-1.775293931415623111e-02
-7.103672093127016973e-02
-3.673421761936022933e-02
1.911460678157716683e-02
-8.577295023554457618e-04
2.423968081332155550e-02
-4.444777659561376104e-02
3.502904988779392131e-02
1.370114172454524500e-02
1.366842941244634374e-02
-1.521330131071134580e-02
-4.644011096213732093e-02
1.936465731619365846e-02
-5.714966929410265212e-02
-7.659638305250118795e-02
-4.324366662314612086e-01
-3.440342219055324557e-01
1.222953521910890018e-01
3.128889037564606124e-01
7.716572440197390359e-02
-2.374614453868305677e-02
8.192332373565081732e-03
1.758543385709261386e-01
1.321252395789101475e-01
-4.429955390712460826e-03
-1.248755021519288300e-01
4.531350701130307246e-02
5.214078045640154618e-02
-3.945079256592263356e-02
5.420118743931571365e-02
5.550960541448190372e-02
1.436458060659170227e-02
-4.370908247133742375e-02
-1.290025078314253892e-01
-2.711204793010583702e-01
-4.485999970170215234e-01
1.931538011947902811e-01
3.471287482423455195e-01
1.542660163691186859e-01
-2.719999297485533804e-02
-3.706881292529401462e-01
3.366425913502678335e-02
3.990302637291379684e-01
3.646463460983558891e-01
1.689955831482365389e-01
-1.139318799998659815e-01
-3.880787951719118223e-02
4.697968022026557250e-02
5.119148811508068830e-02
-8.912921612791913431e-03
2.888080956564058679e-02
2.810832614998636653e-02
-6.519773510148889339e-02
-1.566297528853213272e-01
-3.010602641286261316e-01
1.716384783072216758e-01
4.676985268809253360e-01
3.307705622650881083e-01
-2.686887571411583076e-01
-3.979388953544662488e-01
-2.223835488078531319e-01
6.069382783350841803e-01
-4.624135600514032995e-02
-2.286921234157931332e-02
-1.367394990678890976e-01
-2.679279345496370923e-01
6.114461127369062721e-02
8.021294905059027369e-02
6.914937072922140888e-03
-6.645620435885557769e-05
8.942676314367813128e-02
-1.753553906676252605e-01
8.897734077242040740e-02
-3.480587037289944452e-01
-4.961161127108771329e-01
-2.539378822726275908e-01
2.222767572593315269e-03
1.086242266224495712e+00
4.523212285030656643e-01
-1.392409442603137204e-01
2.074289966179557188e-01
4.888104903028720472e-01
-4.163783427022212935e-01
-6.759903538136512458e-01
-5.845628907388144072e-03
-5.728951303447240573e-01
-7.304214426419267103e-02
3.991166972846281469e-02
3.716342105678391988e-02
2.476020035404016134e-02
1.143672560039311337e-01
1.228277536549201993e-01
3.080619920379945587e-01
-2.285829168668369882e-01
-3.968015515454286768e-01
-2.737674245067015510e-01
1.606367574394698683e-01
4.919328273129466300e-01
-3.052106850847373098e-01
4.693098962458434192e-02
3.113557293005080329e-01
3.251779618470574396e-01
-4.715628102231436691e-01
-8.274356258233510619e-01
-1.783088211211896201e-01
-1.917976175241028480e-01
1.542404551913837407e-01
-2.184654553179147304e-03
6.480052711122646913e-02
2.394326006238779725e-02
1.622733716142880367e-01
-1.287762496699487030e-02
-1.254740021515501625e-01
-1.734271983886059021e-01
-1.612927616622977789e-01
4.080460670612096608e-01
4.590142872783403716e-01
4.505867398865015527e-01
7.450028173033995671e-02
2.375086694733649362e-01
-2.227944717857499313e-01
8.616009352275391664e-02
-7.635493213962395442e-01
-1.405135325393528367e-01
-4.678952059249414375e-01
-6.370498004897966193e-03
-6.268674514410828291e-03
-5.401966866384610988e-02
1.499481837465421220e-02
4.876672511485442146e-02
1.040571323198604126e-01
-7.723913908040268284e-02
-1.293356779349750553e-02
-1.684371665738563228e-01
-1.205045851544442048e-01
3.038163869555259855e-01
9.923428733603140151e-02
8.075090630602380637e-01
5.470825808258522605e-01
7.929192705723840939e-01
1.617905910812925951e-01
2.120458356379353315e-01
-3.370438888975345049e-01
-8.080150642289389840e-01
-9.478434545344782691e-01
-1.903521121310532138e-01
2.619402992723133261e-01
-1.676691810401619367e-02
3.465946681005548785e-02
4.829737600217136329e-02
2.385159006985906882e-01
2.935135709223953004e-02
-4.424354279609304386e-01
-2.615425513174265970e-01
4.227302126296778595e-01
-2.786567918873926741e-01
-6.105194521407527608e-01
3.516361699744547931e-01
1.272828365387560501e-01
4.574740565656905122e-01
5.711102169507323856e-01
1.974880338079299247e-01
-2.218805807566492927e-01
-8.522487124544996240e-01
-5.005674609777999162e-01
-1.204070094616580405e-01
-1.526979248999055516e-01
-1.076354025658817354e-01
2.546908027015316531e-02
2.385675453201161790e-03
-4.641909170937129347e-02
-1.124569424977563403e-01
-1.382598033778073554e-01
2.595240511770012803e-01
-8.609040022480156651e-01
-4.981738021855159904e-01
-1.141538115060018871e-01
2.215684106161673050e-01
6.517526938842485018e-01
5.276309231611218120e-01
2.204914970400919869e-03
-6.476498316079817852e-02
7.151775872172773107e-01
-8.851511070007459514e-01
-1.130110040541674632e+00
-6.661136281844531881e-01
2.054561845301636769e-01
1.292839808415610081e-01
7.850832385193654006e-02
4.107410277242278668e-02
-6.367917235477918436e-02
-3.227487473638753768e-01
4.707687899850122870e-02
2.897291934369878863e-01
-6.543112343157323485e-01
-7.422005905672138804e-01
-2.371088684771511246e-01
-1.945487198912464882e-02
6.140480677988985336e-01
7.622998789727580826e-01
4.658768854586171626e-01
4.471432874732206297e-01
1.155235337147223262e+00
-6.532821858532501524e-01
-1.611711285308499164e+00
-7.757259863691778889e-01
4.077968652986332376e-01
3.174701073610359386e-02
-3.751405087074802941e-02
-5.849801158981671884e-02
-1.750781643084366179e-01
-3.479678651984311616e-02
-4.736321279947894661e-03
-1.947840989437973347e-01
-3.376691876861018932e-02
-5.416967129586559571e-01
-4.048265475012954862e-02
2.403573380653439007e-01
3.886772874678545153e-01
4.441666969596136383e-01
5.779717457267836700e-01
4.252401954676621743e-01
-2.549354886221192468e-02
-4.722764366217858112e-01
-7.268873579196960533e-01
7.140881463388577821e-02
-5.234671912315047929e-03
-9.778114593702239010e-02
-8.690459622104863488e-03
-7.233353059735753154e-02
-2.015279032039078155e-01
-5.215551073015717298e-01
-1.341598531403199734e-01
-2.342846204427341816e-01
1.004019875420132379e-01
-2.257636639515026022e-01
-7.036736215381247384e-01
5.796804700209523542e-01
6.200762547994143059e-01
-2.065983524651584247e-01
1.436127577886746609e-01
2.830553000627016313e-01
4.273139607427942077e-01
-2.602873085212523141e-01
-2.758086528234319768e-01
8.501119540372450989e-02
-2.581454190732820897e-01
-4.817676884350072242e-02
3.052284646912762842e-02
-3.564155651316898432e-02
3.885026786453615183e-02
1.155245075056720722e-01
4.941633696781053131e-02
-1.480571783209134150e-02
-1.323524949897955660e-01
-4.633181597876370739e-01
6.518220113405460980e-02
5.774868787391604918e-01
3.186531410022989952e-02
-3.415997293412610381e-01
3.077540848288151665e-01
4.490479940284267668e-01
7.063365558726889537e-01
-1.682405314195700996e-01
4.917970697110998213e-01
6.102517148440926853e-01
-1.422258009672599521e-01
-2.007187079118219041e-03
3.771551983142151093e-02
1.964544328147976165e-02
7.643857945970154721e-02
-8.877764778230107234e-02
-2.607064969384484954e-01
4.427574769448935910e-01
-2.847097093757338104e-01
-4.183450084134038849e-01
-3.044038540590954800e-01
-3.858443904140229641e-01
3.464172570704621146e-01
3.814691459632319481e-01
2.035600264136380733e-01
2.584201865580374943e-02
6.387815159368374907e-02
-2.381474947105892970e-01
3.703650678570350463e-01
4.817240197847800776e-01
1.586556065115439784e-01
1.741098078808305666e-02
3.408753158685721985e-02
7.168449201817864158e-02
7.106046159868839585e-02
-1.572754477198348017e-02
-3.883240827820255009e-02
2.560451134569931009e-01
-5.246871929672897172e-01
-5.540617844336902520e-01
-6.960866256315905165e-01
-2.474492673867671466e-01
1.624706555150651904e-02
-1.718529774737264093e-01
-7.698324768954419549e-03
-1.244220182474505346e-02
1.170465003384675018e-01
-2.991293694979390433e-02
5.418608264945563163e-02
1.307820671544475122e-01
1.724824841407510412e-01
4.311672117164676993e-02
-6.419451528707311068e-03
2.777790770324967129e-02
-2.463718187403483514e-02
7.977107604805611096e-02
1.161422600515919779e-01
1.001552675137587917e-01
-7.565560398695385658e-01
-6.541982836522179934e-01
-2.451979044080978831e-01
3.710335559019626445e-02
-2.960319639155923332e-01
-2.516137463870570246e-01
3.430943480155667080e-01
4.390087972132233896e-01
2.275891124535878163e-01
6.021067526884146814e-02
6.904813069360649092e-02
2.252972344863831203e-02
2.719368944099999699e-02
-3.744148549977650619e-05
3.857536295855587549e-02
-4.987392682609786271e-02
5.498353616739532802e-03
6.044994972114479947e-02
4.153290727055301834e-02
7.380281605117112488e-03
-1.786456948583816096e-01
-5.197612848090567977e-02
2.606818358644863443e-02
1.790806087014454664e-02
-6.153762208588772070e-02
1.041571960770038413e-01
1.647531272810077163e-01
1.567223845490540723e-01
-3.751127068644803664e-02
-1.079006161395521107e-01
2.595865668391281883e-02
4.479917799666827127e-02
3.377595839966166663e-02
1.970271189149541691e-02
3.143901482346817683e-02
2.133457671419482921e-02
6.028421996484469025e-02
1.477189108420706200e-02
-6.559515317752634411e-02
-1.505280243787117389e-01
-4.685465284194061109e-02
1.581957725754412972e-02
1.263966400155517970e-02
4.214899819468637121e-02
3.097133681690959761e-02
2.375048200251617461e-02
3.018920767780685493e-02
-1.304335091590394860e-02
3.520659793357021339e-02
1.695961090611803473e-02
3.514361390052145317e-02
2.898948465203948777e-02
3.031369763153619890e-02
5.445548404732532786e-03
1.748825415916725801e+00
2.693086618038930194e-02
8.577380423542906810e-04
6.024638920807012105e-02
-1.170904679304911149e-02
1.248936460512084512e-02
-3.736704011626922062e-02
4.284163323687111696e-02
3.262831936573231534e-02
5.965076717172963089e-03
2.238061494015543273e-02
4.857374846609493341e-02
-5.391656906401252197e-02
-5.406856488557962130e-03
-6.337434391212623357e-03
-2.335206159126740344e-02
1.640896717734135774e-03
-1.876223153102754559e-02
2.644436434509524550e-02
-7.187386865978016327e-03
6.899477615300364519e-02
-1.243326060663855169e-02
2.298502907057452943e-02
-2.494841263439035936e-02
2.909642576940982446e-03
-7.209244025280680396e-03
4.832976909831902118e-02
2.370406189583853032e-02
-4.497991861446806044e-02
-1.035643216071580226e-02
9.170813080072219570e-03
-3.516721806142515585e-03
-4.388837186700114169e-03
-1.411062973277470590e-03
-1.218616222344660101e-03
3.914591990612735495e-02
3.247128506898802613e-02
3.703281261609545766e-02
7.294903664848058703e-03
3.377725373777623608e-02
1.186613596442648647e-02
2.437737266364841532e-02
-2.646396304869322660e-02
-3.618804561883506160e-02
3.676524734777451842e-02
1.709143287244773227e-02
-3.419069124778602005e-04
7.675409324541493383e-02
-4.420015817189235086e-02
7.297934226273120051e-02
6.014850700555351287e-02
-8.809228322784169729e-02
-1.833342293625999930e-01
-1.697844679961758307e-01
-1.142992417268851174e-01
3.832945932030901864e-02
2.839553111509927896e-02
5.309490688657025892e-02
1.481840000364887007e-02
2.544086976253373544e-02
6.426904955810074094e-02
1.418513907990131412e-02
8.461518990896954237e-03
1.519664869996004142e-02
-3.132897130344166475e-02
-4.372368350831095513e-02
-3.708729702935442511e-03
1.250705032963733976e-01
-8.849153710259602401e-02
-1.632177765409304482e-01
2.183979593986107859e-01
2.428056960231938510e-01
-2.315763811950162510e-01
-4.532692198951634999e-01
-4.521814159655488941e-01
-3.581150132274953102e-02
-6.539185375349258755e-02
-3.238480273739150483e-01
-2.842643971476850884e-01
5.140428208722878922e-02
5.884292991349170110e-02
3.720822605656103066e-02
5.755415811900536222e-03
3.072901148292268500e-02
-9.390171753972298418e-02
-1.291807661499281279e-01
-1.859901603412378868e-01
-2.008746054869269826e-01
-5.965489942490730391e-01
-3.235601387351427216e-01
4.192547155069709652e-01
9.312741261537552662e-01
1.027042881867445412e-01
-6.446810362658358384e-01
-1.962446278610694150e-01
1.063281997331133738e-01
1.274898394750362263e-01
-3.468790902676164301e-01
-3.943524452260721569e-01
5.740684762693945564e-02
5.522030229483591672e-03
-5.081685544653099379e-03
4.761562970936884104e-02
-4.224755529084169015e-02
-9.526835744234717074e-02
-2.912733505195617134e-01
-3.644629325678525045e-01
-3.787085931054527399e-01
-6.493366308016828015e-01
-4.117106035093547056e-02
1.333864680982899120e-01
-1.294929771437016049e-03
3.408811052448097456e-01
2.088987592612589206e-01
-6.185660838840387754e-01
-7.430913967818883470e-02
3.210285785295784178e-02
7.555043220919288594e-02
-3.153028452816927230e-01
6.430208202914894366e-02
1.223976706334117120e-02
-4.058906003412963981e-02
1.709556844994098226e-02
-7.751418156454621677e-02
-3.198176619910901297e-01
-2.565842614178952541e-01
2.426918731838926258e-01
-3.009717161432824972e-01
-3.590927004254800270e-01
1.063009501062337631e-01
-1.981739890379912439e-01
3.388723872160978590e-01
8.007122026243250756e-01
1.727924577278472243e-03
-9.993233917799323462e-01
-4.125534239895673472e-01
-6.809568175176842209e-01
1.088351532532604166e-01
3.478758091738231029e-01
1.162387411597911036e-01
1.382450557006409744e-02
-6.346071597965382075e-03
-1.067884902162184735e-01
-2.000909040329303112e-01
-1.809118034704394196e-01
7.263901443941712943e-02
-2.047737190220518810e-01
-4.142838250598344652e-01
-4.026595642951757981e-01
-3.318168470825771377e-01
1.286694836228466365e-01
1.565762790502457924e-01
5.389970699465111009e-02
-2.385236241122962730e-01
-6.651556968528318792e-02
-3.814201182271583779e-01
-4.398321840411605899e-01
2.151444628072245457e-01
3.562576019699544294e-01
-5.249525157829000588e-02
8.371247282663595718e-03
-3.139833676751910968e-02
-1.049244639288911679e-01
-1.450081463246383762e-01
2.185161618514415982e-01
6.638966216158546929e-02
6.888807061484806225e-04
-8.057393901709791750e-02
2.585757706101711462e-02
2.528282333152147010e-01
4.412043313890916529e-01
4.830542164518705217e-01
1.359076963450896181e-01
2.645724118429913507e-01
-9.603694105840202000e-02
-5.877240623108609396e-01
-7.544556829402176978e-01
1.407141837650410510e-01
-1.310591290367618955e-01
-3.728950578766752622e-01
-1.193388696416363415e-01
2.328583166205214910e-02
-1.853978086080836640e-01
-4.429779031315996818e-01
-1.198966474505906293e-01
-2.854313143535336939e-01
-4.180258998402447412e-01
-6.602010569586193034e-01
-6.538907529644180094e-01
-2.156472829132695113e-01
3.722284108197153607e-01
-7.123361057410450281e-02
-1.324974036842637148e-01
4.449593365854589977e-01
2.249571554910381743e-01
-4.949553890157931679e-01
-7.473912893611172059e-01
-8.705517076889228434e-02
1.298553326186790979e-02
-1.603563471242231697e-01
-3.354957635737720878e-02
2.287639172866942627e-02
-1.900315964838957816e-01
-7.299715292291462099e-01
-1.815790608322536415e-01
-7.666275020646249327e-01
-1.436008654499442982e-01
-2.157862120136728734e-01
-4.644777647790583885e-01
-6.212470290911550203e-02
-1.392453293517029456e-01
-3.928048904563783972e-01
3.541948892029414542e-01
7.611530814938996525e-02
7.201789422350742820e-01
1.223261442492508400e-01
-3.626116757645030941e-01
-2.678536878313695913e-01
-1.284100374666472810e-01
-3.372702435793050735e-01
-1.898646402542054357e-01
-3.858071715862782664e-02
-2.449423360436017716e-01
-5.309260899515397814e-01
2.682612664885476450e-01
-1.111262837202548065e-01
-9.244015678907901989e-02
3.483887439841081846e-01
2.647720885115572020e-01
2.749135143506089007e-01
-2.120268347468443337e-01
-3.413152368217658994e-01
-3.931669948845078477e-01
-9.456919126960175448e-02
-7.400916914658006718e-02
-1.615164717447108989e-01
-1.521921451751832854e-01
5.507880260079700552e-01
-1.194136257886958818e-01
-6.197078673304853291e-01
-1.268568378816097297e-01
1.371292440912881549e-02
-1.022869542595546272e-01
-4.115694779347159882e-01
1.335526317484263085e-02
-3.696056069556209051e-02
2.483894346045538992e-01
-3.017419131451326564e-01
1.433020158206707584e-01
4.462578681592341279e-01
-1.117072550052279900e-01
-2.565933864827560917e-01
-2.871110428505939116e-01
8.844165130190152768e-02
-6.333581718067252675e-01
-1.393503640224044715e-01
3.678379710616849763e-01
5.358496326356529948e-01
-1.865614186989270895e-01
-6.956577260466477730e-01
-1.465485670885424974e-01
6.675100362307624657e-03
7.639264752032210587e-03
-1.352982921815402972e-01
-3.870817564813675699e-02
3.378478837933887938e-03
5.528548849368797313e-01
-1.052756802084883064e-01
-2.666504958170513029e-01
-5.921840102234848802e-02
-3.876197298251984891e-01
1.922725807334980108e-01
1.292202736822037068e-01
7.206318637448986576e-03
7.263031263780470037e-02
7.980108304174282630e-02
6.523485435444620339e-02
-1.514449696991957139e-01
-3.055321029847017367e-01
-2.155841409849186541e-01
-1.160721845966516813e-01
4.531200368826076436e-02
6.444243367815825213e-03
-6.015662273781011843e-02
2.529957237061560282e-01
5.900679061686900928e-01
6.952626176984569861e-01
1.721320538497123770e-02
-6.814339546929433222e-01
-1.064398577471677321e+00
1.750351205818343747e-01
4.873336730492464075e-01
4.249344119125363917e-01
-5.997125053407353218e-02
2.664646168593965553e-02
-4.977565289069625920e-01
-4.179388439558419654e-01
-2.058305117931162331e-01
-5.987396622850000849e-01
-1.648418804145035388e-01
7.227164970163474367e-02
-2.956225825129056052e-03
-3.373620111088830760e-03
-1.446318947342216943e-01
2.707508541565749605e-01
5.764971565631431538e-01
5.808692553082962506e-01
-3.107034709426221841e-01
-9.958937406051234786e-01
-1.054732815365700072e+00
-2.067214874861614815e-01
5.152339071609309679e-02
-1.143361573094343192e-01
-3.238391585476164125e-01
-5.182095931390453547e-01
-6.416245491343464113e-01
-2.424867246203554483e-01
-2.445237469964307159e-02
-2.615961132813020562e-01
-1.199077482554501278e-01
-2.222735434898510248e-02
1.735498836599031966e-02
1.410752060090255181e-03
-2.951340287025630213e-02
1.181606657275082045e-01
5.470694861774847428e-01
1.797138574460275806e-01
-7.820922871022540912e-01
-5.579717707468065946e-01
-4.627220644087880475e-01
-4.811337952191122730e-02
6.936489757754306373e-02
-4.187018658463480536e-01
-4.665629237654369543e-01
-3.349660590603285026e-01
-2.902974441259699168e-01
-7.171835423593714287e-02
1.511369464792918470e-02
-1.238453639001934996e-02
1.823559721829107541e-02
-8.167601918428234534e-03
2.164118083669710341e-02
3.898561504860161096e-03
3.598103144424752431e-02
7.381498448042897280e-03
1.641604091876922022e-01
7.209097282559974451e-02
-1.319135574739932204e-01
-1.238566203107806796e-01
-2.784918455570387641e-01
1.328935487988884556e-01
3.032612427511091613e-02
-2.029177098440337612e-01
-3.701706301596602300e-01
-1.762896161507027382e-01
-2.000957932732399525e-01
-1.395268695101702650e-01
4.748292742950104700e-02
5.199965974598694252e-02
7.904126994070795331e-02
4.106737202835854510e-04
3.943765276718110002e-02
4.435254530395024361e-03
5.295787963432507101e-02
4.235137992224820291e-02
-7.885329970467756452e-03
4.903898934338811466e-02
1.314707535290177143e-01
4.426867391954739106e-02
-8.956082153735993312e-02
-1.418705865341550292e-03
-4.358511154270660465e-02
-2.515539768183748803e-01
-3.662317838972246609e-01
-5.778196112964918696e-02
2.194332754283272874e-02
4.542146387712527739e-02
1.459865690595736100e-02
-1.519502182055129137e-02
5.569045151943142341e-02
4.670186393753528176e-02
2.903091780682775375e-02
1.076679989443527115e-02
2.229989045237873446e-02
-3.688625161387351636e-02
-1.163924536996269465e-01
-1.055390774998547637e-01
3.387734329075691581e-02
1.382547162004720866e-02
-1.101657857442874758e-03
1.269129233891291147e-02
4.795545203308320716e-03
-4.194765979389373373e-02
-1.440428807324052041e-01
2.632668027664297403e-02
-2.174171791628569730e-02
-4.172979894942512730e-02
4.636729410821845143e-02
-5.262190071837605926e-02
1.695074063330438349e-02
-7.647733507637969295e-03
1.276049727304692460e+00
1.739300049766980341e-02
1.052383507804322167e-02
7.174069104304830330e-03
-4.806783094101667320e-02
2.252094517340539823e-02
-2.812145500043916613e-02
1.604831043715089847e-02
3.219946435088413828e-02
2.992132686813945425e-02
1.459619055441180833e-02
-4.467724588276014881e-03
6.206565527173856477e-03
7.406949370070055327e-02
2.016473427516921046e-02
4.696654242306638923e-03
6.592776414157997672e-03
3.342220515018065607e-02
2.941053939083294530e-02
2.018088599509433242e-02
2.507531474239075783e-02
9.439201177962464051e-02
5.298817227600475382e-02
-2.201157594702619100e-04
7.861415656758607637e-03
4.288473134466687375e-02
2.426051278330229599e-02
7.115207122486862101e-02
5.312303734963638724e-02
2.042133134773870332e-02
3.297789022552341520e-02
-3.094606259930921324e-02
-5.723209761092533984e-04
8.967073256093632816e-02
6.337520141048108568e-02
2.795726404621722352e-02
-1.493187564950922662e-02
4.934304501030076923e-02
3.567412153690009344e-03
1.605081585023234933e-02
-1.104077937447649899e-02
2.614199345130115495e-02
7.570983565171149343e-03
1.087051270810305290e-03
5.173087798726044156e-02
1.039803471430710835e-01
1.663896679282682867e-01
1.357242689527367596e-01
1.517018069482446163e-01
1.658247144891878133e-01
5.777663415156501087e-02
1.019542949040260910e-01
7.583405676573463927e-02
8.854675369270265106e-02
1.678485934901230159e-01
1.482367589433144228e-01
4.172498837366261232e-02
4.420247820995727717e-02
7.764110904547892600e-02
-1.500389292855948409e-02
9.405546555675405734e-03
1.675236075822582674e-02
-2.039827533476757521e-02
1.544287102729762461e-02
-7.841632530375362842e-03
6.732606378409419778e-02
-3.723300553117522144e-02
-1.195761041583484480e-01
1.230826769134205495e-01
1.232406269196337396e-02
5.623256341926336291e-03
3.542259529639688043e-02
9.949315113414456888e-03
1.014765249800030078e-01
-1.374569067127839883e-01
-1.341487015409064121e-01
-1.334028762309650840e-01
-5.958101846987333416e-02
6.134677178433801253e-02
-3.041405153395033978e-02
7.164643720580232689e-02
-2.114551288087792788e-02
1.973761160056277872e-02
3.098940689336487312e-03
-9.664861119834899233e-03
9.580704355034015685e-02
-3.617048560993184059e-01
-2.685740387152349418e-01
1.005459261736234428e-01
3.526137393045735563e-02
1.500679853802877606e-01
6.935827506253630648e-02
2.872771286409968663e-02
-1.290933197902111376e-02
-3.599039063662948790e-01
-1.667248213354292630e-01
3.027182509798996210e-02
1.210397977621712889e-01
1.276263861662912669e-01
9.074064904052149549e-02
5.010986725610793585e-02
-4.241371595913114717e-02
-4.631724910531692663e-02
-6.772797990123238798e-02
1.916656196874015894e-01
1.155004552919168814e-01
-3.173220947214231424e-01
-3.708770634326676030e-02
5.913380338943723807e-02
1.004860803925994167e-01
2.418223089434470841e-01
-1.295723440678766825e-01
-1.710055572064101692e-01
-5.921277259336473614e-02
-3.953382634452359823e-01
-3.495359034072908488e-01
1.626628967587262775e-01
2.289921315544438674e-01
7.216089190973516698e-02
-1.787820845202599263e-02
1.283101802747748862e-02
2.454106941211435348e-04
6.758239068161677778e-03
-5.976919538128531301e-02
-1.543411645085032008e-02
-9.607142788041117543e-02
-2.923008548834523102e-01
6.257092045146214754e-02
1.002072452598423424e-01
2.129549644067946917e-02
-2.757432825816301739e-02
-9.102579547250316816e-02
-2.549441273390501972e-01
-1.775570429439352615e-01
-3.984102469484040454e-01
-3.709846287019921141e-01
-6.812168223329126415e-02
1.558712365081444187e-02
-2.163405520887823064e-01
-5.399325392525488460e-02
4.887777560044276326e-02
1.462282597294561025e-02
1.876149082141310293e-02
-1.786477918039433843e-01
-3.099419759364793192e-01
-1.891545211496288292e-01
-2.278391479584481183e-01
1.599734358725152794e-01
1.197920720285567397e-01
5.268983239218835019e-02
-5.880543104898857676e-01
-7.659999400781165591e-01
-6.931598028489466268e-01
-8.622043824597109829e-01
-2.770295006995376896e-01
2.474288831637435140e-02
5.864955856780541300e-03
-1.915910328419748176e-01
-1.469189533123877456e-01
-7.632470636410636222e-02
-4.698508243119640243e-02
4.166301089983159150e-02
3.295463014222477227e-02
-2.466705625214438494e-02
-1.111200636950960829e-01
-2.710620719728403238e-01
-2.416239337282801714e-01
-1.012364977591746207e-01
-1.016846224021575491e-02
-3.077739754797715888e-01
-6.702692686627143015e-01
-4.230660531802563074e-01
-3.599682490902884613e-01
-4.569724413295339627e-01
-3.430695644220365659e-01
-2.743375759352797982e-01
-2.033285811503326157e-01
-3.283648263479881368e-01
-1.750075563118858313e-01
-2.562123930400079796e-01
-6.590575562184672331e-02
7.289403303980888926e-03
8.179255260311409439e-03
1.571840800678800110e-01
-3.383279708869326580e-02
-1.032042604505435321e-02
9.848621861552808721e-02
-3.462352959595144108e-02
-1.754568350870092386e-01
1.174747348540990943e-01
1.087320056529273993e-01
2.144488601142549022e-01
-5.810575724739550085e-02
-1.216133258370166725e-01
-1.975692911966493021e-02
-1.184210566610969101e-01
-2.210935917019916375e-01
-2.940493006777343266e-01
-1.062313690705593283e-01
-4.017694086707783718e-01
-9.031958387789354448e-02
-4.212208224227617648e-04
-2.178097317821822698e-02
2.060524670413958204e-01
-1.129538698412648062e-01
2.394040055136716777e-02
1.209607179608387095e-01
-1.169743136127408545e-01
1.413398358444248881e-01
6.892700085396462617e-01
3.898159993075187013e-01
2.817422572011648030e-01
3.419294857205384397e-01
-5.292576216096690246e-03
-7.410601316503448444e-02
-6.414773937895532074e-02
-1.828499990644142370e-01
-1.830821785433462967e-01
-2.703701613104532164e-01
-3.306623555675192172e-01
-8.886944061712703791e-02
-4.656740309795356914e-02
-3.685375894524636070e-02
1.393757236360737839e-01
2.692756595348199111e-01
1.816915220513972418e-01
-3.652471003638600444e-01
-2.367652796706012641e-01
4.823476290708597625e-01
3.292082018490308792e-01
3.087202569752319214e-01
3.839414280040798766e-01
1.526351054811548591e-01
-5.663203347150250200e-02
-9.738268353331439031e-02
8.098979807171459433e-02
-7.722771851169125956e-02
-1.505526184933968226e-02
-2.551090095965256599e-01
-3.325582745504818138e-01
5.108085952285046881e-03
-2.318568856054900595e-02
5.023634205181758648e-03
-1.400696604018196456e-01
-2.412066110039205458e-01
-1.346139737863764063e-01
-1.593932911811953845e-01
-2.141911475323557759e-02
3.571857826728033203e-01
2.817643541773356963e-01
3.213951905722238767e-01
2.050124265055922601e-01
1.244864886254605785e-01
2.679684547719161092e-01
3.633697321836690808e-01
5.453769245213314215e-02
-7.684442173110160590e-02
4.311292771286730913e-02
1.003963703209531516e-01
-9.437399285524471215e-02
2.306281727415690139e-02
2.241113961612656649e-02
-4.375589916193814433e-02
-3.980435110110938646e-02
6.270499014292596485e-02
-1.259464978926312095e-01
1.541536051104835658e-01
7.619826565318246758e-02
1.963332757435223286e-01
2.540341761912886520e-01
6.295191249502321562e-02
2.145274890303459081e-01
3.582013075274488867e-01
5.214839571674316776e-01
1.856995877350592072e-01
4.389627961583064675e-02
-3.233291887868424697e-01
-6.285880122314106699e-02
3.272081180732973049e-01
1.588492014810009845e-01
4.530793448049607458e-02
-1.160993720208057696e-02
6.896102850260471540e-02
-3.407036520861135044e-03
-3.514222527758216197e-01
-4.178307214147122250e-01
-4.691567171265657171e-02
1.294780624857618245e-01
5.229231774640892561e-02
-1.789044415937366406e-01
-3.528296468974712052e-02
3.594891191465460767e-01
2.736083378608283323e-01
1.134616705661402741e-01
-1.583055150008563228e-01
-4.903611867720735762e-01
-5.319380743819022150e-01
5.905992844760795529e-02
-5.701798166403645313e-02
6.811602451203091491e-02
3.438739402284606700e-02
5.431327588679873974e-02
-1.147879579402162967e-02
-4.834562606974347060e-02
-3.044818254390045942e-01
-2.750740463510505385e-01
-4.289476140266664655e-02
8.645009347702448110e-02
-7.364741003469402192e-02
-2.277567412636867239e-01
-2.582240081673229173e-02
3.679329615307953133e-02
-4.401218467011890068e-02
-1.791988434650695350e-01
-1.563019684008184196e-01
-1.820974771192860608e-01
-1.647972850555444180e-01
-1.041924820360475012e-01
-1.390408274360430407e-01
6.657612829611536664e-02
1.613647174427498832e-02
1.341258930930695585e-02
3.186104501773019682e-02
8.059374536153018909e-03
-4.140881497224207369e-02
-3.211433921635002409e-01
-3.869648902166742399e-01
-1.422905226581772098e-01
-1.545613950357299093e-01
-1.114027290079468713e-01
-3.471111968049309104e-01
-3.540682095177128397e-01
-2.582224333450417464e-01
-3.548893543838173015e-01
-1.916603657704726293e-01
-9.930391302157909328e-02
-9.915966347587232277e-02
1.853725537863560452e-02
5.266353254009782658e-02
-3.229734988760938480e-02
1.770101030518646907e-03
4.660510226018927532e-02
4.646675003374738794e-02
2.072849650875701125e-02
7.269279372989113572e-03
-2.577786980246184467e-01
-3.694365788590381339e-01
-1.858126223113444053e-01
-9.183434390475948839e-02
-8.617463243301608580e-03
-2.141187090860195985e-01
-1.617237323846750507e-01
-1.311934443484463475e-01
-1.288993690503776879e-01
-2.610749560237000250e-02
1.583786035510694468e-01
9.765520391510547349e-02
1.279123789438681678e-02
2.425437295183790684e-02
5.623340345043666838e-02
-4.666270122701737799e-03
2.563068221300008123e-02
3.130256603524863429e-02
2.577611144622372202e-02
1.241427064655148231e-02
-7.021700693057481013e-02
-3.784850805348226321e-02
2.178156199351783881e-02
7.733298175332185831e-02
-2.089706031671974273e-02
-5.011590631320447797e-02
7.323645068627820942e-02
1.286742438476979819e-02
4.338427140570730138e-03
4.228003729009372630e-02
6.834723192045884244e-02
6.650416655323047876e-02
4.856202782866441553e-02
-3.358976809245797085e-02
1.100792785440768765e-02
-1.650114659116410504e-02
6.079860294616942253e-03
9.952892790139075338e-03
-3.621214846038715417e-03
4.031402809533932846e-02
-4.437107253841416667e-03
-1.268653458901007267e-02
9.682437912566375232e-03
3.680322236637149913e-02
9.400501595841371377e-03
7.292435361866408949e-02
1.555174888192020679e-03
4.065253032898427654e-02
2.063196631746278334e-02
6.431540787613373999e-02
-2.183857637288279425e-03
1.651010450609298116e-02
-4.077096698819049174e-03
3.636545230654924382e-02
1.671120176211018937e-02
-2.144933643686143879e-02
6.179456365428097619e-01
6.535578613664085046e-03
-2.275872828094701662e-04
3.110709868928799443e-02
4.555747192471193245e-03
5.732453420420590556e-02
1.081950205506326292e-03
3.099586551500823489e-02
3.933882637753003536e-02
2.708998463882729066e-02
1.665832392225245068e-02
9.244282249831287318e-04
5.840696073211215991e-03
2.357675823235779941e-02
2.850909908314807825e-02
9.228864779431236384e-03
3.736337095886099746e-02
2.336430603644731527e-02
2.835927290488379424e-02
-1.090134112177125296e-02
-5.166423030261796390e-03
5.580143955172725545e-02
1.692377615716151792e-02
3.081139347742566786e-02
-2.156693051998304772e-02
1.390453205525154709e-02
2.299211986918759873e-02
5.817136904257248775e-02
3.442693165924155113e-02
2.639968293706006913e-02
1.162900016312027598e-03
-3.286187292486779377e-02
-5.524757118093188805e-03
-3.325370633354812061e-02
3.159043743610327054e-02
2.377879752441855107e-02
3.984948830937918435e-02
-5.303290304589166476e-02
4.844197782584135081e-02
-1.773716040595584020e-02
-3.788842627580148864e-02
2.883830202189208852e-02
-2.048290660428545972e-03
6.107633273459034395e-02
-1.497707746529596158e-02
1.653749690539158684e-02
3.704001046790466462e-02
-3.259366706638850385e-03
4.075070752329863766e-02
1.529405410959898959e-01
6.868950736562209891e-02
3.588476298482642241e-02
2.861752032648337898e-02
1.134030747164544405e-02
5.815683189645597800e-02
-4.262993836904199058e-02
-3.401678594624563123e-02
-3.737330946470111565e-03
-4.932975367795200405e-02
5.718581270564621066e-02
-5.255436739660755002e-03
4.054133718451354007e-02
1.095134917390137852e-02
7.983272205128315313e-02
-3.398450048067847007e-02
-8.997709682154857169e-02
-7.886057167393403788e-02
-3.701889824674538254e-02
7.693522190086000967e-02
1.087610336449875564e-01
2.721333637180708628e-02
1.241534257579754441e-01
9.712337724961825347e-02
1.107523732979499298e-01
-6.144512638141296640e-02
-1.294190410481128872e-01
-1.232515939484275236e-01
-8.395363054871619879e-02
-6.837450002691035367e-02
2.238444971241457249e-02
2.461365339804832270e-02
3.242213842822266184e-02
1.726676939609762124e-02
-5.049962425316769504e-02
-1.205650676191068610e-01
-1.036799254983496593e-01
-2.207447181803234570e-01
-2.751742915717376656e-02
1.814624857760073484e-01
1.921697797878522407e-01
1.423489547603696559e-01
-5.787989175200020792e-02
1.478373444899623024e-01
2.026329552477494078e-01
-1.249666090161574983e-01
-1.161169973537779232e-01
7.936087670893325619e-02
7.585508500713394886e-02
-4.004784846583267499e-02
5.996562576535342803e-02
-3.640347202942285226e-02
1.295325688533528058e-02
4.026988784415706790e-02
-2.849418097853160733e-02
1.046714727604630829e-01
3.659676242846664901e-02
8.634637750877545426e-02
1.408825312900115201e-01
1.883914969077213897e-01
1.352932623470629592e-01
-2.682378254389554059e-02
-3.315885624110192359e-02
1.341877800830427736e-01
1.202955603541786822e-01
-1.556342248605442624e-01
-3.384145134742860273e-01
1.409967559499289425e-01
2.415551814805416420e-01
-7.356811610770727650e-02
3.219165202781600066e-02
4.593460688542039955e-02
5.273830165483625598e-02
-1.133230549736481338e-02
-4.785885924545940640e-02
5.528526331366984820e-02
4.428161622600538389e-02
-1.462896830718872221e-01
-3.343253437644543025e-02
-1.540825820692943160e-01
-1.472060317173689570e-01
-1.137977240414553698e-01
1.194927213200281252e-01
1.867345684986469467e-01
2.848139164669064721e-02
-1.639327794946857653e-01
-3.025957044096950210e-01
-3.590548602067136219e-01
-9.634705514918842639e-02
-1.807218939205904873e-01
-3.948679372516032682e-02
6.548078870729635848e-02
3.977081334828782427e-02
3.754338264085398114e-02
-9.755992893598409987e-02
-1.348441874515502459e-01
-2.261588967925686755e-01
-2.543640862375480260e-01
9.105700763718427293e-02
1.406522833543751190e-02
-3.400136351231970028e-02
-2.802393087445607112e-01
-2.952221405426745382e-01
-1.255182953563013515e-01
-2.275324669197143490e-01
-1.467947596031651258e-01
9.634571678220374413e-02
-7.997859672845888945e-02
-2.133243105628576386e-01
-2.114642095250452714e-01
-8.900454089817845527e-02
1.207058471235325850e-02
9.420058972595257837e-04
-1.524646591771955557e-02
1.725815066203292857e-05
-2.444535871250049647e-02
-2.332198991555313738e-01
-1.805863822097597549e-01
1.310848707843118577e-01
2.115098883200203228e-01
4.607457422977970229e-02
-2.744968547350012389e-01
-2.366150580379283164e-01
-7.611882244953445398e-02
-1.508659715774720023e-01
-2.480534121769780720e-01
-5.898562464298423569e-02
-5.691063917122564202e-03
-2.222621035098928666e-01
-2.813643857362130851e-01
-2.187660850692992320e-01
-2.020814490678154648e-02
-2.839427402295899988e-03
4.529694320371661226e-02
7.314674773283447173e-02
-5.060261024900812588e-02
-1.094692107649181678e-01
-2.181432533085128078e-01
1.713310051273839729e-01
2.590343916235097188e-01
1.102173594431050674e-01
-7.890066074098729676e-02
-1.504286082807911734e-02
-5.160000077006558772e-02
5.913020001927014879e-02
1.370754570539739481e-01
-5.302272716050921049e-03
-1.832247080664709538e-01
-2.419636113800958666e-01
-2.888341150142418878e-01
-3.204923643145791701e-01
-4.136629060939193969e-02
4.166318340099785245e-02
2.339015945684762982e-03
1.236347266642929682e-01
-9.844592719290466698e-02
-1.485682740242333377e-01
-4.199971893799717831e-02
9.727025530326528779e-02
2.610298278917238535e-01
3.275999310703883172e-01
1.988223854603232976e-01
2.598016105380966390e-01
4.302006615544770596e-01
4.293823144881550036e-01
1.597363625427710709e-01
-3.619014636086115844e-01
-3.436273047390255297e-01
-3.346242627407766679e-01
-1.759336144793722245e-01
-1.858640712891130864e-01
1.116783089479278859e-02
4.629814844563402698e-02
2.881250764061202632e-02
-4.518278535258588718e-02
4.611178138260425829e-02
1.093315887899658917e-01
1.342374239871674734e-03
-1.503393439733407833e-01
3.887614663003750581e-01
4.397896660755757914e-01
2.827935222021660255e-01
4.194838549398034466e-01
4.374665700234641741e-01
7.212442611814035009e-02
-2.181479803831483100e-01
-2.937443496576722102e-01
-3.621505988983703683e-01
-2.308023398458868836e-01
-2.918760649167199128e-01
-2.876532059476713532e-01
-2.133769143241880800e-02
2.184279613003738130e-02
-1.294280708794769488e-02
-2.268707481654672897e-01
-4.085761750859437380e-01
9.246328337131624886e-02
-7.732494931855640741e-02
-1.140838063335701882e-02
1.081303593139882474e-01
-3.052608320373437212e-02
3.263721141554159263e-03
1.813343647568342043e-01
1.170892240141915841e-01
-2.046835692678148633e-01
-1.655719174569655339e-01
-3.749971030869210797e-01
-2.894213646377794547e-01
-5.124922321117158369e-02
-7.694478471536490838e-02
-9.656621753656326190e-02
2.378133933288812188e-02
1.734216827445496031e-02
-1.785217738646672353e-02
-1.925615694007143108e-01
-1.465499017693130401e-01
-1.067493334863994919e-01
2.847511643174219231e-01
8.494279994112180487e-02
-1.113386877324438473e-01
-9.920359416740333336e-02
-1.030212691566160244e-01
-1.578858814661396881e-01
-1.108865277747310973e-01
-1.060685359043861409e-01
-2.150490419841652179e-01
-2.206907908566263510e-02
-8.024411695376110210e-02
1.773451942776026538e-02
9.984147448103518341e-03
-4.006401653463864676e-02
3.899841364089660922e-02
-2.972174361774366710e-02
-4.661667208056517048e-02
-4.215172179684560649e-02
-1.716511559883124594e-01
-1.137461511639293321e-01
7.841021639666348464e-02
-1.264139510219893792e-01
2.482883075682634777e-02
-4.579030850498964217e-02
-8.760272109214352343e-03
-1.881353391298084751e-02
-4.226542004965443133e-02
-9.487922138483566303e-02
3.608196886424358540e-02
7.025784648985715364e-02
4.784646705417495982e-02
1.683916479533128785e-01
-7.305280955428879175e-02
4.404914180389847556e-02
-1.489143775147226505e-02
6.374888745657608657e-02
8.741743013398401915e-03
8.841765212861006293e-03
-4.302977433622916931e-02
9.290954791663768100e-03
9.130603053995818563e-02
-9.370736027071631391e-02
-1.234101258609542617e-01
-6.813803628405815105e-02
9.507348991143368955e-02
3.783630682993487787e-02
