-5.382829667207817081e+00 0.000000000000000000e+00 0.000000000000000000e+00 -5.635622403293779809e-09 -6.587173497135012084e-06 7.392145073746341150e-05 7.009837894845136457e-04 2.260602361363801306e-04 4.852225997028203049e-05 -1.749890849688361539e-04 -1.082172880996313180e-03 -2.286413474616850159e-04 2.696073226604610079e-04 4.643285475257682851e-04 2.777203212114335001e-03 2.418659115962618501e-03 1.306291793836815733e-05 8.355157212851930775e-06 3.184883777199070436e-07 -2.063252188221513938e-07 0.000000000000000000e+00 -4.602557839862318859e-09 -8.743653622126592816e-06 -1.421791637791549298e-05 1.097228160190004062e-03 1.984134449468844333e-03 -5.474832309286039277e-03 2.208722916438758416e-03 4.703158467045568704e-03 2.561523211008308060e-03 1.160766031913022626e-02 8.149178525801496070e-03 5.838260557240525055e-03 2.061481907991417287e-03 -2.067857284777394403e-02 -2.448773632223156041e-02 -2.715154889329573530e-03 3.608478440370718656e-03 2.907328708547314827e-03 -1.247511909516572763e-04 9.933586416270397397e-07 4.101510935126965734e-08 5.413771330716208246e-05 -4.516404634553213129e-05 -4.877538683174608737e-03 -1.892034942456397029e-02 -3.465771030469552705e-02 -4.937987892406367485e-02 -8.015641217751960645e-02 -1.252962101474221213e-01 -1.540419829415883013e-01 -2.247657778929321448e-01 -2.711035424392246318e-01 -2.156760436675076442e-01 -3.444716029390730294e-01 -2.322974891163182565e-01 2.013652540289231560e-02 -1.636139691817999064e-02 -4.373180892394114977e-02 5.679930153242227636e-03 1.217573855263157827e-03 1.484009444776057628e-07 4.768368805248239658e-04 1.993747384042060446e-03 -6.483246752683048675e-02 -1.683828708322053502e-01 -1.781017894253930645e-01 -2.669078213135399613e-01 -2.306300155364640891e-01 -1.449831985375947818e-01 6.564394254241172344e-02 2.758630938076235273e-01 4.087819219387325148e-02 -2.668541333704633773e-03 -2.012913875529588059e-01 -1.708961388022523509e-01 2.585461865625630073e-01 1.296606470511434961e-01 2.317585743636018866e-02 -3.312239443903770841e-02 -1.016167188457859499e-02 -1.208851959270386436e-05 6.912458474878765882e-04 5.422106801672394588e-03 -1.087888227021416576e-01 -2.893471738482657485e-01 -1.659905154468617750e-01 -2.106542629865779115e-01 -1.780893448335630069e-01 3.394040503481425275e-01 6.213508523208591816e-01 9.444883793564470276e-01 4.657902692167107395e-01 5.533716765695840811e-01 4.248863388169660804e-01 -1.617624390072374685e-01 4.184099831150269178e-01 5.723288823650223289e-01 6.871714840439058225e-02 -1.091961574479474728e-01 -3.236428416770082556e-02 -6.773623811596415120e-05 2.063544327234924976e-03 -1.133163575893760683e-02 -1.679357382828091660e-01 -3.731474594803340650e-01 -3.099181984095237263e-01 -6.837573939056775796e-01 -2.898300554867906942e-01 2.528411013115506312e-01 1.236674095950691527e-01 5.937676131693490067e-01 1.061428481206668772e+00 4.174620406965243724e-01 9.487776311501899817e-01 1.624436278719899041e-01 -2.060857795601964138e-01 -6.793512382326253318e-01 -3.246704857274715916e-01 -1.771726796462992359e-01 -3.025975866992668475e-02 2.131836879476860062e-03 -1.684255607158641546e-02 -1.885789341202405434e-01 -4.272455825321004319e-01 -5.779485504054284739e-01 -3.230742907191113122e-01 -6.014986380368325669e-01 1.340042035367299267e-01 -8.998654030853348029e-02 -2.530964400386911256e-03 1.074345100203593362e-01 5.672127021897992449e-01 2.426002875639021450e-01 1.967452394803048954e-01 1.274065623188076479e-01 6.564208533508501808e-02 7.735971594640231319e-02 -4.844125361837340882e-01 -3.579841641088263859e-01 -2.471271699771085059e-02 2.784798888552494824e-03 -2.313252814026156221e-02 -4.642850849809612157e-01 -5.407803497261736148e-01 -7.387858874049285651e-02 2.793554357400425681e-01 -1.279981510706754977e-01 -5.903360137373978023e-02 6.273630259544991927e-02 5.202292462510132998e-01 8.531007665145461383e-01 1.388516246277762822e-01 7.279430015068018012e-01 1.025860523962391913e-01 1.133488353788673297e+00 5.911037181911752425e-01 1.008564470942547420e+00 -1.176167265514148352e-01 -7.766239615339726177e-01 -1.097759955445614527e-01 1.079257977873123971e-03 -1.452016833481485636e-02 -6.760286027616557725e-01 -2.682686914061546135e-01 -1.127336204533926634e-01 -1.423593851830294299e-01 -3.580474436805403116e-01 -7.509582017105356777e-02 2.090599135286994870e-01 -1.536219157302285976e-01 5.352810113331664121e-01 3.065270508154994689e-01 5.415412883690665646e-01 4.537341136632397354e-01 9.492130991355338665e-01 2.977407987093609321e-01 1.005339756188337930e+00 5.845156253809738467e-02 -6.207316131038619345e-01 -1.606753520803144153e-01 3.243955081433495011e-04 -5.768115509277511183e-02 -3.503226286897480612e-01 3.494106622202564072e-01 1.242526834444717954e-01 3.459353099879209359e-01 3.786621496836663492e-01 2.093253315764605771e-01 -3.979976543354216134e-01 -6.986518560888463902e-01 1.261851627518946559e-03 -1.381968393268661277e+00 -1.578484973811755454e+00 -8.986981816935420975e-01 -3.914736942206870074e-02 -3.920367028824653932e-01 1.083769669560897375e+00 -6.699936836788726591e-02 -3.805856328723541959e-01 -1.384662395322580897e-01 -3.784341973938933935e-03 -6.636955528849185215e-02 3.840921858691772814e-03 4.498819151915125492e-01 -1.068609879203722968e-01 2.738436945431881320e-01 5.123554072067465492e-01 -8.216189091497350105e-02 -6.798937487322407325e-01 -1.358447709966558614e+00 -2.034139920540365409e+00 -2.354174783678681937e+00 -1.148178899402881203e+00 -7.726646449653966631e-01 -1.111168484393845857e+00 2.298133791437139972e-01 4.930348771043387424e-01 -1.882306043224433456e-01 -5.975803648768555076e-01 -5.569626743557083703e-02 -7.898534885636437908e-03 -1.983957562581944167e-01 -4.571555839814144262e-01 2.353259687309384174e-01 4.710497551249436254e-01 3.305124090558862471e-01 -1.270541348496492251e-01 -3.627208140230813727e-01 -8.440152083575361841e-01 -1.571490214100288663e+00 -1.502938344351801181e+00 -5.898067261331001454e-01 -6.668555053050100323e-01 -2.806002699800164701e-01 -4.808799310074496347e-01 1.360147034339832250e-01 -3.538219601312366791e-01 -2.007440499299719960e-01 -3.793540063674711860e-01 1.266087736881714616e-02 2.590477110228036825e-02 -3.695072828850933799e-01 -2.851310454214470713e-01 9.312326550064137579e-03 1.449302409164588690e-01 7.517207085192858518e-01 9.241924675871571182e-02 6.250571208927653277e-01 2.240362009038340818e-01 -2.358241198821511564e-01 -5.060635812734812222e-02 -4.690014649581938921e-01 -1.419164960339789061e-01 -1.908271998828794946e-01 -3.635343946531500170e-01 -1.013572779063408591e+00 -2.598186982734358996e-01 -6.054723882712681471e-02 -1.372303609172251526e-01 -3.887198250338784553e-03 1.596331055754023759e-02 -1.811559536059004771e-01 -1.318146387880402559e-01 1.162867811084941638e-02 -3.183712514892610840e-02 5.762122677796700509e-01 7.073251954466214242e-01 1.053870993450570781e+00 6.041191633538121053e-01 -4.013416960756601704e-01 -3.319826380761974893e-01 -8.629874570256428068e-02 1.156452118585786226e-01 -1.040989624093389271e-01 -6.017740472287503861e-01 -7.890711513510128006e-01 1.304912541527304404e-01 -1.434501985054094653e-01 -1.422751586334991825e-01 5.358718320094163143e-03 9.264591077742806305e-05 -3.502682695298630494e-02 -1.752972482635307416e-01 6.380582695236869037e-03 5.918827171103036022e-01 1.615581888307998926e-01 -6.738215348333204124e-01 2.277701380195258918e-01 5.584523114864664572e-01 -2.346600705740183590e-01 -1.987207934551519506e-01 1.648663676782753107e-01 -1.978798319364458713e-01 3.862499187786585381e-02 -6.933122342901774093e-01 -2.438265764692031656e-01 3.053538140878884338e-02 -4.743848460460607375e-01 -1.855391703892282362e-01 -6.547948275926230265e-03 5.599601154618080549e-04 -9.287588078691786861e-03 -3.479602281321389490e-01 -2.512406812306252624e-01 4.075550076798546417e-01 -2.347377975519691629e-01 1.222302286638224100e-01 8.017414179438654420e-01 5.404214534597790998e-01 -8.133985121333496549e-02 4.034401987772436721e-02 -1.195248732196143582e-01 3.987811485041424242e-01 4.152974281515825483e-01 -3.332581257671607400e-01 5.510689343675540669e-02 -1.816819574395092673e-01 -2.817089528099946949e-01 -1.851508709545371667e-01 -7.997634942594174234e-02 1.953376331400227676e-04 -4.244545064561752279e-04 -8.413510680988564583e-02 -5.248092153628431539e-02 -9.674697440287256811e-02 -1.935266443330907749e-01 8.088752668716497896e-02 7.075337028837774822e-01 5.555001302975566269e-01 5.385904963389953615e-01 8.420972628745464483e-01 4.424547047481748874e-01 1.016375977599822400e-01 -6.678547150770620666e-01 -6.602279202817857851e-01 -4.571022245413101648e-01 -2.676477274833162778e-01 -6.017017028954580599e-02 -1.030745056321451525e-01 -4.803834435056185403e-02 -2.311310233158690651e-05 -4.240745566185012694e-03 3.783401684699788659e-02 1.724652578202824638e-01 -3.693486693968069390e-01 -4.233011888903792652e-01 -1.555749005586128803e-02 9.155348960700709915e-02 9.566064434483166623e-02 3.818317207727511819e-01 4.681868052977898320e-01 3.159715583891025692e-01 -3.088600148172964133e-01 -5.261162757824362490e-01 -4.773128728989617375e-01 -3.121618552361903332e-01 -1.574450276896726397e-01 -3.726569525643516883e-03 -9.613220458482240466e-03 -2.079140075895686375e-04 -3.663759631366160475e-08 1.870713483451071253e-04 1.943779488100677794e-03 -1.567163465988000506e-02 -3.152139253251679540e-01 -3.663120429561417812e-01 -1.889132340054001380e-01 -7.914188628871203501e-02 -3.420805218322280766e-02 -7.579644420752774947e-02 -7.606100446556379735e-02 -1.693029843558638836e-01 -2.283352339138970399e-01 -6.243309346758998957e-02 1.233989283133355742e-02 1.472696552125423580e-02 6.567923073399806015e-03 5.716329526995906360e-04 1.443207607211665451e-03 4.894664600142846185e-04 0.000000000000000000e+00 -9.789422382583071129e-06 -4.620898335439167104e-05 5.506287465594943142e-03 -7.024005380178535707e-02 -5.548370029756399986e-03 -2.221882850604220069e-02 1.227630653269073339e-03 4.013550575717150445e-03 6.253351561468598052e-03 4.618409493201857362e-03 1.284048677020164023e-02 2.007999481205481607e-02 7.020133292713396506e-03 9.922171748171348254e-04 1.553281796168305001e-03 1.223852206962268657e-04 -1.215085025354770609e-04 8.184461289379371470e-06 0.000000000000000000e+00
-2.379600956931833267e+00 0.000000000000000000e+00 0.000000000000000000e+00 3.451024326621115047e-05 -3.189621912272314237e-04 -3.490096096602304538e-04 4.563991694312338190e-04 -5.352003009386744128e-03 1.064753092088260942e-03 1.706222222705372829e-04 2.497794072064304081e-04 5.051678633261195474e-05 7.474611166565499982e-05 3.231254269725846828e-04 3.822167702610507981e-04 1.402078458839214415e-03 1.833856524409607780e-03 1.527808440351667476e-04 -2.626965383470309014e-05 -5.677671981589169083e-09 0.000000000000000000e+00 -9.255727997915255700e-10 4.426050094401570996e-06 -4.449637816636587556e-04 3.604806835736495962e-03 4.154453305473619282e-03 7.170438152651392510e-04 -7.048345421836410551e-03 7.786273344560812630e-04 -2.354716102234018314e-03 -5.167419265414461595e-03 -7.649828460633669239e-04 -7.727539089983427893e-04 -3.326652791290571082e-03 -2.232242667071675842e-03 -1.251228818461644701e-02 -1.708865658222391906e-02 1.331418598886041030e-03 2.504238747346198158e-03 2.503617637890252962e-04 9.621872042316752542e-05 7.317178036371789080e-09 -8.719107887119741411e-05 9.837448462868233535e-05 8.341789489989698617e-03 1.776191425755008560e-02 2.790725669203050763e-02 2.575795449295057229e-02 -2.400911699032629021e-02 -3.347154062253716172e-02 -1.198296612248441612e-02 -1.272160070083624972e-02 -1.315482605900819514e-03 -1.124645267052301612e-02 -4.886788533447004867e-02 -9.044864821298932711e-02 -7.439328298691871844e-02 -2.179405054100374758e-02 1.166515303229817210e-02 2.170418190171918870e-04 -1.605861840052159276e-04 4.003436159019236016e-08 2.507228663405727830e-04 2.606699150118750846e-03 -4.389483842685018566e-02 -1.646862245938674196e-01 -2.749478896634425795e-01 -3.926558039503012520e-01 -2.446819388902422010e-01 -2.312807808720843405e-01 -6.609016117603806577e-03 1.019010294059544963e-01 -2.645622203210067080e-02 -2.790452834898959206e-02 -2.100262644148790658e-01 -2.580800850899713228e-01 -3.379860640377841952e-01 -3.453740078986915485e-01 -3.427562432056422415e-01 -2.611407343348772642e-02 -1.035676563304177566e-02 8.122931333433000837e-08 1.758382165492328132e-03 -1.485110892670378664e-02 -2.163727586010598739e-02 -8.849522089538225389e-02 -8.942973862597815016e-01 -7.557514990487563811e-01 -3.473386523394033504e-02 4.171564753301583717e-01 6.199012679019284544e-01 4.706954287892731875e-02 -1.335486620054618101e-01 -1.404104391341781943e-01 -6.214751795427970738e-01 -5.808770994157903544e-01 4.865884983118668461e-01 2.616209316052074407e-01 -2.693458075261241924e-01 -1.218268675322772832e-01 -2.322919818897468264e-02 -1.228115076095382256e-06 -4.416336839924476197e-03 -3.969877955948469817e-02 4.639647602749942812e-01 8.304717913841873356e-02 -3.389028279898903540e-01 -5.733149804101296265e-01 -2.564934231726450631e-01 7.694454097068325060e-01 5.219426177497795694e-01 -5.108429222197364838e-01 -3.717499651302081376e-01 -1.975634338291495096e-01 -9.078154111317922048e-01 -7.882799056270201055e-01 1.118913610582982665e+00 4.809015330475625016e-01 -9.347645826570654126e-01 -3.083401452935852771e-01 -1.883738171113091137e-02 -3.081654593616594163e-05 5.059632265034161823e-03 -2.584553483703324051e-01 -1.835257310346934678e-01 -3.155136630187849733e-01 -7.004399589231001810e-01 -4.694906710421717366e-01 -4.256125850861953164e-01 -1.094682438020611881e-01 -4.262144116081365008e-01 -4.921850511596010391e-01 -3.897932662245151558e-01 -2.619620289882441111e-01 -6.022130213726989423e-01 -7.650332198945590800e-01 -5.766987893563643164e-01 -4.531820324689454088e-02 -6.688077664035882997e-01 -4.721734869886126673e-01 -1.046124595113880063e-02 -2.341592405668064983e-04 1.715059794455979503e-02 -5.157548522569261884e-01 -9.998236721192347298e-01 -6.510568808693801834e-01 -7.184874761900285067e-01 -2.851524771324900343e-01 -4.185986572786674631e-01 9.678290071742793113e-04 -1.204533266246923029e+00 -1.268946200044036798e+00 -7.815589951007142488e-01 -9.807054485219625084e-01 2.186916602459445247e-01 7.203385334502062642e-01 -2.323538349616392218e-01 -2.571268319166536420e-01 -3.100863717562455379e-01 -8.850270656179929363e-01 -8.173187643904239116e-03 5.296418518738698483e-03 -6.177897415906881406e-02 -3.838100268176225516e-01 -3.605102978397616842e-01 -8.334411725548873662e-01 -7.322431104420246140e-01 -1.148376253507433220e-01 -5.321109328292821655e-02 -4.108772577000513460e-01 -1.196376025785761188e+00 -6.757629078364862929e-01 -1.893975454502629385e-01 -5.047076905227436683e-01 -5.325641901345131712e-01 2.843640792124028649e-01 -2.586717238169422561e-01 -6.002467450555302175e-01 -7.527033872243072965e-01 -1.048982744848658388e+00 -1.662128614863986054e-01 1.065938589603220889e-02 -1.203948482819315602e-01 -1.143346879117266707e-01 -2.495611133826456940e-01 -4.813982815023734041e-01 -3.627541238530767043e-01 -2.340627494347563287e-01 6.143726587156605329e-02 3.162908367655000719e-01 5.237959972294262689e-01 7.938630695101637214e-01 5.733028190632218912e-01 5.201136885855729419e-01 4.121046605987798150e-01 -9.465872643926913702e-03 -8.227791497509200358e-01 -3.197585490204968295e-01 -3.568631644302756589e-01 -7.550529045610692158e-01 -4.787197039465473924e-02 6.923615299846643326e-03 -6.654208899738904559e-02 1.958528621996379060e-01 -3.501178862949041459e-01 -8.428132964508106006e-01 -1.005301809694317816e-01 1.437800695301327467e-02 7.389960726886450892e-01 1.803547787285030957e+00 1.856448612009895083e+00 1.262897385623832136e+00 1.176358979418519635e+00 4.036862547893937947e-01 5.717478058197317248e-01 1.074690771292389907e-01 -8.048694521701836579e-02 -1.591921499585380873e-01 -8.032686849355544778e-01 -5.843794683191462225e-01 1.475108827897131727e-02 1.949610043897753329e-03 -5.581131083254833869e-02 2.297419617147439530e-01 7.424535509859666593e-01 -6.941069548002137823e-02 -5.359353917649422039e-01 -3.021719156107179338e-01 8.639964227739158620e-01 8.470610534346272313e-01 4.276690069309109776e-01 -1.612911376669851071e-01 -1.033207832529346032e-01 -8.940592162243076180e-01 -7.059198394638309670e-01 -1.513408653605453208e-02 2.475077944064061619e-01 4.039939070451388781e-01 -8.988298894968667074e-01 -5.822067239705494002e-01 -1.821412023139499028e-02 6.893248830436547910e-03 -6.767552285374896226e-02 -6.943784863799652429e-01 -6.348991826802757865e-01 -5.013821385054114677e-01 -9.195642925445420834e-01 -2.922244015921286464e-01 -2.966127126363692426e-02 3.430985371859396338e-02 -3.370944151780228687e-02 1.181777596446541290e-01 3.253702031914099818e-02 -6.278645210908634366e-01 -5.023748419054469005e-01 -4.903639335900118468e-01 -3.442922468482360610e-01 8.236262482326581758e-01 1.970518270290098073e-01 -2.581146265562777598e-01 -3.702043245535596716e-02 6.226874608428172725e-03 -7.842118518187567167e-02 -4.095802316472513804e-01 3.646509226337182885e-01 4.145747112423038283e-01 7.197837157363032867e-01 -2.732545451014137816e-01 -5.927244494334402702e-01 -8.971861060205569074e-03 -7.509903817040605167e-01 -6.945026772713096541e-01 -9.417616620009507944e-01 -5.083874627654735301e-01 3.338193895281526546e-01 4.344223570565221570e-01 -4.044399521716107726e-01 4.223399871620412971e-01 2.375950637324136527e-01 -1.721157100162295783e-01 -1.167921069876582535e-02 1.085257408865322086e-03 -9.636665679356211031e-03 -1.945620176426679504e-01 -2.142687352054529690e-02 1.819544086748390022e-01 -1.293612587333745068e-01 -6.829154141075097773e-01 -6.714985370376658214e-01 -9.768951830502357048e-01 -8.090305282059557790e-01 -4.842325411873688590e-01 -6.696982300335478921e-01 -4.503374366189958899e-01 5.734224529408974425e-01 -4.015086359523030723e-01 -3.475299027972748034e-01 6.108337787751786374e-01 -1.937117781987737763e-01 -1.395307574549185248e-01 -7.806145763220514143e-03 -7.911411788539674504e-05 1.536821457668878337e-03 -2.580421531810919017e-02 -1.042301982908118152e-01 -2.011756135885007790e-01 3.007101814023097064e-02 -5.413840792064034124e-01 -6.571045300905740127e-01 -4.497761528162459999e-01 -3.406267608529938706e-01 -4.092432000801783931e-01 -5.095282800355415143e-01 -5.163825471680204560e-01 -4.490166105785276529e-01 -3.169883253081872687e-01 3.114446948249850397e-02 5.634392666492420154e-02 -3.316655171358594001e-01 -4.431150400703225828e-03 -2.308280381569699242e-03 -2.371282632508170383e-06 -5.644833408753915406e-03 4.100036089959271934e-02 3.002048545362104859e-01 -2.615975606305532275e-01 -4.976629462751416266e-01 -6.087106423819806933e-01 -3.926380554952240698e-01 -1.875817022992392336e-01 -1.565347853421728275e-01 -1.090744045771775278e-01 -1.560269842967557941e-01 -3.499636952838217074e-01 -3.901830207292258240e-02 1.040375089922769419e-01 4.027673251257805204e-02 -1.169127169210887190e-01 -9.189175016246067806e-02 -9.829246676288278667e-03 -1.701579618020162112e-03 1.441348006065953101e-06 -1.991148168400796222e-03 1.522864085692976141e-02 1.079346721809910925e-01 -3.366022633070493986e-01 -5.095756402487818804e-01 -3.528011331029098918e-01 -6.871558671785006622e-02 -5.806439090476946813e-02 -1.328036471290748310e-01 -2.895609996499440286e-02 -5.450774476652138489e-02 -1.569237163865020435e-01 7.838446540217594571e-02 6.183721926126671820e-01 7.186136130670959243e-01 1.717600397606700025e-01 -5.148894821112832282e-02 -6.289648060977520889e-03 2.577304362436412142e-04 -5.462113572327827373e-08 3.517047875525961551e-04 1.270434020329360997e-03 -4.669122818805707120e-02 -1.335941277111228620e-01 -6.438930146521985864e-02 -9.179160371273439867e-02 1.477740472737904820e-01 9.575117633616793411e-02 -5.542174245572041580e-02 7.273630791323315581e-02 4.142905046168198283e-03 -4.822714213742382988e-02 -1.221088963984562521e-02 1.352204136760320197e-01 4.507827640137200831e-01 1.173240510755855504e-01 -1.245471468079807284e-02 3.922382158755125013e-04 1.388581792937214077e-05 0.000000000000000000e+00 -2.232140483394918546e-05 6.785486114969744307e-04 -3.881566178264051880e-03 -1.808130911205638744e-03 -2.735005915416653926e-03 3.750520206768526588e-03 -1.703893507408206845e-02 -1.423289251946733593e-02 5.238398664553946390e-04 1.257196869648290367e-02 9.492600650370654159e-04 1.913386474124605108e-02 9.675509370924365027e-02 -2.591751851881288378e-03 -4.087680777716418135e-02 -1.029308237510308428e-02 1.272282227296402633e-03 6.072455506563406173e-09 0.000000000000000000e+00
-3.182168249696404327e+00 0.000000000000000000e+00 0.000000000000000000e+00 -2.751098349064641461e-05 3.652978148325337990e-04 -6.934995528867898265e-04 -1.448555376006829300e-02 -9.706519261851578873e-03 -1.155954154262147510e-02 -1.385040625562548085e-03 -1.085267610516465857e-02 -3.951260786996120891e-03 3.431352089531758236e-03 4.055784848183262986e-03 1.230705412663078745e-03 -6.342073973373875580e-03 -1.875388881045220038e-03 3.931308255911839140e-03 -1.395170448012626068e-04 -2.048922062675144986e-05 0.000000000000000000e+00 -1.577915594990385004e-06 -1.139598538200986491e-05 6.298188963078876984e-04 -3.649161265351804056e-03 1.151271180502127026e-02 1.305340440986631767e-01 -5.941416306220257543e-02 -1.265591149547541372e-01 -3.008942776900423721e-02 -4.196151142177118737e-02 -3.698481316817799763e-02 -5.339082091442426403e-02 -4.518161270553009562e-02 -1.455031521115897342e-02 5.275532204266501768e-02 1.828008476614869163e-02 -4.923061092163864144e-02 3.840156196680656955e-03 9.527107744386315545e-04 6.774785645300133335e-05 3.539054685415368411e-06 3.171866117836722333e-04 3.065678642610326996e-03 -2.320223581164949922e-02 -2.915088971557039943e-01 -2.345672676396995393e-01 -2.965678685611240484e-01 -3.637931510774442545e-01 -2.861555492864013561e-01 4.917237899397574469e-02 3.917345730651765612e-01 5.625357776815058664e-01 -5.991211583926022571e-02 -8.605550930540343257e-01 -3.085800019260545590e-01 1.574885096665235018e-01 -2.864692198377541965e-01 -4.368176369124558006e-02 2.940534474553652480e-02 -2.425009295589680442e-03 1.318085180238905976e-04 4.994857587479441729e-04 -5.030890067754521799e-02 5.137406150723256709e-02 1.147094844803040053e-01 2.222646368577224085e-01 4.205729948751661396e-01 4.196306923519073639e-01 1.128651346489489421e-01 -1.134855763480505431e+00 -2.104331155990958602e-01 8.785622585601637891e-01 1.132864316927077314e-01 -3.453844798090088819e-02 5.072433667729676632e-01 -1.822749101491842882e-01 -1.725924605149126156e-01 -4.920693240924917111e-01 -2.730505895428392837e-01 1.436016283096999344e-02 1.786366043607213929e-03 -5.219703961681486197e-03 -1.277547157656750698e-01 3.742238595426901071e-01 -1.612923559930874995e-01 -3.535459674771262439e-01 1.851614044190031672e-01 -3.521996222805432453e-01 -1.482050541634574836e+00 -1.853341688751273697e+00 -2.939966128478256335e-01 3.212375877306834493e-01 9.034205952025171626e-01 3.866672118260690016e-01 6.558770654454619195e-03 2.269879708109141803e-01 5.075078005029857176e-01 -5.958698132350642718e-01 -7.952786859499908489e-01 1.797206711108785895e-02 -9.119985175534528477e-03 -1.141447464861156252e-01 4.039860466784309795e-02 6.153877548515911400e-01 2.314124227247371102e-01 4.360785340227490980e-01 2.754832909330603430e-01 -2.746743557441622130e-01 -2.101159904889180474e+00 -1.682848368135085426e+00 8.942861023946022669e-01 6.041472148067020820e-01 -3.809399242091078552e-02 1.051403579470777228e+00 1.236298829868957283e-01 2.594425164333943323e-01 9.577590680254931543e-01 -4.140201939906797829e-02 -9.530073719532380361e-01 -1.797843872824332959e-02 -6.369399061907068949e-02 -3.619261224769972363e-01 2.046411612962895921e-01 6.889155577445421619e-01 1.317338808876453160e-01 -1.750158405263394501e-01 5.143679628697293005e-01 9.726879906468387238e-02 -1.991296199624593477e+00 -1.334317771440437284e+00 2.884664338374235415e-01 3.900865550378798119e-01 -3.623482450776423502e-01 5.710116858941207685e-01 5.290970114309747618e-01 -1.804665500834179079e-02 -8.489711186563161371e-01 -6.149438364162371773e-01 -8.537492968647611979e-01 -7.300774094080318688e-02 -4.581032538018364741e-02 -3.242649720607140296e-01 7.778846625102785461e-01 9.926084489808496836e-02 -1.464901093419767042e-01 3.330783539378767699e-01 3.758902005688156689e-01 -2.282772120664460225e-01 -1.596967637142075125e+00 -6.014080986572036824e-01 -7.618837920088302740e-01 5.805069361953048013e-01 -3.673739454493453460e-02 1.709755775878284145e-01 3.689735692442864257e-01 6.862009740499386279e-01 -6.618780645628336012e-01 -7.569954258235266353e-01 -8.239043680174055195e-01 -1.261112192706743129e-01 -3.064964165014784012e-02 2.283138462452459772e-01 7.444100946594521817e-01 -1.264824374385590811e-01 3.708784694884141309e-01 5.096917458502797649e-01 -3.587758827244514337e-01 2.694645989487494120e-01 -1.075064687262920371e+00 -6.623167766243736043e-01 3.564327025116616476e-01 8.421792698254352283e-01 6.002745433666751840e-01 6.795770212336634808e-01 4.983829416379723654e-01 5.471306229556394118e-01 -2.234415076618690155e-01 -6.521999881995423909e-01 -6.061152324264453828e-01 -6.822479651949799051e-02 -4.555972159365517110e-02 2.943226672046499459e-01 3.006044362901364453e-01 6.633580002142223098e-01 1.087324202945736951e-01 -4.613909675292728885e-01 3.450125632584615243e-01 -5.999707882073024301e-01 -1.415234865119919139e+00 -5.034632978981572471e-01 -1.983088986377464225e-01 2.665857663581154835e-01 2.032412474180709805e-01 6.997740106401038052e-01 1.476543907154299062e-01 1.769677183624813743e-01 -2.253892072427210735e-01 -3.716427813492936272e-01 -5.608157075403378267e-01 -4.658288336530891360e-02 8.325018918755736075e-02 -8.952029409130375370e-01 -3.584728139364766752e-01 8.060044547316410624e-01 3.207688318462930122e-01 -2.995528580941478891e-01 3.137396459131131521e-01 -3.934984872169342562e-01 -5.538323720447161369e-01 -1.277386437433331468e+00 -2.796343647309636471e-01 3.714414147808378641e-01 2.301161142730836495e-01 4.805398778117099812e-01 2.392320284513372308e-01 -9.129467314985121318e-01 -2.413275759094152262e-01 -1.709680402635102847e-01 -7.418360457232645588e-01 -1.614289614304180442e-02 2.655640140493260026e-01 -5.389113143130436212e-01 -6.734107535938057554e-01 2.261950087621255601e-01 3.846269291467176998e-01 -7.259841190471041927e-02 -6.277468543491930841e-01 -6.402954580250073448e-03 1.337844462030567116e-01 -3.882941725162590840e-01 -4.633681752707965451e-01 1.960443133887911082e-01 4.646863813394451204e-01 4.242165858389002758e-02 3.316391241695947900e-01 -6.222093324750017640e-01 -3.846907091053473060e-01 -6.138836504480115197e-01 -8.705095165112556321e-01 -4.755349512024326097e-02 7.854745829675997826e-02 -4.699927483910765758e-01 -8.796462018685740070e-01 4.137040844855696120e-01 3.294863814209181840e-01 -8.269438322980771083e-01 5.063287986213712566e-01 9.262958615658381870e-03 -7.601566199055665995e-01 9.776472169308115731e-03 1.660839495855571668e-01 -6.460351095933294374e-01 3.460524649553997079e-01 3.750339722044109814e-01 -2.516943358606601455e-01 3.093572381981933295e-01 5.780670812219366184e-01 1.590487067617137595e-01 -3.862861560187570431e-01 -4.976265865986295028e-02 4.650112231624212861e-02 -7.181584307057991001e-01 -8.658380235303035910e-01 -5.144902247723800448e-01 4.892276967140830046e-01 -4.253434513786229498e-01 7.182416399203581658e-01 -3.167958751423462505e-01 -8.146711951559867382e-01 -3.127457346602936505e-01 -5.303197779186051841e-01 3.163203388862746435e-01 2.263266785989726318e-03 -2.273057103600082118e-01 8.243171938669929810e-02 4.523575819214334937e-01 -3.623800949079291622e-01 5.835113285339574851e-01 -8.549898891230359177e-02 -7.859059619651116713e-02 3.028007948089140797e-02 -3.929648941372996807e-01 -1.253104464306386244e-02 -5.111525643827002918e-01 -8.948401926658132444e-02 -2.021800472357437317e-01 1.608528014915930338e-01 5.767729951018669698e-01 2.663658347983325902e-01 1.211971326838920254e-01 -3.014693818600770459e-01 3.761871359816639226e-01 -3.086246609504315064e-01 -3.365660080202177995e-01 6.769651165362119416e-01 6.251554771517698894e-01 -6.970474749324860886e-01 6.451280010018793920e-01 -3.038969264041088691e-01 -3.063422226506514606e-02 4.156793594088444010e-03 -1.237585089260793692e-01 -2.268912253562817838e-01 -6.736114060594129427e-01 -3.907505944598870795e-01 4.956929884663749952e-01 -2.949007813025100178e-01 1.254881020346059750e-01 -2.015772266785108846e-01 -4.254219065440820180e-01 -7.682416985358430095e-01 -1.607516592935170907e-01 5.785163362637174567e-01 3.790167694967115919e-01 2.258846206466498807e-01 6.649232410447203367e-01 2.526993783842391150e-01 2.271473546303221791e-01 -2.522169801723532778e-01 7.531818009897207206e-03 -2.260107623713538197e-03 1.596758615036261708e-02 -9.685913742104648727e-02 -6.817091658938826404e-01 -7.070705071223460925e-01 -3.607334655777035826e-01 -2.472331761597976463e-01 -2.214949580595000356e-01 -1.045533423175956100e+00 -2.328704514985622531e-01 -8.983188519951442741e-01 -9.718732144847213039e-01 9.721623415039271077e-01 3.931474399810229725e-01 9.737743838455600875e-02 6.844558508701727995e-01 4.829298293658097485e-01 2.825591896315629917e-02 -1.381716861542320873e-01 8.586956644724834040e-03 -1.042984339570351493e-03 1.568817122106168360e-02 -1.236915500807316860e-02 7.640570023372962594e-02 -3.979218917276470258e-01 -1.108721148660810174e+00 -1.053393804099144848e+00 3.105459640325248794e-01 4.639135111096506225e-01 3.979306805476114373e-01 -6.141116935035330071e-01 -4.690061744791688969e-02 6.778457144262172163e-01 3.022732308282440328e-01 3.408978229297345841e-01 2.686899647236229427e-01 2.588657375628578006e-02 -9.084059645893079182e-02 -2.365804821200594849e-02 2.058396552736482116e-03 4.604605500792898366e-05 -1.256766303778109745e-03 -2.668021850966408037e-03 1.111788719914537926e-01 -8.886693983708714509e-03 -3.589446349051712559e-01 -4.160474276438484997e-01 -4.336622026753794018e-02 6.389611232377622185e-01 3.719679341449018128e-01 1.560520195000208721e-01 1.416368688960752742e+00 9.734678949761371713e-01 4.954968244234456698e-01 2.512500240936826335e-01 5.002665221390907579e-02 2.587198241812556365e-02 1.000827618110454974e-02 1.241179145249553945e-03 -1.422617298817493580e-04 0.000000000000000000e+00 5.038913969441769002e-05 4.913811738512000819e-04 -9.413008916958816655e-03 -2.646258580968959689e-02 2.659554605775200139e-03 1.965444397774328972e-02 -1.112031949076974779e-02 2.529286565280474894e-02 8.703425809221251863e-02 1.669429517232612348e-01 3.637727262580992549e-01 2.835972744732798700e-01 -1.426301817050026378e-02 4.328676709941470246e-02 1.134611210057824213e-02 1.578125475042787759e-02 4.332225526356830829e-03 -4.941800401646710564e-04 0.000000000000000000e+00
-4.797516429765079415e+00 0.000000000000000000e+00 0.000000000000000000e+00 -7.819945102641371443e-06 -1.879786902944999142e-04 4.701143777654788296e-03 1.639196416601306286e-02 -2.921899852763277725e-02 -3.518321640880794215e-03 2.905617418259702576e-03 -4.274345859003087118e-03 -1.119686096206554604e-03 -5.091924571946852135e-03 -1.658762699694457665e-02 1.816574099650322335e-02 2.866793601825886814e-02 -3.378978873339570730e-03 -5.858751592433957293e-04 -6.035963186982323983e-06 5.848039623008524549e-06 0.000000000000000000e+00 -1.102690322114711289e-08 -9.704777620722439431e-07 4.190378240122476835e-04 -2.922921688386911909e-03 -1.107205034932889909e-02 -7.502518124141170641e-02 -1.871857313166363501e-01 -1.316166278431312453e-01 -7.334111124769114587e-02 -2.645190384222703694e-02 -1.720012764763860155e-02 6.445031590377718611e-02 1.708911990503634570e-01 -2.348472446776321276e-01 -3.375924262499866990e-01 2.817909732363659339e-02 -1.518224255519647591e-02 -3.221957890636479444e-02 -4.684613867562311719e-03 6.139271697498200004e-04 9.565302758329529779e-08 -2.009922978176359389e-04 -6.775551178608508508e-03 6.949651813389150223e-02 4.320263438085546470e-01 8.717996778990039219e-01 6.587802070677291066e-01 3.606621290748356912e-01 -7.141895500981680633e-02 -3.162243810779453990e-02 -9.512627136001400308e-02 -2.318305228487556047e-01 2.544030541965244807e-01 6.042853916061993180e-01 4.399367221632899949e-01 2.934043677422280560e-01 3.862384559476411683e-01 6.646314416359049293e-01 2.928858359729229199e-02 -4.523528276152133029e-03 -5.210930810303666297e-07 2.231860370267433041e-03 -3.451846672502039554e-02 1.419393964199598679e-02 4.903628307055613034e-01 3.295566709660168736e-01 1.934025738437784026e-01 -2.299338990408112127e-01 -6.940815001595315170e-01 -4.439514773928015523e-01 -4.092602357421920578e-01 -1.467074198032834176e-01 7.650525909339643826e-01 1.195640042262834823e+00 1.214183567158081622e+00 1.238188969795451511e-01 6.418245314647577082e-01 1.163521183222617772e+00 2.012135696189699396e-01 -2.961434555077335426e-02 -4.624346728094392527e-06 -1.800532738203405826e-03 -4.404756981054698539e-02 1.651741164738891321e-01 5.086318093751641678e-01 1.281278571929010722e-03 5.271597416660427360e-01 6.971072775585176462e-01 -9.612793134447480403e-01 -8.078800091500895064e-01 -6.349032795314565325e-01 -7.424664579215882743e-01 -1.293435141904114849e-01 -2.614849994830276692e-01 1.063649480907866041e+00 9.087760332236917427e-02 1.999700455191051607e-01 6.909568674375906605e-01 5.201446478413210284e-02 -5.540553191230772334e-02 2.094694415605672137e-04 -1.205322765375608715e-02 -7.813695057713695991e-02 4.934167774203134238e-01 4.898614725122325542e-01 -1.160640427131834074e-01 -1.540387524366210459e-01 -1.960479095258218230e-01 -1.119437142196268109e+00 -2.889554480006416015e-01 -8.404108440558436532e-01 -1.367497042381363270e+00 -3.025178460202083142e-01 -2.244036437776996962e-01 4.816297104143978935e-01 -5.934207040438788106e-01 1.384552565471279528e-01 1.680095058592058432e+00 1.076685018710303587e-01 -9.860271898780675892e-02 4.784291099122448291e-04 -1.339318901637471734e-02 -1.358376083701479109e-01 -2.632915892468620234e-01 -1.330601613522022497e-01 -1.260576220127196112e-01 -5.602989751848448385e-01 -6.208485038236281062e-01 -6.719202074996313279e-01 -5.390357994766240557e-01 5.427382727992281497e-01 -7.538695091506073531e-01 -5.018972421359242375e-01 -3.862780450986459946e-01 2.655975390713201656e-01 1.589023305688354593e-01 1.782944807720672487e-01 3.672879328268207066e-01 1.799444577439032467e-01 -1.192106067425480198e-01 4.456716773924457070e-04 -1.257013439877077352e-02 3.029497143885406807e-02 -5.050550128757745616e-02 8.505663581355629166e-01 -6.696031981096281505e-02 -2.579623616464875036e-01 -1.209617567952656403e+00 -5.515439480783534965e-01 -4.993398082502735202e-01 -3.242486632618991199e-02 -3.030169198697781896e-01 -1.813724016576992781e+00 -9.246570746177340538e-01 -6.083355637392423576e-01 -2.693735643024276483e-01 3.806404111476447416e-01 -2.414794156162121397e-02 4.107782346539241569e-01 -1.047834487285456834e-01 1.656193160544474881e-03 -1.407014001987764475e-02 1.797775246671220184e-01 -1.103832709945322954e-01 3.866156324143364409e-01 -1.890761998097851004e-01 -5.162830807156398860e-01 -1.195015534157355397e+00 1.931873959831261200e-01 1.478140805887740161e-01 3.479454367486872757e-01 3.702149328540057516e-01 -1.326127708578325182e+00 -4.725461733616298510e-01 -5.626672081544470405e-01 -7.777359912460775349e-02 2.033752029654458948e-01 1.745471733008687465e-01 1.046234927170775347e-01 -2.831660288091258360e-01 2.828430532338383277e-03 -4.944642819897357433e-02 5.944538680555581101e-01 4.824164600232086486e-01 3.795520312846740185e-01 1.460793059192410925e-01 5.258167090971219704e-01 -6.869925448482917529e-01 3.128963107192434534e-01 3.557324008427452666e-01 1.722074557311011889e-01 1.499216206708250954e-01 -1.100442699190088858e+00 -5.559746597170307503e-01 -1.749139215701520436e-02 -1.547025420798487372e-01 -1.202131417395542745e-01 4.330252303200360919e-01 3.981858673329343179e-01 -4.903163060851490895e-01 1.986634302760486095e-03 -3.596729869178735828e-02 1.898082738562911417e-02 -2.737205477398176878e-01 -3.553578658666440293e-01 6.317509519075346081e-01 -4.551093699471279175e-01 1.725599656706581775e-01 1.185754436499038444e+00 2.796689280158228263e-01 9.534158124095253040e-02 -1.601992530126367942e-01 -1.377932806825027168e+00 -9.633162617669329686e-01 5.510209859555807721e-02 1.159469836708968971e-01 1.546128411774145839e-01 -5.790830481665267676e-02 -4.046192815829902645e-01 -3.625673935025366945e-01 2.951376799886165029e-03 -6.045360506458392208e-02 2.008286380089204515e-01 6.623801906975300691e-01 3.448205372210482733e-01 -2.045569975521822625e-01 7.591130310773914758e-01 1.244045235196967525e+00 -3.129638166871938632e-01 6.356581120235611504e-01 2.068090993356197504e-01 1.287108940905832416e-02 5.899785907842568511e-01 4.964302401915215990e-01 2.206481442667732884e-01 3.221981290830395750e-01 1.001555691875161830e-01 -1.724487649175070469e-01 -7.841813385234043254e-01 -2.136183570806532150e-01 3.064062919853307882e-03 -3.677565893966041471e-02 7.324235999629409299e-01 -3.663304864155087492e-01 -2.097308444765943192e-01 4.300948720970155237e-01 -4.155562717086201674e-02 3.287528766193299479e-01 6.114797398999701761e-01 9.085659251604462083e-01 -4.850904717277880196e-01 -1.747920666464825579e-01 1.018604572052538570e-01 -1.627862851473634714e-02 -3.154796174868564895e-01 5.881249430144893653e-01 2.177642719220930223e-01 -4.686675298836990855e-01 -7.653032635575662823e-01 -9.227264696623131701e-02 1.144830777171770625e-03 -2.703983669772098627e-02 6.596449001398531076e-01 -1.790238803656632807e-02 -1.962494424226868817e-01 6.045905643054986234e-01 -2.901454343770871191e-01 2.506308685910688672e-01 6.063353842826736395e-01 -5.095894073951402481e-01 -2.129358570681849916e-01 1.112776386769463721e-01 1.267734227521985391e+00 4.480571225132903845e-01 2.262702714910229049e-02 1.329641689702735358e-02 8.284189318196917562e-02 3.348275700847698211e-01 1.901468584774555493e-01 7.750721948235543557e-02 -2.318171332343371954e-03 -1.167537845106384788e-02 2.726452904900483754e-01 -8.116389533234110720e-01 -3.350213580365690724e-01 2.462002155065380060e-01 6.451943025315486357e-01 2.373974419684229398e-01 -1.912864499695281773e-01 -3.266828643435615853e-01 2.204047763524855374e-01 -1.636578290752576381e-01 7.385857950036989195e-02 -1.539445774956492985e-01 1.921982972123585931e-01 3.565289593481440478e-01 2.562288469556701642e-01 -3.075189170305144271e-01 2.975820493881793372e-01 1.973037758667474662e-01 -7.463716620912732051e-04 1.197487447153996673e-02 -5.702654779216456693e-02 -8.424640103628415755e-01 -5.769000118660893017e-01 -7.836497405014855033e-01 5.635582146397843939e-01 2.607880860934996825e-01 -5.989101396940913480e-01 -8.108630687364462020e-01 -1.859708863156777636e-01 1.656541884988071422e-01 7.600283302310441025e-01 4.709326554451421232e-01 7.505796933673910543e-01 6.245464200525112641e-01 -3.361014955586140163e-01 5.844069510321305699e-02 3.212303357340592358e-01 1.497544350160725374e-02 4.034579238537820597e-05 8.558947211597223159e-03 -8.986992904099042057e-02 -3.459665333668711096e-01 -2.323793368509254609e-01 -2.756928079971291967e-01 -2.771768360580189605e-01 2.059445964807036789e-01 -2.128569408788835993e-01 -7.721311709654067323e-01 1.754843574973099368e-02 6.611257867234556773e-01 7.292113774508363067e-02 -8.795451442466190040e-01 -6.869344971703502667e-01 -3.533609219783215294e-01 -2.795179112126458532e-01 9.958378422963876098e-02 1.207489941065933159e-01 -1.554045061420800296e-02 2.474825010783054739e-06 6.022893341837458813e-04 1.907461243056383232e-03 -5.610817059840009918e-02 -5.993895254985520671e-01 -1.143452188310881690e+00 -1.161716235589874247e+00 -4.967398018968675610e-01 -1.637400850750491133e-01 -1.629925035731731864e-01 5.018601432739774881e-02 3.542428257836922056e-01 -2.306012235597675597e-01 -4.739375019517504395e-01 -3.700212017958469657e-01 -4.004426161763003367e-01 -5.026009797444387639e-02 -5.797143726237974359e-02 -1.386006203074375588e-02 1.218985824875931353e-03 -6.439727693920312808e-08 -3.562797991601271614e-05 1.730279334072027352e-03 -3.589203622652927927e-03 -1.143297172486280600e-01 -3.294478284581918159e-01 -2.559476014175012804e-01 -1.134811829524119131e-01 -2.739589866977800575e-02 1.391102012198012182e-02 8.603894723527813135e-03 -2.844956413391628094e-02 -7.233392305104111020e-02 -3.192798001898453086e-02 -6.004078159464554254e-02 -2.814284327745140632e-02 2.770186996714787964e-03 2.103424190195554190e-03 -2.313225809019836052e-05 1.771282967254373682e-05 0.000000000000000000e+00 -3.971180090966746414e-06 4.451405777041362685e-06 2.153013666710296029e-05 5.574204215431893816e-03 2.607358021591622485e-02 1.662305837060066085e-02 8.134862284479021585e-03 2.795239935491265759e-03 -1.412280730418121084e-03 1.008092461738912399e-02 1.819338193395135528e-02 -6.126060215648278543e-04 -2.121815593630550778e-02 -2.586439467450239813e-04 -3.936614969685522589e-03 5.317247806167612473e-04 -2.861086916867820141e-05 -1.734331915858128501e-07 0.000000000000000000e+00
-2.014104784323716313e+00 0.000000000000000000e+00 0.000000000000000000e+00 -4.001575110528276310e-06 4.472787567559013032e-06 6.379900335745295045e-04 -7.687587050665841380e-05 1.140066263185420794e-04 2.468968338768665408e-02 2.120270760969656179e-02 4.112756995306702384e-02 1.250824281201889238e-02 -2.125439712592071088e-03 2.487542959107139767e-03 1.411673810938489024e-02 5.366682243697150356e-03 -9.071848796428187700e-05 1.218452085682290360e-04 1.978599942837483156e-05 -2.897045254603875206e-06 0.000000000000000000e+00 -1.028959532640320267e-07 4.499323285539237198e-05 -2.916890859960552597e-05 -3.857519396131040088e-03 -1.918007210685491321e-02 -1.540326522264370704e-03 -5.636109625359499858e-02 -3.370635699763890325e-01 -1.126087443895320839e-01 -4.868454096994059843e-03 5.030516298680713649e-02 2.967006742324361165e-02 1.004700905758773230e-02 -1.314170615374106177e-01 -5.457525214435990368e-02 4.186120617422075911e-03 1.843668518084287406e-04 8.368252117497790863e-04 3.433004498827416789e-04 1.122431706115886480e-04 -8.416348440019986332e-06 -5.684412930812335861e-04 5.223282836765294306e-03 4.255959324966793189e-02 1.023701977842966238e-01 2.188537934326265609e-03 -7.355213581955007129e-02 -7.884826326830578491e-01 -7.474911841170783777e-01 -1.673798650340866945e-01 1.403009163614722110e-01 -4.358300547169445260e-01 -7.222684988275052120e-01 -5.942296927275219076e-01 -1.341736957583016254e-01 -1.068339337114471675e-02 -2.474923929216407345e-02 -2.109651839393055645e-02 2.535297412055096799e-03 -1.110507690072376247e-04 5.886170532913332661e-05 1.515653809647422455e-04 -3.435849771649832074e-02 5.373813284556217679e-02 4.526296554640489300e-01 1.002039788677373672e-01 4.464898465291043950e-01 -1.679580447723061642e-01 -4.897439638249352634e-02 4.170790553377470844e-01 4.236342795514457804e-01 -3.150153742736785389e-01 -1.075932435412246146e+00 -7.317717343548875153e-01 -4.247555410188634251e-01 -3.386953117261630730e-01 -1.492919582703234882e-01 -9.763649806828979261e-02 -3.349110350186370461e-02 -9.393232247787453373e-03 6.788376589017961404e-04 1.271047896893999800e-03 -1.252189181412525221e-01 -3.808775055735379444e-01 -3.679590023099657114e-03 -2.497246568144255163e-01 -9.536172380297594509e-02 -5.554189179475661486e-01 -5.864787306107336340e-01 -6.986071634488362492e-02 1.043883166615156455e+00 -4.178827293839969953e-02 -4.804267612267117959e-01 7.988337565334944212e-01 -1.416403390389410211e-01 -1.164316584067970339e+00 -5.830149030556374123e-01 1.984074317642592067e-01 -4.076519658449330175e-01 -8.482927484119440198e-02 -1.804432676905076119e-04 -2.260560708367451068e-03 -5.002637330432634089e-02 -3.792995753967787764e-01 -1.226038667516887309e-01 -2.673279140563648570e-01 2.371263345360023200e-01 -2.418736021875830533e-01 9.533950123017843892e-02 5.593446806241507696e-01 7.793873096673505918e-01 5.022551855978025781e-01 8.596162851951866246e-01 -8.873734328440149310e-01 -8.207497003834423044e-01 -1.080767593950471284e+00 -2.005586169224319593e-01 -3.768269380098847599e-01 -8.834202321840796124e-01 -2.025114924361946789e-01 7.769994173102222996e-04 -5.108466336600185967e-03 -1.820450010620734138e-01 -1.823713836141883649e-01 2.731107945224285904e-01 4.607356590733448221e-02 -7.083554889026966173e-01 -4.465031146548668617e-01 4.581879825345467339e-01 7.313041093028467277e-01 2.518520281755608492e-01 6.420765623221883489e-01 1.078518038929755285e+00 -5.918139668139098530e-01 -6.668042768616808669e-01 -7.169881028749489627e-01 1.095260611901286291e-01 1.569223252732839524e-01 -5.262662262157081772e-01 -1.154627001559970223e-01 1.064119498657915803e-04 -3.663921768120966260e-01 -9.418976829376943805e-01 1.810285023922371742e-02 -1.931179213291160657e-03 -2.236195376501236842e-01 -1.192378015960729176e-01 -1.347227576586920161e-01 2.190672163062287181e-01 1.202533029041079615e+00 -2.879293051010670124e-02 2.133534817775230852e-01 -5.999403961922030737e-01 -7.007460010579065202e-01 -8.583162558478261150e-01 -4.701797577306350284e-01 -3.663420449672224466e-01 -4.312875192997458473e-01 -1.143521883089976043e+00 -7.842151696148531859e-02 -2.907599236141581583e-02 -4.610224631084793301e-01 -8.409856273222656720e-01 -2.570172458983144281e-01 -4.006498438833576148e-01 -6.722729131506761657e-01 -5.794305828652556167e-01 -1.033189594656060278e-01 5.359662848573678584e-01 1.393163606790380760e+00 1.338892963995417684e+00 7.403018450113267868e-01 -2.096635331153136050e-01 -3.522157908814004257e-01 -6.099771012408627957e-01 -1.039536877507148294e+00 -2.913497238564879965e-01 -3.586943958119980236e-01 -1.305909495710031232e+00 -6.343130257228608848e-02 -5.223241909079232720e-02 -5.006036518810316194e-01 -1.520673292869400672e+00 -8.389996835619372151e-01 -5.712248929999463876e-01 -1.159056585688879037e+00 -5.555076908790105294e-01 -5.178905784797688261e-01 -6.662339793648702942e-03 -2.224612329546063749e-01 -2.213128038748122736e-02 -9.323543690684265098e-03 7.864745748936485814e-01 1.162382040141229256e+00 -7.218318443098082904e-01 -5.593999021479495459e-01 -1.959378036469587303e-01 -4.274401702132574754e-01 -1.399454198451768550e+00 -2.146246145226024526e-01 -4.423104275862890788e-02 -7.672568852261274497e-01 -1.713545273166764193e+00 -3.091701234149419886e-01 -6.548094302673410638e-01 -1.372053989449337541e+00 -1.176208118958384841e+00 -1.718618547279634479e+00 -7.105323395960648769e-01 -4.849744677367402446e-01 -4.431333321020837213e-01 3.627086338349777006e-01 2.555965194411067842e-01 5.143009738873917103e-01 5.750914595533668239e-02 -3.783856022539481279e-01 -2.195500931770361097e-01 -1.691706751084171012e-02 -6.736824769308018546e-01 -5.171937405065401006e-01 -1.407710855875465572e-01 -5.530769476298700305e-01 -1.175422793800728005e+00 1.667326666549390213e-01 -2.196957239869846701e-01 -1.524906049175792200e+00 2.160011377135047927e-01 -5.630632741054072965e-02 7.865711802576930145e-01 1.514664334841190653e-02 4.583478118853929195e-01 1.259015765421092503e+00 7.065354088167414837e-01 4.879491758373541432e-01 3.960568027737440544e-01 -7.746910112931000292e-01 -6.386825287494794778e-02 -6.067963576903662171e-01 -8.186022912607813229e-01 -2.740664798453434359e-01 -3.549523030200982948e-02 -6.919702063229533628e-01 -1.712385727165790072e+00 1.250186236194995582e-01 -2.406018861185618973e-01 -7.375548216930504219e-01 -4.373192234134826162e-01 -1.007725428995992073e-01 6.356753106406591580e-02 8.465747816101358847e-01 1.849875272264851767e-01 1.826917617494134283e-01 3.893424432144589886e-01 -7.878519943928808944e-01 -1.068691286440295735e-01 2.388055733489932997e-01 8.857710811235447457e-01 -3.664285826739279717e-01 -1.499890827071773902e+00 -2.186337236893426961e-01 -3.470209067136320082e-03 -3.378100817557597169e-01 -8.570901239803451199e-01 -6.255953657221783315e-01 -5.636799992933066994e-01 2.031140216890288674e-01 -4.059404088947896616e-01 -1.501512575735805266e-01 -1.704388000593910490e-01 4.454574074313438770e-01 6.360464069820145339e-01 5.960071627921000870e-01 3.083069805863804941e-02 -3.580392503610235755e-01 -6.790034079479757567e-01 4.879557490826034322e-02 4.623886690315197612e-01 -6.340004253556474900e-01 -7.760642046459371723e-01 -6.331581356011717343e-02 1.529452088266262250e-02 -2.104467847411884140e-01 -2.511667848097189348e-01 5.982527384078953903e-01 4.514061314272457826e-01 -2.314216100003166632e-01 -3.073756895995449212e-01 -2.384564827192444947e-01 -7.122392401988058008e-01 4.773318830239859367e-01 1.368193810747162301e-02 1.500853770002366083e-01 7.871416553543347794e-02 2.276291343188993621e-01 -2.208668377990739284e-01 1.958796032991688973e-01 5.377453665639704561e-02 -6.797254814972427672e-01 -4.680593807585335941e-01 -6.501960619947298736e-02 1.537090638092863948e-02 -2.096290129012725600e-01 -2.457398028025145273e-02 5.229066099509130927e-01 3.483003208117373961e-01 7.213914133957597397e-01 -3.223877299948152420e-01 1.899012048152727838e-01 1.332892613252114611e-01 6.448652662647536005e-02 7.209855867446571254e-02 -3.106066809862592648e-01 -8.954583723637590253e-01 -9.069353877350680992e-01 -1.061841099694545293e-01 4.530050504066228112e-01 3.307622050604023811e-01 -5.877264580397328908e-01 -7.202671910574012237e-01 -2.736431985199718198e-01 3.154337909652507512e-03 -4.378406653574747065e-02 1.753765270031241996e-02 2.160718824915220937e-01 8.740550820115051689e-01 1.958193115204832080e-01 -7.092484985053947311e-01 8.729715749069680286e-02 -4.577437924174858064e-01 -5.741689238013628627e-01 2.196811577297228327e-02 3.991316441343839005e-01 3.052449914676137466e-01 -1.052002235453442180e+00 -4.246331795099476114e-01 3.532621709222161233e-01 3.511628665369015412e-01 -6.281202237289676416e-02 1.728456912672893253e-02 -9.716694092016583961e-02 -4.029045459738284747e-04 7.028490125276540962e-03 -7.666793788255903130e-03 -1.433169448543378244e-01 -1.935274899960707506e-01 -1.545016767474924856e-02 -8.213948627390839086e-01 -3.561349428994800559e-01 -2.990199409621885906e-01 -3.420388852334877439e-01 -9.585955524872077360e-01 -6.142338654613632709e-01 -2.522755223968209393e-02 -5.764666548385846134e-01 -3.534497080951635728e-01 -1.436250620448767668e-01 1.536183917142683042e-01 1.392542637775749104e-01 1.103569009715909682e-01 -3.489093917456479246e-03 -4.406023727074908765e-07 4.155240409317772425e-04 -9.631174508671895996e-04 -3.440553193438724427e-02 -1.065256759706501022e-01 3.778715128403978829e-01 2.307262145072420112e-01 5.052967554104363657e-02 -3.571116939849380278e-01 -4.364449008416828035e-01 -2.960868013035032886e-01 -7.160127440038978053e-01 -5.540014472630239162e-01 -8.309464300282859428e-02 -1.197479848877981701e-02 2.722632082586603358e-02 1.268203651053591979e-02 -6.193474792076218878e-03 -5.260175816218983641e-03 8.958172043651971067e-04 0.000000000000000000e+00 -4.030099726185181039e-05 1.038560252319971127e-03 1.284424205425717608e-03 -1.121327967676536974e-01 -1.043663816131977784e-01 -1.209466620093581080e-01 -1.626293630348520439e-02 -4.605828341508362567e-02 -6.426817546703053607e-02 -3.659052697959964268e-02 -1.022168816651576884e-01 -1.334556978305219410e-01 -7.558104966223313549e-03 3.357409489954963321e-03 -2.652764750204280372e-03 -1.927185695303933882e-03 1.657970552943655203e-04 3.642656862310715701e-06 0.000000000000000000e+00
1.766685320532645487e-01 0.000000000000000000e+00 0.000000000000000000e+00 -3.001852103705027247e-07 6.926702610089377097e-05 -8.186390356527001051e-04 -7.049910978437338473e-03 -1.565773076704198886e-03 -9.433743162123491358e-03 -5.587267202722729156e-03 -4.836015068049280010e-04 9.398356743849815094e-05 1.426624726876316767e-03 6.849683249320372147e-03 -2.782149025253720376e-02 -4.430079423578810877e-02 6.002843148103655753e-04 6.492331190429363524e-04 -1.631468617595264629e-06 -3.934850399508889320e-06 0.000000000000000000e+00 -1.729465077170847839e-07 -8.781008696804267597e-06 -4.408468371507713395e-04 4.849588804729023164e-03 1.273788064413687061e-02 1.307927286584281527e-02 1.792157752159957750e-03 -4.300060533007212665e-02 -2.651799834770154213e-02 -1.734024766406071574e-02 3.338215537687857625e-03 -1.256021265333361753e-02 -7.405519507447444472e-02 3.071936792164263741e-01 4.939695223843678096e-01 -4.989152812959841109e-03 -8.556108668452187468e-03 -3.731689478791983330e-03 1.612423505188517086e-04 1.764147919034724592e-06 1.548371747927039628e-06 6.666502883186155622e-07 6.864285956929298306e-03 -5.434560894625977551e-02 -2.304682093341774984e-01 -4.421323475396164993e-01 -5.717949564876393387e-01 -1.746520690104655105e-01 -7.307225310456516576e-02 1.894045695644308927e-02 1.942244315229641307e-03 -7.022868278295447964e-02 -2.018521150058540659e-01 4.844761279541856536e-01 7.936736862943908344e-01 -3.562886758368156714e-01 -1.532810679926049913e-01 1.261431930667911844e-02 4.262613819184265075e-04 1.550316636880192831e-04 5.396453095353602079e-06 7.991935139801981548e-04 2.305620990037959839e-02 -2.886448606356191160e-01 -6.971460179847149830e-01 -9.008238333731043435e-01 -5.865745354834263070e-01 -2.402392207737373553e-01 -1.176332544090592930e-01 -3.419187595431748550e-01 -4.479219755133490577e-01 -1.112687377214365558e-01 2.991231489741451310e-02 -9.403419137138809003e-02 -1.789998966786280066e-01 3.646612058547869101e-02 -4.917354676265234953e-02 3.009601439195051520e-01 -4.948912002592593430e-03 -2.259780342486403682e-03 -1.565868380339787880e-05 4.131818927876130740e-03 2.959509692770416131e-02 -7.037569787788204856e-01 -1.337575591609364345e+00 -6.559447970671593575e-01 6.057468090462583138e-02 4.055140377353569359e-02 3.925855430753538711e-01 2.417701076801337112e-01 -5.208046151564177384e-01 -9.668324166694924893e-01 5.248884245391985948e-01 6.941854656528027023e-01 -6.726956968250707991e-01 1.453458171093598705e-01 6.107737538085675211e-02 3.127155767420574523e-02 -6.623397123796455344e-03 9.138441651010494396e-03 -7.871389700957652448e-05 8.258279491362431959e-03 -4.025035697445183275e-02 -6.540448535818815801e-01 -6.526523083685451532e-01 -7.293944095179201170e-01 -6.254919647739587418e-01 1.991956414214853255e-01 7.230345683994189310e-01 7.566422759659410247e-01 -5.702314883364690834e-01 -1.975610969812393147e+00 1.446696926409178630e-01 9.230934563560101447e-01 6.221929012660296632e-01 3.169149203452551466e-01 3.069218512529211518e-01 -6.346155195468242693e-01 -3.743955273835509190e-01 -2.242612404094625547e-03 2.831908770210874848e-03 -2.485086499108466948e-02 -2.026440223248290873e-01 -3.817513608942276204e-01 5.308187220775358872e-01 5.045715504068257751e-01 6.894325680634598719e-01 4.230894748194106714e-01 9.036341330797696692e-02 1.386070561772023424e-01 2.226431466613042476e-01 1.173273848840092901e-03 -1.847098553585177605e+00 -8.538032158778913194e-01 1.009694623183183149e+00 1.106393846869095782e-01 -5.940906491593291039e-02 1.638438601843682230e-01 -3.365320161921869224e-01 -9.602404129271090161e-02 3.170128861176451686e-03 -4.129455057583988897e-02 -3.924426039764223328e-01 -7.780146140169416080e-01 -2.281576293561040636e-01 -7.471063905837130315e-02 -5.407226492930016226e-01 9.008437729660402349e-01 4.671561527097943256e-01 1.258903307615181488e-01 6.078453727346935231e-01 8.086744372218748200e-01 -1.079615864770810285e+00 -6.072260082893875532e-01 7.259663723572150618e-01 -6.390488389765988653e-02 6.319042037865419542e-03 2.390612184056411238e-01 -3.854257168897651797e-01 -1.006752116278861742e-01 2.836692134699169820e-03 -9.013628348280933178e-02 -2.459483707639362193e-02 -2.558835380330374276e-01 3.029663327848260423e-01 5.132564237339075630e-01 9.138215666818901850e-01 6.270387435828037592e-01 6.257672190390471956e-01 8.601622004843225699e-01 1.919300310660672082e-01 -1.102195922019055391e-01 -8.502319394095911864e-01 -2.380031839178295139e-01 -3.586730058765308371e-02 5.890565445395397060e-01 6.035329210915765241e-01 1.622897387806903069e-01 -3.401389567189562202e-01 -1.041163075861481768e-01 1.493737220915853682e-02 -2.318170105919657720e-01 2.449669501138582520e-02 -5.533941996367733873e-01 -3.883168076847625105e-01 1.176758604056977880e-01 -8.834215492752386378e-01 7.075205283225686204e-01 2.623135390616092022e-01 7.355039979165756137e-01 -8.215182992802429196e-02 -1.982287637750174414e-01 -1.322488110213082768e+00 -1.271417952607743762e-02 -1.447201809693374197e-02 1.090491508080032763e-02 -2.247751602742120158e-01 -1.452988066415669965e-01 8.655300943834982885e-02 -1.714465699182143310e-01 2.697848946012016552e-02 -4.154548302297420559e-01 -5.793025798480977429e-01 -3.039294706051631212e-01 -1.517056467567540028e-02 -6.179362134849399751e-02 -4.660473371157414779e-01 2.631364523214600459e-01 -6.175691677552543890e-01 -1.321897545968478416e-01 -6.354677737660021641e-01 1.593834221851828103e-02 -8.655338638635688975e-01 5.530163810367908495e-01 -7.878764445418702245e-01 6.651283887768721925e-02 3.689329198789645381e-01 4.265942285894014363e-01 -2.627437779366054160e-01 -1.810958940265212647e-01 2.446094395976976255e-02 -3.499652930093453684e-01 -8.235207675691865736e-01 -6.116971060271937377e-01 -1.978722965401805700e-01 -4.888515375929150530e-01 -5.890469318104630814e-01 -8.845542920115720964e-01 1.879794430127335048e-01 -1.223217854986095254e+00 -1.749599073766182067e-01 -1.172573628325801698e+00 3.293680265651546812e-01 -2.565051339040345102e-01 -7.339321706159777081e-01 -5.853676844072194449e-03 -1.129478270414057545e-01 -8.563300584981949071e-02 -2.650013744811736127e-01 -1.023640422098413549e-01 2.654077269942962947e-02 -2.973443301339876998e-01 -1.111220955897034735e+00 4.711868968468554963e-01 -2.648432643930699881e-01 -4.206295141536748883e-01 1.817224211865318406e-01 -1.612530541703897313e+00 -4.089906368510400902e-01 -5.790071256705795477e-01 -2.260790732461917807e-01 -7.124543609313988002e-01 5.942134036191566437e-01 -1.454300175129231154e-01 4.050576354293163872e-01 -3.505184834175678055e-01 -1.261738835138750681e-01 -2.473581977761207251e-01 -1.891410237825832397e-01 -1.242927425072259118e-01 1.497747431668048843e-02 -1.677816683919886032e-01 -8.301654705295611336e-01 -1.812941536482093607e-01 1.483037758024907671e-01 -3.939391719394255698e-01 1.740952566415559510e-01 -1.044366382445469865e+00 -1.138786924308650583e+00 -2.188939403897475489e-01 -6.907867674176289274e-02 -1.284515315667623622e-04 -6.662579427713661850e-01 4.650646803492552439e-01 -4.179402162679647925e-01 2.596230216336306226e-02 -2.250600073770257434e-02 -3.292535380160527825e-01 -4.842906548296764813e-01 -1.915788474240658623e-01 1.483299376110621022e-02 -2.160392647990949933e-01 -1.908449144111636908e-01 1.182336217448020366e-01 1.955694874054879351e-01 7.356922863977074512e-01 4.359570768110675870e-02 -1.556952529603579549e+00 -1.990261452578190537e+00 4.988386296330734049e-01 -3.833466528263946294e-01 2.905004467824501280e-01 -2.211734787661230883e-01 1.399632029744471151e-01 2.783478375856045517e-01 3.511504295988432944e-01 -1.036006847141590081e-01 -3.994076847624189464e-02 -5.933790642398284465e-01 -1.383661652575178258e-01 1.977018201924655300e-02 -2.419839599556953269e-01 -1.911255292084736712e-01 5.994229214584297916e-01 2.239110083399463713e-01 3.027151302597318461e-01 7.991098793069066897e-01 -8.251841349086223021e-01 -2.520765197424318149e+00 -1.000262660461030961e-01 -3.277860227919741631e-01 -1.437840780771489080e-01 3.592265755660021265e-01 1.648510476794817492e-01 -2.526910368957360209e-01 2.328672631577189123e-01 3.228374749587001880e-01 -3.325162318296953079e-01 -7.093512329260708293e-01 -4.951833260738943143e-01 3.705666154341807818e-03 -3.634291300970334676e-02 -8.198696136998194495e-02 1.953294705991292790e-01 2.940962570934183007e-01 5.087138322575223137e-01 3.591030272629544551e-01 -6.504157284639401349e-01 -3.138317324903014072e+00 -2.562105967197517487e+00 -8.318320127844496259e-01 -5.156531207122538873e-01 -1.328036494228460040e-01 1.598968441229419724e-01 8.469768133162728363e-01 1.086434299608912912e+00 4.650078810537474627e-01 -6.386854709376149630e-02 -8.634726960377958616e-02 -1.185425731217385897e-01 -4.733849989068486552e-04 3.772191011278226225e-04 1.386322769821176637e-01 2.834098292294420229e-01 6.557898930292319628e-01 1.449105431694317714e+00 2.468397647899530867e+00 1.169887933843219097e+00 -1.133775316746099326e+00 -1.497770258131464249e+00 8.079172423738861797e-02 7.653070209313543870e-01 6.789659574412216791e-01 4.397937662357990773e-01 4.651045813682925245e-01 3.571216165649731544e-01 3.060818176493509957e-02 -4.152216244512450805e-02 -1.239491690880113869e-03 1.589709348235716219e-02 -9.626910214467398384e-07 -5.667752990347373412e-03 8.767902707902751336e-03 5.240543225131514271e-01 8.298163080302564110e-01 5.801084487533597622e-01 1.733218568884830280e+00 2.429979308147459882e+00 8.477631350717618197e-01 -3.311143644165876615e-02 -2.261117541221840666e-01 -2.286581940997827467e-01 -1.245830713634981241e-01 -1.605402859469670651e-02 -3.396108030780390363e-01 -2.254395035399212599e-01 -3.362157040456175555e-02 6.352541961961923923e-03 7.779622823351906979e-04 -4.602867133178788352e-05 0.000000000000000000e+00 4.832656911235406962e-04 -6.349412360402625737e-03 3.455515270844914354e-03 3.258692890662464453e-02 -1.898180406131953213e-01 1.958964015484959340e-03 1.691382746937082626e-01 9.424996744613772792e-02 -6.228913295140576026e-03 -1.402385213092786041e-02 -9.013844064827189473e-02 -1.138578945197817743e-01 -1.997145502366159953e-02 -5.632713919907663541e-02 -7.771966206821917175e-03 3.799029095811357754e-03 -3.142454025262070251e-04 -9.115392809458080571e-07 0.000000000000000000e+00
-3.158301491635133740e+00 0.000000000000000000e+00 0.000000000000000000e+00 -6.029742987949716875e-07 1.084942273673908806e-05 -8.811270935207051727e-05 3.149276758536488727e-05 -7.177457699679831368e-04 -3.333213514768548660e-04 6.991559405683011924e-05 -2.227637405928267105e-04 -9.068058219552190056e-05 3.966922279492921623e-05 3.889364225286718994e-05 1.677032192830795452e-04 2.041096248066102384e-04 3.097214521238950428e-05 2.331173341738513976e-07 1.416607862885354654e-08 -2.475573430474965764e-08 0.000000000000000000e+00 1.566343373123744779e-07 -2.339349262525629647e-06 -7.483131449451230149e-06 -1.357677062789305661e-04 4.451820884125011479e-03 6.385797601646100476e-03 2.219549079963945969e-03 3.094873604989820115e-03 6.600813778031790549e-03 4.806875240934949459e-03 6.475265178585761644e-03 2.966821054184667298e-03 9.012679743722398773e-03 4.865590492899429971e-03 1.403313494637071319e-03 9.165280953458297599e-04 3.372068958222615279e-04 1.538281622586861472e-05 1.142264560271143626e-05 6.984520998139679059e-06 8.142677072462503103e-07 3.919916434041058534e-05 -9.551275660974747287e-04 4.934366318362316470e-03 -3.843728459946438997e-02 -2.041963419623421538e-01 -1.175148561574445305e-01 -1.655398890933834910e-01 -2.803269023515145841e-01 -2.469880096739703879e-01 -1.475943692643006677e-01 -6.707365179550127399e-02 -8.247648735466901748e-02 -5.839047655598104264e-02 -3.455111123581897092e-02 5.019639952919408531e-03 1.349430881196185235e-03 -1.780547380817514513e-04 -1.133009101990895635e-04 -8.847107362660314644e-05 -4.196060366983675916e-05 -2.841555929707478812e-04 1.255007819269102036e-02 -2.316184059868261688e-02 -3.246171982356295671e-01 -2.591908711828158074e-01 -1.101238379670388123e-01 -2.614372978344101650e-01 -9.913391144904216967e-02 4.290636092078448094e-01 2.939496328342783293e-01 7.903320860411548743e-02 -3.468992806070680945e-01 -2.639884228805673971e-01 -1.690925752428515949e-01 -1.992523957717733385e-01 -3.810628285982215618e-02 6.820863235081810715e-03 -5.392126240416102298e-04 -3.088502029733843557e-04 -1.638096601053672021e-03 -7.699724482941868592e-03 -4.247350204182435973e-02 -3.668143593683086123e-02 -1.539700114212175786e-01 -1.015994753020983549e-01 -1.613779925673680393e-01 -3.646826860444518734e-03 5.598610914109392045e-01 3.708452369112584801e-01 4.778698023286500063e-01 2.650924125813928223e-01 -3.097023807552659047e-01 -8.159966440672322685e-01 -5.101198898669512261e-01 -6.924205689459501656e-01 -4.035510975737088835e-01 -1.385701263441483089e-01 1.577776533800515372e-04 7.909451786081259398e-05 1.364937346640121042e-02 6.471024992998866687e-02 1.301926967000339996e-01 -1.063874560827423182e-01 -6.010690331808918874e-01 -1.204364633558747455e+00 -6.209355246524902450e-01 -6.185069032205264827e-02 -3.235373592858393210e-01 5.767135741361274076e-02 6.487251683389223533e-01 -9.453367540684597392e-01 3.067191519668879818e-01 -4.357080803044445227e-01 -1.106499028370719451e+00 3.122385745890756681e-01 -4.225610653188626165e-01 -3.763784458610653916e-01 4.845444932616000885e-03 -4.268891798864801268e-04 7.463778633817252928e-02 5.530653856449043726e-01 4.694669161617874842e-01 -2.215329584536988861e-01 -2.931329712148457167e-01 -5.572452255887255790e-01 -1.889828141992264954e-01 4.250360525947726731e-01 6.894715227864821605e-01 4.049931451720641395e-01 5.038038760785784609e-01 3.903732743553142148e-01 1.118287106119828733e+00 8.113584471482457872e-01 5.620476511727034996e-02 7.865390045575862965e-01 -1.913907310128437067e-01 -5.417897878678360479e-01 -5.829077875155970478e-03 -8.579820848542371071e-04 6.321293329212936130e-02 4.276227638085423610e-01 1.933566499901544777e-01 -3.893958969148059168e-02 -1.749074758627850723e-01 -4.341241986056338931e-01 -6.973192881907729346e-01 -5.099355329025536537e-02 -8.410886256487253021e-02 2.191696999089614573e-01 4.848927467733517571e-01 1.253645652600659244e-01 4.843893570321419206e-01 9.653587567185533125e-01 4.092707173529500642e-01 4.027622905017425592e-01 -2.873598338793281748e-01 -8.450179152066278343e-01 7.858438400463518825e-03 -2.407557429260024772e-04 1.450890964160251630e-02 4.491824321721233498e-02 -3.216952138983654730e-01 -9.529286544581794249e-01 -2.083247195169849464e-01 -2.718582374037039617e-01 -4.555757394322126896e-01 -5.718957018619893473e-01 6.487943465117802788e-02 4.672071397023245809e-01 3.643131569219072441e-01 3.957814591836616436e-01 1.176411685404873397e+00 9.784709336114264522e-01 7.254077888031527088e-01 4.281931867644478418e-01 -7.372211228843225106e-01 -9.001972385897694107e-01 1.108245583896597802e-02 -7.642623234702934469e-04 8.300065922528899326e-03 1.948568391895640906e-01 1.155095733924448170e-01 -1.079619227158203687e+00 -1.997039832336596765e-01 -8.460271487928400225e-01 -1.455517529502163565e-01 -3.391285587932540979e-02 6.592928721999331554e-01 -9.714192175424485320e-02 -1.532511227289597433e-01 -6.332861858570721925e-01 9.669785035202355106e-02 5.409318653014468792e-01 6.590393947256242280e-01 9.370542629108654653e-01 -2.034526995589830967e-01 -1.156758196135063255e+00 -1.020502738008543520e-01 4.186757572026708271e-03 6.931124605066050527e-03 3.954275048917007540e-01 6.280946618785013813e-01 -6.277372999195710568e-01 -2.498073664313422426e-01 -1.397155033632316024e-01 -4.526957546346982442e-01 -6.374765230466267196e-01 -2.913097153000173689e-01 -2.128915394317419663e-01 1.151299549549328560e+00 7.551100330472648725e-02 -8.057798149347640548e-02 3.585429690465603003e-01 4.547834664325219878e-01 3.526947514329557554e-01 -1.637392950790388657e-01 -1.364304231263250289e+00 -2.286991940230087006e-01 -4.211011301011634636e-03 -1.932905279317748831e-02 9.759936543977516810e-02 4.829934802500433499e-01 -5.026440369407808584e-01 -5.236307100051724728e-01 -4.538830262925227510e-01 -5.253126115971497034e-01 -1.373214336954197146e+00 -5.247875930638602471e-01 -1.464619967091541908e-01 5.216191376880892176e-03 -5.792379418957572385e-02 -7.533617755660290127e-01 4.094036458419901825e-01 5.222741574676006415e-01 7.591372238510420978e-01 -7.042725131756184809e-02 -8.013457703444460956e-01 -1.047045846631385890e-01 -1.009513518854895106e-03 -3.054488104037582016e-02 2.463579517821125053e-01 5.076798123528613038e-01 -6.382124362069256929e-01 -1.027232175408168691e-01 -3.217755358611999461e-01 -1.552564048600786561e+00 -1.175560800680256479e+00 1.474673241152248994e-02 -4.555945478080583588e-02 -1.098030898841847666e-02 8.195736947524702443e-02 -1.071244127472888857e-01 6.487005056811273596e-01 -5.860053952135553523e-02 4.025693762710043644e-01 -6.548573872641290095e-01 -5.690175571155724477e-01 -6.819720129324784164e-02 1.006443478980414453e-03 -3.971515617005434012e-02 5.909796197368912818e-01 9.710362303006873086e-01 -1.448610589192814435e-01 3.330615196415843693e-01 -1.504997976918194924e+00 -1.750062586130864961e+00 -3.808591450828634484e-01 -4.187245227097119438e-01 -4.054864027998821840e-01 -3.978438509772332932e-01 -1.401397001458957736e-01 -4.184622264237882611e-02 2.267641965047589303e-01 9.513009272641254066e-02 9.844781840570504539e-01 -1.852336278753317633e-01 -4.575596742390755645e-01 -8.601656910654902066e-02 2.993789327964629585e-03 1.445228700539604935e-02 3.536316284381706421e-01 7.524466848852782164e-01 8.734162261004759786e-01 -5.949208832924501866e-01 -1.802973991175929491e+00 -4.475218040624341920e-01 -1.848705215791492107e-01 -8.090788476867112333e-01 3.305190915615042191e-01 6.617035149074522726e-01 -5.916466801005406673e-01 6.764044007872835884e-01 -1.453116270516897901e-01 6.919552310982561572e-02 4.996689795503628934e-02 -3.404842716212808651e-01 -2.779729257099060602e-01 -5.916879994484753463e-02 -2.150305685920813562e-03 5.051590311007021387e-05 1.795071100706583100e-01 -4.304186228081599563e-01 1.751269537046329094e-01 -5.116801503074629442e-01 -7.228500327402058723e-01 -1.017270216974164976e+00 -1.190651466401328795e+00 2.971695112694669461e-01 9.659226167036107091e-02 9.690309503073523123e-01 2.382050061279278041e-01 -3.951887155531315643e-01 -5.319900988720526191e-01 1.703901819685998964e-01 -8.777192874348207496e-01 -4.555514778676108545e-01 -7.825177879119227242e-02 -3.167944902894977849e-02 -3.402344649126829573e-02 -3.545054983071654203e-03 4.879369268471860088e-02 -7.944692999164101321e-01 -2.061227938474476107e-01 1.665346176730357897e-01 -5.460236164994203278e-01 -7.317480873250444828e-01 -7.701441163343790697e-01 2.780907413838101805e-01 1.749620112750758794e-01 6.365370835802753868e-01 6.388999609396935897e-01 2.986797071080655175e-01 6.541214323984627377e-02 -4.891573955836327897e-02 -7.158759047053865343e-01 -3.226291463425898232e-01 -3.575778832329091356e-02 9.233177882994155405e-04 -8.203425499575967700e-03 4.211028570871961588e-04 1.136919619217474468e-02 -6.566108161969258505e-01 -5.888411138793583355e-01 9.314997231902004404e-02 -6.649614273487054472e-01 -1.355209709897417403e+00 -4.457781607828351644e-01 6.075049213111789470e-01 8.405888802801485538e-01 4.668553585428324992e-01 -3.471682265206157969e-01 -7.550258267619613939e-01 -3.475142747623535810e-01 -5.106679488663568023e-01 -4.432545571293326492e-01 -1.661850543716936468e-01 4.073670365701073312e-03 3.324354447556257313e-04 1.126149353314685568e-03 -2.620228296127824542e-06 5.711717301955332535e-04 -2.438349208478285011e-04 5.300256433998026123e-02 3.767262631598730094e-01 -1.415723096672387715e-01 -3.885057896198791938e-01 -1.086979803667847133e-01 -4.738638395043156537e-01 -8.672851379041161823e-02 6.059195318196620716e-01 1.960298332411592685e-03 -2.505305004454280171e-01 -1.460381598347754994e-01 -1.439809964284811394e-01 -3.708111308718613219e-02 -1.804322088020191310e-03 1.164380344620789603e-03 4.418719233127264172e-05 -4.883954248140749142e-06 0.000000000000000000e+00 -6.775329267090248700e-05 -1.475058667911927166e-03 -4.379193196325730062e-04 4.088571682712495714e-01 2.492288387829430796e-01 -9.393315093126254622e-02 1.055062532476686021e-02 -1.283246325662940057e-02 -7.070991432964442158e-02 -9.827854119571625968e-02 -1.130826120611579250e-01 -6.446533292463185738e-02 -1.204643802851905476e-02 -2.113456123041283080e-02 -6.392039441334831928e-03 3.205229732900918100e-04 -1.460016442149737520e-04 1.282421700971971134e-05 0.000000000000000000e+00
-1.904811776095740372e+00 0.000000000000000000e+00 0.000000000000000000e+00 -1.636836418693132729e-05 1.227886004129055144e-04 4.080986313079020271e-04 1.508944125251519787e-03 2.420805626946929967e-02 1.365218313892254277e-03 -1.034658266651596568e-03 -3.490235868277333231e-03 -1.256311430876489409e-03 2.655685865556193853e-04 5.896597375522946022e-04 -2.247136957548410193e-03 -9.181156150298914369e-04 1.254488315879773890e-04 2.530480147283014290e-06 2.041926456898072376e-07 -4.362474712876961864e-08 0.000000000000000000e+00 -3.148985604933719326e-09 -1.327634669707148242e-07 1.772959184911006704e-04 -1.149683939566625976e-03 -6.763118918036054548e-03 -6.374970995858994516e-02 5.698585363826971784e-02 1.139022217708728218e-01 6.165354531669656885e-02 3.440849962936876061e-02 4.029687022651189630e-03 -1.797999212044011641e-02 -3.056481804427635743e-02 2.242164144030029879e-02 1.924337503297587904e-02 4.798574271929336582e-03 7.626300614434592534e-03 5.305840336860665266e-03 -3.243659425816321738e-04 2.562192544819696439e-04 2.699539544881815976e-08 -1.071030755772161655e-06 -2.139742412337401452e-04 1.792610193186495050e-03 -4.425613802614108104e-03 1.607120963154319848e-01 1.336014003744112333e-01 1.100848978395728706e+00 1.587470413243720735e+00 1.043383554729423457e+00 4.843873163542500304e-01 5.105532435483428610e-01 1.993744957280489671e-01 -8.955370977022455992e-02 -1.383532341600043625e-01 -1.560710976173041165e-01 -1.284306294209791588e-01 -1.126731866369009433e-01 -1.550436947242056496e-02 -1.830729095093389667e-03 1.143668955117113546e-07 -8.850861024205446466e-07 4.175260271637039333e-03 -2.900135596537178548e-02 -2.135598645695412912e-01 1.777792902296913558e-01 2.751934061899168754e-02 8.109449665971897314e-01 5.941556699540392339e-01 5.957910344239660816e-01 1.719512694730958025e-01 4.187741519139448476e-01 9.612425802016019150e-01 7.674061487302204221e-02 -6.525565443901688578e-01 -4.065802120997291103e-01 -2.930515693671885136e-01 -5.268994326116536314e-02 1.620424647918650984e-01 -9.346608657051535748e-03 -9.093788200809097140e-07 4.764083839292898863e-04 2.093207060660636637e-02 -2.615431849601648207e-01 -2.005736288838118886e-01 9.488014038251518789e-01 5.769704574242066064e-01 -2.157534193091036057e-01 -9.004017374653210393e-01 -4.660144825382940281e-01 1.290865263459501366e-01 1.904357912796782737e-01 3.178385393387123115e-01 -9.299021466009599335e-01 -1.235833649257853439e+00 -8.869623096947112373e-01 -3.178321127099456578e-01 3.743644625711983753e-01 2.461802510732428173e-01 -1.570911041443952549e-01 -2.193664458535610749e-05 1.619612996530680766e-03 -6.193805772084785138e-03 -2.216950393772465222e-01 1.764158003755588455e-01 5.958540300395858136e-01 7.180144190962649553e-01 2.616104948905640937e-01 4.221266604445423898e-01 -9.574624463812129171e-01 -3.859253922393046654e-01 -2.143278654650630777e-01 1.615486212247305708e-01 -1.395024572919376427e+00 -1.192912880881451310e+00 -6.019299656545710198e-01 -5.203675158685026891e-02 8.119217159982489163e-01 6.871343751246066223e-01 -6.374774964618781792e-02 3.343471996246339100e-04 -1.076644692713370254e-03 -4.311843913872505374e-02 -5.501182613884303407e-02 1.313534964682755435e-01 -2.573825373773619418e-01 6.910387928666501534e-01 1.444162139110821697e-01 1.097887933151646400e-01 -9.027643516008723168e-01 1.892140456844140506e-01 -2.562282498805100173e-01 -2.264152379055610065e-01 -1.296133377560083844e+00 -2.607145111635371659e-01 4.608289293228922112e-01 -4.465649984073937762e-01 2.665243240082255660e-01 5.597409626530984728e-01 -7.004184257410712988e-02 1.910717052600344147e-04 3.099077426231944266e-03 -1.010833253536248949e-01 -3.769413298308765814e-02 1.576881693782935800e-01 6.417288485958250188e-02 3.690728751504733229e-01 -2.815922962355804082e-01 -4.516882424756144543e-01 -4.088039558107567917e-01 -4.227981377330377599e-01 -7.638205641137431057e-01 -6.446295001303071759e-01 -7.038949607574559453e-01 -5.616278425545119524e-02 -3.551940648968675007e-01 -7.605650453152528190e-01 -4.141910936239232358e-03 6.113232683383943433e-01 -6.537772699134744570e-02 1.346085441599623091e-03 -9.520150858106249045e-03 -1.702695940186456092e-01 -2.227939246914235616e-01 -1.152699822561870507e-01 2.649329165674583764e-01 5.297962453913598324e-01 3.547000772327938978e-01 -2.563031368396070930e-01 -1.254818657909230861e+00 -9.483240208795893356e-01 -8.163299325186499367e-01 8.271953688933944560e-02 -1.283230856839306100e-01 1.765923800515589726e-01 2.297702281506874000e-01 -3.048062262282603130e-01 3.724132547519339309e-01 4.833638573935876148e-01 -1.813094950980575493e-01 3.437485352835116265e-03 -3.022876894159631789e-02 -2.562240946684481990e-01 -4.898856420100561881e-01 -2.098540867405561672e-01 3.673687861093883900e-01 -1.563271135927286615e-01 7.316197786517966151e-01 2.925783056610504196e-01 -1.699088999943817013e+00 -9.039841906770950120e-01 -8.319146823303870120e-01 -1.888346053218701026e-01 -1.141907679650319141e-01 -9.479966682750480544e-02 1.878131427716778767e-01 -1.747318868162025807e-01 -5.674767987738708053e-01 1.150817654266397538e-01 -4.101424819984914732e-02 -9.204113301130166145e-05 -2.908797525049768712e-03 -3.114532598491912552e-01 -2.999073586779200107e-01 -1.882605421314709482e-01 -3.104075206141180820e-01 6.272388450173183028e-01 2.137576585624237357e-01 2.278707033197478748e-01 -1.227271696397119527e+00 -6.014724158035007484e-01 -6.420253414950836124e-01 7.577228375726118292e-01 7.340650185266080208e-02 -5.519326827383915779e-01 -2.322946774986274221e-01 -4.716020007305786743e-01 9.418283984769182382e-01 4.218321159159611061e-02 -2.440078742548377200e-01 -4.598096298208864045e-04 1.694991632248534419e-03 -1.703143818683558464e-01 -1.014923379123794378e+00 9.578014668417648980e-02 -8.193293984350498438e-02 5.413768919059506191e-01 1.154370540123849986e+00 1.089211377767685285e+00 2.015092994417616579e-01 -1.325230456172185080e-02 -4.841302817893042287e-01 2.651855084935153539e-01 -6.518307849301674395e-01 -8.250417675845937715e-02 -2.732303016999036438e-01 -1.383373063860442870e-02 2.068806864988926020e-01 -7.411577449888563651e-02 9.010701366573239945e-02 8.865354475943621089e-04 -1.866565486585538289e-03 2.841026360091768524e-02 -1.839215790621715252e+00 -2.166380777854124973e-01 3.448283969602440324e-01 3.951689853426089694e-01 6.197563963263312825e-01 1.251718030321424591e+00 -2.436149117761488292e-01 3.487010215730602242e-02 7.113044126385705823e-01 -3.963302598225575402e-01 -6.441782465803969071e-02 -1.965004426935589021e-01 -4.671370340813460476e-01 -8.719737863110571530e-01 -3.323600867562601646e-01 4.578897564284274968e-01 2.488261629268518349e-01 8.683615547645901715e-04 -3.599836485821563022e-03 1.335487019637289670e-02 -1.260848520181623744e+00 -9.179914820113633800e-01 -4.441827016813029716e-02 1.789376039120258444e-01 4.526013111010459000e-01 1.055851725539852737e+00 -7.249565082606080901e-01 3.308981833922369081e-02 8.003158654740338829e-01 3.251761069419676353e-01 -3.529112056095672911e-01 -8.554665882138565713e-01 -9.063663647514216271e-01 -9.850618602762185594e-01 -6.156849157008348339e-01 4.864567436951079404e-01 2.537538519843675067e-01 1.721587365209345738e-04 3.237872531920234567e-03 2.890269629120073309e-03 -7.158248777466007517e-01 -7.968488566097878811e-01 1.046741454909384805e-01 1.831737372127316965e-01 4.571725383036048806e-01 2.858126499998310810e-01 -7.568539842349739089e-02 4.021129176707498032e-01 8.184850330124329165e-01 -8.221466836546274803e-02 -8.842209775103810898e-01 -6.120062782685569136e-01 -5.599832181739357040e-01 -8.713140759818660541e-01 -8.543221885754741507e-01 1.094895277717561899e-01 1.719865647033580469e-01 -6.634159238994436682e-06 1.947698082079057837e-03 1.781923801262632473e-02 -4.224701243573621978e-01 -2.803053231949888535e-01 5.282596510023599562e-02 1.994269242182298285e-01 5.655330701152979506e-02 1.933903084838540787e-01 7.089483513785380664e-01 3.407580241934076715e-01 3.961538264663521103e-01 -8.156836625013693665e-01 -5.160451940804585691e-01 -4.486761269278489728e-01 -1.645772424531913303e-01 -6.413765445674659560e-01 -3.626791396662029654e-01 1.409898607871218901e-01 5.633129030966173012e-01 7.122002822406448152e-07 7.580445794552773077e-04 1.268158487593744159e-02 -2.070966190242221061e-01 -2.564653383524342911e-01 -2.265152545163739706e-01 3.349533803453789704e-01 7.004411548003833810e-01 -6.367183096237469253e-02 -2.661936912592598459e-01 -2.826751602730109281e-01 1.607526113051205852e-01 -8.088101159986900157e-01 -8.133573304020815797e-01 -8.942819897328989631e-01 -9.514581774042167872e-01 -1.025319924392666504e+00 -5.476154515316472571e-01 -2.970107590194910330e-01 9.211807197686436299e-02 1.097383971095433351e-06 3.132793022352676495e-04 2.433657689240233558e-03 -4.213238832339698953e-02 -3.242755053057965742e-01 -6.071854221883949965e-01 -2.357389664992209644e-01 1.048239486554855826e-01 -4.132204012647960334e-01 -6.620425322968205295e-01 -1.178138268165297292e-01 -1.305093550006289627e-01 -2.788195312695927464e-01 3.471084373191259953e-01 -3.951940168368904549e-02 -1.100946978264125131e-01 -8.081322913153941856e-02 -3.508657139926391055e-02 -2.736346312698882677e-02 -2.681454710625932880e-02 -4.572030314704455147e-08 -5.400313771133211888e-06 5.096918884076839356e-05 4.883919312985628321e-03 -6.138483523235558487e-02 -2.944802089503370524e-01 -3.236253199335591968e-01 -1.177556356277460053e-01 -2.145628957222730712e-02 -1.199496688364255596e-02 2.313505170740265127e-01 1.126689739126381269e-02 -5.267343654571958467e-02 4.630789103868095856e-05 7.702068550166642560e-03 7.099291077921429487e-03 9.825722339394807672e-03 6.542292520764897250e-03 4.635268292972086375e-03 1.178352650949574540e-03 0.000000000000000000e+00 -4.531093693454411583e-07 3.254396779905260520e-06 9.153601976076255120e-04 -1.345107354387257460e-02 -2.958924195208149227e-02 -4.899548121522009914e-02 -7.462934588673149350e-03 -4.161062895457168578e-03 -5.093298981590186096e-04 -2.236910260658950267e-02 -6.400686342994366465e-03 -1.465486091713140556e-03 -9.745454339149273518e-03 -1.995331830678854189e-03 -2.339967902841880772e-03 -2.486276640955044619e-03 -5.054412930485069301e-04 6.354290031310372766e-05 0.000000000000000000e+00
-7.990874466884132943e+00 0.000000000000000000e+00 0.000000000000000000e+00 -4.737399331541866417e-06 4.238820466701834021e-05 8.287183955452563145e-05 5.450550033376230568e-04 -7.592714830043929830e-03 -5.645999239530786334e-03 9.981861845967914936e-04 8.303290483413775164e-05 1.743372912211262830e-05 1.080947308305271286e-06 2.814139299209349171e-05 4.406469171387874368e-04 1.751385356467512243e-03 1.206991977714174302e-03 -2.863122838849070022e-05 -2.890667993336330904e-06 -1.275640359114691370e-07 0.000000000000000000e+00 -1.509204282426302054e-09 -5.511372165662621179e-06 8.261236360059474296e-05 -1.822436581013103004e-04 -4.915557232898654658e-04 1.312943818562078112e-02 4.901982373666262903e-03 -2.280890887757466151e-02 -4.198041656187903592e-02 -2.057290579370231118e-02 7.111882992839749576e-03 1.934938630934942292e-03 -2.012289767215136912e-03 2.261283666185970320e-03 -3.129364598993124996e-03 8.650195485246236701e-03 1.776125911990681511e-02 7.935027727323896302e-03 4.978079095222317932e-04 3.485106431870500700e-04 -1.310068344910448947e-08 -1.140161889085848748e-04 3.390698916983388134e-04 1.003662858120334643e-02 1.502380299358676598e-02 -8.803251216847755856e-02 -2.197801179531991556e-01 -1.830567798194493445e-01 -2.623416304985635647e-02 4.743076342930892253e-02 -4.456846890335727090e-02 2.103947330006631158e-02 -5.102187475084329210e-02 -2.898117270623600250e-01 -5.724285310123973236e-01 -4.266678481354252983e-01 -1.735748432347909431e-01 -8.553702286490155737e-02 -5.017384792340336954e-04 -4.193495315871765584e-03 3.400415265897868140e-07 1.601432892950704337e-03 -4.752791378244866985e-03 -1.271007197626914942e-01 -1.919851619121428488e-01 -7.276380989222440698e-01 -8.115683125327236569e-01 2.061771822678524768e-01 1.022622295093030820e+00 7.046007843599474407e-01 -6.136860975314167854e-01 -4.647549006811769190e-01 3.875534967442092332e-02 -8.647296222119654763e-02 -1.361547640801415160e-02 -7.240156004461524297e-01 -7.063645372978660797e-01 -4.556785652483468785e-01 -4.613867870033866447e-02 -1.554444514813711244e-02 3.784014213390298274e-06 3.594555653295254411e-03 -1.343561877148603291e-02 -3.036021067125440620e-01 -7.585506904143736184e-01 -1.103859183434641622e+00 -4.894747793256828267e-02 7.392711603627826200e-01 2.700993796505088973e-01 7.481377753697934785e-02 -1.175848810806457090e+00 -6.337692492820059531e-01 1.431456407019300603e-02 -7.231680012265881974e-01 3.065877198427408579e-01 3.797439580994563801e-01 -4.582651602849474592e-01 -3.829372358970224433e-01 -3.717327359980829304e-01 5.609265195914529822e-03 -8.605251620196661076e-05 -3.774033366818443664e-03 5.887582910722762713e-02 -3.288941152187273564e-01 -9.632093721852420520e-01 3.464429728981514578e-01 3.137329580282235963e-01 7.032015920226715178e-01 1.681619597833007573e-02 -4.523387698647866606e-01 -1.932435525858914316e-01 -8.913278673499865912e-01 1.717124976584602780e-01 -3.760554279761889607e-01 -6.151511258291550988e-01 8.921002725300927194e-01 -5.606837253477401362e-01 -2.467213666576219822e-01 -5.532784961681360691e-01 -1.897663015933086228e-02 3.553377705755769288e-04 -1.662031648798630024e-02 7.793794628535703761e-02 -2.861138323427335761e-01 -6.208210835291103624e-01 -6.234313840556340858e-02 9.683248112775098004e-01 3.564749838069342092e-01 4.819685068229127844e-02 2.462141788548244739e-02 -3.744629058796428711e-01 -1.118720040205721356e+00 5.895361434543948675e-01 8.510102348012589246e-01 2.451597695307176569e-02 -7.940955371420206632e-03 -6.388930477827846621e-01 1.940080939704841856e-01 -6.522232432071897179e-01 -1.033516067822187467e-01 3.475832495434896981e-03 -4.122528184071351520e-02 -8.056898823005368554e-03 -1.472680639654114776e-01 -2.071689925427973034e-01 -2.019112522185196879e-01 3.808307416679113100e-01 1.157041762036428167e+00 8.147784999296341091e-02 -5.327962746499620428e-01 -1.921162070402344380e-01 -1.278383618887561080e-01 1.513930302877021461e+00 4.406481605493325904e-01 2.712829034704001274e-01 -9.863480483888408257e-01 3.783650074327845614e-01 -1.378666622466412084e-01 -1.011761205429225097e+00 -1.323875942804464412e-01 2.153751747362795971e-03 -1.715819872229996934e-02 -3.186228872413987556e-02 2.355976806762846015e-02 5.396075170066069043e-03 -4.921406271082474082e-01 5.386474129129381616e-01 2.837603531661292422e-01 4.402451783950991349e-01 1.159489031563805561e+00 1.097507473013506818e+00 4.323004672384829772e-01 2.272414670004473947e-01 7.265884158045780028e-01 1.641805400589162467e-01 -9.780159780749382303e-01 1.158285253149386573e+00 -3.737278082839218252e-01 -8.837579750792625699e-01 -2.381865963002333109e-01 3.507087603271662538e-03 -4.675118154103647533e-02 -1.862401484704650501e-01 -3.498251824098720375e-01 1.142940454551081730e+00 -2.259474729077963484e-01 -1.613431330545433973e-01 8.509959348497352360e-01 1.380068300642702583e+00 1.124326515367328749e-01 2.676466595372795632e-01 1.051754694838216153e+00 4.426638985335806797e-01 1.130093763468343060e-01 -6.751661484796642743e-01 5.353529005732959867e-01 1.163841620938912191e+00 2.382445275504328774e-01 -8.642373234379882030e-01 -3.310706265449026020e-01 9.086632015614036842e-03 -9.217616842694385804e-02 -4.812231644122035856e-01 2.069449418800308194e-01 8.100071322705458821e-01 -5.284935778844679355e-01 -3.912248549254220276e-01 -1.158528952892784236e+00 1.199408560760580056e-01 7.451990608283303175e-01 1.646840922407638019e-01 2.261110412953354631e-01 2.038397077023713644e-01 -9.786308380790919026e-01 -8.547194109811951934e-01 2.577983883272330079e-01 -3.967576460341881162e-01 7.267646931491351658e-01 -7.434780174332360492e-01 -2.300445966209007931e-01 9.314862885137142542e-03 -1.169975069855577338e-01 -5.019769688175333977e-01 -4.095539876157350268e-03 2.523369946520952478e-01 3.408166795689002160e-02 -3.433269899978395601e-01 -3.563862823935007307e-01 -2.921711197020108175e-01 1.586889631335433259e+00 4.626206644285665304e-01 7.455448852383742553e-01 9.654723407526555334e-02 4.320936692076102204e-01 -6.903873826798496705e-01 -4.084470352307139618e-01 -4.532218397963155149e-02 1.093823818368114154e+00 -6.737042123653098624e-01 -7.164052240732683707e-02 1.156892278113577296e-02 -1.390378792707376854e-01 -8.645622545829998451e-01 1.323264293506535849e-01 9.145082278568226197e-01 -7.974091853136842101e-01 2.641317904475687373e-01 1.718079488639256414e-01 -5.996421029129045399e-01 -1.074952233262407297e+00 5.079959581132558188e-01 -9.507070082844232273e-01 -1.359713100969670713e-02 -6.870548263053505300e-01 -4.508468812227403033e-01 7.297010831470290837e-01 -1.627236091164763754e-01 4.901874610393032183e-01 -4.729979373708578794e-01 -3.497806088583612499e-02 1.443318500826679812e-02 -1.691325364620139549e-01 -3.691676233612480873e-01 3.836302553276573213e-01 -5.069165393471340986e-01 8.703440839229584225e-02 -3.000516381373722896e-01 9.387166834318159958e-02 8.791378782613503695e-01 -5.869145082117697143e-01 -6.482710261313183731e-01 -6.851599370866254812e-01 -7.915987225167314678e-01 -3.721422529898762432e-01 -2.469057939239551261e-02 1.335664737445778349e-01 3.826082033633606549e-01 6.436299185370367715e-01 -2.374704289933351337e-02 -3.113512894948607113e-02 6.283462767512702773e-03 -5.072790247438521694e-02 -6.822816461388991893e-01 -6.502375869812063169e-02 8.775019340911635601e-02 -1.362286516428472538e-01 3.084410802167186216e-01 7.450218699703496927e-01 8.458454260701026017e-01 2.750783891565333414e-02 -1.202527221537603497e+00 7.272347467584303615e-01 -3.781017469986829305e-01 -8.506995585311978303e-01 -1.727577825893701902e-01 -6.521374549313279090e-01 -1.883731633959884466e-01 4.814720105754055068e-01 -1.365434014248378680e-01 -4.993629008757254073e-02 3.415933808188498775e-04 -1.063801430017433406e-03 -3.297024748820320261e-01 3.345940269958790902e-01 1.863430702567453190e-01 -4.131698377130541000e-01 -1.914577119003564309e-01 6.942958654270369179e-01 7.725048681252199602e-05 7.283922630774294360e-01 -9.101624253359051897e-01 -4.340782225244365633e-01 -9.360231533375598656e-02 -4.591301250349433261e-02 5.370563832649576375e-01 7.652256433060138086e-02 5.027354604426915730e-01 2.708592680134718975e-02 -2.548579139944698868e-01 -3.923450752479268333e-02 3.945179994828643989e-03 -3.753237162906892382e-02 -1.688565025511161999e-01 -3.451003641267695876e-01 7.779410654553824134e-02 4.289025012691228267e-01 1.260712417823163012e+00 1.232554966779615846e+00 4.533421965512954288e-01 2.514698110464348435e-01 -2.217598094946978127e-01 -3.467215656309126648e-01 -5.244098850953079483e-01 2.417545947897919156e-01 3.655531352508417098e-01 1.382909414807834414e-01 6.120311127854975025e-02 -2.452675757836967341e-01 -1.177700415894010338e-01 8.470636755972036844e-03 3.524350068686855127e-03 -4.116652817687849186e-02 -2.744486414901383883e-02 -1.768029952906942023e-02 -2.074603403964005721e-01 -4.206511455175857561e-01 2.523101873243661641e-01 -4.757982666394852678e-02 6.755427751707204775e-01 -5.291519614609720978e-01 -8.724362531005282195e-02 3.381640840764399969e-01 2.138941736418913941e-01 -1.173416791788918223e-01 -2.073573513856303285e-01 -2.883526772175808994e-01 -1.683255660934530884e-01 -7.331821433997800889e-03 -2.967483202282336294e-02 8.827614353045453235e-03 -1.423540885768283801e-04 1.685562133329981862e-03 -7.503798873813291581e-03 1.117664020261683183e-01 -2.421150083608651638e-01 -7.356007675900919640e-01 -8.339250562092971331e-01 -4.471399484797983215e-01 -8.506187830901790203e-02 4.061811954959477361e-02 -1.787104299731444301e-01 -4.151517420674856185e-01 -3.317196742381605112e-01 -2.588244638898521965e-01 -3.004000024275209624e-01 -6.383156428899811052e-02 8.197501914504055215e-03 2.388545311367207356e-03 2.014011594608213808e-03 -6.376378274821373161e-04 0.000000000000000000e+00 -1.492309165562955916e-05 -2.317593861287893173e-03 2.338751773275895424e-02 9.892857900657589867e-03 9.972601379948434208e-02 1.317359132802259913e-01 -4.650825650847043068e-04 1.849107388111624964e-02 8.456541901528934549e-03 -2.937152766996966105e-02 -8.340204255191249749e-02 -9.147538934263868549e-02 -6.369987980333773059e-02 -2.457050917685008398e-02 -1.243246653215850615e-02 8.150426115868133993e-04 -9.062708515976488526e-05 7.183191083128677910e-06 0.000000000000000000e+00
