-1.422500268631195830e+01 0.000000000000000000e+00 0.000000000000000000e+00 -9.235656297967216028e-07 -3.956501260601151543e-05 5.534242019741730150e-04 5.069391944355697288e-03 7.889112870966309699e-04 -3.921380850054488956e-03 -3.470220930832395960e-03 -3.079352468422719927e-03 -3.653419983521549448e-04 7.346099349510786880e-04 1.356031467787552130e-03 1.308033141377375370e-02 1.217318454706496980e-02 1.888758407806922438e-04 9.360682792408872729e-05 -3.657407572994472014e-07 -1.354874063919513745e-06 0.000000000000000000e+00 -8.916717603715869169e-07 -2.128953186730619111e-05 6.881951083670048838e-05 3.338945437884311557e-03 -2.025110973113568346e-04 -5.585314325087883947e-02 -1.846248653261824135e-02 -1.669176968392102611e-02 -2.262566399864482033e-02 1.976451067261208311e-02 2.413359459274070848e-02 2.523109298964285735e-02 1.736541051418089010e-02 -1.003719974982752172e-01 -1.344570313720724331e-01 -2.457666095231218414e-02 1.379322590607018340e-02 1.191192379222355546e-02 -4.379974523286999689e-04 1.710726566114886216e-05 7.744848640728615405e-06 4.571352381571071061e-05 -7.848266865861596949e-05 -1.071814593512872803e-02 -5.172790620772287074e-02 -2.330720589947818389e-01 -3.528950263910999308e-01 -5.021713517001731297e-01 -6.195343459141906539e-01 -6.177675584696601385e-01 -7.697514804540780409e-01 -9.459400277089344833e-01 -8.138792712153410935e-01 -1.426283532365292261e+00 -8.730734875838055409e-01 -1.621522750181085895e-02 -2.066471007868748155e-01 -1.347481927826694181e-01 1.692170101209299407e-02 2.827307493912384773e-03 3.183974985853296464e-05 1.925135814294542513e-03 -4.408190426092170426e-03 -1.949438830722448612e-01 -4.152078965496814877e-01 -6.854969397691706989e-01 -1.156950812720070054e+00 -1.123414992562300041e+00 -5.017542948254672952e-01 4.134783030785520452e-01 9.800090732969132246e-01 -3.689743583540940897e-01 -3.933677870533636156e-01 -1.113389420614766756e+00 -3.460294639285899088e-01 1.668116366774824000e+00 5.398966350464586839e-01 -1.704729345134529117e-01 -9.080261753673601888e-02 -2.576636589251887766e-02 6.157926688944370779e-06 5.090570765272492068e-03 -1.547937288258137596e-02 -5.027471078242987668e-01 -1.084064942202342952e+00 -8.116300021982763013e-01 -1.034700001232919719e+00 -5.692353045224802788e-01 1.536699446179981221e+00 2.682987321102948020e+00 3.516464203062041438e+00 1.154510914041058545e+00 1.042256070574036242e+00 1.135720703801272435e+00 -8.781319742249624749e-01 1.213412869761973489e+00 2.003233944126309396e+00 3.844528529772356373e-02 -3.053737281870998466e-01 -7.918202727829065646e-02 -8.309818124497618226e-04 6.670540371859784261e-03 -9.161092570138812397e-02 -8.789428312901655937e-01 -1.828299058616439599e+00 -1.473968408259568985e+00 -2.745905371020043173e+00 -1.253963565151635429e+00 4.579719404904109004e-01 6.280850793738683713e-01 2.275381763072137353e+00 3.789177203067042754e+00 1.502237226905654310e+00 2.577723523240128767e+00 2.462744566187160811e-01 -8.702814480630317595e-01 -2.200528398704913347e+00 -1.475494008540935820e+00 -6.667421465963787597e-01 -6.488641868777614286e-02 4.563676122982078531e-03 -5.181531815509657357e-02 -7.840499322418348349e-01 -1.984768364043764555e+00 -2.236233450223687580e+00 -8.620192996966502541e-01 -2.788578625613608253e+00 -5.032371059215707820e-01 -3.682065264701340213e-01 3.429421089270656697e-01 -6.023601338071707390e-02 1.461102515380714895e+00 7.546058971839200158e-01 -5.164600060216334443e-01 -2.826249450224291859e-01 2.768082333648672622e-01 7.674093819710690045e-01 -2.438121167841347692e+00 -1.639767338301307165e+00 -4.359999752696155917e-02 7.219030961268042140e-03 -7.218713386187611269e-02 -1.947405703117215836e+00 -2.183156504214747606e+00 6.874826627853312111e-01 1.997153961660237842e+00 -1.525522608970543592e+00 3.044720629967833520e-02 1.385569244711113424e+00 1.681789038912788303e+00 1.657684105975085309e+00 1.834822702164894126e-01 2.447957368764869468e+00 1.490266824195590478e-01 4.743559506385053304e+00 1.802106651039584451e+00 3.905178656234208567e+00 -8.337680061214370886e-01 -2.779839549514718122e+00 -4.081108622150571019e-01 6.181460185582148339e-03 -8.988423439783600755e-02 -2.857156021206775698e+00 -9.285192793001839640e-01 7.853946647892895427e-01 -1.943615438734317968e-01 -1.729813114021575782e+00 -3.116892986325428549e-02 5.304928308835744621e-01 -1.260014756328943220e+00 2.932145672048286134e+00 3.055589987295104670e+00 2.487539560162312924e+00 1.150055015560669025e+00 3.987248454218172533e+00 7.002263826555032988e-01 3.266090344028060422e+00 1.338079300719610676e-01 -2.058126352625234468e+00 -7.134349932180888976e-01 9.784600907745711132e-03 -2.802345261990350500e-01 -2.190851377712371040e+00 6.921130831437551922e-01 1.192868108448328801e+00 1.799589937621682179e+00 1.667545563396326092e+00 7.922880206853737395e-01 -1.953496610805843137e+00 -2.718731560599356278e+00 8.994220344266952161e-01 -4.641881414082637214e+00 -5.503701527014862371e+00 -4.062387874377588304e+00 1.465465939908136839e-01 -1.906554875238601010e+00 3.688834685052525320e+00 -1.657507055224446968e-01 -1.294606245005103684e+00 -6.790047140084078947e-01 -3.036125831083605342e-03 -3.504725842167327743e-01 -2.989556955862395782e-01 8.474887888633733102e-01 -1.590980702212907993e-01 1.306400962529083998e+00 1.123529046288111788e+00 -6.271258869800973024e-01 -2.071748607361124428e+00 -4.867573621043834287e+00 -7.322030937281621021e+00 -8.869321295930918225e+00 -3.779039481720070981e+00 -2.452764603074160554e+00 -3.330063416855229441e+00 -6.813827461536176022e-02 1.969211085513797865e+00 -6.680371052580932334e-01 -2.375160652234360015e+00 -3.323593967035917141e-01 -2.434901357267726246e-02 -8.300698448518839534e-01 -1.781198039916260800e+00 1.544308828144632384e-01 1.213611726279414382e+00 4.301284273223314747e-01 -7.464232499187402059e-01 -7.941890058007655684e-01 -1.311808843906168143e+00 -4.929322935709902431e+00 -4.685964199946922371e+00 -7.532397639968847480e-01 -1.038130459269251071e+00 -8.419987210782802212e-01 -2.380242259887062506e+00 -5.030970596586363808e-01 -1.676570240540439904e+00 -1.736704304205051397e+00 -1.946034734759977791e+00 -1.093214344049222575e-01 9.178058683766258941e-02 -1.358624328523503344e+00 -1.595108316567628304e+00 -1.940158434020738953e-01 -3.098041703611369990e-01 2.751531000296616014e+00 1.668942558943864174e-01 3.284673620517748471e+00 1.905099758898854301e+00 -1.875203366335154997e-01 7.266264153154187166e-01 -5.084759933649790620e-01 4.341632490463816496e-01 -9.971398457996603071e-01 -1.953713363009303094e+00 -4.073906798505960047e+00 -1.580298529479716496e+00 -9.074802375014874301e-01 -9.227917265171008410e-01 -1.415992804185720599e-01 5.952058451647185278e-02 -7.024746986478886956e-01 -5.977443603469123623e-01 1.041479893281065827e+00 -8.228306960889433808e-02 2.470246426321168087e+00 1.954918046071631554e+00 3.855143764268885498e+00 1.951145737062063512e+00 -2.240417895315458541e+00 -2.062065914619074736e+00 -4.560767846300152195e-01 1.142251690453851332e+00 1.829336241163413979e-01 -1.886029318512644881e+00 -3.464406690570553060e+00 -1.247008054677226085e-02 -9.446592047033820494e-01 -7.354080698215140766e-01 -6.704879461557478396e-03 1.639666770609232715e-02 -2.438048851543925810e-01 -1.160814636874146988e+00 -1.277458634141216132e-01 2.776647012450940810e+00 9.653372241507776064e-01 -2.751964759019403850e+00 8.566459095068247320e-01 2.601055907840385650e+00 -1.068984041051816769e+00 -1.207827631001883173e+00 6.147493144279945199e-01 -5.632173742708224129e-01 4.803818752697297523e-01 -2.720029559665132712e+00 -1.120324094035725526e+00 -6.170745128786025296e-02 -1.956325068416903790e+00 -6.631381610196263043e-01 -1.383043851120482198e-02 1.250498844530593956e-02 -1.397595824255364882e-01 -1.579231089294070856e+00 -1.047349211588129769e+00 1.822934954398772511e+00 -9.781469530988032846e-01 -2.200847610508583907e-01 2.804319184316509617e+00 2.367345224323300190e+00 -5.694472678904820562e-01 -4.090897662695412995e-01 -1.071217246473596729e+00 1.577853542617452476e+00 2.363304620780641851e+00 -1.078298728478255919e+00 3.542257983824006473e-01 -6.847533040718393194e-01 -1.170388596051936680e+00 -5.846888115617087101e-01 -2.644878167350435128e-01 1.673511871332193169e-03 -1.962828275597834626e-02 -3.528210637073415645e-01 1.157507251486692423e-01 -2.202830618470050794e-01 -1.846470690744713261e+00 -1.465856870889644670e-01 1.885550497000096470e+00 1.334778311014124696e+00 1.396927140895561692e+00 3.059664926104062488e+00 1.253221335802346736e+00 7.854076060249048918e-02 -2.618258156113249857e+00 -2.787626583581401807e+00 -2.316250991005293081e+00 -1.248793606399039469e+00 -2.349394688949080490e-01 -2.932646528844140565e-01 -1.539258364314096406e-01 -1.836822421478675473e-04 -1.028443928520114334e-02 7.871666039184491148e-02 5.901656737581969514e-01 -1.626902506239697566e+00 -2.517705265822738347e+00 -4.799794728644272701e-01 -8.541691013682796429e-02 -1.963430674676229226e-01 8.987119548012376669e-01 1.860826696971362937e+00 8.146322955629022866e-01 -1.246159578924404210e+00 -2.281234678365147595e+00 -2.661524027607742759e+00 -1.917431365762095608e+00 -8.682166827015727062e-01 3.044796249801551974e-02 -2.061466090570669013e-02 -5.654397610953619101e-04 -2.149285731166798492e-06 8.141198149662326033e-04 6.912641940649444372e-03 -3.918691395572351799e-02 -1.571656454753600940e+00 -1.739490315078919824e+00 -7.204091109975354623e-01 -1.778111795207495960e-01 -1.051523529638414556e-01 -3.066562107190158870e-01 -2.689579788326272314e-01 -5.895114899867738290e-01 -7.835382077875496787e-01 -2.304257420250471755e-01 5.804431432748974329e-02 1.116030444675519817e-01 4.019644975405471665e-02 -3.826704793790571143e-05 3.837288852610114785e-03 1.542121887036882778e-03 0.000000000000000000e+00 -4.639907273666552093e-05 -2.743533612687271400e-04 3.304489056554658910e-02 -4.451002621995575614e-01 -9.095070506524839671e-02 -1.560710549464125185e-01 -8.806648409170763497e-03 2.946023050588375894e-02 3.139296668293332926e-02 1.560004490116753684e-02 4.495480725455310023e-02 6.600575772310243727e-02 2.409037378174045535e-02 1.184385539616788705e-02 2.149018476247333345e-02 4.516379516622761117e-03 -9.371361587457416840e-04 2.883163590899387080e-05 0.000000000000000000e+00
-1.143572520224947908e+01 0.000000000000000000e+00 0.000000000000000000e+00 2.457322464115775282e-04 -2.266636705615878919e-03 -2.513701555148648535e-03 2.460165147152456287e-03 -3.821068112631169356e-02 1.282893779828344835e-02 1.200570451102222613e-03 2.940467067331768193e-03 6.058388395472676796e-04 5.599758805978451767e-04 1.902856296510915292e-03 5.792322059892517951e-03 3.342514768323513741e-02 4.609034152132682194e-02 3.852657668959944947e-03 -6.576033730902250407e-04 -3.868072625672820802e-07 0.000000000000000000e+00 -7.296469881401003926e-08 4.273442669834502742e-05 -3.230896358714138716e-03 2.504725586864588183e-02 2.925723132394570172e-02 6.365456261468158128e-03 -4.698044593801220525e-02 1.897858683684042896e-02 -1.113517366350085316e-02 -5.148713855133024708e-02 -8.077743751715483339e-03 -4.942883850745711204e-03 -1.683526913261073482e-02 -2.967515125353171329e-02 -3.249115168024570566e-01 -4.636250912025759452e-01 4.003808197628698322e-03 3.769135513224284445e-02 1.258021123932577100e-03 6.911435849012359176e-04 5.420753779514184351e-07 -1.623988410802119572e-03 5.706196097365664327e-03 1.241451688594179537e-01 2.297500419949935757e-01 2.584618312438048404e-01 2.426245052279067393e-01 -2.661326347320842611e-01 -3.552014601995732157e-01 -1.241839088915940581e-01 -1.477346458057558209e-01 4.027095190861063566e-03 -1.205565035325036061e-01 -9.773918757355788411e-01 -1.918503613805917496e+00 -1.699519787149655459e+00 -4.398189069386281291e-01 2.312690923863026660e-01 -1.691416841479794972e-03 -2.730136534247116793e-03 3.186909647897159812e-06 9.284031393769933208e-03 -1.547834317138090977e-02 -8.143552068993935578e-01 -2.106153862629325246e+00 -3.395387329527280951e+00 -4.816197565688098869e+00 -2.954776395959031632e+00 -2.858106782977535509e+00 -2.708540911458065525e-01 1.073690140056095643e+00 -4.120966677481772700e-01 -3.655442809399468002e-02 -2.565860428432991114e+00 -3.081761928409706197e+00 -4.593528185634903060e+00 -5.658100666986829452e+00 -5.081897211137675008e+00 -9.593167660379750550e-02 -6.421120241672548246e-02 7.967970876866930182e-06 3.304939383557732591e-02 -2.744315418448670663e-01 -8.522310240638566459e-01 -1.359982089410073591e+00 -1.082624627562512920e+01 -9.070409060278365132e+00 -3.659882779988693491e-01 4.796242652684520991e+00 7.072976185941967309e+00 1.267705373840690708e-01 -1.812519554040445957e+00 -5.238701860004133515e-01 -4.779784431623414598e+00 -2.454060686768121613e+00 8.060498360574991139e+00 2.351329043427309584e-02 -5.252268739433834099e+00 -8.526862236571201015e-01 -1.689812769568315998e-01 -5.257379178860564799e-05 -5.129373092328537442e-02 -4.843337054241079742e-01 5.461732142012250435e+00 1.499845080276558662e-01 -3.699420293062428478e+00 -6.025804944207134639e+00 -2.667571763187440048e+00 7.631835439633606555e+00 4.659077828039126956e+00 -7.374096917001657481e+00 -5.233651275034593375e+00 -2.431591934046301695e+00 -7.097262276419128213e+00 -4.704605968870563260e+00 1.491375246521748821e+01 2.353476270923738678e+00 -1.391916618563922725e+01 -2.789035035121024464e+00 -1.936623678258666270e-01 -4.520163990733263226e-04 5.857377419642569027e-02 -3.022861355190728627e+00 -1.864968060628940494e+00 -2.776626702515776035e+00 -4.917398527027065036e+00 -1.943299582171484463e+00 -4.772246114345585433e+00 -3.523494701112288130e+00 -4.660159229851582374e+00 -3.475640441081437437e+00 -1.985658099611982808e+00 -1.950103548252029251e+00 -4.270813082834749252e+00 -6.931391817885809381e+00 -7.306610580895355866e+00 3.285995063850373765e-01 -7.254916421008346994e+00 -4.482495581737921064e+00 -1.515632252553298920e-01 -2.692314815928490042e-03 2.004292723540329613e-01 -6.405531793966858345e+00 -1.096686663676202400e+01 -3.843694872967010845e+00 -3.502557416101595766e+00 4.929105155353479262e-01 -3.821682685302484561e+00 3.077438620780148071e+00 -8.181056133221591864e+00 -6.500597823167703737e+00 -2.148562018185995015e+00 -8.491566610732778742e+00 4.437846540267668338e+00 9.002273739778004824e+00 -1.947868551952901317e+00 6.229277622768576439e-01 1.499006303872928436e+00 -9.350477264402947242e+00 -4.811031884083363103e-02 7.487597844481244658e-02 -8.829758969506835697e-01 -4.891383059496832608e+00 -3.424605580961681106e+00 -8.512433461799300716e+00 -5.910545895269816441e+00 1.424253445677293506e+00 1.825325256654610984e+00 -1.994343245244882545e-01 -7.544476369135233007e+00 2.312839803059856814e-01 3.288558021311447810e+00 -3.966788455937621194e+00 -6.826395803231662285e+00 1.950619527159471511e+00 -4.605318766199433811e-01 -3.937794697728089766e+00 -5.267499530611048364e+00 -1.105297851797305064e+01 -1.602490038257591731e+00 1.546575350367353219e-01 -1.762965550277507898e+00 -4.617499393962201104e-01 -3.240304244685951574e+00 -4.623644535562994484e+00 -2.101677870161569484e+00 -4.968154618429432290e-01 6.974618691601572884e-01 3.540096059117996408e-01 4.778309059331317110e-01 4.023556516559861684e+00 2.587208946575505486e+00 2.601986391071315907e+00 2.551553621336339894e+00 3.412954829284626790e-01 -6.279432002041660965e+00 5.103056770797579356e-01 -1.918969772299298215e-01 -7.839403602071299382e+00 -5.637402350201059509e-01 9.420799632091608755e-02 -9.073322114452808673e-01 2.536329663957422653e+00 -4.840301571589109564e+00 -7.963083420340710816e+00 1.379696989189228340e+00 -3.361323100055662483e+00 -6.444976772467025938e-01 1.043931765095249631e+01 1.200438428482598141e+01 8.073618992469931754e+00 8.572411121340127949e+00 -2.091130670679411274e+00 4.114269363052080131e+00 1.710049676870990965e+00 2.096666881598647780e+00 -5.241877686089747856e-02 -6.410338000196440511e+00 -6.452972898394569334e+00 3.214954763004564814e-02 2.344096595386447809e-02 -5.577363582380975293e-01 1.642785363966978940e+00 9.187407634831178171e+00 3.851650885411937786e+00 -1.167963707763696846e+00 -4.116224108270369442e+00 5.007568972453808165e+00 4.175540145584359486e+00 3.218374617764575341e+00 -1.435210453166558375e+00 2.264248883982885818e+00 -8.724180013108005838e+00 -3.730686981943927449e+00 4.213645420164465527e+00 3.754805528267933568e+00 1.974708924040874614e+00 -1.142534275174217484e+01 -7.205400628621002390e+00 -4.808969652247527260e-01 9.756011410012453700e-02 -8.644892050929887661e-01 -8.802823503355774903e+00 -1.165940066995871582e+01 -7.455855914401976037e+00 -8.032936107160502104e+00 -1.847003335727613660e+00 -1.843259365126367566e+00 2.824833062938345574e-01 2.553989574486545400e-01 2.868617300198515352e+00 4.570663762814960229e+00 -3.663546191451365175e+00 -2.145615350024534518e+00 -3.843570467626121978e+00 -5.214590676231163791e+00 8.588127696081077289e+00 2.441832765792856019e+00 -3.344538748082821478e+00 -4.385636212672878731e-01 8.360848653625375937e-02 -1.083578086554497277e+00 -3.615809934316700947e+00 5.150457340555698593e+00 3.204296173397922942e+00 7.499507303171301764e+00 -2.745166377307654670e+00 -4.376515678778195806e+00 6.548780057462872506e+00 -4.579414485105838040e+00 -5.572302167440462917e+00 -9.358113205532081480e+00 -4.174929998523973396e+00 6.131004829262563405e+00 6.451772186920272212e+00 -3.634277346996753977e+00 4.359461990089444683e+00 1.088091175208037331e+00 -2.858662626947910290e+00 -4.852322972861523864e-02 1.041649131535323652e-02 -6.773593739176435313e-02 -1.981091114217367721e+00 -3.589977670081308858e+00 -1.627718537431730672e+00 -2.226331739659207276e+00 -4.383657600429473611e+00 -2.842749842433784924e+00 -8.187217155060924512e+00 -8.384043234446698634e+00 -4.766021518166617454e+00 -7.402207955777729609e+00 -5.211216447994203804e+00 6.470506361473418622e+00 -2.235923668069296877e+00 -6.896463285688197997e-01 7.210474677169494306e+00 -4.793226878460648877e+00 -2.383107225741380564e+00 -5.139680818877911950e-02 -3.295873966195331153e-04 5.827182436444860308e-02 -5.262502324781028751e-01 -5.672125373569260276e+00 -4.455935007061218478e+00 3.473533203441629968e+00 -3.255225147108710804e+00 -6.254700893011873042e+00 -4.788772360885356960e+00 -3.866582696153506582e+00 -5.465054419576605760e+00 -6.947259514439775963e+00 -6.789040604812694113e+00 -6.323767119580086415e+00 -2.885408211737369832e+00 2.409806605630574694e+00 9.524012585446747226e-01 -4.747442806006048954e+00 -4.760093260651965252e-02 -1.869238467806989823e-02 -1.198882284282462633e-04 -5.512595685735038192e-02 3.597347451275644259e-01 2.662687891182403899e+00 -2.759400986101512743e+00 -4.025378828032699197e+00 -6.277979101251362160e+00 -4.320013795714520377e+00 -2.044439797183791097e+00 -1.439033297383998100e+00 -1.060379748617479745e+00 -2.050839161244101483e+00 -4.329395545753373042e+00 2.518005325896441882e-01 2.771137171995907256e+00 1.074156078810590387e+00 -1.776153200427283974e+00 -1.242999075716154644e+00 -1.015698057613239752e-01 -2.044263343903967960e-03 1.268320104011966222e-04 -2.914549925273953943e-02 2.033035622825567768e-01 1.591706829336354767e+00 -3.374409017193557681e+00 -6.160205318246564588e+00 -4.273337859152317009e+00 -7.120506854123698215e-01 -1.986299183142222757e-01 -1.182577541932223086e+00 -3.263210886409769751e-01 -7.711034093036349679e-01 -1.936923850801328673e+00 1.497838624744930014e+00 8.610452783519198405e+00 9.219474340414027580e+00 2.080061816821469289e+00 -6.608800800123814101e-01 -8.375069867039011684e-02 6.421519731878279000e-03 -4.370920954404788932e-06 3.945588130195471464e-03 1.183929327986070132e-02 -4.905828162834581230e-01 -1.519459356910337400e+00 -1.136468035608560134e+00 -1.249909064226768285e+00 2.448670152747447482e+00 1.929224894069956342e+00 -5.097178832751395605e-01 8.674185334083436283e-01 2.506897707592008542e-02 -6.647938173740317591e-01 -7.150496989002627646e-02 1.798369031839001986e+00 5.694252128320265172e+00 1.482749823296931169e+00 -1.548657273644831744e-01 4.843728891380482716e-03 -2.277808335257694471e-04 0.000000000000000000e+00 -2.340298746947271492e-04 6.309539961083611426e-03 -3.161087149843225252e-02 -3.681395463078357411e-02 -9.011187894844435720e-02 1.885454976158656634e-02 -2.530346748875973439e-01 -2.221813119342933018e-01 2.145707640096076313e-02 1.520808395847259020e-01 1.695387467236359261e-02 7.484551886010630539e-02 9.470946099562858045e-01 -5.506571468387080198e-02 -5.079872564254883649e-01 -1.296708149365319862e-01 1.601824160803919442e-02 -5.167007620530277028e-08 0.000000000000000000e+00
-5.802139837906159947e+00 0.000000000000000000e+00 0.000000000000000000e+00 -4.106993883980178959e-04 5.987828462523989322e-03 -1.887940813045145549e-02 -2.399809392807038810e-01 -1.950535887702566917e-01 -3.167880360984256516e-01 -1.140181699793216610e-02 -8.609793112680691474e-02 -3.517812235441583613e-02 3.372016288775758763e-02 5.158134091545189814e-02 -1.844580310947602480e-03 -3.761799945817208002e-01 -1.578058093773157811e-01 9.313743414152421407e-02 -5.808706810097602133e-03 -2.212145030205706314e-04 0.000000000000000000e+00 -9.838910142193837231e-06 -8.532349851636479490e-04 1.343167587956830590e-02 -4.389681135955125074e-02 3.313252576555215656e-01 2.783266342476532706e+00 -1.605307382593381960e-01 -1.301271949240930370e+00 -6.678774700662661046e-02 -3.701781433090538531e-01 -3.105870563886789504e-01 -3.949700503677787689e-01 -3.102543446399185778e-01 -1.449663329099147857e-01 3.745330540730006597e+00 1.653149988160127704e+00 -1.292866389089625700e+00 7.064858007738488051e-03 1.779624677206699535e-02 1.606677055159281479e-04 -1.806783999255123915e-04 1.187839200228473120e-02 6.102731548684751928e-02 -6.002453145199150297e-01 -6.540505037466616933e+00 -4.875629891029245933e+00 -4.985596683390371098e+00 -9.272062915333036059e+00 -1.241409928948748664e+01 7.984548021583329769e-01 9.619708089798686856e+00 1.177096507323497754e+01 -5.775402009481112042e-01 -1.266852776100600231e+01 2.816387187346626741e-01 5.756879800648280643e+00 -4.847097437014124210e+00 3.565403571959930851e-01 4.916097812905622644e-01 -3.991588398538760407e-02 1.965603314221164074e-03 4.213497885763858863e-02 -1.276628979744201198e+00 -6.568345947040458155e-01 1.485349204700859183e+00 2.426867230062038416e+00 3.072979817150788495e+00 -2.333376172375718482e-01 4.909359064738453071e+00 -1.396171712296657219e+01 -1.376261944791668856e+00 6.801261107073023560e+00 -4.826561226792119186e+00 2.970199191780376946e+00 6.188809710256101937e+00 -8.037561809558260606e+00 1.339103743269463687e+00 -4.415318100140888546e+00 -4.889207607321536031e+00 3.358017258419858098e-01 3.863491157849932578e-02 -9.166378732272043028e-02 -3.870011554261885589e+00 6.363595081262708675e+00 -7.716275185836000139e-01 -6.980233071948940271e+00 3.092168124014513797e+00 -4.561343504635263280e+00 -1.147442032589624406e+00 -5.162421000340660093e+00 2.198218976190340790e+00 -2.451005111996618968e+00 7.373545254081155242e+00 -2.982328224076179701e+00 -4.436810773136240726e+00 3.508683114092470134e+00 3.309019982720927011e+00 -4.893260974502553040e+00 -1.246072992516478983e+01 5.967567139596198222e-01 -1.096894581065243762e-01 -1.799835000914543182e+00 -1.572020246006131217e+00 2.330058231817174530e+00 -2.952826528219667068e+00 7.450860465285546574e+00 -6.263117923537908638e-01 1.008427821668635094e+00 -6.434420351563512774e+00 -5.300383594012082256e+00 6.306912132714524333e+00 -2.453071732405301963e-01 -9.944694687073526440e-01 5.220490657270491219e+00 2.578283335924430375e+00 -1.098220794793767219e+00 1.955456869186606106e+00 1.381383257164830791e+00 -1.285701486912815739e+01 1.807809892844524091e-01 -1.120038943800844011e+00 -6.127894392105601717e+00 8.058423611850125123e-01 4.577814441324044026e-01 1.988503854761640488e+00 -5.591721234280798924e+00 8.951431074015078759e-02 3.915392420553949648e+00 -3.514077040211839087e+00 -1.026660464722303345e+01 2.734599005303951280e+00 4.826785376859529797e-03 1.752181236675658171e+00 -4.950560119602572584e+00 2.470222917692708187e+00 -1.273758465267831763e+00 -1.712441079391237908e+00 -6.190187343159773148e-01 -1.238970677693335531e+01 -7.764381126045548642e-01 -8.605876833866804576e-01 -5.762547888345142866e+00 8.215054827124577130e+00 -7.435646385766051525e-01 1.135147080183774637e+00 2.589822759538410235e+00 3.194400356589553347e+00 -7.662746606811094985e-01 -5.217650432364991708e+00 3.382037031569724128e+00 -6.908044886088973158e+00 5.551661948584642126e+00 -3.296123783258358309e+00 5.126455124729768720e+00 -2.019013615436641818e+00 3.354920583640502496e+00 -1.660874208672636465e+00 -1.604337869080218582e+00 -1.199821343670951102e+01 -1.669439469268293452e+00 -5.067773847953451760e-01 4.106080693830151951e+00 7.409037208956932574e-02 -1.850902187912065955e+00 -1.315651396030325770e+00 1.718482855830956391e+00 -5.279640879573170409e+00 3.466692020475454772e+00 -7.175998728133077265e-01 -4.934293162684183720e+00 3.495021919317574444e+00 6.791294503812433936e-01 2.342052343547574633e+00 -1.461770789089693157e+00 4.016911265625270566e+00 -1.133835818714436838e+00 -6.578073598667419919e-01 4.244236143219767832e-01 -7.195998789959859643e+00 -6.484961643805260412e-01 -6.620360488779736263e-01 4.938621267675214810e+00 1.500692383304774724e-01 3.637125619723014402e+00 -4.526066417050526036e-01 -4.295971930374452019e-01 2.389459791988427728e+00 -3.322700538029435879e+00 -4.599575508093470155e+00 2.184870226215698708e+00 -3.718285512492728095e+00 7.344862449385640701e-01 1.427153833579486886e+00 2.667573611187066707e+00 -1.101969801779317359e+00 2.727248230863632994e+00 -7.053981313237709383e-01 -3.459648753456237458e+00 -7.251935352175100213e+00 -3.445175373402588059e-01 1.586743902862971956e+00 -1.244757708512091909e+01 -7.168783795400910375e-01 2.161232634173595457e+00 -8.453125478701323248e-01 -7.709664313056668883e-01 1.263900605388867115e-01 -1.022249972525377082e+00 -1.720727305669861595e-01 -5.154480330362672724e+00 3.614824454267717702e+00 4.106802995435123171e-01 -6.196611439697756740e-01 1.362455037000230629e+00 1.505981569652841356e+00 -4.176568396597478028e+00 1.383860702222795558e+00 1.579634853516496795e+00 -1.532522135059844182e+01 5.588245534664618708e-01 6.064074262476221833e+00 1.420204377108418292e+00 -1.898251474215723933e+00 8.577964247579505930e-01 1.536100787206657659e+00 -4.965763938419237022e-01 -4.190508120244009205e-01 9.873857486461121713e-01 -2.229650050709583553e+00 5.946086693061727324e-01 -4.359696766915206467e+00 1.713642485341523525e+00 2.520956568288292843e+00 -1.700220757885853251e+00 2.809116132123034237e+00 -5.022695865148018024e-01 -2.736710042165991119e+00 -2.824374116286828329e+00 -1.418174228277291959e+01 2.366244487499926524e-02 1.597273509809873815e+00 -1.303680840698861809e+00 -1.877128441531962899e+00 1.826556826791330801e+00 -6.851578267183515702e-01 -2.199736752361550085e+00 1.909394612053415763e+00 -7.024156260028677767e-01 -1.006225004833078307e+00 6.481562291613847393e-02 1.400646783877355528e+00 -3.581822183704020279e+00 4.536272065838672929e-01 1.638466946128849688e+00 -2.968022940780463248e+00 -2.292383229097176567e-01 4.776556644572313992e+00 2.251482228717650358e+00 -4.655732147692376977e+00 -9.884522697519303458e-01 5.742617077979716989e-01 -9.512458629053380577e+00 -4.278580850723193857e-02 -3.930832657304877298e+00 2.919139504893536685e+00 -2.964518337592732422e+00 5.574496857379532599e+00 -1.467807869014932098e+00 -3.798070399187383206e+00 -2.965174932547910425e-01 -1.308649360650343318e+00 1.029356509652769702e+00 7.312091241845586342e-01 -4.961685473580980665e-01 1.240569996740276126e+00 1.953053753536160730e+00 -4.959898850016720040e+00 1.795089048891363337e+00 -1.020976980777760001e+00 -2.064012678097377762e+00 4.712057904664969654e-01 -5.941209189517999256e+00 2.974739502215989262e+00 -3.451407999778515756e-01 -4.283339772754710117e-01 -2.724028247069627096e+00 3.318718553277565597e+00 7.485610278880916457e-01 6.799752541968695496e-01 2.882324974149706343e+00 -3.042522210906940305e+00 3.729831014875524708e+00 -3.509527886186531553e+00 -9.757314871916719090e-01 1.427419977312788024e+00 1.237868563288959001e+00 -4.942182865915532020e+00 9.355809185158886265e+00 -7.345374106370873513e+00 -1.035423064129216586e+00 4.173689059738343310e-02 -2.365222671760497608e+00 -4.817597479686450690e+00 1.500194701777802231e-01 -4.256949391678586991e+00 4.185152262750049701e+00 -2.948963950680345114e+00 2.001060661482426450e+00 2.092347026782983010e-01 -4.183903812542528300e+00 -6.273499165152255586e+00 2.918968587930529157e+00 2.737898460881034168e+00 1.499185475611977125e+00 2.506417149720562010e-02 5.608357719988398493e+00 -3.960759332192541060e-01 3.111994507247137776e+00 -6.057843625235074470e+00 2.265245760398636454e-01 -9.569828102238948919e-02 7.591435094990934829e-01 -1.725024181940765233e+00 -3.725314917481296284e+00 -3.033309110423850097e+00 -1.093325867285761976e+00 5.611816764648366096e+00 6.061117531519584212e-01 -1.006856807833039724e+01 4.311932273857713938e+00 1.549274693025582739e+00 -6.535602559918474164e+00 2.356811454833238173e+00 -8.999788942094741895e-01 3.549457589245080258e-01 2.175378347567737070e+00 2.118889422312574822e-01 -2.166460879714601440e+00 -4.349792399790229247e+00 3.757690956364269086e-01 -4.964434358426664251e-02 5.996430723923905637e-01 2.492985798849579604e-01 7.451516787338936965e+00 -2.539233309992319776e-01 -1.501286824290806265e+01 -1.718727656062190334e+01 6.737720752388964840e+00 2.122213141773609202e+00 1.698638190438561013e+00 -5.009149094966377724e+00 2.137542928705065570e+00 1.781810059457447748e+00 3.103306373092134862e+00 -2.684823643669111082e+00 4.696798828286512517e-01 -2.056159399373446828e+00 -3.110339177524805709e+00 -9.897899224142979735e-01 9.116217664366854656e-02 2.161502143349651201e-03 -5.804962735946600505e-02 -9.455038511842923932e-02 4.484762366202222239e+00 1.625368476383434624e+00 -4.725264577172956670e+00 -8.087617508818812695e+00 -4.030942422825929405e+00 1.215793548310867145e+01 2.533919138886033817e+00 -8.117173258730129959e+00 1.218673999619077364e+01 1.795754112453426643e+00 4.555516473008887957e+00 3.868719305912757367e+00 7.942118560259953108e-01 3.263831501394879875e-01 1.823613942056598047e-01 6.783965214564051383e-02 -6.576869409859768464e-03 0.000000000000000000e+00 2.743418168151653264e-03 9.599527262198856437e-03 -4.028726673336187614e-01 -3.572734067874040464e-01 1.952837147707820187e-01 5.615398559414265245e-01 -1.079308174598996029e-01 1.437402126956313753e+00 3.857011238237388007e+00 3.568885125413598924e+00 6.033134287167921883e+00 2.903949605029113812e+00 -9.811555847252536600e-01 1.315916227236897385e+00 2.802368206523813687e-01 1.670670810830010011e-01 5.282166397086276999e-02 -5.893636626774446420e-03 0.000000000000000000e+00
-8.822392580394508244e+00 0.000000000000000000e+00 0.000000000000000000e+00 -1.443116243373457331e-04 -1.342590869341379889e-02 1.932463222966276928e-01 1.512643920055772417e+00 -2.881266621079837664e-01 1.813684796564352386e-01 3.229273927737710270e-01 -3.848997027785809599e-02 -2.605417628377525857e-03 -1.991504121361006296e-01 -6.058591008883624784e-01 7.778480285215103596e-01 1.052363641653797144e+00 -6.320407985441539589e-02 -7.566467363213724186e-03 1.141694587297117930e-04 4.098081602353402048e-05 0.000000000000000000e+00 -1.129510394832277164e-07 7.750280505377932770e-05 -4.819230330194165281e-03 7.443710812349658978e-02 -1.436169047183180336e-01 -5.778890550654685043e+00 -8.957615983169731066e+00 -7.755161775620005749e+00 -4.997118599433417963e+00 -3.401500355899986783e-01 -2.237553193841049504e-01 2.410487731335730466e+00 6.660517859170363764e+00 -8.717589541642807305e+00 -1.157859145241054932e+01 4.229423684812413931e-01 -2.357966805841878455e-01 -5.171743403502662151e-01 -5.863186954277949114e-02 9.852624562084981788e-03 9.698586744698483665e-07 -8.901549672080488404e-03 2.177053103796056446e-02 6.139088619649050171e-01 6.516316572370314475e+00 5.173031572037071868e+00 4.730529623928632965e+00 1.077912598261258381e+01 -1.935042877755523527e+00 -3.682699128539369537e-01 -3.059874979232453995e+00 -9.761043307398715285e+00 3.164761059416791866e-01 7.508512816750703700e-02 5.955663334665008968e+00 6.902430131787610890e+00 5.397822812677015136e+00 1.710610077540903262e+01 3.380986265214356301e-01 -6.229728053633667995e-02 -2.350671219225342881e-05 8.068146047229284024e-02 -3.476639793467934392e-01 -6.548838972289948934e+00 9.836109219725467367e-01 8.334541508059151171e-01 -8.714636718613643085e-01 -6.675356877714511583e+00 -5.256978966614490822e+00 -3.206728043663729544e+00 -7.254921460991810456e+00 -9.339804419159601911e-01 7.966826085591026008e+00 -1.837621818409202801e+00 2.272206031075726163e+00 -3.420356388504599554e+00 4.400600879710669489e+00 7.772489189906400142e+00 2.354125259773812928e+00 -5.291495189650556874e-01 -1.464696810657492988e-04 -2.581273588441166528e-02 -8.264216377520294810e-01 -3.668970539888368521e+00 -8.456213933657870385e-02 6.749204505684656130e-01 9.005809803210848563e-02 1.303350659812102386e+01 -9.041937029881282228e+00 -1.990752271101648319e+00 5.765038495408556507e+00 -4.610539169794239278e+00 1.411827982991547437e+00 -5.330824539819193575e+00 8.251101046365445058e+00 -7.836073513264043555e-01 2.564329788870736149e+00 -1.145602248715812443e+01 5.480930422962502213e-01 -1.598983943224296045e+00 6.466431229003000505e-03 -3.095364199227930158e-01 -2.910139186570527503e+00 7.173513231112153221e+00 9.919344059192762852e-01 8.965445069970615632e-01 -2.129083095007838544e+00 -2.628577392801140444e+00 -2.876379999937183296e+00 2.700381943075405466e+00 -7.092761973890021387e+00 -7.119103866128496882e+00 3.603056054367977712e+00 -3.003239560470208236e+00 3.593519273885742660e+00 -4.773324816916401758e+00 -5.122330192699161566e-01 1.324588007954391422e+01 -5.718420656829176218e-01 -2.142898517944146874e+00 1.457127250896405983e-02 -6.011973433951509627e-01 -3.256610236691901861e+00 -3.002358846827818617e+00 -1.628103486014811585e+00 -2.252353688774415552e-01 -1.572880017938481090e-01 -7.537283428756275105e-01 -1.120564721489857085e+00 -2.573455416663249729e+00 8.775863019237226226e+00 -2.686767317242764186e+00 -3.900049817059950130e-02 -1.524948772341646164e+00 1.112737090750278268e+00 1.400538711401540404e+00 1.644173131288854117e+00 -6.744363949812866466e+00 1.739277526864849488e+00 -3.100593679876678888e+00 1.240619428812951737e-02 -5.986713096628554220e-01 3.704461574070416319e+00 -4.323416042552832295e-01 5.771982192882703977e+00 -3.399413950122477157e+00 -7.452792178437815940e-01 -2.227716951525263944e+00 -2.292836668078365836e+00 6.046216029327902142e-01 -4.060175399738960245e+00 -1.119945251303564371e+00 -3.686788128595261949e+00 -1.280429171219815920e+00 -2.275272302562285631e+00 -1.567736916422787896e+00 5.730802402760305503e-01 3.103189948318407332e+00 3.925629828264756593e+00 -1.046986838799615516e+00 5.916208383105240470e-02 -1.497088907645505729e-01 -1.119415485418070899e+00 -4.766691585155681921e+00 -1.191789226186109607e+00 2.190299670132272336e+00 -1.875244089853270957e+00 -1.568152478844554221e+00 1.721254472485071130e+00 -6.539107572610232122e-01 3.018036491346987038e+00 2.202369570730002835e+00 -2.409746178927233196e+00 -1.647820880507270269e+00 1.987417903159177657e-01 2.975569434212773645e-01 1.295838920324257737e+00 1.782818094846484180e-01 -5.307154116451436643e+00 -4.197936250055001040e+00 1.120952690299352600e-01 -1.179230500601547549e+00 5.197580242750269086e+00 4.435703929928616063e+00 2.192756003259898279e+00 -3.584631138758792357e+00 3.450779164599886428e+00 -1.760871093732848669e+00 -1.415957783434602435e+00 1.001107518595249379e+00 -1.304161684804951982e+00 -9.446607003325367957e-01 -1.628163537555893159e+00 -4.075875144186963395e-01 1.715173365887316059e+00 -2.420778903564310802e+00 1.394910578236828180e-01 -1.543571807306829552e-02 6.254953067069962458e+00 -1.391373335966492775e+01 8.314926322116678037e-02 -1.165328552337590473e+00 -5.451410595277955684e-01 -4.990328962566725757e+00 -1.485106938586360448e+00 4.329558182446533898e+00 -4.152216432296137683e+00 8.160756233152202110e-01 3.759275244799216598e+00 1.821867394192770329e+00 -3.174790955128329317e-01 1.875015658674075381e+00 -5.425513658713908782e+00 -1.114147099681953579e+00 -1.020987747608554930e+00 2.680237423604938662e+00 7.455776951817476572e-01 -1.649566189707949215e+00 -4.141587495492369819e-01 -5.786673701815111315e+00 1.351938698107777725e-01 -1.807605274357025005e+00 1.936094108950868753e-01 5.547206842144174033e+00 5.232772205268022558e-01 -3.362532531607627551e+00 5.917433840899053443e+00 7.787232526257172882e-01 -2.204552395508714291e+00 3.972887205903466445e-01 8.150453580964082123e-01 2.934317231300280771e-01 1.465980240895158992e+00 1.378869530592377490e+00 1.127356079326343519e+00 7.121678793283622855e-02 -4.361882371820623161e-02 2.086091345237500061e+00 -1.688035938738001507e+00 -4.111536817230816432e-01 1.022313357501479780e-01 -5.166927421678181309e-01 3.599039845781902613e+00 -4.190533317254536705e+00 -3.273102112191498825e-01 2.025185947084596094e+00 -2.642559658208027518e+00 2.627048306181302806e+00 6.776975310200815672e-01 3.360555583652345746e+00 -2.301493779087516955e+00 7.040905985070644579e-01 -2.532387841201585665e+00 1.478371724957520339e+00 -4.060093417877292055e+00 3.649449556920833171e+00 3.056947504695647133e+00 -4.720705765847187152e+00 -8.097503588948947950e+00 5.304520718308049915e-02 -2.245542231170467862e-02 -1.103966888974257765e+00 1.075904631815844281e+00 6.464798228035211203e-01 1.495784259462573873e+00 -5.772493557206426207e-01 1.330971610194909394e+00 -1.383199724081852544e+00 2.314300985874894412e+00 -3.644208814535025542e+00 2.298875248901381507e+00 -2.575699367571845144e+00 5.431460797490141879e+00 1.790944076678730568e+00 4.741539735894514385e-01 -1.887924674040989848e+00 -3.245442574914716438e+00 9.013928971428128989e+00 3.188007670107371627e+00 3.653076518315746313e+00 -5.602876246833186080e-01 -2.846204207126509012e+00 2.079544415742785368e+00 -3.459817618122245086e+00 -1.193658380137434305e+00 -3.360430128618926426e-01 3.733956044969731103e+00 -2.444414918207625131e+00 2.823172439025986691e+00 -3.959797498403003324e+00 4.460386589635898069e+00 -3.157378245988386123e+00 -5.723865297308153854e-01 -1.484200778222574568e+00 1.271425532551113458e+00 -1.667016683214557426e+00 7.022434388831575447e+00 -1.004891679815529848e+01 1.104416465498173849e+00 6.299678689437286039e+00 -1.620875568490022234e-01 -3.944891380962559646e-01 1.792395676645003544e+00 -3.340188363034376717e+00 1.098606294166188269e+00 -6.696920617289114475e+00 4.214480953451693601e+00 -1.035498678725508936e+00 1.506850066200323968e-01 -4.483575420002025247e+00 9.370380009688459300e-01 -2.063147714502396646e+00 6.289446670337254020e+00 -4.116114767696624765e-01 2.463499925977176819e+00 2.205112144773664795e+00 -4.825020606050859584e+00 3.155668892143874693e+00 9.284420076727343485e+00 3.872690050917745874e-01 1.057551040933622788e-02 2.416750371135666653e-01 -2.642227566912622283e+00 -4.548085116387085236e+00 2.279940166879377728e+00 4.160704663459727115e+00 -5.856207296235059978e+00 7.929826599647935126e+00 4.173383375164971376e+00 -1.384948108775978781e+01 -1.144280879350363156e+00 7.101222742298133106e+00 -2.194305455391011517e+00 -3.978512150814623283e+00 -1.420050765102839119e+00 1.393052032542814844e+00 -5.189986178643591685e+00 4.162579083623793252e+00 3.970264530923812263e+00 -4.783113070549454005e-01 4.921501650411770910e-05 7.189535593113747722e-03 -1.053963022623102819e-01 5.791870187981150719e-01 -9.599676607738787837e+00 -1.104444728215517735e+01 -1.515789673589831210e+01 -8.556121502701095949e+00 -3.961208605629619850e+00 -5.311840139703410735e+00 1.150367945670316194e+00 9.945157719573069599e+00 -4.159845780956962891e+00 3.033276658086000666e+00 -2.422525203944467520e-01 -5.996267255263127538e+00 -1.427440835690368059e+00 -2.156919103012538308e+00 -4.213450741657001619e-01 3.997860351428539349e-02 -1.279017935700465649e-06 -1.494340798041501623e-03 4.980113252586112343e-02 -1.928758057917115409e-01 -1.110758256594105875e+00 -2.593468716178388700e+00 -2.934837402531885076e+00 -2.328232287033383141e+00 -6.206784267061470350e-01 3.291934904127988282e-01 -4.485827169196802133e-01 -3.197049623796084372e+00 -5.098151863899653691e+00 -2.337478251858480682e+00 -2.301052907784563395e+00 -8.482231694579451808e-01 1.500740662233277789e-01 6.362583168717325655e-02 -2.590147427587747003e-03 3.491973037153227322e-04 0.000000000000000000e+00 -3.551899774629719084e-05 -1.416779414859753005e-04 2.499248209646404758e-03 4.210155683042476199e-02 1.967638292406072575e-01 2.069762978381115559e-01 1.669079065805018081e-01 5.950311434133395000e-02 -5.109565551735710531e-02 4.409955433265774771e-01 9.444703561349693244e-01 -7.093893199473107203e-02 -2.049730767636308126e+00 -1.153261952142070890e-01 -2.370802464746716298e-01 1.754441911575071664e-02 -2.739935358067010812e-04 -5.848015005256991772e-07 0.000000000000000000e+00
-2.527375302114974520e+00 0.000000000000000000e+00 0.000000000000000000e+00 -1.665215401052706819e-05 -2.915982941274745553e-04 8.659456192585887613e-03 -5.857817930254933386e-03 1.699927128314513911e-02 3.406132748304025459e-01 3.246580804403473852e-01 9.370712462566345158e-01 3.015772905739506071e-01 -6.454527805589785339e-02 3.626859878531116244e-02 1.974266541650821494e-01 7.130300058385150019e-02 -1.419629464810524865e-03 1.120005588329165379e-02 1.523730611272533508e-03 -2.223763804027143875e-04 0.000000000000000000e+00 -4.876028041539436911e-07 7.282108366639180198e-04 -9.850983864896504030e-04 -6.006099080340782798e-02 -2.917011083718377140e-01 -4.032507883817120636e-02 -8.172886316085640201e-01 -4.600032700754458581e+00 -3.939049134264384633e-01 2.033099278116120789e+00 2.018469497290998227e+00 6.671528298739141105e-01 4.041970485765206816e-02 -1.789612323465908483e+00 -7.186795756027272164e-01 4.337627218706185256e-02 -1.050894371008869316e-01 -7.612063498641661241e-04 7.040707311887394598e-03 2.023711835505524227e-03 -5.989309111641522531e-05 -1.084906044061362956e-02 6.330865260451430665e-02 7.923983918645087776e-01 1.892250346432481356e+00 -2.246897281190593232e-01 -1.667447466534256906e+00 -9.689655274620019298e+00 -9.559944799288855322e+00 -3.983109123014346942e+00 6.901960510327808107e-01 -5.935787832189766355e+00 -9.808661988147859390e+00 -8.787915072786027793e+00 -1.962149907293974538e+00 -8.395860652694490944e-02 -4.921811982356490978e-01 -2.642512605339318865e-01 8.055684349933955879e-02 -4.920223581813584768e-03 3.920860646821051443e-04 1.324067542965489362e-02 -3.893496731804300670e-01 2.888081512987979438e-01 5.717189777957701224e+00 6.430615098048449996e-01 6.933514820791915056e+00 -2.141152019169742238e-01 3.100262452316493889e+00 5.314795476613041636e+00 1.788859088716635348e+00 4.798433574645001309e-01 -7.063497078442572352e+00 -1.101832239665684021e+01 -4.687399628559167475e+00 -3.283398251407530388e+00 -2.080663152849811848e+00 -1.862382206156786291e+00 -7.532079217540007532e-01 -1.491338667048034694e-01 4.637786865816883111e-03 1.202037758615311924e-01 -1.557648974116586427e+00 -8.349034752512555002e+00 -2.085179422046234965e+00 -2.645835599428484564e+00 -1.144209521412005603e+00 -5.755613182455654453e+00 -3.889996067863109364e+00 -5.194401228406626103e+00 9.080222890636571620e+00 -3.347947451131218166e+00 -6.287029335244615602e+00 1.475912852280110066e+01 3.082782208285065551e+00 -1.175764724354419144e+01 -6.882412385887185735e+00 3.988490916391430829e+00 -8.085745577774007486e+00 -1.048234646569740747e+00 2.808120557206809659e-04 -3.309938055534276252e-02 -4.588734633938374441e-01 -4.883911338753081033e+00 1.092048951623687092e+00 -2.868613561138719348e+00 3.543555904332136741e+00 3.833461636871968281e+00 9.522511267321437378e-01 1.143688919169384421e+00 3.913255451191449907e+00 -3.302788282742061376e+00 4.658588024299151087e+00 -1.035869807670803233e+01 -7.915005247521174070e+00 -6.575775659502917314e+00 2.991623179213983796e+00 -7.035239179588445246e+00 -1.558405994375479509e+01 -2.166311302658000315e+00 1.983066920972485769e-02 -1.829957330816910366e-01 -1.830280998011067695e+00 -7.966903983192131777e-01 6.541976825626624859e+00 -1.194920432323067216e-01 -1.028362165915069504e+01 -2.849663697957349306e+00 7.164458303982513820e-01 2.759965960449521027e+00 2.834413531208237025e+00 1.321639162178250615e+00 6.915295107165507993e+00 -1.482111173957238348e+00 7.332888876294367808e-01 -3.861075809472706233e+00 4.392405238366659859e+00 2.343106499168567947e+00 -3.652835751095931727e+00 -1.283527169742203267e+00 -2.643977255449218161e-02 -5.847511630232954616e+00 -1.299688426218480330e+01 -2.326225079879491453e+00 -1.888230957416045630e+00 7.951825473987756965e-01 3.792600292861982414e+00 -1.270252000365131861e+00 -2.078155408184218178e+00 7.489798083985458987e+00 -3.899116863574361158e+00 2.002087085068061434e+00 -5.547757697546246369e+00 1.321016436279186523e+00 -7.013102103140193222e+00 -1.041289071654164067e+00 -3.563176395560021525e+00 -2.017547845733052903e+00 -7.009201970033007711e+00 -1.120449717783693400e+00 -5.449259063585785157e-01 -6.347540883026028702e+00 -6.192548673333395648e+00 1.125276143733624779e-01 -4.131318881479272065e+00 -1.674750575516865903e+00 -6.677581339735935706e-03 -1.567112470672868296e+00 3.556292516037312446e+00 2.207883637556903533e+00 6.433982199202660013e+00 2.499211403882844795e+00 1.887429925139114673e-01 -2.876506950885182601e+00 -6.000727434751227385e-01 -4.753005253095171412e+00 4.785013168784908455e-01 -8.539915011277113832e-01 -6.960665322380958031e+00 -1.062440874558699733e+00 -5.216754755847716751e-01 -5.151290810864569636e+00 -1.256929976904252122e+01 -1.237162507999849392e+00 -2.859684797294696601e+00 -7.421519419372200943e+00 -8.856376629567273007e-01 -3.220168210610423909e+00 3.934962203034420014e-01 -2.233415332551948573e+00 -4.711813800702150945e-01 -2.368670164944207901e+00 2.330607386936140113e+00 7.689992573354991201e+00 -3.556546529557893965e+00 -8.265605802185373996e-01 -3.440228737840853146e+00 -1.100602494431835998e+00 -7.681413996911977904e+00 -3.072941615951122252e+00 -1.775552403874204599e-01 -9.831764818621428148e+00 -1.343883547008998569e+01 2.621000725000872666e+00 -2.649952953024947711e+00 7.152160204639886887e-01 -5.106596857054602090e+00 -5.086640637248592611e+00 1.611154404536453144e-01 -7.945076591786799369e-01 -6.248850120409557007e-01 3.063348789734513744e+00 -1.372236110521912744e+00 1.653690049569978004e+00 3.108875401092057178e+00 -5.061051284920090598e-01 -4.206756201912753568e+00 1.603292150548570882e+00 -2.957534783737443718e+00 -8.056685196251109460e+00 -1.458197420130411093e+00 -2.772013224083025751e+00 -3.579086300442523516e+00 -1.724156698276625876e+00 -3.054394347729113335e+00 -5.941963831759878190e+00 4.618626366170096809e+00 -3.932294464085535957e+00 5.987999313948634494e+00 -3.718082655467426889e+00 1.398102438142232895e+00 3.494126021431717355e+00 1.709092476438281327e+00 -7.400328662098203392e-01 4.107953804781126372e+00 -5.827112377351789441e+00 4.339788621517216782e+00 -4.110817067941924918e+00 -5.840370753489834144e+00 -3.952424366059033911e+00 -2.451418171207157826e-01 -6.656572603949524769e+00 -1.548742527982138384e+01 6.585433442491530620e+00 -1.205215138041555889e+00 -1.277620034637106716e+00 -1.760241247513258944e-01 -2.373306102032385567e+00 -1.133253017886548086e+00 5.518275346127941461e+00 3.117826557368664986e+00 -4.087734493452215290e+00 4.524418292278699738e+00 -5.151622918756888936e+00 9.531351570022772446e-01 6.110756703295264769e-01 3.126300142343780841e+00 -8.359357324577689763e-01 -9.290717521174830296e+00 -3.411107813037274283e+00 4.121957964236571542e-02 -3.398692939961242221e+00 -8.119048436567423366e+00 -6.997809240048024293e+00 -4.402241905985018633e+00 4.157746696126233488e+00 -5.119417586438624213e+00 3.438981221671936872e+00 -2.130668115589072764e-01 -6.638208873411277633e-01 1.895676907487733986e+00 3.658011125058109325e+00 -4.174830439208164767e-01 -1.370482506559358216e+00 -2.518480085754029929e+00 -2.555970304600245213e-01 2.382355639854766505e+00 -2.394801923231410168e+00 -2.298515782971518817e+00 -6.534518556133890321e-01 2.031436132852598164e-01 -2.683259619582273103e+00 -5.344860605049632341e+00 6.539410626536373172e+00 3.508377268693002371e+00 -3.568379200190640255e+00 -1.904138282394945147e-01 -1.905390724498520871e+00 -6.169067338815242607e+00 9.295284240005134535e+00 -6.124811593786459341e+00 1.800041459501391383e+00 2.818765668034070693e+00 4.088967735398233216e+00 -1.010864095238996008e+00 2.360852998226843802e+00 -1.529822607037294668e+00 -3.545819710353971033e+00 -2.709375918490126267e+00 -8.071384412697218957e-01 3.176755811708316113e-01 -4.008398134581961259e+00 -3.502673086700045957e+00 6.136796235359674334e+00 -5.162899592078240119e+00 8.679056980671310484e+00 -2.910484278858081808e+00 4.003520348686919306e+00 8.424688013759340510e-01 9.208005376040718781e-01 2.563238141647202983e+00 -3.836707075440091153e+00 -6.013177710626370853e+00 -5.564623452212927646e+00 -1.376018318049102351e+00 2.549669941961683062e+00 3.450738134908924781e+00 -5.074340365455007884e+00 -8.745227952967002949e+00 -3.004643997877032291e+00 7.257266057961614392e-02 -9.631142955612667089e-01 5.526900298284456170e-01 1.488796271685171257e+00 5.131873253141131741e+00 -6.369282484268313366e-03 -5.768137161901636389e+00 4.857472781968259490e+00 -6.762200434500366342e+00 -5.912702967202333681e+00 4.358137766234875699e+00 6.601508278777116878e+00 9.620302054166051775e+00 -1.021570225323637615e+01 -5.466635295095527702e+00 6.003390398971559350e+00 2.776415536445077326e+00 -3.396200969134801184e+00 2.359629206653867772e+00 -1.248438411328838038e+00 -9.143391514989069463e-03 1.430951031198415269e-01 4.653768920175829077e-02 -3.605518337425612341e+00 -3.654109855985487876e+00 2.351095428158407330e+00 -5.947151136675966399e+00 -3.357073221320719725e+00 -1.010889412226743111e+00 1.537400447898888078e+00 -1.020415211591462779e+01 -7.518773605735216137e+00 6.590280683113431959e-01 -6.619194786153864030e+00 -3.194152669485521123e+00 3.684586456662546083e-02 2.670670246411457338e+00 1.917458218572841044e+00 2.767901681436993666e+00 -1.709690126843319835e-01 -4.034055926974996383e-06 3.641082893253043060e-03 8.280470061648226299e-03 -4.143974554110657627e-01 -2.071264534608619368e+00 4.982207200447104967e+00 5.552356209943274834e+00 2.121951926300535529e+00 -5.614810414297360275e+00 -6.817632596810677903e+00 -3.013137190900793350e+00 -9.342904472860757537e+00 -7.520833888576076376e+00 -1.092259179628842558e+00 -1.233640387870991312e-01 4.304831459373774649e-01 2.702197063107419917e-01 -8.464554879680562249e-02 -1.498517768553284113e-01 1.751950566507396237e-02 0.000000000000000000e+00 -3.891617733200902112e-04 1.389833280880989341e-02 7.738479455320727840e-02 -2.804063755383033651e+00 -3.200315422875475768e+00 -2.155515043753906568e+00 -1.500246839675130894e-01 -9.311887094623376715e-01 -1.345329603867613910e+00 -4.003446362095222644e-01 -9.039768530248346590e-01 -1.984157192681203608e+00 -2.569448316205271698e-01 5.220869634775299889e-02 -4.467498516145368415e-02 -3.386487808909419833e-02 2.889034732327883191e-03 6.583986163379761331e-05 0.000000000000000000e+00
1.070813632951308048e+00 0.000000000000000000e+00 0.000000000000000000e+00 -3.259823514135327560e-06 2.754113436280456947e-03 -3.348352750366855035e-02 -2.961952362356530810e-01 -3.833854113195174843e-04 -7.096124839450021482e-02 -4.435643574525811872e-02 7.860587568053625449e-03 3.096714536155048829e-04 2.827688502161214423e-02 1.320710072254778489e-01 -4.137814068751689556e-01 -5.361976616955863584e-01 1.086317054303906210e-01 3.302318191489550178e-03 -1.486891065430374123e-04 -4.370711718028783238e-05 0.000000000000000000e+00 -1.189964601570979255e-06 -1.140722107097503086e-04 -4.826531625438860648e-03 5.714759942606242871e-02 9.880439233873655747e-02 -1.272401434992619651e-01 1.560985266744978894e-01 -2.841310161569948201e-01 -2.481839802717526744e-01 -4.191597076196644234e-01 7.526109876677422594e-02 -2.531559177243008496e-01 -1.095816841255757845e+00 4.445790672490811168e+00 5.755389528100412377e+00 -1.162436998232206031e+00 -2.249453907503556616e-01 -1.109799969191455349e-01 4.640975820163032416e-03 7.034197194271296812e-05 1.050619927013247806e-05 1.601428143634718386e-04 7.776068008112221874e-02 -6.174031621246663937e-01 -2.639948588170603738e+00 -5.947721516044141232e+00 -7.998067942126965590e+00 -1.963590393994087524e+00 -7.235411394499359217e-01 1.770904135853005990e+00 3.828586841649466721e-01 -1.728477235749846797e+00 -6.565127908190850903e+00 5.899786271412281735e+00 1.907775061932355909e+00 -1.465105983662086508e+01 -9.118283362760911670e-01 4.916395095007244920e-01 -7.472535166541070806e-02 7.082676351349913128e-03 3.841032810382005968e-05 9.960035922299969799e-03 2.298385314473780083e-01 -3.140619193699722089e+00 -5.869109669819142283e+00 -1.071236661563492198e+01 -9.411644219495173047e+00 -3.875754511087730503e+00 2.978449136119176277e+00 -3.333956219345501903e+00 -1.323802805390562476e+01 8.252235725147812673e+00 -4.395092792960567429e+00 -3.722403026358453104e+00 5.536270792615546332e-01 5.527920220132974904e+00 -8.531554258153741799e-01 9.178870905064709262e+00 3.637626597035419351e-01 -1.083624115485192635e-01 -1.218794618705041233e-03 6.927668600444046587e-02 4.852011642126095592e-01 -9.414402484647851566e+00 -8.510230595577038315e+00 1.090097994687806437e+00 1.269609724920048777e+01 -6.195115874374963028e+00 3.421804183365149576e+00 -7.084125514017466374e-01 1.836159331947706530e+00 -3.471929979536690691e+00 2.679708223456363836e+00 1.004116427451581295e+01 -8.750195429818242943e+00 4.208944441258418934e+00 -7.239507110816028934e+00 8.661832603396200980e+00 1.826760943951874605e+00 4.594941030191528331e-01 -6.455025015514089665e-03 -4.338328900421595941e-02 1.140512306749781601e-01 1.770195232644723005e+00 -3.335813171695446666e+00 -3.482882480207718068e+00 -8.192966788400928735e+00 1.122735448848123596e+00 3.728339310389402250e+00 -4.412633747593185940e-01 1.016152913938988656e+00 -8.174634395400007136e+00 3.454474518163857866e+00 3.525831731520633339e-01 6.777808717753001089e-01 -6.195736847412653958e-01 4.221202551774468681e+00 -1.119633580374749826e+01 -9.470437506340894984e+00 1.087722716438479065e+00 2.117213819031172894e-01 -2.651913073591924075e+00 -6.782094650015515036e+00 1.570611445128851758e+00 4.434832367091390282e+00 -2.187082791932011272e-01 7.649067518658800857e+00 -1.371627863893369659e+00 7.312728616709660567e-01 8.974741516976711964e-01 -3.359704977679561777e-01 2.118600995754620353e+00 -6.762473543890371808e+00 -4.266930507947200191e+00 3.902487171938680888e+00 2.124995196037243961e+00 -3.812719927629142358e+00 8.706695288972719382e+00 3.620375749687025357e-01 -1.212161740379450237e+00 2.675490133292635075e-01 -3.587426173324774314e+00 -1.141876574214367501e+01 -2.878189369319225754e+00 -3.023964414745229590e+00 2.186665332894325964e+00 -8.448234102435334236e+00 5.781223959051903449e+00 8.052819736068405065e-01 -1.821612491523202815e+00 4.282928466747248031e+00 6.057724659908882980e-01 8.530834832838020132e-01 -2.473141085829652752e+00 1.937498986524391231e+00 -3.059343600306431821e+00 1.783972222661435403e+00 -5.526905449226606315e+00 1.110414997361057532e+00 -5.181029722217480593e-01 1.865349970955887948e-01 -4.481198233892646599e+00 7.734410660181744390e+00 -1.444687589349713974e+00 2.544721240843900389e+00 -8.799736952922023736e-01 9.356908120570924581e+00 -5.950742265457621194e+00 3.901110648247793300e+00 1.448555989105732023e+00 -6.411593518148747117e-01 -1.663656770940177276e+00 -3.087839184349966182e+00 9.579762580908934844e-01 -1.942769431894409982e+00 3.196283051271347819e+00 1.910349853652055119e+00 4.220750822673301705e+00 -6.553038326958144921e+00 3.747857892896823695e-01 5.736790531752442579e-01 -1.105043111094285280e+01 6.625841988818279127e+00 -3.316471818932765547e+00 -5.087987367191896260e-01 8.257742800768695934e-01 -4.530923485068748313e+00 6.611074534958160775e+00 -1.478460085748183328e+00 1.980709557860334868e+00 8.746191201033099993e-01 -9.679135473479408835e-01 -1.397731160352713164e+00 -2.371236270777860700e+00 3.541465038726014036e+00 -1.710960763272632912e+00 -2.599172509067206871e+00 -1.419267237226157885e+00 4.328149321296281826e+00 -1.812643442765152102e+00 1.052463551549287279e+00 -1.460405852174521613e+01 -7.454230692286504478e+00 4.419879756252743874e+00 -8.563843599831584275e-01 2.005826709391733687e+00 -2.196845744046239446e+00 6.244790593077512719e-01 -1.527121548211959334e+00 -2.160779090088913168e-01 -2.377145391517454520e+00 1.148457777415718750e+00 -4.709469158474211881e+00 3.075841686316012069e+00 -4.040507693855635019e+00 4.998633379577421265e-01 4.327713607258459660e+00 3.821105038912127605e-01 -3.270268786608905298e+00 -1.505828712302135663e+00 5.708337401405435552e-01 -7.382286218627003294e+00 2.206249721705068279e+00 -4.889027076106234659e+00 9.830698499982243321e-01 -2.454725259325585718e+00 -2.746345240110311003e+00 -1.870669867914209084e+00 5.387381275650103829e-01 -2.668982038678552104e+00 -9.248416955816549656e-01 -8.187296464594906453e-01 1.928599701594656962e-02 5.272516711302179804e-01 -9.132340406277276168e-01 -2.146853010305909581e+00 -2.445752038528533401e+00 2.646120540681213829e-01 -2.752823306209629006e+00 2.422626598942002829e+00 7.567112952691636973e-01 -8.017531191974669014e+00 -6.817557754883509347e+00 3.088095374884609612e+00 -2.899104507864049829e+00 1.172473138598308040e+00 1.641537998602407233e+00 -5.563404738553789919e+00 3.603001611885666700e-01 -3.013901215795485644e+00 2.077598642003842588e+00 -5.364213695496802714e+00 4.998407703975803251e+00 -4.499827032437738517e+00 4.186261223914653939e+00 -1.884651107505672663e+00 1.883157892062629069e+00 -1.672264555672145159e+00 3.628942891299662410e+00 -2.893329363298650647e-01 3.471036957105132492e-01 -3.750697495826628813e+00 -1.186826539950114112e+00 3.481101708925921079e-01 2.058050185908402607e+00 -3.657378116460506146e+00 5.095992442923502619e-01 -3.060136423611048428e-01 -2.750053010531308573e+00 -2.632735653917877006e-01 -1.479691227848918045e+00 2.992451145053859562e+00 -4.727491095916631636e+00 5.949350949363529040e+00 -5.686080915364547295e+00 2.160076026230602242e+00 -2.750975570483628285e+00 1.967713621334507224e+00 -8.622192318955093526e+00 -3.050668956799179821e+00 7.515475087632221829e-01 -9.147533539212641784e+00 4.242338018241595066e+00 -5.729680106094678926e-01 3.613099614818224836e-01 4.812804456987026747e+00 -2.641973283014729557e+00 -4.881210855822597949e+00 -8.246187734051016349e+00 6.700107258377066444e+00 -6.432849564837370693e+00 6.316618177996857320e+00 -6.245954158817214719e+00 4.808872874506671558e+00 -4.242782680677447793e+00 6.400605507289924390e+00 -8.075381417609960977e+00 4.479984383039353091e+00 -6.714088171653794568e+00 -1.753717130876427444e+00 9.940403452909755133e-01 -1.122263576416106012e+01 -9.053431930334811251e-02 5.047812320068412184e+00 -3.604387874913801859e+00 -1.245222029984406120e+00 8.546205675382926970e+00 -6.472787860285379224e+00 -1.317798677752832148e+01 8.311050083059754456e+00 -6.545983169572798133e+00 7.277021223425457208e+00 -2.790232810789580187e-01 7.917439838936750629e-01 1.313124281689069583e+00 -8.838245328056945072e-01 6.484924132852089684e+00 -3.830360978452779896e+00 -1.186673461566930676e+01 -1.012735548375214023e+01 1.879584070903430604e-01 -1.564858168498659996e+00 -4.333610328658844324e+00 1.188575467888123738e+00 4.687062515434267773e+00 2.156979445387573247e+00 -6.787594756571040833e+00 1.018265449431192593e+01 -1.655036697166138637e+01 -1.849619232499846078e+01 5.681287509228147847e+00 -1.241600756083149371e+01 7.012273774281900351e+00 -1.159237458684059874e+01 5.501960956307814676e+00 2.607780028526449190e+00 1.127385675315630387e+00 -7.535992593341964696e-01 -7.252379780071296356e-01 -2.517563442770995419e+00 -2.485078256767651872e-02 2.831947042250209101e-01 8.650548200199940085e-01 -2.319267710179656827e+00 -3.447091608950183961e+00 8.344465241923481713e+00 7.974586120502613618e+00 9.299455395903155619e-01 -7.404651362474692355e-01 -1.803178472169667401e+01 1.457182858525674085e+01 8.460709318382651389e+00 -1.318286094567556077e+00 9.311575152289413015e-01 1.255200868908825029e+01 -9.994413005664303240e-01 -5.983808909275326826e+00 -6.630829871571333189e-01 6.133135634367303107e-02 3.207741757644840264e-01 -6.160317421899836667e-06 -2.932082027872215391e-01 1.911574561992001264e+00 1.574908134894633704e+01 1.026873276722685979e+01 1.630456047598167757e-01 4.450371117219109607e+00 4.147622123379145620e+01 2.270318071328406262e+01 1.679189188979969272e+00 -5.304629043250150389e+00 -6.647413157632485081e+00 -3.882912460713183300e+00 4.446535106898678258e+00 -7.197904628203513511e+00 -8.866473307551080651e+00 -1.797056576785716064e+00 3.013156648612111410e-01 4.933963933868382341e-03 -2.316402242579369255e-04 0.000000000000000000e+00 2.436325003381280621e-02 -2.059070047256705560e-01 -6.767838209931459348e-01 -2.928610054417431829e+00 -1.295458682542072459e+01 -5.200894023285280277e+00 1.757827302036853778e+00 -2.385719948762545228e-01 -5.097804578147748789e-01 -7.978144605378676424e-01 -3.459614437938339560e+00 -4.285206409890177426e+00 -8.473032659250839815e-01 -1.170127577913404604e+00 -4.827541783610020953e-01 -2.014582527180824867e-02 5.668621161232134838e-03 -4.117179165615064359e-05 0.000000000000000000e+00
-1.121653025813226812e+01 0.000000000000000000e+00 0.000000000000000000e+00 -3.585865245190116410e-06 5.748569247602974044e-05 -3.593478738731090073e-04 -3.061242755128944660e-04 -3.682048200648286012e-03 -6.714856662376163417e-03 -2.682638836663503012e-03 -1.586810285626209229e-03 -3.528148359967990359e-04 2.879885805308758477e-04 3.403377192395062411e-04 1.986051944487691144e-03 3.244000097515722849e-03 4.358752572995499490e-04 2.420958724909412152e-05 6.826386248224204610e-07 -5.731250134051977576e-07 0.000000000000000000e+00 3.938153205386452240e-06 -5.060704686629588354e-05 -1.014789575994580012e-04 -5.578306759635522126e-04 3.433364736476263862e-02 4.614177128222855112e-02 -4.982951618120337687e-04 1.059185510845100583e-02 5.678151820314804310e-02 4.575316019781004023e-02 4.937647478064944445e-02 7.309075672718988751e-04 4.265141234547361465e-02 1.222829297460317419e-02 -1.383514189174322485e-02 7.196625866590357530e-03 3.103475531872422043e-03 4.004020380398754550e-04 1.066021482494455499e-04 6.315055218126532869e-05 -2.717348255298071357e-05 6.129906388259410369e-04 -5.363233571730741979e-03 4.657840504346267424e-02 -3.597378105840918217e-01 -1.726628785444062730e+00 -7.803789854135099180e-01 -1.813162491663155684e+00 -3.149173468939905352e+00 -2.541010489036259479e+00 -1.223731951695863795e+00 -4.095399379925638295e-01 -5.680331320350121560e-01 -4.735015613306188254e-01 -4.039705786596516912e-01 -2.739427377012161949e-02 2.695349991705620063e-03 -3.419412577925968512e-03 -5.042100993793367358e-04 -7.010208435577424367e-04 -3.002649574088900254e-04 -1.760212317302483481e-03 8.996936230080752883e-02 -2.633573277585932737e-01 -2.755914693054124065e+00 -1.910494671363532682e+00 -3.636335191609382234e-01 -2.540086703976099702e+00 -1.772262340427656513e+00 3.365716678329973011e+00 3.365768955477692614e+00 2.085016023899733728e+00 -9.319274868270355228e-01 -8.988574951792365209e-01 -4.585639662066592348e-01 -1.506744583352961575e+00 -3.552144714373074441e-01 4.326486618821965419e-02 -7.310841551425766374e-03 -3.322368548274300115e-03 -1.348602391946765802e-02 -7.853086541072512583e-02 -5.020211398586178486e-01 -2.917001555232225929e-01 -3.458156860731044224e-01 1.219150239167105854e+00 6.588036028718009807e-02 -6.318923555513332735e-01 3.594277517010222134e+00 2.074733541514487190e+00 4.229941086180467380e+00 2.802681185198408809e+00 -1.123766429409607470e+00 -3.440837267369241559e+00 -1.200694649643429202e+00 -4.703065480196539916e+00 -3.386590207053959745e+00 -1.348569676475924739e+00 -3.126896562859626111e-02 -3.425053646375199410e-03 1.032379594770842235e-01 6.932497245042255063e-01 1.080036463559010729e+00 2.866150177862870629e-01 -2.050344703967091675e+00 -6.142957855664121780e+00 -3.170316413809118661e+00 -9.301123195808144173e-01 -3.508621057522935516e+00 -3.618501760396470313e-01 4.300997109603117430e+00 -9.220072856855729526e+00 2.536662746721285888e+00 -1.656074296319639982e+00 -6.445691466342155174e+00 4.312701131758122308e+00 -3.691488724619763406e+00 -3.131954297228011885e+00 -1.083072803978588159e-03 -1.768233201330417573e-02 6.221898261510453443e-01 5.392544406226750020e+00 3.760641900443725039e+00 -6.501254380370018460e-01 6.786225523865078157e-01 -1.616841418980242029e+00 -9.118243110794282957e-01 3.389264472745907142e+00 5.744575787804035549e+00 2.517380857707445685e+00 2.582532144161914456e+00 2.091768592794131632e+00 8.097815282406042314e+00 4.932383860722250546e+00 5.108922690963046964e-01 7.900378474095901993e+00 1.649476940665463298e-01 -4.240447875019648372e+00 -1.420662488448549143e-01 -2.522207068801184809e-02 5.175886186460475491e-01 4.104579882421029779e+00 -2.989714621320769261e-01 -1.323099440909461855e+00 -1.857328503777074535e-01 -2.273541772593826504e+00 -6.354114891591583714e+00 -2.274849991445431485e-01 -5.220538434041563924e-01 9.173332810957576244e-01 1.993960184109931699e+00 -1.357058081379108216e+00 2.804500135665278227e-01 2.480398798189861420e+00 5.799776896453011643e-01 3.521470638526133179e+00 -8.579922668807740127e-01 -6.939523009852837987e+00 -1.104977724385830667e-01 -2.861158775081051875e-02 2.548165012136888521e-02 4.609763962911505031e-01 -2.798659728394742530e+00 -7.190145276238772531e+00 3.435508022849564913e-01 -5.527027324677779019e-01 -1.591508688553121553e+00 -3.227938581676298657e+00 5.962778867687766882e-01 1.704261990030694340e+00 1.280206383124044223e+00 2.763587170491931033e+00 7.117985000414413399e+00 4.042724929944708556e+00 3.589872911970318548e+00 2.962524397754641825e+00 -4.019242332319501010e+00 -6.926502000853052010e+00 -1.281921749157972357e-01 -4.563516547197664364e-02 -5.144503348858271707e-02 1.931423207936354247e+00 2.726097126075925470e+00 -7.168987532263306761e+00 -1.645441809121256371e-01 -5.140054021019355268e+00 5.226746275939956332e-01 -1.420283257268591948e+00 4.315859587075541626e+00 -2.133407300100111925e+00 -5.621537205751631072e-01 -3.839955126476436664e+00 -8.192701269082780513e-01 2.947724408351796832e+00 3.512015343119119670e+00 4.376149513771027344e+00 1.565018089048568539e+00 -8.953568958182922088e+00 -1.186813249735455100e+00 -3.243292473639628869e-03 2.798534671156615444e-02 1.940484812663131775e+00 3.427102637086035131e+00 -3.183857826391812473e+00 -6.458509302052774237e-02 2.899827984261194036e-03 -2.464240022316314338e+00 -5.146633899532245593e+00 -1.373958341835314345e-01 -5.939417187559451472e-01 9.458860207058410907e+00 1.322757916554695212e+00 6.436989178406169465e-01 2.847128075557129989e+00 1.589706688944268809e+00 3.833818050051263082e-01 1.968814736749797234e+00 -1.080164435956411850e+01 -2.019661219478359193e+00 -5.352790596648920873e-02 2.335042803799662614e-02 -1.538780298459264007e+00 5.365758910842214346e-01 -3.147964435680647100e+00 -2.703248080849313784e+00 -2.330859084175591178e+00 -2.047640846899561495e+00 -6.931743179263223809e+00 -6.848214720314542703e-01 -2.319623417603517090e+00 -4.660739014164692051e+00 -2.925867392522376112e-02 -5.069479604692172181e+00 3.050161296036553615e+00 2.052221915893764681e+00 6.216285039574424687e+00 1.963669472416263551e+00 -5.594137009449916320e+00 -9.557423077544947576e-01 -7.892411771274659982e-02 -1.083450577015706018e-01 5.752710872640944828e-01 8.985310021624467458e-01 -6.133144866691097263e+00 -1.121160558906922677e+00 -4.742231536951036497e-01 -7.070112845294857173e+00 -4.125338463641739395e+00 1.469444329015401118e+00 -2.800899136718287830e-01 2.638072099000052795e-01 2.228969132612077964e+00 -5.622306338840199480e-01 3.327423237047799187e+00 -2.281094239139147106e+00 2.118226601199104220e+00 -4.270065733128632246e+00 -3.814733862276239673e+00 -6.427575409815107221e-01 -3.651398941544625049e-02 -2.540426223958536789e-01 4.293932042981136732e+00 3.406726467478695231e+00 -5.122062363617665426e+00 4.671599361585430543e+00 -6.624502860129136472e+00 -9.409276219940256425e+00 -1.018024736693888377e+00 -2.927272301648698782e+00 -3.375385888067807372e+00 -1.824611838947272746e+00 9.285226761796039341e-01 -4.026238607950519133e-01 -5.986307874513524530e-01 -8.596530399602834160e-01 8.916749861765916663e+00 -3.852695649507744124e-01 -3.275122918094246049e+00 -6.123897772477528978e-01 -7.239839418248197878e-03 2.848420818338419092e-01 3.322839434208513687e+00 2.178174825650786683e+00 2.752921981116588590e+00 -3.515042076409374605e+00 -9.622287574035555124e+00 1.394792580281960515e+00 1.719203916630351658e+00 -6.615133746123379233e+00 7.329578337249404996e-01 3.247600470679115503e+00 -4.824288974042016953e+00 6.267193243377933598e+00 -2.487338805157329968e+00 1.172541462511970944e-01 1.652587117388544025e+00 -1.949626104317683017e+00 -2.047221505516534812e+00 -4.684885754504376498e-01 -5.904484445613233934e-02 8.189048162438346268e-02 1.184593571817025515e+00 -6.540645493022010371e+00 -1.444210971996868542e+00 -2.846280865208243860e+00 -1.581630845142311781e+00 -3.052683251006957921e+00 -6.423948866238764488e+00 2.374401916424377035e+00 -3.766445186517904942e-01 5.784070236273826104e+00 -1.257670035645754858e+00 -4.914569973577211925e+00 -4.994301539037921955e+00 1.260930804956637674e+00 -6.817716757562757302e+00 -3.667814608481418048e+00 -9.458222737030836935e-01 -5.159833758940930437e-01 -4.982029214677562434e-01 -2.107974768204021188e-02 2.864200767424123772e-01 -8.179558714164276267e+00 -3.356843981044427494e+00 2.662403004783783000e+00 -2.850549966352429632e+00 -3.325562863986914586e+00 -5.816741376719008372e+00 8.333297425546735138e-01 -1.089591040810109490e+00 2.861344349976131962e+00 3.162075831377284985e+00 1.711002544037539819e+00 2.286936135087424660e+00 2.192503027035104801e-01 -5.783416999598747665e+00 -2.584195287489465365e+00 -3.746186312626889059e-01 -1.242248580342568409e-02 -1.256930680489692920e-01 1.806987840278293693e-03 1.385744814345176434e-01 -5.743382584933162782e+00 -5.880662305913893384e+00 5.158742565663854140e-01 -5.909157731776947919e+00 -1.176053067789827367e+01 -4.783523626184193134e+00 3.481232752882364778e+00 5.294280189544547710e+00 3.051671040475706587e+00 -2.603793110253405985e+00 -5.105039547630515706e+00 -9.388408298557173737e-01 -3.389563490546948721e+00 -3.445192736645294573e+00 -1.371459599496092086e+00 3.015303879702765574e-02 7.985498625227007916e-03 1.568997311398409936e-02 -6.289043746012680430e-06 3.482711833459394262e-03 3.177114410197159899e-02 3.601740024332965029e-01 2.912365406860468742e+00 -1.466343592870134049e+00 -3.228899070860270726e+00 -8.271013968587552778e-01 -4.552023761623645193e+00 -1.716365088482810330e+00 4.857576945149803649e+00 1.585635287898536083e-01 -1.760760789704745255e+00 -9.601731357311643622e-01 -7.623724487124591276e-01 -2.704678296085326616e-01 -1.205439116452651227e-01 2.053816080539405328e-02 3.418099563048589162e-04 1.125641162664742366e-05 0.000000000000000000e+00 -5.452279387964460884e-04 -1.480487736731952997e-02 1.347232997641818232e-02 3.492397424302584596e+00 2.187859087598855723e+00 -6.903801571824880190e-01 1.050283144781636036e-01 -1.554880894817708414e-01 -6.813630891658845057e-01 -8.037823608607361781e-01 -9.520342510149496507e-01 -5.758367677241732485e-01 -9.514008005722356109e-02 -5.049902927030952560e-02 -4.240312459400912698e-03 1.403065687049422257e-02 -1.483085258616550139e-03 7.635803189106944941e-06 0.000000000000000000e+00
-2.922506659709535715e+00 0.000000000000000000e+00 0.000000000000000000e+00 -9.610287035165306232e-05 6.953209545904702861e-04 2.712618204193273375e-03 1.055097520013290394e-02 1.607868546051200997e-01 2.560193039117975369e-02 -4.904373896338544252e-03 -1.931968116639298794e-02 -7.366510440046090437e-03 3.006150458697196513e-04 4.777851728707891831e-04 -1.574164366502905574e-02 -5.763267136284879952e-03 9.622715165498777444e-04 7.505343270396403713e-05 6.232784374268562094e-06 -1.245039370680664904e-06 0.000000000000000000e+00 -4.482569818683891482e-08 -1.117376899713297713e-06 1.005256030792293139e-03 -7.263736944342939587e-03 -2.901448102226432402e-02 -2.811216411816651606e-01 3.709386206228024174e-01 7.023845201693195150e-01 4.059940087031111977e-01 2.300734338699216563e-01 4.755287643993905133e-02 -6.567160407559916036e-02 -1.219227670996180513e-01 1.618511514395956363e-01 1.197062806992317541e-01 3.390689824612280745e-02 4.994297237058256678e-02 2.158137326240051196e-02 -4.136345710327326078e-03 1.442944345293431909e-03 3.662309069634488598e-07 -8.331568398311669073e-06 -1.029401767300174454e-03 8.461923253227776956e-03 -6.603659072808331851e-03 7.248357835516826553e-01 1.509625034834706780e-01 5.787355149917687847e+00 9.286869138308558647e+00 6.287289401576339642e+00 2.824837679364533116e+00 2.994663436902659015e+00 1.158006221407886116e+00 -5.892090136315730753e-01 -1.293844214436807638e+00 -1.551186576548932550e+00 -1.090765359703002702e+00 -5.513105341426667305e-01 -7.662515746768161495e-02 -1.419762499410737785e-03 2.261451959607335094e-06 5.870713407654173119e-05 2.708186817903232568e-02 -1.773846329387753218e-01 -1.664633546453626156e+00 2.303707349746650368e-01 -1.369971697167212676e+00 4.160351836089725808e+00 3.304481573528545990e+00 2.939043825784190211e+00 5.879968774822543764e-01 9.235389120260301121e-01 4.571934511831719838e+00 7.125318306544414781e-01 -3.628588623539840796e+00 -2.621117193699884496e+00 -1.778774946409482194e+00 5.133961043169107397e-01 1.179458121232358270e+00 -1.046297902277729397e-01 3.226643239042481657e-06 3.073785586728742733e-03 1.209012170959339189e-01 -1.520830928442956864e+00 -1.991245317206513654e+00 5.705535112113173213e+00 2.906581176482534890e+00 -2.328011970643824480e+00 -5.344133994162882928e+00 -1.221155766341290860e+00 2.417764324719392732e+00 1.002636534007728786e+00 2.017972968622022023e+00 -4.219412540317613036e+00 -6.017592118964685710e+00 -4.558725797676095759e+00 -1.393897090925263926e+00 2.631660524731639583e+00 5.110342123024053107e-01 -1.308176420800196471e+00 -2.613083904000507466e-04 9.074806306078519666e-03 -8.641139419327717452e-02 -9.456840011409665125e-01 1.376445010026786875e+00 2.789726243224446733e+00 2.699113138886045871e+00 8.203610823060043522e-01 4.814952039727699251e+00 -2.965078312792614135e+00 -8.255844419140134782e-01 -1.556958866611604098e+00 2.203930040973291149e+00 -6.883153257786901236e+00 -4.524755671006635893e+00 -1.129476588675628612e+00 -7.509258623324993609e-01 1.122056490215171065e+00 1.819478665262731498e+00 -3.103330066191717362e-01 1.168327444557900078e-03 -7.968175571894338394e-03 -3.089218873849673974e-01 5.622522433502452621e-01 1.955778424519082570e+00 -2.161589429023252240e+00 2.332119036942288837e+00 1.808989197017232819e-01 9.031174641508954437e-01 -4.635555656614889664e+00 2.842246391217593260e+00 -1.237797388913116414e+00 3.889597093257417537e-01 -5.492122628535837769e+00 2.091956452409499789e+00 4.672972980465122106e+00 -4.124241811457276086e+00 -2.027540851528972232e-02 2.027695462438135365e+00 -5.549326491620160118e-01 6.137309250009325605e-04 8.002929087667460736e-03 -5.947632391526637141e-01 8.237384625213054479e-01 2.116582448900568902e+00 -9.659083545544167038e-02 1.824775826944761814e+00 -5.155238355812717943e-01 -8.248245081287125524e-01 1.345662749191400831e+00 4.306773028758213440e-01 -1.933441526141698841e+00 -5.196467723011864992e-01 -2.972647430281248226e+00 8.470123641199149844e-01 -2.581826797942401441e-01 -2.199425129435387483e+00 -1.013305557985484384e+00 -5.634948386761217121e-01 -1.514336646834145927e+00 8.454356555712543367e-03 -8.389147501570722032e-02 -9.726270834922752240e-01 1.015466540010348251e-01 -2.401785040355809420e-01 2.408956977899615048e-01 2.504952235865555821e+00 1.217949098442109079e+00 -6.456803355402838118e-01 -3.333905598535271686e+00 -2.079732953738564039e+00 -2.401391069829499791e+00 2.515499023087710118e+00 -1.633080690672532587e+00 9.879837731310668891e-01 1.496946962828130889e+00 -1.425541715978312141e+00 7.462215071672284594e-01 1.910845339897088380e+00 -1.559745875681161742e+00 2.274923209732676588e-02 -2.393820956542748735e-01 -1.398797630229290823e+00 -9.580777055164684253e-01 -1.000539148504019815e+00 1.917321178334640219e+00 -1.655245253160164243e+00 1.724616886310484265e+00 1.353960217420177248e+00 -5.130501513663108248e+00 -3.891797757904563726e-01 -1.473519486602105077e+00 -9.682276333644340705e-01 -1.713110450773482896e+00 3.385029144829812542e-01 1.223002324273195329e+00 -5.130166447069786084e-01 -3.499724588927081381e+00 4.082660427416263116e-01 -8.339428206124196996e-02 -7.004959888296685179e-04 -7.295143872218272374e-02 -1.708013513592440580e+00 1.199261448594300283e+00 -1.478939880418040087e-01 -1.048100931693728421e+00 3.498521607920713983e+00 -8.085888240697991503e-01 2.497325216934934922e+00 -2.771150410837683431e+00 -8.637092636012981828e-01 -2.022882765656608850e+00 3.278227674921821766e+00 6.436710635389087942e-01 -2.128626209974348704e+00 -6.193502840715073843e-01 -2.255422712557301423e+00 3.412835495791751050e+00 -1.278848401059160755e+00 -1.276064072138885841e+00 -3.688125762587366949e-03 -1.888883967036107669e-02 -1.026495195071487343e+00 -4.016381753458073689e+00 2.319878111391690645e+00 -1.380752478326210841e+00 1.371222296272478269e+00 2.270402336865008142e+00 2.692417466881073640e+00 -2.746385485819804462e-01 -8.397503696806507545e-02 -3.043440835567979619e+00 1.444846931098240361e+00 -3.112134797201923320e+00 -5.261649182709124961e-01 -4.885804101928029608e-01 9.485215760862505396e-01 -7.157462288574483189e-01 -2.257251959359674487e+00 3.057765157452703164e-01 5.732054515396643214e-03 -2.558736867317464719e-02 1.072376404555914903e-01 -1.041459063988705225e+01 1.409808161568759877e+00 4.446168266120550938e-02 2.046702679214151832e+00 1.536004184660982874e-02 3.027296601976758428e+00 -2.497272410253243091e+00 7.723062205416358905e-01 2.788609961879218169e+00 -2.250322663546850954e+00 7.024280076352271696e-01 -9.488980394783088634e-01 -7.840568242562218071e-01 -3.457095636523338733e+00 -2.278171254276641911e+00 1.914084757166019557e+00 1.241847953898233659e+00 5.163525285587547073e-03 -2.281507490647420935e-02 -1.914278980820503448e-02 -7.009941041972735931e+00 -1.664762411333034819e+00 1.670802565731883960e-03 8.276347550880460702e-01 4.724767809916234906e-01 4.919482148043154979e+00 -3.949896783091728203e+00 6.197500517438140344e-01 2.179407950243850589e+00 6.089511360370505333e-01 -2.313299119670289561e-02 -2.751179848683991569e+00 -3.273721940536858277e+00 -3.944751360229444614e+00 -2.285976139837992971e+00 3.914494569154788994e+00 1.735473055453736091e+00 1.537840699870130553e-03 7.236821677286264451e-03 -1.599018878272820757e-02 -3.819442863431695478e+00 -2.192570516759109189e+00 9.137390371944653644e-01 -1.124078347934486910e+00 1.443647323818142425e-02 4.148874938049024186e-03 -1.216584739162609008e+00 -5.732786251268939814e-03 -7.616530267967127621e-01 -1.507599688125688342e+00 -2.191108296667852340e+00 -1.967979149991131216e+00 -2.239240099905153603e+00 -3.812763690329549870e+00 -4.099367570506413649e+00 1.815659557807892899e+00 1.350426471072572632e+00 4.574091420907751922e-05 7.446878813953837148e-03 1.421632794490114426e-01 -2.887442880057332850e+00 -9.321723705379930669e-01 1.298063891734194897e+00 1.373532789410782495e+00 -5.493271100319955247e-01 5.630218173349228472e-01 2.722981660288646744e+00 -5.471973635055296104e-01 1.110574871770756866e+00 -3.812343064787923286e+00 -4.919141038395303811e-01 -1.103273689195797935e+00 1.494234463441881378e-01 -2.976099963514292845e+00 -1.612470756423215246e+00 1.729812880849533219e+00 4.156801067850594222e+00 1.291199833832951859e-05 4.055709769023850900e-03 1.007050531465976950e-01 -1.554394417182142885e+00 -1.341227299176952492e+00 -6.609321893660631275e-01 1.459612791558280387e+00 2.347505605530160633e+00 -1.568909790228033341e+00 -2.391009756649904450e+00 -1.974432949500433354e+00 1.910555705795863979e+00 -3.745626764847108880e+00 -3.517048579058305258e+00 -5.311787056175990784e+00 -6.129313860680022152e+00 -6.299598667116079298e+00 -3.433591480258052719e+00 -1.938014112235397768e+00 7.352851457918775369e-01 2.998918985704877713e-05 1.319016603853431346e-03 1.632010395788790341e-02 -2.318624139435189746e-01 -1.895723123282015976e+00 -3.699233455517201730e+00 -1.356164531600599021e+00 4.749413729880094248e-01 -2.740067800015419053e+00 -3.897439535707905911e+00 -3.985562320153278604e-01 -7.198376549416589665e-01 -1.381466531916752061e+00 3.281442981183407159e+00 7.621688670237455887e-02 -7.827044388481259052e-01 -5.455046737821827030e-01 -1.850799679790164076e-01 -1.853769685941443202e-01 -1.874196985135959115e-01 -1.160011256533521145e-06 5.467364257632127235e-08 1.407452929803736943e-04 2.568408777276061372e-02 -3.033505035295772645e-01 -1.878021557944470565e+00 -2.075172584643354412e+00 -1.057425301140487939e+00 -2.516216286767888333e-01 -2.118009677080764375e-01 1.719633255142257067e+00 1.467209556259138070e-01 -3.027208572778439244e-01 -3.085522749540811627e-02 4.531353481598495575e-02 6.184719495072115575e-02 6.459062974320729789e-02 3.871804177394937152e-02 3.070039862890799193e-02 7.319149449526697604e-03 0.000000000000000000e+00 -4.583174659809003806e-06 -3.698523724627297349e-05 4.707977274227895075e-03 -5.277502775896852905e-02 -1.749025975483259610e-01 -2.524595943992976599e-01 -1.255275242346921560e-01 -5.459525780027897623e-02 6.943741148002743110e-04 -1.572481062537926522e-01 -3.405399454695617889e-02 -8.776125402644585280e-03 -4.163314246592350609e-02 -6.174973263317620580e-03 -5.280973912504134324e-03 -1.205070576888793953e-02 -2.783543941177494749e-03 3.324802089938005793e-04 0.000000000000000000e+00
-1.273725456806796252e+01 0.000000000000000000e+00 0.000000000000000000e+00 -4.607572257303687788e-03 4.254547298072625799e-02 4.770634327202243063e-02 7.366187327129759543e-01 -8.435719898807784389e+00 -5.204353176446855578e+00 2.910010341410322263e-02 -1.035070886253783434e-01 8.396418004509574248e-03 2.898408731638034983e-04 3.180580237491695706e-03 1.768459203118495290e-02 2.534913720977048299e-02 1.600275103758612080e-02 1.148344493543027283e-04 1.364326363506219911e-05 -1.024446628298645224e-05 0.000000000000000000e+00 -2.229236171008606122e-07 -3.700414197510504006e-03 8.659689807847192888e-02 -3.880561263731355792e-01 -6.426396267001560636e-01 4.776427525501658167e+00 -1.197319637812464066e+01 -1.859557905701496594e+01 -1.404120687845533055e+01 -7.817180775352271738e+00 5.397959854737200303e+00 -2.371903622676783563e+00 -3.458071665275387896e-01 1.024464396651703302e+00 -5.188424501989474802e-01 -1.781347683130484194e+00 6.390820769129685885e+00 1.494745293730557645e+00 -6.066218969467299799e-02 1.751241493315858211e-02 1.456317562947778309e-06 1.518751940455359203e-02 -1.655717335374318200e-01 4.470083249624847571e-02 -6.684722375541662931e-01 -4.866611652842773594e+01 -2.242873449832728738e+01 5.131078603194559662e+00 -1.086759216254213278e+01 1.034382677714196852e+01 -6.476531709726148733e+01 3.074355405832844923e+01 -2.384496193397273700e+00 -2.610783939863775771e+01 -1.589581629040468336e+01 1.045263739722584084e+01 -7.895122224181959325e+01 -1.660863795178160629e+01 9.531348212185025703e-01 -2.159944376604314986e-01 -4.396433625657770756e-04 3.394189495400387613e-01 -4.948343085648111428e-01 -1.586059981733225754e+01 1.400111047241200701e+01 -3.229273696632823487e+00 3.635140684272250566e-01 -2.314019467264132324e+00 3.712629014680509876e+00 5.085761366790784166e+00 -8.741237806269900545e+00 -1.493678285817737894e+01 1.047944293857655396e+01 -4.223821471670837546e+00 9.111449678800333629e+00 -7.302318008855116283e+00 7.378792712523299713e+00 -2.718811808139294683e+01 -3.615151643215253618e-01 -1.052538265084130398e+00 -2.416768472017492494e-03 -5.004473492394027195e-02 -2.631377798517821276e+01 -1.610500751061650604e+01 7.716761759125871478e+00 -1.413519369073932452e+01 3.869813119904168541e+00 2.954824050216430464e+00 -5.063828894906991174e+00 3.665807865473100335e+00 -5.546002944077581986e+00 5.629829872681400893e+00 -3.617853644047315242e+00 -3.318301935993198892e+00 -9.044752123978766489e-01 2.538483989105462246e+00 -7.202064658922513907e+00 5.305433997034268323e+00 -5.170997573106617295e+01 6.777384331259232120e+00 8.606363175128872722e-02 -9.190250166010978106e+00 1.318906802095528263e+01 2.865218829970040293e+00 -1.026081797060265544e+01 1.362671163616268011e+01 -7.248816681366602843e+00 6.179271808687198053e+00 -1.439923439298501640e+00 -1.259889317085658655e+00 -1.006218909300284237e+00 -3.540906450268646921e+00 2.402952922733888386e+00 -3.003598813685673385e-01 -2.031438625091578576e+00 1.683383714948573973e+00 -1.796381699814040556e-01 -2.342145889024356276e+00 3.498390050986336597e+00 -8.237386352633775388e+00 4.574491521892752877e-01 -2.026072355940313940e+01 -6.265258818074570080e+00 2.602048276086399436e+00 -2.891639593132706132e+00 -2.958088749960293917e+00 4.184171615098628116e+00 -1.005829757086638576e+00 6.644891533722344090e-02 1.011916044446966367e+00 -8.032264037119868361e-02 -2.238847643942674992e+00 6.270768093617619110e-01 2.386238620457930004e+00 3.638020054853628449e-01 -3.843392353079740781e-02 -2.043537980869203796e+00 1.553576600535224950e+00 -8.244204678495805183e+00 -4.440986455838166336e+01 1.617301813627793683e+00 -1.900269139692892750e+01 4.018230489518106019e+00 -1.165002797400526813e+00 4.335818116793125898e-01 8.230082235647280531e-02 -1.330852180002157770e+00 3.378518635711119433e+00 6.171042809332635271e-01 -2.638473777166076228e+00 3.842276294294812988e-01 -6.735492674889078657e-01 3.354235837599653269e+00 -5.030901839150375698e-01 -2.321089157095794497e-01 -1.835311285919247304e+00 7.305733056974413886e-01 6.249856190478458862e-01 -4.814376107381661996e+00 -1.769999128494048435e+01 9.104344311786387589e-01 -8.391309835833034469e+00 -2.215934990217575340e+00 -4.045549720463400001e-01 4.507579375162651947e-01 -1.608609000015677193e+00 3.692270165507309354e+00 -2.200973784106612818e+00 1.066735660738465041e+00 2.732759542963249189e+00 2.618071493329686028e+00 -8.730650885795732119e-01 1.957701155586085040e+00 -4.495882478295117335e-01 2.383584789054439490e+00 -3.345241046659643835e+00 3.300913059565863339e+00 -2.085799715612500993e+00 -4.050045364973025919e+00 -1.481669666674176966e+01 6.978779585021883669e-01 -2.570312037097446023e+01 6.494112485154291292e+00 -2.242176849493747515e+00 2.304555609186319298e+00 -1.483863675928418058e+00 -4.068301621326625983e-01 1.884042592135164451e+00 2.492146437414304749e+00 -2.552099041832794346e-01 -9.614025773087456761e-01 3.857724323419271073e+00 -8.344294607346642856e-01 3.126449701410436433e+00 -4.348772035628156729e+00 2.943344807362814564e+00 7.342990195825257471e-01 2.044775578267201688e+00 -4.891438509858417660e+00 -2.539780566607016610e+01 6.384818915530763306e-01 4.710354044736086543e+00 -7.141804788311705288e+00 1.235378560727542485e+00 2.020795458714167658e+00 -2.081797576886950552e+00 1.323584485168988190e+00 -4.458405422756615444e+00 2.073046080703298433e+00 7.937831890238807864e-01 2.277764519421305422e+00 -2.614678330445983967e+00 2.180649344897990449e+00 -3.939844378797435098e+00 1.683575659399302593e-01 1.058707205628466763e+00 -1.908511021539581964e+00 8.282023189171096034e-01 -4.268904717031997365e+00 -2.626123818489461215e+01 5.983559970191388855e-01 -6.254625453700679572e+01 5.663616908954708151e+00 -1.885468825420249628e+00 -1.374734203445089564e+00 1.889775748660569299e+00 -2.957351628888061690e+00 2.054865203800765094e+00 -3.410035821584913140e+00 5.253598459540730126e+00 -1.970332790775866538e+00 4.557528164981495600e+00 -2.043335480514230085e+00 2.985052312349867787e+00 -2.040579864224724371e+00 -1.616563138026914093e+00 2.219009909259150870e+00 1.570298033204856392e+00 -1.940943871195780712e+00 -1.104080261868772084e+01 9.471112662008196459e-01 -7.509062712330299405e+01 -5.467293384903775255e+00 -3.192448613800031421e+00 6.187390682257291274e+00 -5.492117129331222536e+00 4.294205182441385382e+00 -8.091807271493137721e-01 -3.828786216899511818e-01 -3.614769863197452970e+00 2.387320476447491124e+00 -3.309340350166275702e+00 5.446453526341873408e-01 -2.118234153631197714e+00 -7.265624730343972493e-01 3.709250685984566864e+00 -3.682966134190780672e+00 3.004960068566415288e+00 -8.344550036023418826e+00 -2.426100998003466458e+01 2.461457711787679692e+00 -3.111724106123957867e+01 4.891310424183529904e+00 2.102171800866811768e+00 -3.704024583822033811e+00 1.634277713672540155e+00 -3.451505449831778982e+00 2.426936397360488940e+00 1.139009242601951799e+00 -1.715086729367933105e-01 -1.121081807912015504e+00 -4.450294984776952401e-01 -2.609416855455949147e+00 2.867843059399798999e+00 -3.287367736517958772e+00 9.968295260866855134e-01 2.640624864891479184e+00 2.556440076823958685e-01 2.681081657005522256e+00 -2.477851300714453586e+01 9.215213158513622105e-01 1.330390349970992925e-01 -9.023792237054834686e+00 -2.899095753885998938e+00 2.191732475539402980e+00 -1.518517986776372730e+00 3.625334578979762412e+00 -1.049638724467213402e+00 3.037528772000644306e+00 1.547225506136442830e+00 -5.200339750226756763e+00 4.093124598827864169e+00 -2.760441003621034728e+00 -3.078769701191491404e+00 3.497304154158401790e+00 -6.675841335996404169e+00 3.924599515981007869e+00 -3.666766509162915799e+00 2.992275649786185987e+00 -5.110048835514551691e+00 -1.361171232256529751e-01 -5.861237662089567202e+00 6.341786988227830157e+00 4.416917597178760424e+00 -3.077987979090210380e-01 -1.707805446403846128e+00 -1.230364660423512113e+00 1.668934849706567691e+00 7.749029031677782953e-02 4.955525625827992414e-02 -2.404338774979133397e+00 -7.719717460561251743e-01 8.199252920864762428e-01 8.645213029331559884e-01 -4.805496589535218077e-01 7.580691250544806969e+00 -1.495339596055925391e+01 2.349505700127673435e+01 -4.924702554184072056e+01 2.408027973333047456e+01 1.016345857970841093e+00 -1.343661717507729669e+01 -2.160140587413843960e+01 -5.014472710090699614e+00 -1.774895925208728742e-01 6.007566034859527448e+00 -4.787785042294012250e+00 1.008959826969406137e+01 -8.276329516967194877e+00 1.578668143457680806e+01 -9.341916625684090647e+00 3.619143339711412999e+00 -7.185010351771059511e+00 3.038552267212847546e+00 -1.964227883813779663e+00 -6.023649719403917580e+00 2.820240589299063672e+01 -5.507824636391941198e+01 1.236571180814809168e+01 2.939057777439900576e+01 8.858541346511211723e-01 -1.638877946167162847e+01 5.111193667092733506e+01 1.404554613384823680e+00 1.172340928098273727e+00 -6.541553751483410117e+00 1.168862144418817373e+01 -1.579934473651242399e+01 3.534930075130210980e+01 -4.213888492422462662e+01 1.399532680626212056e+01 -1.355537900962147013e+01 1.536365375757415208e+01 -6.794725956016135271e+00 2.558192164833589466e+00 -3.039338851665256969e-01 -7.386564145066499520e+01 1.390339205968011527e+01 -2.800548590933390702e+00 4.055840952705631608e+00 -3.581248686752411259e-02 2.292097236068956878e+00 -2.336691345002959608e+01 1.630693048286099511e+01 -8.997905919463851987e+00 8.022233970752559173e+00 -2.230828646683166738e+01 1.939512204825607000e+01 -6.067107975704388423e+01 7.041902825407181865e+01 -7.769449703603561908e+00 -7.719487927151854478e+01 -2.463947506215046701e+01 -5.297624470982862732e+01 -6.173267126064501298e+01 -2.717081534367828954e+00 4.862497261738905507e+00 -9.865224388099438357e-01 -1.296980952562042932e-01 -5.634073204833917048e-01 0.000000000000000000e+00 -1.533588989938371450e-01 -3.323304733113773501e+00 5.109554065592362804e+01 -5.330980491377197872e+00 6.280528292558019698e-01 1.447648199713301409e+01 -1.558619602401955895e+01 5.599843076222358462e+01 1.844038624641313717e+01 -2.008302437811325447e+01 -1.117698374440946374e+01 -7.177968749384653790e+00 -3.008240945601313854e+01 -4.381420931650797379e-01 -1.810404119419354085e+00 -2.739124752950636843e-01 -9.945799037591643299e-02 1.144818167763596121e-02 0.000000000000000000e+00
