-5.373237523709747165e+00 0.000000000000000000e+00 0.000000000000000000e+00 -2.021181495625139002e-08 -6.601868468783098712e-06 7.568545611131746156e-05 7.175844441497048138e-04 2.273145931512515305e-04 -1.129492821737662074e-05 -2.469144649097319020e-04 -1.089246790151370860e-03 -2.298383077333388696e-04 2.629051146083579782e-04 4.496099579780820721e-04 2.993118915745958137e-03 2.612411739687252668e-03 6.647515950315187666e-06 7.654840080708788362e-06 2.733919849400625614e-07 -2.021471686733761491e-07 0.000000000000000000e+00 -1.785492567753347798e-08 -8.737902421132972327e-06 -1.106392650965870659e-05 1.091305585107903630e-03 1.883801044964350004e-03 -5.819916274110328684e-03 1.782941813955824743e-03 4.100264172836107571e-03 1.902531971567592278e-03 1.079457444062532738e-02 7.854391499399803259e-03 5.925667202287790598e-03 2.293868911997935627e-03 -2.301151707214234288e-02 -2.660699052534230488e-02 -2.771734839489406466e-03 3.713726725076849783e-03 2.915535571919553731e-03 -1.248405068708207646e-04 1.349900519863613896e-06 1.558861690780187503e-07 5.252262649001863157e-05 -4.964840250089777433e-05 -4.799505113924462663e-03 -1.860342362921975704e-02 -3.575936504158700596e-02 -5.176759782872268623e-02 -8.333740347891781253e-02 -1.277582366301355243e-01 -1.559194388245786489e-01 -2.270844446573132558e-01 -2.751364329308490508e-01 -2.170587272154186065e-01 -3.506610145704054937e-01 -2.361962853663801543e-01 1.638584886904829313e-02 -2.087854719177013527e-02 -4.305940960015727792e-02 5.777574818620134951e-03 1.233668215779876436e-03 6.247932508778314973e-07 4.904275116379175651e-04 1.752868008735389456e-03 -6.480580772770311304e-02 -1.638203396829641389e-01 -1.775187832814823785e-01 -2.683685813218643634e-01 -2.337270553435317477e-01 -1.481532223045393948e-01 6.174032241691984613e-02 2.767159993653614536e-01 3.432486467826510734e-02 -5.553016640332092066e-03 -1.997821798231772528e-01 -1.688326841776019716e-01 2.684777349209910291e-01 1.307400993086162422e-01 1.923315775064618136e-02 -3.394948602679673244e-02 -1.035211052037517294e-02 -1.104000339364191216e-05 7.479878002890454070e-04 4.207492319082886158e-03 -1.100410344835106996e-01 -2.814628109848233972e-01 -1.631668730910817988e-01 -2.131678941251997916e-01 -1.742517403346272031e-01 3.431559476608075365e-01 6.242252335896402160e-01 9.602598661156190873e-01 4.702343012622642870e-01 5.426381516100129421e-01 4.290282132125355363e-01 -1.652886663122991040e-01 4.211774576616693078e-01 5.816053270471083225e-01 6.576567015621313794e-02 -1.118147694416278815e-01 -3.278712674711058150e-02 -7.586993297046976201e-05 2.047992793825293041e-03 -1.260289207044612732e-02 -1.672990770856976617e-01 -3.681960720089187955e-01 -3.109979808866722983e-01 -6.820665930083229522e-01 -2.802770534020516124e-01 2.556637230185478948e-01 1.229333388075836697e-01 5.911664830821262706e-01 1.053692107607606454e+00 4.133786819915789001e-01 9.473724863184868061e-01 1.687011625462579156e-01 -2.157772104184068895e-01 -6.836028153029013454e-01 -3.253547346549594543e-01 -1.800408734186076942e-01 -2.988848003189749011e-02 2.040220862637501069e-03 -1.631379994024929544e-02 -1.863099817264655678e-01 -4.278211158915454781e-01 -5.772659982587126093e-01 -3.277336354855830414e-01 -6.093380256787029881e-01 1.411672857033804407e-01 -8.932466089786522678e-02 -1.176467971742009219e-02 1.207338711804332859e-01 5.737634165657836682e-01 2.522447092780493727e-01 1.979520858765457525e-01 1.364539419176672430e-01 6.599948676919369095e-02 7.137609024133145796e-02 -4.861526653175223256e-01 -3.622520373422310480e-01 -2.516973321207125608e-02 2.703482975774032428e-03 -2.252727629610091695e-02 -4.639885422683889260e-01 -5.459920251333838515e-01 -7.556391365717124442e-02 2.829725095889994435e-01 -1.335998555026646495e-01 -5.408106263395110608e-02 5.503914839199469666e-02 5.127195389491172595e-01 8.533760548528387391e-01 1.324927104582544757e-01 7.214675458672280550e-01 1.016946071637647581e-01 1.138862601158819432e+00 5.841639254303953033e-01 1.018443107291961747e+00 -1.130489312701010579e-01 -7.763427501132119657e-01 -1.111817811945952916e-01 1.192978883929871276e-03 -1.591970571828617287e-02 -6.732938762724948178e-01 -2.621813946491217684e-01 -1.161380687423943653e-01 -1.426819157417703599e-01 -3.556958006800229333e-01 -6.862477811823701479e-02 2.167228944114321376e-01 -1.560256329889943561e-01 5.397732841949690608e-01 3.139444710625204360e-01 5.439383001667433826e-01 4.592519570428147957e-01 9.582366398343853398e-01 3.019310798117235128e-01 1.003339099011224311e+00 5.772722868003531821e-02 -6.238694824289364727e-01 -1.634418378354016155e-01 4.229063311052441536e-04 -6.088963046519263456e-02 -3.537747282937348525e-01 3.570581987672857283e-01 1.307922566695344235e-01 3.448657711592816866e-01 3.758294595428783302e-01 2.155054708021245935e-01 -3.948585170121755583e-01 -7.029289665449963698e-01 7.490405557706063082e-03 -1.386341329483249840e+00 -1.579705978217376794e+00 -9.005274130493744478e-01 -4.831595153684686145e-02 -3.946395545210819589e-01 1.075527476813294747e+00 -7.326968658499558029e-02 -3.833708308453258051e-01 -1.424894599975603804e-01 -3.920882505033088800e-03 -7.082643099405433462e-02 1.085277519023970230e-03 4.445230353192130557e-01 -9.783360543645526486e-02 2.739759404357955952e-01 5.015696933076971842e-01 -6.563598220028214747e-02 -6.982752009191517395e-01 -1.366400049796416383e+00 -2.038564941011431930e+00 -2.359294090442115355e+00 -1.154873435331006615e+00 -7.847530195627725469e-01 -1.113112676889695063e+00 2.265578149708384892e-01 4.931797704271905780e-01 -1.866381811086218201e-01 -5.966115006298036150e-01 -5.969750320473832250e-02 -8.216657293970509868e-03 -2.035789536346034045e-01 -4.594072389226724340e-01 2.330501886843453496e-01 4.760025337361570297e-01 3.226573953908932757e-01 -1.234932573317130550e-01 -3.592191051588100037e-01 -8.487496866102992588e-01 -1.572243454089761627e+00 -1.499693668298410998e+00 -5.889637300237483553e-01 -6.638749627933774322e-01 -2.810223443449330616e-01 -4.766603109295264873e-01 1.335523162155844434e-01 -3.586874132320188591e-01 -2.118752416452402143e-01 -3.852977887835125070e-01 9.101888726333953739e-03 2.568115589739634191e-02 -3.691423554770958959e-01 -2.976959285391539978e-01 1.733423167374317743e-03 1.411690728730700395e-01 7.512470778926702009e-01 9.231684618948890475e-02 6.256422343688552434e-01 2.237635091602453996e-01 -2.159936844320961558e-01 -4.424185184073959470e-02 -4.699204163832392811e-01 -1.468192895617873028e-01 -1.849107591957930563e-01 -3.637384491443746426e-01 -1.017303862966046468e+00 -2.500492238749003615e-01 -6.520605569932112766e-02 -1.437215683761804974e-01 -6.553701185896249233e-03 1.581086557065878098e-02 -1.794713697121030349e-01 -1.281824301292856239e-01 2.777244774396179366e-02 -3.807306641309182726e-02 5.757719051353349382e-01 7.024738763430371513e-01 1.049836579611788778e+00 6.010193418838075674e-01 -4.086713939601973045e-01 -3.339106365647352970e-01 -9.266954096112557659e-02 1.126705237724637404e-01 -1.058234136233643652e-01 -6.092918364393123953e-01 -7.863843790894141650e-01 1.389202458483586589e-01 -1.446823199347592737e-01 -1.433345604705744680e-01 4.501735874779625238e-03 4.177298196728725294e-04 -3.673472131464437102e-02 -1.775914059305928605e-01 1.080748825698947535e-02 5.908565600544876117e-01 1.650461431557811998e-01 -6.692684398314580063e-01 2.258166377664385660e-01 5.628880247384705493e-01 -2.331793818782612049e-01 -1.924199734706401044e-01 1.722006330006869423e-01 -2.020601317406077457e-01 3.563348481317295952e-02 -7.036323192126581194e-01 -2.436245240461632211e-01 3.209985679136332509e-02 -4.772381577332585056e-01 -1.861369586356523553e-01 -6.886693319964279185e-03 8.006504998806422777e-04 -1.133593228735684313e-02 -3.542008779732511714e-01 -2.630552893081820609e-01 4.145506500673908912e-01 -2.308056772628787334e-01 1.182804978775577193e-01 8.001548158636665464e-01 5.405563735007573589e-01 -8.438894790132064894e-02 4.487974657431072212e-02 -1.214156741815622526e-01 3.889772813937040219e-01 4.144452262402568699e-01 -3.351829011285995530e-01 5.492484870702142585e-02 -1.838825000275058630e-01 -2.875831093636034286e-01 -1.863360212880312838e-01 -8.068514436544731161e-02 2.164244203059127411e-04 -6.675749892073789757e-04 -8.553494571242067912e-02 -5.501146720376808713e-02 -9.323462874023387414e-02 -1.971597973550716087e-01 8.151776155835169235e-02 7.041900031457948295e-01 5.604071824392847789e-01 5.344972692895942901e-01 8.491617311182519945e-01 4.479114677356467178e-01 9.767530845793544192e-02 -6.818403527213741100e-01 -6.651932481729228019e-01 -4.620792108817937671e-01 -2.716947834749615098e-01 -6.162076051046345981e-02 -1.024229968213635905e-01 -4.801283192183498222e-02 -2.572160880881914366e-05 -4.107250550045714495e-03 3.638917367440556994e-02 1.695654354276881493e-01 -3.737205471639650778e-01 -4.211051182609763521e-01 -1.705673316431099637e-02 8.676988936833122945e-02 9.064930945351215574e-02 3.713908473059696624e-01 4.713171254823132483e-01 3.130354301423301511e-01 -3.078923927746022304e-01 -5.286492036486131196e-01 -4.862070199278277216e-01 -3.211040623123671001e-01 -1.616544089494771075e-01 -3.531709381684726857e-03 -9.458158693153227020e-03 -1.652966564055856455e-04 -6.830036855089251497e-08 1.987046770004988064e-04 1.957466528231402783e-03 -1.667162226069018524e-02 -3.216240518660282155e-01 -3.696240031189088615e-01 -1.895883416149946044e-01 -7.922865916669080688e-02 -3.551334081928275016e-02 -7.557217197795092212e-02 -7.553158149813972433e-02 -1.681631882368151976e-01 -2.271426941472378946e-01 -6.204433472000270983e-02 1.226914108213500096e-02 1.513149362252242877e-02 6.689483868819674599e-03 5.656833833820834427e-04 1.435153469956080554e-03 4.854870923791832372e-04 0.000000000000000000e+00 -1.100613257216224192e-05 -5.173450074247079307e-05 5.652740333417005658e-03 -6.915888397356059758e-02 -6.547563047087267413e-03 -2.467724105386491854e-02 8.750479605351863281e-04 4.212937667991337523e-03 6.297916259577136452e-03 4.566964295119268179e-03 1.276938812571488599e-02 1.991971799595147058e-02 6.970552771194699765e-03 1.110314742420317764e-03 1.777915867388417523e-03 1.609332171001302033e-04 -1.336403812504928198e-04 8.751778513933101752e-06 0.000000000000000000e+00
-2.381225918531573171e+00 0.000000000000000000e+00 0.000000000000000000e+00 3.410189856087866904e-05 -3.151707267876377016e-04 -3.448975134099519098e-04 4.559010470345693116e-04 -5.390173255634071042e-03 1.028173063018799445e-03 1.777753091411433733e-04 2.571620825959763522e-04 5.145201665242186089e-05 7.219525222408732835e-05 3.103429089123512169e-04 3.800838465564608092e-04 1.428693243605240774e-03 1.870578244187881848e-03 1.558641459373900451e-04 -2.677492427165695000e-05 -7.591614631957632269e-09 0.000000000000000000e+00 -1.340993905754628252e-09 4.557527208851121156e-06 -4.412099496454267183e-04 3.555555522429310923e-03 4.104742611545110324e-03 7.470919439082430915e-04 -7.117238212253680467e-03 6.750057854988021850e-04 -2.351968748483577922e-03 -5.185324374063861319e-03 -7.748628398519140023e-04 -7.436529839383638650e-04 -3.184236285032649837e-03 -2.191148456382567122e-03 -1.279434897894966144e-02 -1.747142907014312754e-02 1.298312314507588409e-03 2.487362490287003177e-03 2.505482527865172102e-04 9.649039852971387466e-05 1.048574956970596588e-08 -8.841533029412840543e-05 1.142372651640677703e-04 8.341412005813991087e-03 1.766315917971588226e-02 2.695486779256570792e-02 2.472203933823332450e-02 -2.429098882712296681e-02 -3.331618754444717889e-02 -1.212311099633370422e-02 -1.270385878721766622e-02 -1.259164658898693319e-03 -1.088945342667646532e-02 -4.927967442787341279e-02 -9.168707398629492855e-02 -7.584592742120906117e-02 -2.248156875848036224e-02 1.162081432418148562e-02 2.171223631483314056e-04 -1.818766920732179391e-04 5.742531656315641404e-08 2.477108004400509905e-04 2.587883108146495255e-03 -4.344583474027406689e-02 -1.638265228496241233e-01 -2.750899407929744966e-01 -3.929217529345403470e-01 -2.442404004490550951e-01 -2.281041041806620706e-01 -5.915935884303471365e-03 1.009655479881899492e-01 -2.633131405939978520e-02 -2.759331791446816354e-02 -2.105540742142544830e-01 -2.583061935664748288e-01 -3.382134793066968181e-01 -3.428613553284060589e-01 -3.392538451292559931e-01 -2.616596260076351627e-02 -1.024095028476769594e-02 1.218785447609965443e-07 1.746300452813208696e-03 -1.486688563070144575e-02 -2.110853216081538114e-02 -8.839226817257464508e-02 -8.921948107756154656e-01 -7.572334001937511827e-01 -3.484145599623442169e-02 4.177226212161775920e-01 6.185313734993240775e-01 4.942806734091147181e-02 -1.312503660712779352e-01 -1.407284578453821544e-01 -6.246676268906249385e-01 -5.809369427218484816e-01 4.890794326428587468e-01 2.642976370871537029e-01 -2.692059661089401534e-01 -1.221700076570417515e-01 -2.291283169829936087e-02 -1.468599044325827245e-06 -4.400763186028429884e-03 -3.875762429315948027e-02 4.603599899923119243e-01 7.976351518267536800e-02 -3.440364942757774824e-01 -5.758678696401470232e-01 -2.517627809820616736e-01 7.704806135583668336e-01 5.208034682817005434e-01 -5.067378333351033604e-01 -3.687303679998256700e-01 -1.994351812726318507e-01 -9.135667808324091643e-01 -7.874631066120065803e-01 1.123833771895126565e+00 4.856025685256027957e-01 -9.406415677658462871e-01 -3.102017592538606761e-01 -1.872665346066687900e-02 -3.112432586452829541e-05 5.101349852152961724e-03 -2.575579417621841616e-01 -1.866599488357470193e-01 -3.165829889032142908e-01 -6.991648790805121694e-01 -4.688909192629225897e-01 -4.250700820058868068e-01 -1.047694736767086077e-01 -4.228544386659722765e-01 -4.960694173710110122e-01 -3.919891020553941119e-01 -2.651329179124957136e-01 -5.992216113979573766e-01 -7.643160084706112078e-01 -5.758770743845135209e-01 -3.956176984061720442e-02 -6.715844457624393637e-01 -4.725477562805043830e-01 -1.059190638062485097e-02 -2.357871362403730117e-04 1.726042865917602406e-02 -5.178157272713432846e-01 -1.001856020433230743e+00 -6.533565807430465888e-01 -7.159373101249565385e-01 -2.802998159921195054e-01 -4.205670516904980727e-01 2.178920259517681639e-03 -1.203300734137575212e+00 -1.270855602943987028e+00 -7.840580198374473841e-01 -9.759108764522279600e-01 2.235693185938866789e-01 7.198757389996105482e-01 -2.363424280618957596e-01 -2.502682278536854099e-01 -3.097151683273714484e-01 -8.873373604023586658e-01 -8.586834129417849487e-03 5.345030173302998434e-03 -6.224599684267950739e-02 -3.850024108985926619e-01 -3.614629343934325223e-01 -8.312221626748509395e-01 -7.287992965431216996e-01 -1.119161537167269876e-01 -5.945866736468869568e-02 -4.114538162925197584e-01 -1.195071327730435229e+00 -6.748720506595097257e-01 -1.925122217466527230e-01 -5.086329524960314652e-01 -5.348537308108682886e-01 2.801683121052619962e-01 -2.569646413147057551e-01 -5.980855295670060023e-01 -7.566349612905358679e-01 -1.051194529937364397e+00 -1.659389504619105116e-01 1.075826915872869077e-02 -1.216339437398455126e-01 -1.139431774438123407e-01 -2.474186334781905416e-01 -4.810900253212855304e-01 -3.601571354471712061e-01 -2.320457717061199243e-01 5.896513006622937370e-02 3.129203560396746076e-01 5.216193730003193529e-01 7.949885772722155020e-01 5.754165275915879008e-01 5.186498019459988562e-01 4.098311701924651218e-01 -8.199810669672628199e-03 -8.208641969550810602e-01 -3.142979058225641165e-01 -3.549075503932377917e-01 -7.539975056744938620e-01 -4.817435347025711412e-02 6.941311557755558241e-03 -6.702985296303835827e-02 1.982158139783073425e-01 -3.467460454770656120e-01 -8.484073169947359272e-01 -1.018387907876727588e-01 1.790556831371995644e-02 7.413737699902518408e-01 1.802568452641183372e+00 1.855817765867414204e+00 1.261322596341437619e+00 1.174430777881128929e+00 4.049469967255164837e-01 5.710611326414857247e-01 1.068845725781756018e-01 -8.280375093153244381e-02 -1.596086300817911030e-01 -8.064581571384265013e-01 -5.859637809146253096e-01 1.334981045820976715e-02 1.937043039272097998e-03 -5.594188767797045325e-02 2.329814087258376132e-01 7.471791479006538728e-01 -7.434864723182439683e-02 -5.358232146508139504e-01 -2.959990343230525234e-01 8.696988952230597647e-01 8.523114689021180634e-01 4.285284570925612657e-01 -1.659799789620587940e-01 -1.073930740893565550e-01 -8.942408918118526229e-01 -7.033547271759283959e-01 -1.556631270972874334e-02 2.455883212874747923e-01 4.031796760167471461e-01 -9.018808609413704325e-01 -5.850054393747258219e-01 -2.139882172337642316e-02 6.991883173485138533e-03 -6.877063337017312594e-02 -6.965496667800460395e-01 -6.375234084791917555e-01 -5.069344165494961141e-01 -9.256024011922673322e-01 -2.922767863571958391e-01 -3.072596593499339265e-02 3.768894713396017671e-02 -2.915195840323036441e-02 1.201323267328399530e-01 3.360863408043100742e-02 -6.257314794329577046e-01 -5.004481137592062812e-01 -4.891115761149857910e-01 -3.481320252378303226e-01 8.257701486758858289e-01 1.962383894267624163e-01 -2.582367679800869342e-01 -3.748803783117941879e-02 6.321428589619700750e-03 -7.958321839868258418e-02 -4.100827457355802341e-01 3.704714834439766791e-01 4.205020851307237906e-01 7.184309710360174961e-01 -2.762767358587635003e-01 -5.962128322004531800e-01 -1.169179558524603181e-02 -7.464342219886724861e-01 -6.922959176070844212e-01 -9.441190921509846623e-01 -5.108828526442457107e-01 3.368882706979382524e-01 4.360410891034440795e-01 -4.071784037537540812e-01 4.243989799220604375e-01 2.389139728357397852e-01 -1.709145090393605626e-01 -1.137745751173971885e-02 1.093089056762882368e-03 -9.931262601848983573e-03 -1.933303477059330755e-01 -1.626304938203836092e-02 1.846684270030193586e-01 -1.305235271438178191e-01 -6.864748055566437523e-01 -6.722452878303299961e-01 -9.767709220297199346e-01 -8.102816399088776933e-01 -4.859093822682465369e-01 -6.735367401408141053e-01 -4.521324696979064917e-01 5.741161435177105643e-01 -4.002089240565908090e-01 -3.515275063059785099e-01 6.040641005611513403e-01 -1.931972750755029666e-01 -1.381150786563213606e-01 -7.554540383298199817e-03 -7.746088117233218399e-05 1.452354349300967809e-03 -2.514769229391745908e-02 -1.076273380953344377e-01 -2.033681023379543262e-01 2.751156385744504482e-02 -5.413130117056483837e-01 -6.560819763307590424e-01 -4.515258594140816317e-01 -3.414815910299686119e-01 -4.106591436055513911e-01 -5.116838872542839312e-01 -5.179322879222453269e-01 -4.487030991804176749e-01 -3.204316316159842581e-01 3.034068103274064829e-02 5.632077917362909858e-02 -3.292696347708332638e-01 -4.317154478881211725e-03 -2.273917888446918330e-03 -2.852453299470126478e-06 -5.671209960934459580e-03 4.119137779099287661e-02 2.982016163279622156e-01 -2.617908789773772948e-01 -4.994467238157691558e-01 -6.088564975290697845e-01 -3.928532576352392058e-01 -1.887682587983356697e-01 -1.571462126925933789e-01 -1.106383693180021249e-01 -1.590371077468646366e-01 -3.523347228590197333e-01 -4.072836260408773529e-02 1.043611993287282269e-01 4.541414723312942742e-02 -1.150698466198042114e-01 -9.093995059233529743e-02 -1.003078884561457024e-02 -1.607133656327334667e-03 1.935464706476784701e-06 -2.014307375947751132e-03 1.546670461589543834e-02 1.079478632300669844e-01 -3.360481975696101298e-01 -5.112679657352410256e-01 -3.543449083940800604e-01 -7.030627839800565604e-02 -5.828106332502175357e-02 -1.327554846005254696e-01 -2.963194393898655951e-02 -5.549048902208453260e-02 -1.590259841943299224e-01 7.662520829626222330e-02 6.179340261388465150e-01 7.159961651186567133e-01 1.699763128123024380e-01 -5.090167443285386478e-02 -6.417748672201000620e-03 2.800301784134328047e-04 -7.134591122969687643e-08 3.530960602016040731e-04 1.271959757158238474e-03 -4.683036729251238012e-02 -1.336756769219611396e-01 -6.621699662292006294e-02 -9.234067752912426819e-02 1.461020211273971192e-01 9.464659068765814143e-02 -5.525112979272877450e-02 7.241445116267181126e-02 3.974839417934583619e-03 -4.945665044886398548e-02 -1.238814707827906245e-02 1.352167909860421124e-01 4.468028433094105578e-01 1.160695888448379370e-01 -1.232730432239643667e-02 3.995224396380218706e-04 1.165556308915468271e-05 0.000000000000000000e+00 -2.236460031112635794e-05 6.804731694329361211e-04 -3.879362207903416186e-03 -2.068365252422469172e-03 -3.183095850817291555e-03 3.552600107137498034e-03 -1.690179897002759557e-02 -1.419179982021830967e-02 4.861367338951849888e-04 1.251528455811524478e-02 9.639039824619624825e-04 1.826935239298561539e-02 9.592298198248228047e-02 -2.605385006439816121e-03 -4.046550300080079682e-02 -1.018792351738639912e-02 1.259307820496934592e-03 6.164058987759895391e-09 0.000000000000000000e+00
-3.187978483187840606e+00 0.000000000000000000e+00 0.000000000000000000e+00 -2.710249498689913430e-05 3.603878045178644275e-04 -6.879492710466168824e-04 -1.435650235877941085e-02 -9.483672216723521356e-03 -1.141297024912344901e-02 -1.370249488565692493e-03 -1.052327196410307239e-02 -3.837028354385068740e-03 3.400223087467488074e-03 4.079898300844976740e-03 1.299402221230102445e-03 -6.122750382647611234e-03 -1.837541295938997744e-03 3.856909098994485731e-03 -1.381244266827031070e-04 -2.000375873161877041e-05 0.000000000000000000e+00 -1.561269740874694833e-06 -1.043030524748387009e-05 6.133781940944462796e-04 -3.611119400135632401e-03 1.134348846412428988e-02 1.288717310198593813e-01 -6.107118856621832070e-02 -1.283052101155723879e-01 -2.941942600636486896e-02 -4.068028927916449849e-02 -3.596393475031675613e-02 -5.319029399604052050e-02 -4.549579205078004701e-02 -1.494911939050615549e-02 5.054188225103495302e-02 1.791212366193128264e-02 -4.819683988968656574e-02 3.958239527716855138e-03 9.531193693041481278e-04 7.112040798460844183e-05 3.516558565208610524e-06 3.038401290229592456e-04 3.076225716834876753e-03 -2.228131553326554576e-02 -2.887590811582149697e-01 -2.345800067018293245e-01 -2.996135642352933393e-01 -3.621647223890401279e-01 -2.780764046869195760e-01 5.035201736305359999e-02 3.884836272698098947e-01 5.562392365409498662e-01 -6.677733114478634491e-02 -8.695529766751535217e-01 -3.158675861263726681e-01 1.547488611862275210e-01 -2.839074884220013639e-01 -4.585231236253743681e-02 2.913388302800159688e-02 -2.413330738807473522e-03 1.331116859523033883e-04 4.559499465399119694e-04 -4.915886806639314238e-02 5.144303138757431310e-02 1.101684752196895323e-01 2.194595901689773976e-01 4.217978887038814073e-01 4.196323687018198023e-01 1.071708451980531995e-01 -1.132940482932401460e+00 -2.126424263265445647e-01 8.780758612825496634e-01 1.136265433880366410e-01 -4.345725324305512588e-02 5.051783091506735213e-01 -1.780383953384793716e-01 -1.741864881392828912e-01 -4.945972209108954187e-01 -2.716402149627046847e-01 1.389677503348418081e-02 1.776621101117975251e-03 -5.121314629894141261e-03 -1.250837347018351475e-01 3.700180759947248599e-01 -1.686567634249346859e-01 -3.554748749671836072e-01 1.844397320284448250e-01 -3.500882697486486506e-01 -1.485721310132734452e+00 -1.857684818096066781e+00 -2.952617025142466045e-01 3.198994962153310362e-01 9.051816334011570930e-01 3.905873628861906699e-01 3.264400277105207904e-03 2.273341999739424413e-01 5.118062358249607646e-01 -5.953658781201106587e-01 -7.952839236746496177e-01 1.662823746078226361e-02 -9.638984874780020737e-03 -1.153519094699712588e-01 3.883347950259844611e-02 6.115568099922743528e-01 2.305400563969880745e-01 4.382224064661819352e-01 2.716763068590185570e-01 -2.741635652216986574e-01 -2.099534503094659055e+00 -1.679149043466767299e+00 8.957877780988376948e-01 5.964823275586217388e-01 -3.694406068368117496e-02 1.052550254167810451e+00 1.211936524335908150e-01 2.627220146025155412e-01 9.617629140257535347e-01 -4.228331442069002688e-02 -9.578734134313893200e-01 -1.970567332060260343e-02 -6.448965383073071433e-02 -3.632856265279555963e-01 2.022453255426762131e-01 6.888311117919199145e-01 1.324201730653695175e-01 -1.696555202524904771e-01 5.150381625680606756e-01 1.031310665078514766e-01 -1.996339032924188572e+00 -1.335519297808970718e+00 2.862953738391996739e-01 3.896754474058100604e-01 -3.675239975873776932e-01 5.737170692530851879e-01 5.322298279895587569e-01 -2.017852678969627583e-02 -8.533505533968692713e-01 -6.144348400447725567e-01 -8.571994563462624894e-01 -7.371941224851837060e-02 -4.590459886373114695e-02 -3.236971582062990738e-01 7.766897844826236019e-01 9.914827914084620164e-02 -1.477465848667039172e-01 3.305250181412304200e-01 3.693434921472890653e-01 -2.265253592519692605e-01 -1.602236218261256173e+00 -5.966011246886542274e-01 -7.591631825987568138e-01 5.842169847251529324e-01 -3.597718200279655110e-02 1.698468314016971514e-01 3.698914406086893925e-01 6.826625261756958940e-01 -6.548527536731796328e-01 -7.514779231669838078e-01 -8.280632039021357249e-01 -1.278747458535412218e-01 -2.997714988307002143e-02 2.257318786401489030e-01 7.526531961069189425e-01 -1.282879185062347493e-01 3.734959618476954013e-01 5.133757750065117698e-01 -3.642003298444712045e-01 2.727054104951420199e-01 -1.080612612053229116e+00 -6.586444732584619821e-01 3.494723486071444896e-01 8.458706448485953100e-01 5.990620484744695329e-01 6.849201557139689145e-01 4.959951842184809889e-01 5.500954968254592181e-01 -2.273575607964935519e-01 -6.539988483684384679e-01 -6.110313907400451994e-01 -6.951299486852284548e-02 -4.455728264200058825e-02 2.883250611764097693e-01 3.003698511793013726e-01 6.590289179585816504e-01 1.043305226904888555e-01 -4.538048296600393217e-01 3.390790838301134258e-01 -6.018681563334661311e-01 -1.415565727412192221e+00 -5.063449807717154139e-01 -1.994329152862881482e-01 2.686807896942502993e-01 1.958052870681947222e-01 6.969480247063514211e-01 1.481405143470884977e-01 1.815500258790866961e-01 -2.261817139505793439e-01 -3.690270291202396580e-01 -5.654114187112726508e-01 -4.726797628846352017e-02 8.260220444943774942e-02 -8.996704497896075292e-01 -3.621833264474865755e-01 8.116439744521218858e-01 3.176435257602365780e-01 -2.981472650347996578e-01 3.123657745693993459e-01 -3.902574463108733904e-01 -5.506503832872474691e-01 -1.282592064641306928e+00 -2.760948218545871691e-01 3.745423319116422123e-01 2.309927800372550133e-01 4.856811612973785386e-01 2.353284079822991204e-01 -9.169360567255231409e-01 -2.372496838697875920e-01 -1.681230781160222842e-01 -7.432479379587575430e-01 -1.822377309724675098e-02 2.619619570047135304e-01 -5.452488473720176199e-01 -6.649878639931020574e-01 2.266024009682928442e-01 3.806091451318540098e-01 -6.850322964876061349e-02 -6.288052007560567258e-01 -7.455653323398207105e-03 1.372979415039450035e-01 -3.893870605039604360e-01 -4.680140820827148884e-01 1.932265819173898946e-01 4.686250441165544789e-01 4.034645748188388226e-02 3.336243027869117417e-01 -6.223956492738085267e-01 -3.805041743589328562e-01 -6.138001665738845869e-01 -8.745296747016160221e-01 -4.991008856496512158e-02 7.734443658446707448e-02 -4.695983315389328783e-01 -8.736268081465166091e-01 4.112046806595834880e-01 3.263146018798922521e-01 -8.290362986160563219e-01 5.065446083515203757e-01 1.226690234767139308e-02 -7.547324638442692857e-01 1.243901031544578095e-02 1.654090712640319816e-01 -6.395016983045150871e-01 3.392969298057107452e-01 3.779995691194712459e-01 -2.468026826680618235e-01 3.107293958019144431e-01 5.809788804998741174e-01 1.586211956428381087e-01 -3.865884384465812507e-01 -4.974699942082382725e-02 4.625135110570022245e-02 -7.169942813603776832e-01 -8.679572368447674435e-01 -5.158920355619204257e-01 4.963634874304418965e-01 -4.242668579785396354e-01 7.166335779874855039e-01 -3.207665713944117258e-01 -8.165201323090477414e-01 -3.113972698603260647e-01 -5.310116070519343978e-01 3.164523154840134800e-01 1.313649189133058457e-03 -2.225927500193023989e-01 8.023765675576410850e-02 4.486640615773281326e-01 -3.700846174706365899e-01 5.858469094837203128e-01 -8.401482505473009676e-02 -7.779757392360392432e-02 2.994957371274516514e-02 -3.907162151093593883e-01 -9.178834133539764614e-03 -5.054571049799103655e-01 -9.258171373293233586e-02 -2.032422964023150314e-01 1.529876437057612060e-01 5.804535734768523358e-01 2.681222005995692048e-01 1.206654091583856392e-01 -3.015338463897364596e-01 3.748600382398707964e-01 -3.012725248173184212e-01 -3.413165081249429078e-01 6.744895535766867178e-01 6.335857661231644178e-01 -6.998270558096715277e-01 6.457208621447284580e-01 -2.990839677835318011e-01 -3.046552316073507238e-02 4.005700087183853078e-03 -1.209858852394279094e-01 -2.235189421204852311e-01 -6.723278415285067755e-01 -3.886834665411436074e-01 4.947795227056751011e-01 -2.930984022810276257e-01 1.290065368387837696e-01 -2.019022446729024090e-01 -4.222973495325808568e-01 -7.656341619134171550e-01 -1.593709523412918105e-01 5.843872083700736297e-01 3.742465225925703520e-01 2.249167163577144024e-01 6.702176522935116010e-01 2.523610103421269901e-01 2.228000906950715621e-01 -2.510536714989583529e-01 7.499859361253349496e-03 -2.221256416908905847e-03 1.591762613112647495e-02 -9.895711007196894560e-02 -6.835723422445203479e-01 -7.047440836343915604e-01 -3.574881052504574330e-01 -2.430302649201208920e-01 -2.197112193859205864e-01 -1.052612694368026514e+00 -2.359535851368849135e-01 -8.943426988416716128e-01 -9.729649885592847047e-01 9.797161048061195920e-01 3.945941296530479647e-01 9.956263615179643256e-02 6.899434716559070813e-01 4.805815056436464339e-01 2.376368251257130609e-02 -1.376794593961803703e-01 8.526868912349425123e-03 -1.019173123556629075e-03 1.538607757482600598e-02 -1.232292079792441340e-02 7.252396657755148801e-02 -3.993894572043095725e-01 -1.111107429294751370e+00 -1.053512335139073164e+00 3.099195206700793848e-01 4.651706645890740788e-01 4.020163451296272505e-01 -6.166742288936870597e-01 -5.290765730624596291e-02 6.763403829609604401e-01 2.993496665277126656e-01 3.484864766629086619e-01 2.724320699948947211e-01 2.619052862027132153e-02 -9.075164115146916455e-02 -2.351720478845811119e-02 2.041875591869570569e-03 4.503224713373102622e-05 -1.235764387144375892e-03 -2.544125367063357519e-03 1.093086536404973275e-01 -1.067278582609463081e-02 -3.628155290015960821e-01 -4.176227718345237316e-01 -4.169847074501663309e-02 6.325048710627035886e-01 3.749129960886452562e-01 1.631881152780134958e-01 1.415348933331191716e+00 9.774842988046984482e-01 4.962869007572277003e-01 2.504787194969826936e-01 5.095832667168733593e-02 2.583920895599734271e-02 9.831163859456225340e-03 1.248694757490366935e-03 -1.408950669161042075e-04 0.000000000000000000e+00 4.950674248699398980e-05 4.838877811825468287e-04 -9.225918817954413889e-03 -2.661664750279736993e-02 2.589325856734375677e-03 1.959455862097344431e-02 -1.102295024540426820e-02 2.462188913651958827e-02 8.462237846476394765e-02 1.645882404724161585e-01 3.590883035510102350e-01 2.808743180261542016e-01 -1.378836485783379792e-02 4.241327300688248897e-02 1.121291571858276138e-02 1.547814463858080379e-02 4.241327112267903772e-03 -4.840923014950079817e-04 0.000000000000000000e+00
-4.797709310207232569e+00 0.000000000000000000e+00 0.000000000000000000e+00 -7.785473333215785005e-06 -1.917919256933075373e-04 4.769827189785191823e-03 1.655493616337461865e-02 -2.969639138255494512e-02 -3.340351922615800249e-03 3.055790124268521757e-03 -4.278192376926802376e-03 -1.121298689723569664e-03 -5.100072649071989497e-03 -1.662168703140028125e-02 1.833890503305488084e-02 2.881275319631220258e-02 -3.444676313294258840e-03 -5.955442207899126544e-04 -5.982645183494582759e-06 5.948144790938886804e-06 0.000000000000000000e+00 -5.162996268716615824e-09 -1.001361166404581908e-06 4.215345821611168864e-04 -2.951100546781485010e-03 -1.101860311453941102e-02 -7.526398077405077602e-02 -1.900120960927926816e-01 -1.337887018486346169e-01 -7.492516261885322215e-02 -2.673536529062050734e-02 -1.728770846056356877e-02 6.457163910316245092e-02 1.712563995287303131e-01 -2.367394236227991777e-01 -3.391541508250643933e-01 2.888451701765191310e-02 -1.533155903878831439e-02 -3.250298848239083216e-02 -4.722436827130053680e-03 6.205483513573655744e-04 4.512086338082242991e-08 -2.059629121757339991e-04 -6.844161692743587835e-03 7.063723304014546400e-02 4.380529437783251545e-01 8.849083108541314635e-01 6.637814744030604563e-01 3.617000000067543963e-01 -7.438005136977166032e-02 -3.253912974045485018e-02 -9.624102607181826696e-02 -2.363119802679099768e-01 2.512243660010290980e-01 6.057402390638498835e-01 4.451452954403551932e-01 2.954461950348474253e-01 3.918167610522907407e-01 6.722671248585453396e-01 2.961631090152212417e-02 -4.574552242352650927e-03 -7.390574161155950614e-07 2.281135979609182508e-03 -3.502205084764015153e-02 1.253656346902059550e-02 4.901716563519336045e-01 3.279725096944829388e-01 1.880926759035270734e-01 -2.381279265751591601e-01 -7.042325139876731699e-01 -4.481725211424202326e-01 -4.102290381225607296e-01 -1.436963380935137591e-01 7.679229274633808666e-01 1.188541753777437870e+00 1.215006413927177453e+00 1.196309017635170946e-01 6.458166003352356910e-01 1.168524377440272266e+00 2.022222746754449019e-01 -2.995736971968606874e-02 -4.890655108149149614e-06 -1.753942947216796623e-03 -4.555872927252673649e-02 1.622121933164978325e-01 5.047873391949045940e-01 -2.686405597548103662e-03 5.367956795169047668e-01 7.097642340626784119e-01 -9.674346054559330721e-01 -8.071032266553376244e-01 -6.321739675561524052e-01 -7.389004620170109838e-01 -1.220224033974441902e-01 -2.708988821592784868e-01 1.072492213991049104e+00 8.945626422695232560e-02 1.925895149352711833e-01 6.781714025837758397e-01 4.933460479286870537e-02 -5.590522084672655545e-02 2.149801131115537114e-04 -1.211989097339244079e-02 -7.982518567776468454e-02 4.970628701185216824e-01 4.945259430453663452e-01 -1.135007409193653505e-01 -1.581399107001018045e-01 -1.980607098302304969e-01 -1.129404494851760532e+00 -2.845184653671082309e-01 -8.432651994893428649e-01 -1.372635013521204650e+00 -2.913744778394897206e-01 -2.282212038167001356e-01 4.830550800123712962e-01 -6.001860803938717792e-01 1.435285068342014581e-01 1.678417174097250220e+00 1.043194094127427307e-01 -9.875830143305121267e-02 4.863229047610393330e-04 -1.343430642065945348e-02 -1.367286616026600343e-01 -2.644905637806952980e-01 -1.356027134913384558e-01 -1.249773980048434902e-01 -5.680923017775646455e-01 -6.188308001770873590e-01 -6.648189917386850833e-01 -5.429464812432611698e-01 5.491689425034864680e-01 -7.576943689345442268e-01 -4.993990862770941175e-01 -3.965122143284792178e-01 2.669228037676565912e-01 1.584905657406869839e-01 1.833944902868837601e-01 3.610493338367824490e-01 1.801802214930830204e-01 -1.187589605272941357e-01 4.479546233351365189e-04 -1.256230283925410807e-02 3.454963872348603554e-02 -5.027510304970214672e-02 8.546667302211057304e-01 -6.573343822396561509e-02 -2.513675483356650475e-01 -1.215333204674267975e+00 -5.484873474665716842e-01 -5.006588053020700757e-01 -3.656369282895086809e-02 -3.001346551754089931e-01 -1.819757592376611832e+00 -9.196495813890027682e-01 -6.033526087119003289e-01 -2.763007397497364570e-01 3.799292593215131686e-01 -2.133843127386193111e-02 4.147072641877841415e-01 -1.043643600933790438e-01 1.663270828843514985e-03 -1.385568223608746145e-02 1.875700519029896707e-01 -1.195375050717282506e-01 3.835987764697311175e-01 -1.924607354773314460e-01 -5.161026224061938672e-01 -1.197267779689208167e+00 1.933289827517730430e-01 1.499982934062089324e-01 3.502446189785391462e-01 3.776011966409454357e-01 -1.328010018230896261e+00 -4.689936349161348272e-01 -5.665982076522985134e-01 -7.569388387118994310e-02 2.046497450065958568e-01 1.757920565617107633e-01 9.701424462203243892e-02 -2.867775511682086886e-01 2.838630105487995482e-03 -4.943575943640012710e-02 6.009378947970857032e-01 4.843390902902266482e-01 3.897038726481225623e-01 1.389514260372295140e-01 5.292082339923773748e-01 -6.855379673383096284e-01 3.090531651084498788e-01 3.539810877685654611e-01 1.663849453454896155e-01 1.429162067116225010e-01 -1.100464252091698514e+00 -5.525155517770746760e-01 -1.764792067172216844e-02 -1.596731469875281306e-01 -1.237065051177590469e-01 4.262435650241689356e-01 4.030944905426206426e-01 -4.959898258107228175e-01 1.995179123474541058e-03 -3.604156515646550485e-02 1.328305807664542995e-02 -2.775985184892622026e-01 -3.614573751841084204e-01 6.434466035665331596e-01 -4.583014608375758914e-01 1.675343917181410514e-01 1.201023158505818644e+00 2.812725586617628171e-01 9.509454597388218577e-02 -1.540553918217910656e-01 -1.376437586396187296e+00 -9.676974640482196577e-01 5.702402206373499011e-02 1.192719396446121766e-01 1.609102454029885665e-01 -6.038533875743522933e-02 -3.969560160653025638e-01 -3.652371344994120861e-01 2.978301550611225923e-03 -6.069641990142426308e-02 1.945055054347773760e-01 6.759027715785513868e-01 3.471198002034279195e-01 -2.107065711290517784e-01 7.630127163093598508e-01 1.240000924559730322e+00 -3.249729678049023129e-01 6.319068020294095200e-01 2.078733624324567986e-01 1.112552598126073135e-02 5.884110844161245524e-01 4.951697005508405858e-01 2.197847431263266760e-01 3.188003962049294482e-01 9.754478219814009810e-02 -1.658542033896998058e-01 -7.867099031617623695e-01 -2.153483276366578159e-01 3.041296484853970965e-03 -3.608945863811875709e-02 7.323830127261272693e-01 -3.734490711000285623e-01 -2.119114374791587763e-01 4.321089394505895354e-01 -4.309237147675033103e-02 3.326996213143725289e-01 6.168253634876993408e-01 9.147441356141108315e-01 -4.853026630824323062e-01 -1.701582563115869307e-01 9.935016098050721001e-02 -1.154082585483235703e-02 -3.203132465386305805e-01 5.912792250694559604e-01 2.182499068520699081e-01 -4.714604168572656961e-01 -7.778122680331479577e-01 -9.403054771778511511e-02 1.092167833824300629e-03 -2.640934965878291227e-02 6.685051648112732003e-01 -1.652372772293792327e-02 -1.936156610789924737e-01 6.073671669037463694e-01 -2.910426932011647705e-01 2.529861011790170977e-01 5.987328956934152568e-01 -5.161636859963093515e-01 -2.100409064347741606e-01 1.033404143622197596e-01 1.269794602936632932e+00 4.538427469342047327e-01 2.617067971627757422e-02 1.172761825810987070e-02 8.039129664801947239e-02 3.419769728344210780e-01 1.917215350831343867e-01 7.821811162736792833e-02 -2.357907609725169457e-03 -1.132317756359429127e-02 2.767190514973307813e-01 -8.181659550166562322e-01 -3.298623991590985405e-01 2.433804259972418282e-01 6.521339473798700714e-01 2.344033417868266189e-01 -1.934285562384280843e-01 -3.159823123536563694e-01 2.292999343640795828e-01 -1.676541174387884414e-01 7.436694359725599945e-02 -1.595891092315962490e-01 1.860560219012516447e-01 3.541698995686076157e-01 2.539573213476725155e-01 -3.090081769051654659e-01 3.033498974973198314e-01 1.999784255627270746e-01 -7.546638545621494861e-04 1.225897372229124878e-02 -5.749398667996082762e-02 -8.518684340142096412e-01 -5.760881200784782052e-01 -7.908255141117812581e-01 5.699625545267661408e-01 2.561953308544229757e-01 -6.006695082149556830e-01 -8.145105124574414379e-01 -1.901859964770358791e-01 1.614616954797346016e-01 7.664614420067175082e-01 4.774497990502528655e-01 7.594791541159053860e-01 6.268465699314275108e-01 -3.444029402368011805e-01 5.983019845459289221e-02 3.258468529068680453e-01 1.525868890512948294e-02 4.064487406119735453e-05 8.677165432957861108e-03 -9.112834067550040773e-02 -3.480827714971595488e-01 -2.243026098015498682e-01 -2.683475684735558420e-01 -2.749066327236648899e-01 2.122166342770734904e-01 -2.116810229539352328e-01 -7.806739999479940240e-01 1.762680221380423864e-02 6.675438840680356645e-01 7.273081255296454106e-02 -8.849468766534424047e-01 -6.879189853186216119e-01 -3.580310169929694641e-01 -2.862273489285267480e-01 1.003291278081588356e-01 1.223942603904912135e-01 -1.572365583839833644e-02 2.226551244895029807e-06 6.110929635379304696e-04 1.783300775226548136e-03 -5.599242156299730211e-02 -6.021943801294176168e-01 -1.150183255350808453e+00 -1.170409852072731072e+00 -5.017494078746742581e-01 -1.650740875565429033e-01 -1.635145114586899207e-01 5.363043784419615351e-02 3.618314901947746187e-01 -2.281464917099369771e-01 -4.739809432673117162e-01 -3.683568171461839569e-01 -4.026769315736564159e-01 -5.107511365515549073e-02 -5.887265773212684017e-02 -1.402248131709953570e-02 1.234279982473524646e-03 -5.348553410669711101e-08 -3.721058725160130825e-05 1.757408752547333494e-03 -3.586949706038504437e-03 -1.155447301857667891e-01 -3.316330048455538582e-01 -2.583715050659092238e-01 -1.150075484625806693e-01 -2.786169835001792508e-02 1.417256837560589532e-02 8.706509697632064393e-03 -2.822132314848696186e-02 -7.206357593457089761e-02 -3.156195534414136389e-02 -6.011680077663068833e-02 -2.829129571360229287e-02 2.837510481207717455e-03 2.143768512169556221e-03 -2.547505084855101256e-05 1.774915716577666545e-05 0.000000000000000000e+00 -3.936272853492375595e-06 3.483414572881355460e-06 2.287273301051821357e-05 5.630012793473036618e-03 2.628845898733507547e-02 1.684151751399936767e-02 8.261595669953512855e-03 2.837942828104620448e-03 -1.428712920985612594e-03 1.011259242558950125e-02 1.825724284995676461e-02 -7.032274614078604406e-04 -2.165271401088562225e-02 -3.520764521187267834e-04 -3.975513934651860211e-03 5.383755785589495633e-04 -2.850378412359888094e-05 -2.148820023543380872e-07 0.000000000000000000e+00
-2.014564884737655603e+00 0.000000000000000000e+00 0.000000000000000000e+00 -3.960914360043515527e-06 3.729656005823231342e-06 6.475482070390848385e-04 -1.142239009187569080e-04 1.032610779100235927e-04 2.473109421687351775e-02 2.107066800221222072e-02 4.040250264987575030e-02 1.229134815171275229e-02 -2.073468200380340545e-03 2.468209175708219096e-03 1.409397658755740489e-02 5.368912510740295532e-03 -8.958472622918167824e-05 1.251328352462250965e-04 2.027662151321645882e-05 -2.965417142140404336e-06 0.000000000000000000e+00 -9.981407120287742965e-08 4.476976357505822848e-05 -2.883397384411971113e-05 -3.834570864232270636e-03 -1.924040702910418538e-02 -1.677870618889647355e-03 -5.644865983763912992e-02 -3.374536635739108781e-01 -1.138850378951999781e-01 -5.075771397607339169e-03 4.920587491391435059e-02 2.924549166668023725e-02 1.030761929337085589e-02 -1.311052245037969133e-01 -5.450753055803652519e-02 4.202586249856012091e-03 1.370719479403620595e-04 8.102133011137492265e-04 3.407214485324805723e-04 1.111641495306585207e-04 -8.368197786098676796e-06 -5.649311701291002226e-04 5.179868086568023382e-03 4.233627425544859296e-02 1.023367220501604086e-01 3.116121932708259060e-03 -7.344084976276651910e-02 -7.906425008144971622e-01 -7.493219091418447109e-01 -1.686480497371611598e-01 1.371373614278444675e-01 -4.371731899950732636e-01 -7.265854921886859552e-01 -5.997235005871208724e-01 -1.372852568549083885e-01 -1.116456564982643181e-02 -2.425625652611436422e-02 -2.060165117171778096e-02 2.530623967973614531e-03 -6.984072172402091487e-05 5.825355885221124508e-05 1.438087973262193334e-04 -3.410013743709867928e-02 5.431221220596765820e-02 4.520074083890592287e-01 1.020488788442331513e-01 4.487737788663154204e-01 -1.645079112427944024e-01 -4.958179628137326933e-02 4.144765614239211970e-01 4.233012611660832425e-01 -3.168875195034459025e-01 -1.078441401088621410e+00 -7.316442053992016081e-01 -4.278855625625576642e-01 -3.404537261315517260e-01 -1.491328495148654676e-01 -9.610730574344833466e-02 -3.289836334690764141e-02 -9.494822590337981608e-03 6.733703036217841397e-04 1.317886006854189626e-03 -1.242300695228524682e-01 -3.777487278506815871e-01 -5.706617485385930000e-03 -2.553554291383390851e-01 -9.861333236906527633e-02 -5.543475197435383528e-01 -5.866317937453795484e-01 -7.151857614209142233e-02 1.042102903202983599e+00 -4.271352937714902043e-02 -4.765388770634605420e-01 8.071428522804224848e-01 -1.423012392999850328e-01 -1.165952411605410077e+00 -5.822601485538155819e-01 1.979192589409177194e-01 -4.107738227221306992e-01 -8.694711574104896368e-02 -1.640856543163244415e-04 -2.643848052638086022e-03 -5.054998695474603038e-02 -3.786867664908992737e-01 -1.258207306944006121e-01 -2.687857678630312663e-01 2.336733054647940899e-01 -2.451428397454304686e-01 9.585593859634450320e-02 5.604717605376335898e-01 7.776077971957571222e-01 5.045516515542705083e-01 8.543724232146995279e-01 -8.886403858315035098e-01 -8.222045418481016554e-01 -1.080196925959517884e+00 -1.981721655649368030e-01 -3.810683262579187547e-01 -8.911166256649201145e-01 -2.045091874558785383e-01 7.640785054132651251e-04 -7.077537258855890780e-03 -1.852362778468926441e-01 -1.824109434025543985e-01 2.769601525575779988e-01 5.047414754757093697e-02 -7.092977904835056080e-01 -4.459684895364168233e-01 4.543230853772994848e-01 7.306916652425797798e-01 2.474618346366942723e-01 6.446628104747408328e-01 1.080531552577738807e+00 -5.903174496427590068e-01 -6.672655659029269604e-01 -7.151943442644204119e-01 1.138649135947321089e-01 1.569846668966891068e-01 -5.292992579964287403e-01 -1.155967700088187250e-01 2.754717777439763912e-05 -3.676943155217931025e-01 -9.448026815718991722e-01 1.389768022302747229e-02 -2.678232883797459054e-04 -2.262383773756431737e-01 -1.171119923131306445e-01 -1.333427151388803800e-01 2.178790747331100786e-01 1.208480980336801291e+00 -3.137734828762200195e-02 2.119046501704930918e-01 -6.011280182843427022e-01 -6.935881610738362513e-01 -8.521429504889356243e-01 -4.731392180284200166e-01 -3.620534298339777579e-01 -4.289318535490663220e-01 -1.143061168591738008e+00 -7.848851480990988450e-02 -2.909413849719871825e-02 -4.611247810775015443e-01 -8.462773192744285078e-01 -2.614687444391419757e-01 -4.048377631052603176e-01 -6.741971149479728531e-01 -5.751112991299577315e-01 -1.064165238408333602e-01 5.345607985617426561e-01 1.394239659776231210e+00 1.337673268523189130e+00 7.423615600107815737e-01 -2.102163266215667514e-01 -3.580898438117929294e-01 -6.150540997442068836e-01 -1.038368691267925303e+00 -2.908293194624581579e-01 -3.568889796868898179e-01 -1.306996447817027951e+00 -6.558218069165337727e-02 -5.133580146581578907e-02 -5.005004178970672291e-01 -1.525156333571429990e+00 -8.414905970379784605e-01 -5.722220804039027664e-01 -1.158468818820692192e+00 -5.608371797009360504e-01 -5.120482767857400530e-01 -3.248765349184645421e-03 -2.249816096246389230e-01 -2.326878164871775886e-02 -9.469460729071323135e-03 7.884968577795131717e-01 1.160524571167123487e+00 -7.175171489248841628e-01 -5.536282787678823425e-01 -2.010846033851664827e-01 -4.242647058694518081e-01 -1.396877203505297205e+00 -2.163688679231814405e-01 -4.277023678219810804e-02 -7.686469894440137729e-01 -1.716394533027085778e+00 -3.098569892477250898e-01 -6.546366496646336408e-01 -1.367906286935105298e+00 -1.180932836733296076e+00 -1.719843233394317883e+00 -7.085647049883916360e-01 -4.867560769020683464e-01 -4.415556965305844073e-01 3.569000670046749146e-01 2.549034045550869210e-01 5.121149145441040718e-01 5.895003510259735208e-02 -3.795789621752623244e-01 -2.234740329124667579e-01 -1.367518754320953996e-02 -6.748285641282354419e-01 -5.161508899925887350e-01 -1.391082123819964156e-01 -5.530122859448680650e-01 -1.177444752165911046e+00 1.675602596967817881e-01 -2.238073436085123713e-01 -1.527473076898846482e+00 2.113576028742408519e-01 -5.582278868159321755e-02 7.859891756792543038e-01 1.086501620949154902e-02 4.632928488457714877e-01 1.258929081860140187e+00 7.069712706927961943e-01 4.849011971568907842e-01 3.950843151023465949e-01 -7.730866107410550025e-01 -5.989053535904393516e-02 -6.038742411692735734e-01 -8.205020190269334268e-01 -2.738239132625531758e-01 -3.498166832462229481e-02 -6.897280908745117012e-01 -1.712967559933628703e+00 1.233006266374510329e-01 -2.430225958844770273e-01 -7.337970962891995352e-01 -4.342352445458493859e-01 -1.011906013938626697e-01 6.201750706299698906e-02 8.475665193111484585e-01 1.905365717868088837e-01 1.844964100295847509e-01 3.899806276554907414e-01 -7.890967567325993803e-01 -1.037009939127468416e-01 2.400396607262226256e-01 8.878282358981598454e-01 -3.628894813483570791e-01 -1.501295938175653655e+00 -2.195453226046790718e-01 -3.229325464536363707e-03 -3.373879560230923502e-01 -8.620238262410434560e-01 -6.304248631015756388e-01 -5.620777246318104936e-01 2.040110144669140257e-01 -4.117579655993905963e-01 -1.512521223820401939e-01 -1.710084693037743075e-01 4.423315386179852982e-01 6.387934295069462864e-01 5.990517882906849501e-01 3.428156301797383870e-02 -3.570638372340951827e-01 -6.824292480153779650e-01 4.578531341779220470e-02 4.656602777000490856e-01 -6.284598092670898861e-01 -7.737254875511154761e-01 -6.326127064914553733e-02 1.528115283298553916e-02 -2.107779254406655367e-01 -2.545249464276702622e-01 5.959179641046952192e-01 4.493413415155446122e-01 -2.328843045776569087e-01 -3.074764771723001444e-01 -2.352527888252971544e-01 -7.148082448603532146e-01 4.784051884832807300e-01 1.291904725370258099e-02 1.447004437763664553e-01 7.968081592155761006e-02 2.366989849596839446e-01 -2.162130704420970606e-01 1.926426984936297215e-01 5.529223367694829916e-02 -6.785761860394208256e-01 -4.682036451851651071e-01 -6.489923158639676615e-02 1.543202161786124370e-02 -2.107607138673036340e-01 -2.652215872605602834e-02 5.212459948338514781e-01 3.480645983049457937e-01 7.249625544407738431e-01 -3.218734048932088698e-01 1.896017446304484322e-01 1.317182471437829405e-01 7.118522576193188345e-02 7.196102565003921481e-02 -3.081893098675049236e-01 -8.947447070134370017e-01 -9.090544443759276394e-01 -1.093612247440060165e-01 4.544602196865994981e-01 3.320334129058008510e-01 -5.920006567531456154e-01 -7.221724377382583437e-01 -2.747527706072039333e-01 3.192468368069125480e-03 -4.427117437064765487e-02 1.648673010021354385e-02 2.130074723933317316e-01 8.708230199861529686e-01 1.967306339711059338e-01 -7.170070864932345245e-01 8.510259715907096678e-02 -4.563839240393878782e-01 -5.724968016257019343e-01 2.309537531673333532e-02 4.028505767972552221e-01 3.075777158167416481e-01 -1.052624702305184901e+00 -4.264506358413009957e-01 3.539688000545940239e-01 3.538573870939005772e-01 -6.095337388747940760e-02 1.579433671740961345e-02 -9.729869186837475370e-02 -4.066483263522337709e-04 7.107394668583368741e-03 -7.616633172087584891e-03 -1.454634735724269490e-01 -1.929986420591037755e-01 -1.082385920680931264e-02 -8.189979905253662595e-01 -3.507765854481910139e-01 -2.993706339151347429e-01 -3.450136229866556659e-01 -9.608046431001406873e-01 -6.157973746753461208e-01 -2.376782544000161437e-02 -5.794736014022994208e-01 -3.560442257804669608e-01 -1.438871499783212216e-01 1.533328011892841347e-01 1.385514646926263582e-01 1.092839168513091430e-01 -3.348610027690953825e-03 -4.548530666342938773e-07 4.208262355526506938e-04 -9.434309698616172172e-04 -3.530098667269881973e-02 -1.056776025363592858e-01 3.845172514879744985e-01 2.340819449223656701e-01 5.173501585079329224e-02 -3.546505260816603111e-01 -4.341952691254533092e-01 -2.985128319279244935e-01 -7.177606333944972494e-01 -5.539119922932036477e-01 -8.543376837935351409e-02 -1.271948691223687145e-02 2.703209274965252817e-02 1.244163882639629480e-02 -6.158419200895889380e-03 -5.200381849485440772e-03 8.895438666878471585e-04 0.000000000000000000e+00 -4.080572603154318078e-05 1.040688378151027101e-03 1.274887037997951295e-03 -1.114725042935434535e-01 -1.014232794402964849e-01 -1.189838180232964532e-01 -1.632760534514716283e-02 -4.534986981408674345e-02 -6.345939423877136609e-02 -3.653750120980379934e-02 -1.024555627655298756e-01 -1.330984613222425117e-01 -7.228920881980840582e-03 3.425002082827230659e-03 -2.631100374689659439e-03 -1.907179308035870198e-03 1.640528583424194465e-04 3.604016649020382864e-06 0.000000000000000000e+00
1.783929964426007597e-01 0.000000000000000000e+00 0.000000000000000000e+00 -3.144588515798163258e-07 6.939622848344277530e-05 -8.176936080401849124e-04 -7.054594980423195723e-03 -1.596756020191790904e-03 -9.487479232462783449e-03 -5.653793851353391270e-03 -5.046475395652724478e-04 8.957916342612001228e-05 1.464249313807204330e-03 6.959048380428154053e-03 -2.792459292207103913e-02 -4.445028584457761528e-02 6.070709705383431874e-04 6.568545660532077888e-04 -1.605167832435798336e-06 -3.998110437199734130e-06 0.000000000000000000e+00 -1.749647445727822109e-07 -8.860103916549344388e-06 -4.401940383162539043e-04 4.854944587141056186e-03 1.275047773429591365e-02 1.306353234078666374e-02 1.635894127857760987e-03 -4.322677280655657511e-02 -2.668434665896796815e-02 -1.742150691503295892e-02 3.390773387790571494e-03 -1.296665992317013252e-02 -7.531703280697978065e-02 3.082728056117325921e-01 4.956190206058176395e-01 -4.991349884325048045e-03 -8.621560487141020565e-03 -3.773013893379251627e-03 1.620279083586706156e-04 2.006579938639387743e-06 1.566009303828868423e-06 3.151644669533337544e-07 6.860948645351636239e-03 -5.428188134133988402e-02 -2.305647828188772952e-01 -4.426937908487212914e-01 -5.721468397971273268e-01 -1.749592826746954322e-01 -7.365886442267827183e-02 1.825421255746125307e-02 1.025930397873344932e-03 -7.161548403940690144e-02 -2.033563820519862786e-01 4.876949692556550309e-01 7.961292508923321076e-01 -3.599498090657825555e-01 -1.546943974667190635e-01 1.283214081597488197e-02 4.391706191464559588e-04 1.562870134251145252e-04 5.465025175409415633e-06 8.109079932719956115e-04 2.300280289655944402e-02 -2.895391244223125549e-01 -6.991848069965141965e-01 -8.999575149762142345e-01 -5.828712747843250996e-01 -2.412171281128789035e-01 -1.215729725232563840e-01 -3.458631416818016002e-01 -4.491530100774157597e-01 -1.110060141294210850e-01 2.873695694423699168e-02 -9.355314439581882691e-02 -1.797551658228828397e-01 3.459036361502013102e-02 -4.817829345737015961e-02 3.045406386576033353e-01 -5.052472390011248683e-03 -2.312099206636834998e-03 -1.558357422512109963e-05 4.160812359652075326e-03 2.938538055434531185e-02 -7.056085347144764874e-01 -1.339085062660684278e+00 -6.513431840713197474e-01 6.522865393338667106e-02 3.914441681249038879e-02 3.924435745809951026e-01 2.423636970957540326e-01 -5.199762926691837706e-01 -9.675596828482087020e-01 5.247888479464409839e-01 6.973832297747938336e-01 -6.699104930628312360e-01 1.487434811385074662e-01 6.095683179680015662e-02 3.423185239626162779e-02 -5.621619550711852431e-03 9.182201079840510149e-03 -7.948683788833372545e-05 8.296587692650172693e-03 -4.088835094998686387e-02 -6.541486150205935157e-01 -6.481924219538911514e-01 -7.350422927117338245e-01 -6.295941923383716610e-01 2.011325353461207166e-01 7.224829562720970211e-01 7.543254520912606731e-01 -5.692446845730740890e-01 -1.978971174400619093e+00 1.422784894533016542e-01 9.208681889254988207e-01 6.236961371266426246e-01 3.163531947304545899e-01 3.045275171444609130e-01 -6.379329040491630298e-01 -3.728787293647183310e-01 -2.080108829180431565e-03 2.829805060433645842e-03 -2.479798212960664452e-02 -2.040892735742819986e-01 -3.807785754680002577e-01 5.330560351340920544e-01 5.005928091910580857e-01 6.948603751056966482e-01 4.272000692027727031e-01 8.960079180488315920e-02 1.385591147739009821e-01 2.284068810244128667e-01 5.183584153598032492e-03 -1.846912798804192235e+00 -8.526450993231693420e-01 1.009556737419862182e+00 1.074375717401218899e-01 -5.952669771269322035e-02 1.643947287227920107e-01 -3.350756798741968412e-01 -9.578272231806038428e-02 3.167848924033015053e-03 -4.142217858885995085e-02 -3.959666844687773635e-01 -7.778287948600308699e-01 -2.276036213604189784e-01 -7.719119724109398117e-02 -5.445145179977721739e-01 8.977169589299787145e-01 4.657628070897965045e-01 1.241287402135789891e-01 6.093660980922183112e-01 8.038746107364189708e-01 -1.080330271490589800e+00 -6.007138547693818831e-01 7.278938395340353029e-01 -6.756221044941235210e-02 9.798763836036486832e-03 2.389278551014714647e-01 -3.849290367742318475e-01 -1.004808458579941610e-01 2.826433213840998885e-03 -9.060597657149901951e-02 -3.005752272485073123e-02 -2.535870256019980284e-01 3.110903334160416978e-01 5.139475170854906905e-01 9.192479095378286447e-01 6.259590866965656364e-01 6.302055819939073045e-01 8.572851852852788612e-01 1.908581081422147108e-01 -1.123337310570335090e-01 -8.481007212731769274e-01 -2.412236533949436434e-01 -3.693528893613391012e-02 5.898583730983070206e-01 6.084661087900844478e-01 1.604760055059138157e-01 -3.394030816750494006e-01 -1.041299537786348622e-01 1.493854861383267334e-02 -2.331033134575923038e-01 1.940700798652976802e-02 -5.569689434346718482e-01 -3.898660799218532924e-01 1.160644010387025110e-01 -8.818624617974154534e-01 7.067841974837648644e-01 2.577071257134562199e-01 7.415825994076185035e-01 -8.548081530643439341e-02 -1.975176294049462988e-01 -1.317686234412914770e+00 -1.599282158331749235e-02 -1.538169635707669312e-02 9.436842178267106779e-03 -2.286609024733196882e-01 -1.435219922734173315e-01 8.750391238368697422e-02 -1.720148575820975301e-01 2.712610422326456466e-02 -4.172151498105321488e-01 -5.838584670133452059e-01 -3.005416408199989009e-01 -1.259366805841684311e-02 -6.158597609189758737e-02 -4.646275315165469544e-01 2.637182438651612393e-01 -6.232333758295141024e-01 -1.254504471564031887e-01 -6.399156733452832091e-01 1.709417240219600689e-02 -8.688289920997502858e-01 5.553728221711506929e-01 -7.892715210930451031e-01 6.420181472784389221e-02 3.679012001445918778e-01 4.270588567456642948e-01 -2.655014851079992022e-01 -1.817455484678206779e-01 2.450581574507070676e-02 -3.504667060271319801e-01 -8.195744182287415525e-01 -6.116521739834568372e-01 -1.981738167464571765e-01 -4.873399775034286674e-01 -5.902217675176443246e-01 -8.785132925625327438e-01 1.915898808091241745e-01 -1.230253080888977557e+00 -1.698161142505341947e-01 -1.168813729224455589e+00 3.308887501107229401e-01 -2.546136878146685323e-01 -7.301630397480791679e-01 -8.691295955211173971e-03 -1.128179641200177663e-01 -9.207466068232335321e-02 -2.638500426837879775e-01 -1.019843622491027058e-01 2.655400981998526366e-02 -2.976417913090855238e-01 -1.105055999866265903e+00 4.685360271726367043e-01 -2.688715446753890403e-01 -4.200455179294839692e-01 1.795712197445057390e-01 -1.615781492537985198e+00 -4.072675379121671324e-01 -5.797868498496121514e-01 -2.305486963559855995e-01 -7.154672228071375928e-01 5.932717490231096402e-01 -1.552295948597323116e-01 4.085928062319167386e-01 -3.473518660745952280e-01 -1.251680228902661840e-01 -2.442707234788943360e-01 -1.818985188062312575e-01 -1.237814002591961643e-01 1.492944522149711184e-02 -1.674742760362041005e-01 -8.285075852802183949e-01 -1.881630006625927831e-01 1.514715874684844088e-01 -3.959226867219865498e-01 1.725029260448141810e-01 -1.041170479084318812e+00 -1.137952086598901236e+00 -2.202977595206276618e-01 -6.947599054927330875e-02 7.535755155750733375e-03 -6.646106017018987844e-01 4.657898604744508120e-01 -4.195563337054769582e-01 2.845746583516315514e-02 -2.460498040213540336e-02 -3.256539999016273557e-01 -4.801715480583581552e-01 -1.913153468920619216e-01 1.475218929385545101e-02 -2.168353446237719917e-01 -1.905952310914472703e-01 1.177771042535875057e-01 2.004556224904768535e-01 7.385981387189042291e-01 4.175555357399877293e-02 -1.560851900834855810e+00 -1.994681096070367810e+00 5.014673933475420897e-01 -3.860071606296595070e-01 2.950954867344487975e-01 -2.283116540752496426e-01 1.353321586812920030e-01 2.775384531247164221e-01 3.479703717298452958e-01 -1.077512823794514879e-01 -4.189125483187036703e-02 -5.948448166157368489e-01 -1.384150563905360287e-01 1.981246950719401864e-02 -2.430089380300962942e-01 -1.909625050710863081e-01 6.056279277186427112e-01 2.213406836452039006e-01 2.998980244954286278e-01 8.040634320740843721e-01 -8.237270668864332679e-01 -2.521847118140639665e+00 -9.195459330066664549e-02 -3.268905509618882932e-01 -1.426170265381895563e-01 3.649752960361120069e-01 1.665701967552801754e-01 -2.522074624977702628e-01 2.343878863540230229e-01 3.222555066210626151e-01 -3.360886132600385268e-01 -7.128271369039631544e-01 -4.987205533849767281e-01 3.714759817908233966e-03 -3.642194042144066002e-02 -8.160475136043129907e-02 1.943650741025807205e-01 2.892713663961658521e-01 5.129431885936168722e-01 3.529707771997845911e-01 -6.499125823274947145e-01 -3.145244190860329692e+00 -2.566411773564343246e+00 -8.319341602002818803e-01 -5.169568304257172731e-01 -1.375346994327720507e-01 1.553735061713782117e-01 8.488136800082024536e-01 1.089543254886824020e+00 4.661365059117080212e-01 -6.399020539659813767e-02 -8.658476994612113176e-02 -1.194622780959219838e-01 -4.746231871088855405e-04 3.857954139579725843e-04 1.392952286003657503e-01 2.821252933352951797e-01 6.550330863293724049e-01 1.451364591389213254e+00 2.460382303820621619e+00 1.175947116087022737e+00 -1.133285664978232798e+00 -1.499188840961920510e+00 8.547608951655462362e-02 7.723632496035069961e-01 6.809225209751640362e-01 4.365445455087139104e-01 4.601126804966044204e-01 3.538434833980948491e-01 2.946362900099836271e-02 -4.167705082805747696e-02 -1.316376506569641447e-03 1.601870047965159652e-02 -9.530650881675829470e-07 -5.673481860678759349e-03 8.646415555823787347e-03 5.255700695025766755e-01 8.346513013301469774e-01 5.768683833809215011e-01 1.733176873058950296e+00 2.439240541695281372e+00 8.508212939047503642e-01 -3.240779620424815571e-02 -2.247910221878992587e-01 -2.279537712310996111e-01 -1.261594447812806608e-01 -1.805011385147086908e-02 -3.418035356517090118e-01 -2.263762132287331363e-01 -3.366054837325466870e-02 6.371424259578441739e-03 7.850509749956638764e-04 -4.639871638154739096e-05 0.000000000000000000e+00 4.837488806805953891e-04 -6.358224676123348275e-03 3.501846728512532283e-03 3.238642970252392228e-02 -1.916749051347544364e-01 1.587097976321336264e-03 1.692838020804326160e-01 9.469339469458391834e-02 -6.348482236094179706e-03 -1.415074306736968136e-02 -9.022227148706120359e-02 -1.139746817627291520e-01 -1.986951837358335443e-02 -5.668868037144449840e-02 -7.847165068157859261e-03 3.818136879149842088e-03 -3.155635580488844877e-04 -9.201624786564920830e-07 0.000000000000000000e+00
-3.144432304707919901e+00 0.000000000000000000e+00 0.000000000000000000e+00 -5.692314930667363348e-07 1.041371722485599004e-05 -8.725270894756643482e-05 4.360646462992806045e-05 -7.009283863804753253e-04 -3.632207564454783405e-04 4.524797755204119562e-05 -2.202665993020224181e-04 -8.665866310288211562e-05 3.783140624513740114e-05 3.703455914952681491e-05 1.665344085462518707e-04 2.039289816897759408e-04 2.747779473782875696e-05 -1.347177732116059080e-06 5.702587185742297844e-09 -9.203801592512265654e-09 0.000000000000000000e+00 1.358712036753685200e-07 -2.088277904287980908e-06 -7.983041031608374561e-06 -1.266004469976488164e-04 4.366949838106775998e-03 6.291291252684432476e-03 2.195645557423802404e-03 3.016687776219590875e-03 6.618985847191360440e-03 5.000893783930549993e-03 6.814405226659324064e-03 3.146103252584461080e-03 9.147949376307982008e-03 4.921670920602053308e-03 1.426436067835323623e-03 9.231309450029364511e-04 3.336475479296715368e-04 9.820594848572982628e-06 1.052287116447854279e-05 6.760370058815157526e-06 1.014867018469299256e-06 3.634482990830881910e-05 -9.572713285222048726e-04 4.940270580073568250e-03 -3.695846772183850742e-02 -2.000922997691218785e-01 -1.173326961667451318e-01 -1.642391503835349265e-01 -2.793323160345155820e-01 -2.475075695316997226e-01 -1.504514801246321642e-01 -6.830850382799083520e-02 -8.302964457839205614e-02 -5.881610885229990315e-02 -3.442826512791554577e-02 5.811006185171677108e-03 1.574315280495620613e-03 -1.216184735987287021e-04 -1.118789434205187645e-04 -8.672397102797265909e-05 -4.205531393935976812e-05 -2.800617319309964032e-04 1.268705794365673420e-02 -2.394327295881370360e-02 -3.224892049151672491e-01 -2.554247215522760239e-01 -1.104056208412129425e-01 -2.634900517953182586e-01 -9.844173691814989136e-02 4.327533857491086544e-01 2.902030391639469631e-01 7.158514064561123658e-02 -3.534257601208186106e-01 -2.631752792067788005e-01 -1.700271105295356189e-01 -1.996566123161172823e-01 -3.634273211098265621e-02 7.400339652361873424e-03 -4.837724198862963483e-04 -2.958121855262306151e-04 -1.654767026374947495e-03 -7.652365071706424167e-03 -4.437527231512235215e-02 -4.022702919410321015e-02 -1.475976628535851931e-01 -9.683869705492571811e-02 -1.644924061884878441e-01 -5.572904347945396505e-03 5.678757504151222824e-01 3.673110129028185900e-01 4.743926727520185183e-01 2.598886239442872448e-01 -3.156943097212673299e-01 -8.136357982105225650e-01 -5.142373965515603107e-01 -7.004530120486069933e-01 -4.018826561697783628e-01 -1.389431574738989317e-01 4.437977458094567338e-04 1.569945750992126450e-04 1.390716670635259132e-02 6.219000294545902474e-02 1.267752769550705705e-01 -1.068585857002841422e-01 -5.940861595398312378e-01 -1.205363997145881383e+00 -6.253531108986082332e-01 -6.260421085724968138e-02 -3.269230569436412104e-01 5.784646955825243492e-02 6.604542135435913508e-01 -9.464370990599545452e-01 3.065686237196320607e-01 -4.349379414720962456e-01 -1.106062666279321816e+00 3.111849481562974362e-01 -4.191994679623744502e-01 -3.768682122465354389e-01 5.972785799160772700e-03 -1.870988289676270083e-04 7.520158924975629822e-02 5.558655802392956646e-01 4.719847550017239879e-01 -2.231961548623593028e-01 -2.892427964483300085e-01 -5.525896623477388747e-01 -1.914324944492218628e-01 4.294379017597656500e-01 6.929068793044663721e-01 4.020188701976061263e-01 4.979171193642992210e-01 3.923632972700406008e-01 1.115678097466134888e+00 8.002861789352597732e-01 5.759477960573016614e-02 7.790903960001233086e-01 -1.922151052604628985e-01 -5.416343479332536015e-01 -3.525206510101558128e-03 -4.521754959114784671e-04 6.369696936814334132e-02 4.317853362990062283e-01 1.949189423459661841e-01 -3.996305099297025459e-02 -1.778063854503722507e-01 -4.349937668023678428e-01 -6.973239060691628355e-01 -5.403285186720881844e-02 -8.911088563497134019e-02 2.174701971099484987e-01 4.824338615385094231e-01 1.247085408388279720e-01 4.866097501147595428e-01 9.650211924053035961e-01 4.183879667599060270e-01 3.965127239065328602e-01 -2.943117693704686566e-01 -8.475331433835937567e-01 1.162519398542847214e-02 2.285538698228881333e-04 1.496734318828643606e-02 4.423742793487153019e-02 -3.208380605182517553e-01 -9.478650614603322255e-01 -2.058262821455862646e-01 -2.749245713422101001e-01 -4.474436190912537414e-01 -5.666158484729041378e-01 7.199563981372171517e-02 4.735749126808526666e-01 3.643915807327033352e-01 3.935358638009638366e-01 1.176405632658664713e+00 9.695367592794181810e-01 7.241577859526535654e-01 4.306543022800997655e-01 -7.358466078965610890e-01 -8.985389700240132838e-01 1.488370688287621313e-02 -3.193435856179549894e-04 8.818328821184205982e-03 1.950830117921646678e-01 1.095781778004358969e-01 -1.074073441351545588e+00 -1.937297635285136765e-01 -8.580501580541827211e-01 -1.433844760735998869e-01 -4.291959682839588397e-02 6.530765285768999062e-01 -9.848317893415173274e-02 -1.557890897128640095e-01 -6.348441445746029199e-01 9.976034513410704518e-02 5.344578259065050352e-01 6.552288496538772877e-01 9.347347745964768029e-01 -2.015608203656378827e-01 -1.157619605605843871e+00 -9.915468448013864400e-02 4.610242966651663735e-03 8.013808769773604970e-03 3.950921561077280764e-01 6.199730814254151845e-01 -6.243937113992639176e-01 -2.473441192449403192e-01 -1.380123187668734763e-01 -4.470239446074779077e-01 -6.308459982025202972e-01 -2.924110638351554714e-01 -2.097520834354063834e-01 1.154247466310402315e+00 7.586642142381190557e-02 -7.543370905470984933e-02 3.528787707311696331e-01 4.583341652634413954e-01 3.454109383904581665e-01 -1.705690674897857584e-01 -1.366576839408077948e+00 -2.267731631206670040e-01 -4.212679201349694286e-03 -1.858046651196718774e-02 9.879076374227155344e-02 4.805424406744699395e-01 -4.913368527674661368e-01 -5.249581120490409702e-01 -4.582333351515932574e-01 -5.217516768973256003e-01 -1.367193906782808055e+00 -5.301833157030554355e-01 -1.459561999452446968e-01 7.820991392309922623e-04 -6.348932723371610021e-02 -7.523271498281758340e-01 4.028721053767427285e-01 5.220899533862869424e-01 7.565907165440544091e-01 -7.457690387724755232e-02 -7.933626177039017069e-01 -1.021600387529339460e-01 -9.389867846761549425e-04 -3.071440479777843777e-02 2.452494147914894007e-01 5.073069471515511131e-01 -6.267329868911912794e-01 -1.053530642197835765e-01 -3.265011572972364440e-01 -1.547922346000202953e+00 -1.165961247556265734e+00 8.001974495884715474e-03 -3.801608850423332520e-02 -9.155950313803699545e-03 7.665534309694845005e-02 -9.992809712455666404e-02 6.467275688594297245e-01 -5.492458284343346153e-02 3.946881957461182422e-01 -6.551653436065117964e-01 -5.563476684717804099e-01 -6.624509738701708783e-02 1.056879297930912297e-03 -3.990215535250053736e-02 5.931025944699135355e-01 9.647169839453251239e-01 -1.542997879062040500e-01 3.409122124109378871e-01 -1.507609705483824225e+00 -1.748773380703249058e+00 -3.785513001527166521e-01 -4.127446685620416722e-01 -4.083166502914608031e-01 -4.006036426500772518e-01 -1.337464302216303524e-01 -4.630648487979072137e-02 2.183125038702055098e-01 1.020486200995034953e-01 9.823210005277230872e-01 -1.810059283880752212e-01 -4.527509625821593553e-01 -8.551230468300682896e-02 3.066761122596465845e-03 1.524635114629878212e-02 3.583419226201803309e-01 7.511354023661999113e-01 8.712721289076911235e-01 -5.848011800007180128e-01 -1.801109344967194437e+00 -4.499744559961449397e-01 -1.954891547760689574e-01 -8.099102051268203262e-01 3.294628570929720168e-01 6.550223381172365356e-01 -5.998826777837447111e-01 6.864590197592905785e-01 -1.465321576025966355e-01 6.871581025500192452e-02 4.199627291323721617e-02 -3.385739607914891591e-01 -2.773181837204963252e-01 -5.925725898779311829e-02 -2.109094771946717212e-03 1.491330469721486880e-04 1.829962386874563196e-01 -4.298738593332511182e-01 1.862757094287093296e-01 -5.095660603590621562e-01 -7.233807514808259231e-01 -1.017890229529130997e+00 -1.189058855197781872e+00 3.056760751535267384e-01 9.840038773629841695e-02 9.801377397816650738e-01 2.401418292786219877e-01 -3.849794235168116918e-01 -5.327335419507093217e-01 1.673990790640465798e-01 -8.791828020475076499e-01 -4.541685380523164395e-01 -7.722823955690742703e-02 -3.132686994522655699e-02 -3.354338694558459816e-02 -3.640139802767372677e-03 4.960491236103609786e-02 -7.924220594991964184e-01 -1.977543133549177767e-01 1.689548126645390447e-01 -5.434510973720213522e-01 -7.169182296189540171e-01 -7.638961259640532075e-01 2.754420131027053298e-01 1.686268024183590897e-01 6.353178955633462799e-01 6.380658973234868414e-01 3.043414655960356985e-01 5.999241154101629669e-02 -5.103423003507762123e-02 -7.127665396045905766e-01 -3.193451083934276680e-01 -3.492750996052516876e-02 8.782798224065603175e-04 -8.075615069672182483e-03 4.281791756247745918e-04 1.131019333031239513e-02 -6.583004365443819728e-01 -5.939545315487588795e-01 9.188335252898062466e-02 -6.596264030150317259e-01 -1.357611433756482411e+00 -4.460836586666078185e-01 6.044127819193025886e-01 8.337903278640586002e-01 4.672761768188741227e-01 -3.461611306051632364e-01 -7.602742451342241470e-01 -3.493204135191280701e-01 -5.133125172722956542e-01 -4.424837082830887502e-01 -1.649110292084113305e-01 4.155885349605146703e-03 3.345566270190021086e-04 1.107369958578049594e-03 -2.551767387077470305e-06 5.676678415988157004e-04 -2.496554865145297745e-04 5.283757010123032311e-02 3.850661963448070990e-01 -1.320297284981254982e-01 -3.871242980220678254e-01 -1.078082796473213006e-01 -4.783698678987527986e-01 -8.914149863377131278e-02 6.114635849047581617e-01 7.802694967840026648e-03 -2.439854392067034305e-01 -1.456480726774981027e-01 -1.458026095222091090e-01 -3.748579072873467477e-02 -1.826562132056223919e-03 1.128884712517413264e-03 4.589178269207327455e-05 -4.690433858428357921e-06 0.000000000000000000e+00 -6.727770113133116152e-05 -1.532442551647593019e-03 -4.839450230770519904e-04 4.186143695874571247e-01 2.558540270872410316e-01 -9.529092286881478413e-02 1.074434827932003664e-02 -1.293276664932219502e-02 -7.137725802159007593e-02 -9.870394672833214533e-02 -1.135304727166550204e-01 -6.427864204892291822e-02 -1.162161924425892355e-02 -2.121102209725000617e-02 -6.502402617043024323e-03 2.724591722861395798e-04 -1.502953538393012533e-04 1.363038924270635657e-05 0.000000000000000000e+00
-1.902765970059745460e+00 0.000000000000000000e+00 0.000000000000000000e+00 -1.666491031825607653e-05 1.254556198943771871e-04 4.107275941422399096e-04 1.526778535801865018e-03 2.426677393654649850e-02 1.405217525049537756e-03 -8.526116552574897331e-04 -3.490724047251481978e-03 -1.291222100822116354e-03 2.528755274426545551e-04 5.594297793948556884e-04 -2.332821367750064021e-03 -9.430936073057288090e-04 1.305550131256745375e-04 2.990439721446393751e-06 2.828339393593232814e-07 -5.469177995302817867e-08 0.000000000000000000e+00 -1.713237445512760848e-09 -1.568917914408073104e-07 1.799175883206241295e-04 -1.178251830108353318e-03 -6.725318204552312683e-03 -6.336406587652304578e-02 5.766556846555905697e-02 1.173781359401329660e-01 6.473928137881219957e-02 3.613363167878902438e-02 4.240408102432030937e-03 -1.775620007492515265e-02 -3.014485842444487168e-02 2.337449620030801825e-02 1.952776331828380216e-02 4.792839710370668665e-03 7.626677487627732573e-03 5.261236206969572421e-03 -3.432622978344137014e-04 2.509491841065603318e-04 1.436037644080606709e-08 -9.921132821493106288e-07 -2.052574726814120000e-04 1.736036578986618678e-03 -4.728474432966423002e-03 1.593854202426573108e-01 1.330731094980018014e-01 1.105671927556913348e+00 1.594167551717571740e+00 1.046572581831963111e+00 4.860998019014139970e-01 5.109001959370756962e-01 1.992537567775241603e-01 -8.856619644985086470e-02 -1.385267619468583955e-01 -1.569637898884462812e-01 -1.293396808571895262e-01 -1.122566756143241196e-01 -1.539296613126165010e-02 -1.781472183312188002e-03 7.465743687886629642e-08 1.091823572099195002e-06 4.217877005266561577e-03 -2.943119546690674618e-02 -2.160754460701800883e-01 1.763570684732870264e-01 2.620084893289092304e-02 8.087221283715977371e-01 5.957509415518976725e-01 5.922940107625527251e-01 1.681739953686353928e-01 4.160521914403808030e-01 9.610772605147929193e-01 7.752406375643521030e-02 -6.528654898901068426e-01 -4.087968960086330594e-01 -2.930126291350478862e-01 -5.024534678799610216e-02 1.634339052373451895e-01 -9.163339076662030402e-03 -9.016086274212744111e-07 4.794733801653271784e-04 2.095707715493319231e-02 -2.618632868936581204e-01 -2.028667092945774242e-01 9.509424237413407477e-01 5.801660719952912437e-01 -2.191143191056569572e-01 -9.005517270629864734e-01 -4.626031764475143082e-01 1.276045383395304766e-01 1.897530064661508975e-01 3.213504739537982879e-01 -9.269895574271732608e-01 -1.236684970800262073e+00 -8.856233295818546347e-01 -3.139354568240682597e-01 3.773021196691316859e-01 2.454421652029436796e-01 -1.572485795010681309e-01 -2.459816536165728343e-05 1.633602688743348869e-03 -6.255417468051310478e-03 -2.229922783737862124e-01 1.730815196108523857e-01 5.943924814193505268e-01 7.217232481100550601e-01 2.638124738309070016e-01 4.222689113232588332e-01 -9.543740970805738577e-01 -3.843264685618421606e-01 -2.186149349222948346e-01 1.611688978958738805e-01 -1.396556121965754516e+00 -1.194107343146908695e+00 -6.002839612061401375e-01 -5.447338087624536279e-02 8.063366081449314660e-01 6.829719342182368758e-01 -6.402995882904106983e-02 3.441347534964716063e-04 -1.288199735302951844e-03 -4.337436226122261956e-02 -5.506964845532973107e-02 1.310613402476813738e-01 -2.608032088255706760e-01 6.937566459965232024e-01 1.433261651218931398e-01 1.045427579055741574e-01 -9.080284755471815794e-01 1.921046690227385390e-01 -2.596547551249226982e-01 -2.337293392959971516e-01 -1.299779891981663660e+00 -2.611474080982748580e-01 4.569078253908614995e-01 -4.548976056031803772e-01 2.658128670502486468e-01 5.629606055518403540e-01 -6.913844831774609845e-02 1.985383818997961045e-04 2.860957922527943269e-03 -1.008113251825922957e-01 -3.527659495739463025e-02 1.610185246146444982e-01 6.726775664242615194e-02 3.732085674878707349e-01 -2.778038982346854868e-01 -4.449474794820311718e-01 -4.090530220071843526e-01 -4.210927007599598038e-01 -7.600610109734692310e-01 -6.449688319396126301e-01 -7.043796683618991361e-01 -5.768380853817446641e-02 -3.575438226831686994e-01 -7.602730746700615549e-01 -3.611632798555219816e-03 6.059782177310679696e-01 -6.659430893287067443e-02 1.338693735086004394e-03 -9.573244928191599820e-03 -1.698733535869688394e-01 -2.194853090159447073e-01 -1.141197548301190884e-01 2.605264105679479525e-01 5.256555621204328510e-01 3.541312821836634095e-01 -2.549670484698837170e-01 -1.257359702885249009e+00 -9.498513124161253041e-01 -8.140519524138664087e-01 8.516508099650661745e-02 -1.295329877381038719e-01 1.788083657727714548e-01 2.300301565686273253e-01 -3.075622378317667271e-01 3.687095212339343009e-01 4.856961696502467563e-01 -1.803974355113130701e-01 3.428642395981407794e-03 -3.029253037023841438e-02 -2.557040896589239942e-01 -4.850249420123682875e-01 -2.166453946592176161e-01 3.606329527018782843e-01 -1.591209828220977729e-01 7.240400455055336915e-01 2.935178480426783310e-01 -1.699574698304846532e+00 -9.029387675506168609e-01 -8.302008468284574061e-01 -1.873539804261023789e-01 -1.159825456937595839e-01 -9.523022723411329882e-02 1.881715698454772823e-01 -1.753079563471444668e-01 -5.690888332970315266e-01 1.175522543572588563e-01 -3.805416730997845942e-02 -1.154896164090705741e-04 -3.446585163046333652e-03 -3.100533875663637473e-01 -2.953755106818429232e-01 -1.898496391283637230e-01 -3.052204454900143693e-01 6.311073841184328126e-01 2.114396655574116435e-01 2.310360127527699980e-01 -1.229699235871405394e+00 -6.025712314500589750e-01 -6.471534852589416742e-01 7.566121736925454089e-01 7.269070706519625835e-02 -5.520235037071788975e-01 -2.331085935303824075e-01 -4.714146195384229521e-01 9.383967287613370623e-01 3.882770691272577346e-02 -2.438561080875567555e-01 -4.924147981470733274e-04 1.366994156602819969e-03 -1.702982060061979663e-01 -1.016537066030082981e+00 1.016858648003318294e-01 -7.819523543942143162e-02 5.435323469652050266e-01 1.154628047712626282e+00 1.089455778298346278e+00 2.023064033715971655e-01 -7.886218250513804540e-03 -4.875080731950830470e-01 2.615305751286598479e-01 -6.477092125173083970e-01 -8.568749615693675714e-02 -2.779259343441453645e-01 -1.117324120519247628e-02 2.091048475417031927e-01 -7.220796272266070959e-02 9.184770621272113356e-02 9.049323311246870250e-04 -1.983310200448534354e-03 2.625467041156363465e-02 -1.844822832305106353e+00 -2.135529027841415184e-01 3.423149507627520349e-01 3.992673099543994075e-01 6.187430587649215274e-01 1.247642891171518054e+00 -2.398427494960908846e-01 3.805511242544131617e-02 7.075025493290572065e-01 -3.987927541147459065e-01 -6.027198673269887341e-02 -2.014463433124158709e-01 -4.716756111857611233e-01 -8.729821484786038921e-01 -3.354692582157557390e-01 4.598896159711468035e-01 2.511481614548405905e-01 8.919765820606295661e-04 -3.761902746744280254e-03 1.191978504715668005e-02 -1.266109335308475359e+00 -9.153601081768052428e-01 -4.587820984081254772e-02 1.807228863250912032e-01 4.543889940793096605e-01 1.054935520306560903e+00 -7.264995475599991259e-01 3.539356471478209698e-02 8.026328421566455429e-01 3.287114882657848902e-01 -3.493953098363563048e-01 -8.560060798218120937e-01 -9.068176290974443443e-01 -9.859238409146106052e-01 -6.161517036826070770e-01 4.885268494719865462e-01 2.537663048751707673e-01 1.811099045222296490e-04 3.170800964280846238e-03 2.443017915135241042e-03 -7.163063078001563611e-01 -7.939086908805528253e-01 1.073038716021619127e-01 1.886373630913594779e-01 4.579677726749076250e-01 2.856455344009898312e-01 -7.632802875384658847e-02 4.040780216483703113e-01 8.174253772621166148e-01 -8.355907543696201867e-02 -8.820161744516800129e-01 -6.089484740709246724e-01 -5.589413990034602930e-01 -8.728414690698860223e-01 -8.562618525417043935e-01 1.086384841520674216e-01 1.717593104549139937e-01 -6.768171404735081324e-06 1.955915706204064755e-03 1.759820445224430374e-02 -4.226261271769793382e-01 -2.816058837240014157e-01 5.541115726355701904e-02 2.032266529701302893e-01 5.584510049576547897e-02 1.950203236131297924e-01 7.109976438306052637e-01 3.392983542934424057e-01 3.960180553913587587e-01 -8.145188335420899817e-01 -5.139647040566026615e-01 -4.456828032900685965e-01 -1.646896442656702597e-01 -6.449329925244011719e-01 -3.649252846244877557e-01 1.423767549251245268e-01 5.637329967845673417e-01 7.851619237845065221e-07 7.607203735040775957e-04 1.266686595715329003e-02 -2.078543860302779489e-01 -2.598432242482651144e-01 -2.296692141897690720e-01 3.363652562103038868e-01 6.992585943410161153e-01 -6.151327396106537337e-02 -2.710253208106647160e-01 -2.851640567141499050e-01 1.602001495399096587e-01 -8.104951068054274677e-01 -8.124357183624068002e-01 -8.956499892169883514e-01 -9.556612213538856482e-01 -1.030285782243342885e+00 -5.495123913232086155e-01 -2.940668748027510659e-01 9.319542166537332639e-02 1.333001470124752942e-06 3.072220189363386697e-04 2.527387115491858127e-03 -4.240718118745834958e-02 -3.264662289732376821e-01 -6.124634340003949351e-01 -2.383874128435923556e-01 1.025233377803279611e-01 -4.130299297744882137e-01 -6.644791119673157942e-01 -1.181827808728087709e-01 -1.295002277587225525e-01 -2.784959784910095992e-01 3.455747513982718178e-01 -3.996896813191168352e-02 -1.112071176443961418e-01 -8.207528317895873560e-02 -3.553686486955268120e-02 -2.713892437419582887e-02 -2.670242665113467181e-02 -5.421566663305556349e-08 -4.887962400219330308e-06 5.821686360151665993e-05 4.799237901555428003e-03 -6.191197486311265930e-02 -2.963577813875457601e-01 -3.235569652630009840e-01 -1.177351070474450118e-01 -2.191265902047597608e-02 -1.236713753950172828e-02 2.307548059384197658e-01 1.161465960671888287e-02 -5.237700146409001584e-02 1.106644621849224238e-04 7.692467040615403109e-03 7.042818941330014973e-03 9.830053856036762364e-03 6.588990927601456014e-03 4.593970585249511351e-03 1.159825034398187602e-03 0.000000000000000000e+00 -4.946269350620945842e-07 2.605399150571785525e-06 9.141012091858807028e-04 -1.324511588394538045e-02 -2.942001684066026732e-02 -4.827575885805168721e-02 -7.400607167393072512e-03 -4.288895515680814056e-03 -6.546726835006596310e-04 -2.227155118618120641e-02 -6.343287623318902106e-03 -1.539269114562311471e-03 -9.577629789347036349e-03 -1.964934311240037427e-03 -2.331354835151340336e-03 -2.502513782573204202e-03 -5.078622676758529292e-04 6.387182843768571922e-05 0.000000000000000000e+00
-7.989580766460220751e+00 0.000000000000000000e+00 0.000000000000000000e+00 -4.604732809649974166e-06 4.139912095479349809e-05 8.020170561733306377e-05 4.901803509267959767e-04 -7.391899365328142256e-03 -5.525799860013295463e-03 9.581839974347304426e-04 8.381342236204825460e-05 1.536990677578824009e-05 4.346124724137908074e-06 3.515430871557889388e-05 4.574981626627916864e-04 1.806545170210637364e-03 1.253569769812254691e-03 -1.630545329229508465e-05 -2.293777283847407158e-06 -3.029485326261085085e-07 0.000000000000000000e+00 -5.828677406225607145e-09 -5.386697495032352787e-06 7.955205319662134297e-05 -1.639559415258348338e-04 -4.146041130433040503e-04 1.285249469075607290e-02 4.718746986629490138e-03 -2.252370048664170329e-02 -4.093941407231663915e-02 -2.040988842187561533e-02 6.762045657569751636e-03 1.867664620297289227e-03 -2.029031706884027592e-03 1.882438490298059697e-03 -4.027994828581554082e-03 7.847878135599646934e-03 1.736660139290019042e-02 7.881869720586744468e-03 4.910208687616444360e-04 3.409092419544632719e-04 2.107796980477573936e-08 -1.108916167666804315e-04 3.317104634968861968e-04 9.733265349899768507e-03 1.437629887054081741e-02 -8.755329012442786274e-02 -2.184723824168942341e-01 -1.817207979192966283e-01 -2.513063684589199667e-02 4.793893502148761226e-02 -4.174135616271994892e-02 2.030193041561585005e-02 -5.060071341794897259e-02 -2.849418360009898787e-01 -5.646948816267878257e-01 -4.224113772130012046e-01 -1.720935188348140521e-01 -8.579169327115489241e-02 -4.036802224768046223e-04 -4.095250384244322056e-03 5.118961909971858104e-07 1.560584707522818821e-03 -4.498906298237144614e-03 -1.251958732459786394e-01 -1.937845030415572822e-01 -7.268868616666580573e-01 -8.102308832265231464e-01 2.075127469527782431e-01 1.013934591923927542e+00 6.975784596535196114e-01 -6.011257139468945132e-01 -4.567559260910595831e-01 3.485057869697169575e-02 -8.498422787387933941e-02 -1.962842330088707468e-02 -7.206011531490418287e-01 -7.033186204226395954e-01 -4.519489502390158786e-01 -4.584928424062575253e-02 -1.522093195441005797e-02 4.199684316078968950e-06 3.503545740711135927e-03 -1.256260637422413305e-02 -2.995953393284176980e-01 -7.574588597147102753e-01 -1.094920352674751962e+00 -5.332879844247310347e-02 7.383102183465399815e-01 2.803711767285870238e-01 7.029542028364352269e-02 -1.165442449943260073e+00 -6.410772791711406571e-01 1.021553136920146446e-02 -7.143351162149560452e-01 2.990916197398904575e-01 3.845800520938194578e-01 -4.526672705636639038e-01 -3.873296850183647333e-01 -3.646646951858173447e-01 4.956106898383287954e-03 -8.631011450039822259e-05 -3.524878277109744391e-03 5.733066084189693268e-02 -3.284859473438450084e-01 -9.561978804946182908e-01 3.334626706347567082e-01 3.193285712603826654e-01 7.011212313997262635e-01 1.442272880101411886e-02 -4.464784753376684900e-01 -1.954548448269692318e-01 -8.854893043917270168e-01 1.689582559906670223e-01 -3.784144039252251290e-01 -6.106343141948901154e-01 8.873247807691723166e-01 -5.578667642085332057e-01 -2.480205480260893325e-01 -5.500927352513401702e-01 -1.958788729539738191e-02 3.261375787134796964e-04 -1.577293906366538170e-02 7.528346248977056676e-02 -2.902772001782724653e-01 -6.166736924429977451e-01 -5.564692477852153929e-02 9.602946651076642581e-01 3.616599978934783577e-01 4.797344761082397713e-02 1.871274716006835273e-02 -3.731046590503016014e-01 -1.120141288661844037e+00 5.891220168071656937e-01 8.528839341698116749e-01 2.333551535482544445e-02 -9.149455378376102066e-03 -6.380766713114562894e-01 1.913373023315159127e-01 -6.518925802338999542e-01 -1.019499337173912917e-01 3.306391613387700545e-03 -3.939932413519695031e-02 -6.988191378151325725e-03 -1.421817662994225018e-01 -2.038742764496636051e-01 -2.029404194482561929e-01 3.870048976590937939e-01 1.151260461844727079e+00 8.140750727596059166e-02 -5.286009688140596019e-01 -1.932016496795112004e-01 -1.269610060653519890e-01 1.510502329821915124e+00 4.445159111906197835e-01 2.686320844236883554e-01 -9.885770103833034783e-01 3.795758355901322489e-01 -1.380409430959526895e-01 -1.011002549178358745e+00 -1.311719462502559663e-01 2.067245237594635045e-03 -1.659052350629568531e-02 -3.428458460781966949e-02 2.120549110029731205e-02 6.115272734978150111e-03 -4.872399807943973427e-01 5.354759247396807531e-01 2.882319473976537871e-01 4.419029743343509953e-01 1.157481676551449068e+00 1.096485019228153890e+00 4.312541389355711297e-01 2.278315245694053082e-01 7.250583526496234832e-01 1.641295233619968486e-01 -9.739648936192816242e-01 1.155279593087694234e+00 -3.715438590854255319e-01 -8.839434100312264508e-01 -2.359419203588453973e-01 3.412748220742411933e-03 -4.582498940513352742e-02 -1.897898048614650723e-01 -3.468729819606451437e-01 1.138009436737021929e+00 -2.238778707144747637e-01 -1.584582561757466868e-01 8.493446726468778518e-01 1.379269475917133780e+00 1.107811169399412765e-01 2.688827310368044898e-01 1.049726633229475459e+00 4.426925545782749438e-01 1.133115870062340602e-01 -6.746840352539572594e-01 5.330762943986142588e-01 1.166574358137824508e+00 2.336609474807510856e-01 -8.632000484844981614e-01 -3.269795801169170790e-01 8.966286173513504307e-03 -9.134726766864102732e-02 -4.771879049025736230e-01 2.041290595386530682e-01 8.092311391756971117e-01 -5.222869648587716851e-01 -3.952589488116231009e-01 -1.151065070680740599e+00 1.200237554305421256e-01 7.457513129180542988e-01 1.631562473196963847e-01 2.305131534291120776e-01 1.972327382242377025e-01 -9.732647667350606824e-01 -8.556519199636334339e-01 2.521952504431576592e-01 -3.949882843038587943e-01 7.274384909437133784e-01 -7.437287114387463038e-01 -2.269411638503340267e-01 9.217216204792010037e-03 -1.161210818230021397e-01 -5.070419959479431915e-01 -2.561691805832906968e-03 2.580823607000418685e-01 2.541481376832660857e-02 -3.377989557433476175e-01 -3.612131630535115323e-01 -2.882471903087128751e-01 1.580936902482783735e+00 4.632321481007151687e-01 7.393228631946691110e-01 1.005020954141398748e-01 4.250841560263811103e-01 -6.862769828900717739e-01 -4.082281965481361352e-01 -4.983514705265145589e-02 1.091063759342052464e+00 -6.705156810903909470e-01 -7.192439530597627417e-02 1.144620665549130230e-02 -1.374762788606690156e-01 -8.606734635664137212e-01 1.366591349379636111e-01 9.061324642648430627e-01 -7.904116492063788524e-01 2.631370637276283508e-01 1.734057230690892459e-01 -5.998470746898516559e-01 -1.066176009741059971e+00 5.020617174288443119e-01 -9.445215432247313636e-01 -1.797313691756748100e-02 -6.803104196226018585e-01 -4.535899880196668787e-01 7.265881103167429744e-01 -1.563281870348948721e-01 4.909765397202252024e-01 -4.716009099629601131e-01 -3.566206980427721190e-02 1.416939225407366429e-02 -1.662404088458534490e-01 -3.758681457627447986e-01 3.796787371403972933e-01 -5.028368216257802503e-01 8.352077008953801007e-02 -2.973938597246275073e-01 9.315890954590486106e-02 8.781226802978128188e-01 -5.869278029729209090e-01 -6.465939775966778047e-01 -6.857788892165349592e-01 -7.916168519634794176e-01 -3.785772552133301327e-01 -1.771512251621145534e-02 1.330796807144683791e-01 3.739077721752768202e-01 6.466631347161290178e-01 -2.885758331511859356e-02 -3.088829649974476899e-02 6.219073413570612094e-03 -5.087482952819327719e-02 -6.753990362434902917e-01 -5.977160591358347125e-02 8.667608943286553291e-02 -1.342804679534176371e-01 3.051834881305721114e-01 7.478473199195736498e-01 8.418012037839016637e-01 2.560283153203164394e-02 -1.196819978774734006e+00 7.200279039428431060e-01 -3.738745026542268923e-01 -8.477620728777539583e-01 -1.719594398552957426e-01 -6.520256517948610497e-01 -1.835420975084229578e-01 4.783567113451988595e-01 -1.336957690209752414e-01 -4.896593937108374706e-02 3.312094993542043144e-04 -1.325401913444667484e-03 -3.244303790950733291e-01 3.222396783237408968e-01 1.897827241749510396e-01 -4.129200094997038661e-01 -1.906455159714177394e-01 6.908863260654141136e-01 8.172076413457109167e-03 7.192149201546659265e-01 -9.031854234411429427e-01 -4.362656245664143229e-01 -9.433951802929609054e-02 -4.593804901204161240e-02 5.349611130825874250e-01 7.445629297404299241e-02 4.953370708477906614e-01 2.834376445244802048e-02 -2.484740716471321720e-01 -3.882306102673143550e-02 3.899867940636153173e-03 -3.724583113261049211e-02 -1.665752619508969468e-01 -3.411502766084436034e-01 7.623371022308553235e-02 4.306170666012741344e-01 1.261220569807188996e+00 1.229053720164673180e+00 4.546773499229982973e-01 2.497446022342036664e-01 -2.207759530901917955e-01 -3.486935430857819318e-01 -5.210037778029769084e-01 2.364587012499061169e-01 3.604882035733162904e-01 1.393310544574344612e-01 6.103029315503457480e-02 -2.386456983490405637e-01 -1.159661654383007945e-01 7.897129973259904220e-03 3.489130795390359922e-03 -4.065009040094679643e-02 -2.815294338646416247e-02 -1.920779774932511452e-02 -2.090126719301289848e-01 -4.165732370039344490e-01 2.455548419145111294e-01 -4.253492419699837074e-02 6.617318307840953651e-01 -5.166033734576260805e-01 -9.152122115487087983e-02 3.343607539904391301e-01 2.057173909077729679e-01 -1.179661635681687470e-01 -2.028268504770347203e-01 -2.823907299177407793e-01 -1.621198270713016809e-01 -7.631185272857689099e-03 -2.949535145743971409e-02 8.606433670952149881e-03 -1.409113715626793262e-04 1.665039303338379040e-03 -7.022518700499812833e-03 1.072030766421266518e-01 -2.415519673244247156e-01 -7.329560312477984008e-01 -8.247080526418928415e-01 -4.399220093407118504e-01 -8.103245106700403266e-02 3.822043392206448537e-02 -1.737490504147201076e-01 -4.015418901403464691e-01 -3.225080202238655991e-01 -2.517393877103201172e-01 -2.966992093924141760e-01 -6.490786287411591526e-02 7.807083524592807813e-03 2.361310575160112824e-03 1.998707664684313840e-03 -6.165287250310790956e-04 0.000000000000000000e+00 -1.449786997277189229e-05 -2.227538602117164115e-03 2.243114873302038195e-02 1.057458225930707832e-02 9.752041184228817106e-02 1.278884500662260393e-01 -4.717739413314530911e-04 1.808501597974736599e-02 8.459080661101956930e-03 -2.847840624080609159e-02 -8.149782956964443659e-02 -8.914725615491921051e-02 -6.073068725325953682e-02 -2.512856434488959859e-02 -1.241087628404710826e-02 8.272346244458661513e-04 -9.037765185853243561e-05 7.052972040288522576e-06 0.000000000000000000e+00
